tree
version=v4
num_class=1
num_tree_per_iteration=1
label_index=0
max_feature_idx=56
objective=regression
feature_names=week_sin week_cos city_estimated_population city_area_m2 city_area_km2 city_pop_density n_barangays_reported city_area_weighted_rainfall_lag19 city_area_weighted_rainfall_lag20 city_area_weighted_rh_lag13 city_area_weighted_rh_lag14 city_area_weighted_temp_c_lag5 city_area_weighted_temp_c_lag4 city_area_weighted_u_component_of_wind_10m_lag1 city_area_weighted_u_component_of_wind_10m_lag20 city_area_weighted_v_component_of_wind_10m_lag1 city_area_weighted_v_component_of_wind_10m_lag2 city_area_weighted_wind_speed_10m_lag20 city_area_weighted_wind_speed_10m_lag4 city_area_weighted_pop_density_lag20 city_area_weighted_pop_density_lag19 city_area_weighted_rainfall_rollmean_lag1_w4 city_area_weighted_rainfall_rollmean_lag1_w8 city_area_weighted_rh_rollmean_lag1_w4 city_area_weighted_rh_rollmean_lag1_w8 city_area_weighted_temp_c_rollmean_lag1_w4 city_area_weighted_temp_c_rollmean_lag1_w8 city_area_weighted_u_component_of_wind_10m_rollmean_lag1_w4 city_area_weighted_u_component_of_wind_10m_rollmean_lag1_w8 city_area_weighted_v_component_of_wind_10m_rollmean_lag1_w4 city_area_weighted_v_component_of_wind_10m_rollmean_lag1_w8 city_area_weighted_wind_speed_10m_rollmean_lag1_w4 city_area_weighted_wind_speed_10m_rollmean_lag1_w8 city_area_weighted_pop_density_rollmean_lag1_w4 city_area_weighted_pop_density_rollmean_lag1_w8 city_area_weighted_flood_risk_index_rollmean_lag1_w4 city_area_weighted_flood_risk_index_rollmean_lag1_w8 city_area_weighted_percent_annual_crop_rollmean_lag1_w4 city_area_weighted_percent_annual_crop_rollmean_lag1_w8 city_area_weighted_percent_brush_shrubs_rollmean_lag1_w4 city_area_weighted_percent_brush_shrubs_rollmean_lag1_w8 city_area_weighted_percent_built_up_rollmean_lag1_w4 city_area_weighted_percent_built_up_rollmean_lag1_w8 city_area_weighted_percent_inland_water_rollmean_lag1_w4 city_area_weighted_percent_inland_water_rollmean_lag1_w8 city_area_weighted_percent_open_forest_rollmean_lag1_w4 city_area_weighted_percent_open_forest_rollmean_lag1_w8 city_area_weighted_percent_perennial_crop_rollmean_lag1_w4 city_area_weighted_percent_perennial_crop_rollmean_lag1_w8 city_area_weighted_percent_open_barren_rollmean_lag1_w4 city_area_weighted_percent_open_barren_rollmean_lag1_w8 city_area_weighted_percent_fishpond_rollmean_lag1_w4 city_area_weighted_percent_fishpond_rollmean_lag1_w8 city_area_weighted_percent_grassland_rollmean_lag1_w4 city_area_weighted_percent_grassland_rollmean_lag1_w8 city_area_weighted_percent_mangrove_forest_rollmean_lag1_w4 city_area_weighted_percent_mangrove_forest_rollmean_lag1_w8
feature_infos=[-1:1] [-1:1] [909262.48027323559:966103.18204309756] none none [3125.6331669833721:3321.0257918204848] none [0:403.77764092016611] [0:403.77764092016611] [74.166209495041301:89.224799485777211] [74.166209495041301:89.224799485777211] [24.178433964655767:28.356173140545412] [24.178433964655767:28.356173140545412] [-4.5717681780699149:4.5737076280135769] [-4.5717681780699149:4.4965446280041954] [-6.2680500182560719:5.1247667214851038] [-6.2680500182560719:5.1247667214851038] [1.39564484944224:6.8002328204854665] [1.39564484944224:6.8002328204854665] [3125.6331669833717:3316.3367677517003] [3125.6331669833717:3316.5449740813001] [0.06597045822318269:149.02606250490396] [0.34670367581884309:119.23124797939784] [75.920732847159741:87.36324422781334] [76.483294868292248:86.237507786239505] [24.524834464421016:28.067998122101869] [24.646253660584854:27.823998304699263] [-3.4486736035175789:3.6280013469861503] [-3.1133143420372855:3.131422920161175] [-4.48361272930451:3.4734894156434146] [-3.8559405516430854:3.0795858777581708] [1.7342058228275261:5.7925001460518359] [1.9506388693011207:5.3170040362056081] [3126.4705697467193:3320.3796386125532] [3128.1510842727353:3319.8799771083377] none none none none none none none none none none none none none none none none none none none none none none
tree_sizes=817 678 745 866 767 840 761 753 850 756 870 848 769 765 852 855 794 866 676 768 846 763 849 775 769 858 769 887 756

Tree=0
num_leaves=8
num_cat=0
split_feature=14 2 2 19 25 1 19
split_gain=33.9878 17.7649 15.6702 12.0195 6.03833 4.85073 1.01861
threshold=-1.6432276012707363 964709.22750790161 930649.87631964788 3269.5549622647081 25.813707426136457 -0.78574730703237872 3308.8425629542635
decision_type=2 2 2 2 2 2 2
left_child=1 2 -1 4 -2 -3 -5
right_child=3 5 -4 6 -6 -7 -8
leaf_value=0.59093824333225486 0.57183172179572583 0.60159389532962726 0.57955814817178475 0.56772343710552475 0.58298709955135919 0.58685816020833359 0.57244647076180355
leaf_weight=168.5 60 72 303.5 119.5 152.5 29.5 81
leaf_count=40 40 9 146 80 66 8 51
internal_value=0.581373 0.586097 0.583629 0.574822 0.579815 0.597422 0.569571
internal_weight=986.5 573.5 472 413 212.5 101.5 200.5
internal_count=440 203 186 237 106 17 131
is_linear=0
shrinkage=1


Tree=1
num_leaves=6
num_cat=0
split_feature=2 19 30 1 23
split_gain=29.1875 40.8794 14.4818 5.00316 3.96354
threshold=964533.35668022989 3269.5549622647081 -1.4047082756470519 -0.78574730703237872 84.827407571426434
decision_type=2 2 2 2 2
left_child=1 2 -1 -2 -3
right_child=3 4 -4 -5 -6
leaf_value=-0.0058896668639034028 0.019738229799270628 -0.01143806048353877 0.0059781103076652718 0.0034860496186480232 -0.0013405312989131514
leaf_weight=119 69 289 403.5 23.5 40.5
leaf_count=73 9 189 133 8 18
internal_value=-0.000203807 -0.00194934 0.00326626 0.0157068 -0.0102093
internal_weight=944.5 852 522.5 92.5 329.5
internal_count=430 413 206 17 207
is_linear=0
shrinkage=0.03


Tree=2
num_leaves=7
num_cat=0
split_feature=7 10 26 2 2 2
split_gain=32.0451 9.20839 8.06844 9.50112 5.68539 0.867718
threshold=8.3448225446294781 83.456404879985541 27.32977456966108 962468.45768148464 964709.22750790161 946854.33114247106
decision_type=2 2 2 2 2 2
left_child=1 4 3 -2 -1 -3
right_child=2 5 -4 -5 -6 -7
leaf_value=0.0064541368580980536 -0.0027860014956169483 -0.0013842850828170775 0.012578393568992614 -0.012192365660497379 0.015502858926509988 -0.0097867300727150653
leaf_weight=238 446 24 24 123 86 21
leaf_count=72 231 13 5 82 13 13
internal_value=0.000203153 0.00713479 -0.00411235 -0.00483982 0.00890088 -0.00546555
internal_weight=962 369 593 569 324 45
internal_count=429 111 318 313 85 26
is_linear=0
shrinkage=0.03


Tree=3
num_leaves=8
num_cat=0
split_feature=7 20 25 10 27 11 2
split_gain=28.6607 9.30349 10.873 7.94924 6.70753 5.08212 0.887518
threshold=8.3448225446294781 3269.5549622647081 27.446387918675928 83.300769738570722 -1.7489321528718358 27.785193396102901 954669.54912594671
decision_type=2 2 2 2 2 2 2
left_child=3 4 -3 5 -2 -1 -5
right_child=1 2 -4 6 -6 -7 -8
leaf_value=0.0069369921926717582 -0.0064610049049570505 -0.0089078331960144187 0.018200291378157478 -0.0012117165448301927 0.0029086432796833449 0.019485633329911663 -0.0095190961142865623
leaf_weight=289.5 103.5 294 12.999999999999998 28.5 200 32 19.5
leaf_count=82 66 181 2 15 78 4 12
internal_value=-3.53817e-05 -0.00402624 -0.0076997 0.00654746 -0.000292406 0.0082472 -0.00474259
internal_weight=980 610.5 307 369.5 303.5 321.5 48
internal_count=440 327 183 113 144 86 27
is_linear=0
shrinkage=0.03


Tree=4
num_leaves=7
num_cat=0
split_feature=10 19 30 19 2 2
split_gain=27.2905 16.4608 11.7499 8.30432 5.40963 5.69844
threshold=78.376768256563935 3267.7613587176597 -1.4047082756470519 3308.2871543289334 964709.22750790161 954131.83177647495
decision_type=2 2 2 2 2 2
left_child=4 2 -2 -3 5 -1
right_child=1 3 -4 -5 -6 -7
leaf_value=0.008323850184409733 -0.0066591807122241302 -0.012450000611472537 0.0043960116916784532 -0.0033142238866797481 0.016300231636487521 -0.0078082091339091043
leaf_weight=123.5 123.5 175 282.5 185.5 64 22.5
leaf_count=32 79 118 101 95 9 13
internal_value=-0.000490803 -0.0031187 0.00102138 -0.00777539 0.00906323 0.00579134
internal_weight=976.5 766.5 406 360.5 210 146
internal_count=447 393 180 213 54 45
is_linear=0
shrinkage=0.03


Tree=5
num_leaves=8
num_cat=0
split_feature=9 19 2 25 2 19 0
split_gain=28.2111 13.6527 7.34273 7.18266 6.91756 4.43719 1.15663
threshold=78.242467907425493 3185.4366870976887 964709.22750790161 26.961903340510535 924937.39279954985 3282.3401153058217 -0.12053668025532321
decision_type=2 2 2 2 2 2 2
left_child=2 4 5 -3 -2 -1 -4
right_child=1 3 6 -5 -6 -7 -8
leaf_value=0.0076648793980269364 -0.0024270077132164162 -0.006314000750643636 0.012446273653130781 0.0041904721416645028 0.0099705883144201087 -0.0074450900895254952 0.020803091491140971
leaf_weight=105.5 69.5 498 37 65.5 94.5 20 40
leaf_count=27 37 292 5 23 21 11 5
internal_value=-0.00010804 -0.00286813 0.00976584 -0.00508507 0.00472477 0.00520524 0.0170178
internal_weight=930 727.5 202.5 563.5 164 125.5 77
internal_count=421 373 48 315 58 38 10
is_linear=0
shrinkage=0.03


Tree=6
num_leaves=7
num_cat=0
split_feature=14 11 20 2 10 19
split_gain=24.6564 14.0345 9.88551 9.12704 5.18298 1.03523
threshold=-1.6432276012707363 27.785193396102901 3269.5549622647081 930649.87631964788 82.495573866518455 3308.8425629542635
decision_type=2 2 2 2 2 2
left_child=1 3 4 -1 -2 -4
right_child=2 -3 5 -5 -6 -7
leaf_value=0.0084461435672498041 0.0032034021949692935 0.019087682350323754 -0.012117489832289078 -0.00011360928313560849 -0.0064940799913423899 -0.0074027055865674282
leaf_weight=166 118 51 118 340 84 79.5
leaf_count=40 44 7 79 154 54 50
internal_value=0.000159409 0.00423714 -0.00551858 0.00270269 -0.00083395 -0.0102741
internal_weight=956.5 557 399.5 506 202 197.5
internal_count=428 201 227 194 98 129
is_linear=0
shrinkage=0.03


Tree=7
num_leaves=7
num_cat=0
split_feature=2 20 30 28 0 8
split_gain=26.8631 27.0585 11.602 5.13996 4.04975 0.403118
threshold=964533.35668022989 3269.5549622647081 -1.4047082756470519 -2.615659392369809 -0.61559370248597534 1.4321357085821602
decision_type=2 2 2 2 2 2
left_child=1 2 -1 -3 -2 -6
right_child=4 3 -4 -5 5 -7
leaf_value=-0.0055782962019244832 0.0039094703969408257 -0.0010170082545706205 0.0051862383887684924 -0.010038508233308357 0.013590370661333987 0.019308292252676825
leaf_weight=116 29.5 72.5 391 273 37 48
leaf_count=73 9 33 129 178 5 6
internal_value=0.000141346 -0.00169474 0.00271426 -0.00815816 0.013721 0.0170237
internal_weight=967 852.5 507 345.5 114.5 85
internal_count=433 413 202 211 20 11
is_linear=0
shrinkage=0.03


Tree=8
num_leaves=8
num_cat=0
split_feature=14 2 2 20 28 19 0
split_gain=25.7803 12.5539 13.5275 6.50297 4.88543 3.07267 2.89853
threshold=-1.9874898235043406 964533.35668022989 930649.87631964788 3269.5549622647081 -1.8276359304319554 3308.8425629542635 -0.61559370248597534
decision_type=2 2 2 2 2 2 2
left_child=1 2 -1 4 -2 -5 -3
right_child=3 6 -4 5 -6 -7 -8
leaf_value=0.008741838924506716 -0.0070969965245793847 0.0049308782945979724 -0.002471241845177679 -0.011331269499291195 0.0018301348536732089 -0.0040108004085133578 0.016609526162923771
leaf_weight=173.5 84 26.5 216.5 132.5 156 88 85
leaf_count=39 56 7 113 89 64 50 11
internal_value=0.000378894 0.00508154 0.0025229 -0.00473911 -0.00130462 -0.00844779 0.0139157
internal_weight=962 501.5 390 460.5 240 220.5 111.5
internal_count=429 170 152 259 120 139 18
is_linear=0
shrinkage=0.03


Tree=9
num_leaves=7
num_cat=0
split_feature=9 19 33 26 26 30
split_gain=19.5005 11.3793 7.75234 7.10849 4.75366 3.42333
threshold=78.242467907425493 3267.7613587176597 3314.7687935449712 26.264504391618718 27.412580934330375 0.72965674604310282
decision_type=2 2 2 2 2 2
left_child=4 3 -3 -2 5 -1
right_child=1 2 -4 -5 -6 -7
leaf_value=0.00027112762690071132 -0.0039647170958805426 -0.0080282385940958229 0.0055700797969691976 0.0043432626106231186 0.018538381576538084 0.0092856262878460039
leaf_weight=61 153.5 315 42 230.5 32 101
leaf_count=26 89 195 13 83 4 18
internal_value=-0.000344854 -0.00256468 -0.00641316 0.00101667 0.00809595 0.00592297
internal_weight=935 741 357 384 194 162
internal_count=428 380 208 172 48 44
is_linear=0
shrinkage=0.03


Tree=10
num_leaves=8
num_cat=0
split_feature=10 19 19 26 13 11 13
split_gain=20.5447 10.9291 7.60455 7.18184 6.29656 2.23482 1.60235
threshold=78.376768256563935 3267.7613587176597 3308.2871543289334 25.934841742745295 -0.85755493948904971 27.785193396102901 -1.9070057110408212
decision_type=2 2 2 2 2 2 2
left_child=4 3 -3 -2 6 -6 -1
right_child=1 2 -4 -5 5 -7 -8
leaf_value=0.0027915868997573845 -0.0069660221905390304 -0.010902244551622487 -0.0022095466753235082 0.0026944367002111435 0.0086013954747919397 0.018631219139099119 -0.010600873993124281
leaf_weight=14.000000000000002 88.5 187 177 305 143.5 24 16.5
leaf_count=5 59 126 89 119 32 3 11
internal_value=-0.000706055 -0.00295766 -0.00669704 0.000505801 0.00787206 0.0101494 -0.00451243
internal_weight=955.5 757.5 364 393.5 198 167.5 30.5
internal_count=444 393 215 178 51 35 16
is_linear=0
shrinkage=0.03


Tree=11
num_leaves=8
num_cat=0
split_feature=14 33 2 19 10 0 19
split_gain=23.3073 11.403 11.9251 6.95214 4.43899 2.76198 0.684709
threshold=-1.6432276012707363 3315.3377543638294 962389.48995699582 3269.5549622647081 82.495573866518455 -0.61559370248597534 3307.1492799521052
decision_type=2 2 2 2 2 2 2
left_child=1 2 -1 4 -2 -3 -5
right_child=3 5 -4 6 -6 -7 -8
leaf_value=0.0040831559447512865 0.0024678249357833111 0.0029386166592439019 -0.0098349965151865032 -0.01155368775008498 -0.0062439396929499262 0.015144652400697982 -0.0075946894618457231
leaf_weight=411 121 21.5 63 73 91.5 90 123
leaf_count=145 47 7 41 49 59 12 79
internal_value=0.000424521 0.00426019 0.00221331 -0.00506643 -0.00128801 0.0128514 -0.00912799
internal_weight=994 585.5 474 408.5 212.5 111.5 196
internal_count=439 205 186 234 106 19 128
is_linear=0
shrinkage=0.03


Tree=12
num_leaves=7
num_cat=0
split_feature=9 20 26 2 19 13
split_gain=21.8199 10.5551 6.60756 5.96964 5.65038 3.3123
threshold=78.242467907425493 3269.5549622647081 25.934841742745295 964709.22750790161 3308.5631296895158 -0.85755493948904971
decision_type=2 2 2 2 2 2
left_child=3 2 -2 5 -3 -1
right_child=1 4 -4 -5 -6 -7
leaf_value=-0.0038604086520416395 -0.0065868538802629608 -0.010066062065682418 0.0027680057548560306 0.015515749532882483 -0.0024458561410730028 0.0074398797036527272
leaf_weight=30.5 85.5 179.5 315.5 72 173 90
leaf_count=15 57 121 122 9 88 21
internal_value=-0.000262002 -0.00256818 0.000758236 0.00872391 -0.00634796 0.00455906
internal_weight=946 753.5 401 192.5 352.5 120.5
internal_count=433 388 179 45 209 36
is_linear=0
shrinkage=0.03


Tree=13
num_leaves=7
num_cat=0
split_feature=10 19 19 25 2 2
split_gain=17.8628 9.01741 7.32546 7.21325 3.44093 4.1862
threshold=78.376768256563935 3269.5549622647081 3308.2871543289334 25.931880021980344 964709.22750790161 954131.83177647495
decision_type=2 2 2 2 2 2
left_child=4 3 -3 -2 5 -1
right_child=1 2 -4 -5 -6 -7
leaf_value=0.0070660573157966134 -0.006421490308244098 -0.0100800677286015 -0.0017007166100045043 0.0030878722886915457 0.013291621360412009 -0.0067517182276128455
leaf_weight=124 93 176.5 201.5 302.5 64 22.5
leaf_count=31 61 119 99 114 9 13
internal_value=-0.000214732 -0.00232609 -0.00563353 0.000837451 0.00751086 0.00490232
internal_weight=984 773.5 378 395.5 210.5 146.5
internal_count=446 393 218 175 53 44
is_linear=0
shrinkage=0.03


Tree=14
num_leaves=8
num_cat=0
split_feature=14 33 2 19 10 1 19
split_gain=19.716 6.77653 10.4504 5.70016 4.14266 2.24297 0.425407
threshold=-1.6432276012707363 3315.3377543638294 962389.48995699582 3269.5549622647081 82.495573866518455 -0.91023613416931226 3309.0730132967387
decision_type=2 2 2 2 2 2 2
left_child=1 2 -1 4 -2 -3 -5
right_child=3 5 -4 6 -6 -7 -8
leaf_value=0.0039338535201824945 0.0020968989841174332 0.016425539714534108 -0.0094496263628902517 -0.0097610028308766483 -0.0063490441796344678 0.00666615358371179 -0.0064812157005887392
leaf_weight=396 119 40 59.5 130 91.5 50.5 67.5
leaf_count=139 47 5 39 87 59 11 43
internal_value=-5.23789e-05 0.00367147 0.00216547 -0.00503622 -0.00157995 0.0111285 -0.00868592
internal_weight=954 546 455.5 408 210.5 90.5 197.5
internal_count=430 194 178 236 106 16 130
is_linear=0
shrinkage=0.03


Tree=15
num_leaves=8
num_cat=0
split_feature=14 33 2 20 10 1 19
split_gain=17.3693 9.13724 8.79193 6.33177 4.58814 2.49732 0.449101
threshold=-1.6432276012707363 3315.3377543638294 962389.48995699582 3269.5549622647081 82.495573866518455 -0.85421994577343285 3307.1492799521052
decision_type=2 2 2 2 2 2 2
left_child=1 2 -1 4 -2 -3 -5
right_child=3 5 -4 6 -6 -7 -8
leaf_value=0.0033046233801690911 0.0027514853079429291 0.015091185731154222 -0.0088337717332066055 -0.010241273317747055 -0.0062048620542651308 0.0057842546237498208 -0.0070229588284067088
leaf_weight=399.5 126 64 61 77.5 85.5 47.5 123
leaf_count=146 48 8 40 52 55 11 80
internal_value=0.000176348 0.00355806 0.00167781 -0.00451227 -0.000874268 0.0112263 -0.00831904
internal_weight=984 572 460.5 412 211.5 111.5 200.5
internal_count=440 205 186 235 103 19 132
is_linear=0
shrinkage=0.03


Tree=16
num_leaves=7
num_cat=0
split_feature=7 26 2 10 17 28
split_gain=16.0679 8.23963 6.75047 5.60589 2.37591 0.530839
threshold=8.3448225446294781 27.412580934330375 962527.77608194284 83.300769738570722 2.9012518020756004 1.6834582681050201
decision_type=2 2 2 2 2 2
left_child=3 2 -2 4 -1 -5
right_child=1 -3 -4 5 -6 -7
leaf_value=-0.0052179488786335652 -0.0017900170750183826 0.013555384159088133 -0.0096352780840449747 -0.0055350312614813445 0.0072877907002477996 0.0011854121643921423
leaf_weight=13.499999999999998 491.5 26 123 39 299.5 13.499999999999998
leaf_count=8 254 4 82 24 71 5
internal_value=0.000195378 -0.00266619 -0.00337589 0.00520766 0.00672873 -0.00378902
internal_weight=1006 640.5 614.5 365.5 313 52.5
internal_count=448 340 336 108 79 29
is_linear=0
shrinkage=0.03


Tree=17
num_leaves=8
num_cat=0
split_feature=7 9 25 28 5 5 8
split_gain=14.8586 5.30811 4.36342 3.0112 2.82962 2.55779 2.07505
threshold=8.3448225446294781 82.198063680545616 26.362061459868492 -0.23085338899127605 3315.6294422217684 3309.2806491440188 1.9593875654641042
decision_type=2 2 2 2 2 2 2
left_child=2 4 3 -1 -2 -3 -4
right_child=1 5 6 -5 -6 -7 -8
leaf_value=-0.0082796895289924781 -0.00046044099636743832 -0.0039957458246833661 0.0085590926269565621 0.004941879626837644 0.013407668709754943 -0.010153837664972376 0.0033799911170084582
leaf_weight=34.5 242 284.5 158.5 26.5 12.999999999999998 78 129.5
leaf_count=22 111 168 33 8 2 52 43
internal_value=-0.000224684 -0.00302121 0.00471353 -0.00252463 0.000290313 -0.00534921 0.00625524
internal_weight=966.5 617.5 349 61 255 362.5 288
internal_count=439 333 106 30 113 220 76
is_linear=0
shrinkage=0.03


Tree=18
num_leaves=6
num_cat=0
split_feature=2 19 30 19 1
split_gain=15.241 16.4644 8.1157 3.54846 2.69427
threshold=964533.35668022989 3269.5549622647081 -1.4047082756470519 3307.8738952032654 -0.85421994577343285
decision_type=2 2 2 2 2
left_child=1 2 -1 -3 -2
right_child=4 3 -4 -5 -6
leaf_value=-0.0044004026288787523 0.013888801202382128 -0.0098614266084719304 0.0041454262322517914 -0.003668479606306195 0.0031393514522351324
leaf_weight=134 72 157 384.5 182.5 31
leaf_count=83 9 105 128 105 9
internal_value=-0.000115824 -0.00143046 0.00192975 -0.00655733 0.0107292
internal_weight=961 858 518.5 339.5 103
internal_count=439 421 211 210 18
is_linear=0
shrinkage=0.03


Tree=19
num_leaves=7
num_cat=0
split_feature=9 20 2 10 26 7
split_gain=15.9345 8.62887 5.97384 3.21656 2.94105 1.90152
threshold=78.242467907425493 3185.4366870976887 924937.39279954985 75.778917187133558 27.412580934330375 1.8188527514214077
decision_type=2 2 2 2 2 2
left_child=4 2 -2 -3 5 -1
right_child=1 3 -4 -5 -6 -7
leaf_value=0.0082534702206607403 -0.0026243895435084899 0.0095819187725291535 0.0084372343893072254 -0.0036597061453335689 0.014995503099953256 0.0016495709067121857
leaf_weight=112 71 15.999999999999998 112 578.5 40 62
leaf_count=19 38 3 23 323 5 22
internal_value=0.000464408 -0.00153109 0.00414648 -0.00328532 0.00769479 0.0059318
internal_weight=991.5 777.5 183 594.5 214 174
internal_count=433 387 61 326 46 41
is_linear=0
shrinkage=0.03


Tree=20
num_leaves=8
num_cat=0
split_feature=2 20 1 24 0 0 1
split_gain=12.5548 13.3744 6.42507 4.28371 2.41315 0.331005 0.230478
threshold=964533.35668022989 3269.5549622647081 -0.35460488704253562 84.174901277307157 -0.61559370248597534 -0.88545602565320969 -0.91023613416931226
decision_type=2 2 2 2 2 2 2
left_child=1 2 -1 -3 5 -2 -6
right_child=4 3 -4 -5 6 -7 -8
leaf_value=0.0048622076335352047 -0.0008703537596123558 -0.0080326816892076873 -0.0020884079885902908 0.0002080990045446239 0.013254509429542385 0.0047618251919746401 0.0089666633197239467
leaf_weight=252 16.5 260.5 226 72 48 19 34
leaf_count=80 7 171 118 35 6 4 5
internal_value=-0.000302988 -0.00163621 0.0015753 -0.00624844 0.00881696 0.00215083 0.0116241
internal_weight=928 810.5 478 332.5 117.5 35.5 82
internal_count=426 404 198 206 22 11 11
is_linear=0
shrinkage=0.03


Tree=21
num_leaves=7
num_cat=0
split_feature=10 26 2 2 11 13
split_gain=12.651 8.17139 5.63528 4.1223 2.43496 2.87473
threshold=78.242467907425493 26.61167515415487 957394.35248148954 962723.56565111678 27.785193396102901 -0.85755493948904971
decision_type=2 2 2 2 2 2
left_child=4 3 -3 -2 5 -1
right_child=1 2 -4 -5 -6 -7
leaf_value=-0.0033761660684096186 -0.0026045550570904003 0.0057742623998823335 -0.0037316216436299406 -0.0098564464877633484 0.014402872822501441 0.007121022229048893
leaf_weight=27.5 431.5 174.5 81.5 84 32 136
leaf_count=13 240 48 43 56 4 28
internal_value=9.59818e-05 -0.00163138 0.00273939 -0.00380594 0.00689391 0.00533653
internal_weight=967 771.5 256 515.5 195.5 163.5
internal_count=432 387 91 296 45 41
is_linear=0
shrinkage=0.03


Tree=22
num_leaves=8
num_cat=0
split_feature=14 9 19 24 28 26 19
split_gain=13.1186 6.44046 3.45986 3.2375 2.43042 2.39564 1.09147
threshold=-1.9070057110408212 78.783248597626411 3269.5549622647081 84.174901277307157 -0.82517680043012709 27.412580934330375 3308.8425629542635
decision_type=2 2 2 2 2 2 2
left_child=1 5 4 -3 -2 -1 -4
right_child=2 3 6 -5 -6 -7 -8
leaf_value=0.0055822799602965652 -0.0047330812577790803 -0.00045369662624793216 -0.0084948724835221447 0.010487830449950018 0.0015351599863945291 0.013984531681712081 -0.0040370544267111803
leaf_weight=138 105 296 133 25.5 116 40 86
leaf_count=32 66 136 89 5 48 5 52
internal_value=-0.000337743 0.00298498 -0.0041114 0.000439317 -0.00144411 0.00754638 -0.00677744
internal_weight=939.5 499.5 440 321.5 221 178 219
internal_count=433 178 255 141 114 37 141
is_linear=0
shrinkage=0.03


Tree=23
num_leaves=7
num_cat=0
split_feature=7 26 20 8 26 26
split_gain=12.1356 5.7819 3.987 2.73351 1.86434 1.59067
threshold=1.8188527514214077 27.412580934330375 3269.5549622647081 8.7870651430484692 27.004402163410763 26.509742429382744
decision_type=2 2 2 2 2 2
left_child=3 2 -2 5 -5 -1
right_child=1 -3 -4 4 -6 -7
leaf_value=0.0012080527062285436 -0.00048115903640666153 0.011449549939897323 -0.0051899875464216719 -0.004929078710168156 0.0072622635294409361 0.0082827673450376858
leaf_weight=35.5 342.5 26 307.5 32.5 15.999999999999998 168
leaf_count=13 166 4 188 18 3 32
internal_value=-5.60124e-05 -0.00215251 -0.00271565 0.00554828 -0.000811427 0.00706788
internal_weight=928 676 650 252 48.5 203.5
internal_count=424 358 354 66 21 45
is_linear=0
shrinkage=0.03


Tree=24
num_leaves=7
num_cat=0
split_feature=10 14 24 19 11 27
split_gain=9.37749 5.64102 6.38779 2.78048 2.58371 3.10163
threshold=78.376768256563935 -1.6432276012707363 84.174901277307157 3269.5549622647081 27.785193396102901 -0.86091022668562589
decision_type=2 2 2 2 2 2
left_child=4 2 -2 -3 5 -1
right_child=1 3 -4 -5 -6 -7
leaf_value=-0.0044607053956677838 -0.00066415528829288331 -0.0017028532961477375 0.011126059476952803 -0.0069749231113385582 0.013402468898079611 0.0061317610369892566
leaf_weight=30 318 177.5 46.5 185.5 32 126
leaf_count=15 145 93 9 122 4 29
internal_value=-0.000224143 -0.0017703 0.000862168 -0.00441286 0.00572875 0.00406976
internal_weight=915.5 727.5 364.5 363 188 156
internal_count=417 369 154 215 48 44
is_linear=0
shrinkage=0.03


Tree=25
num_leaves=8
num_cat=0
split_feature=14 20 2 33 28 20 33
split_gain=10.8867 5.13605 3.9533 6.67947 3.21854 2.62215 0.375472
threshold=-1.6432276012707363 3269.5549622647081 931074.43944353296 3315.3377543638294 -0.82517680043012709 3175.9429618147383 3309.3246081702441
decision_type=2 2 2 2 2 2 2
left_child=2 4 5 -4 -2 -1 -3
right_child=1 6 3 -5 -6 -7 -8
leaf_value=0.0030944012982280626 -0.0041756554013261428 -0.0056231651770941747 -0.00089754837027511056 0.0082506036335040656 0.0031969022933076669 0.010357097605640967 -0.0085194957172725246
leaf_weight=94 96.5 116.5 298 93.5 116.5 88 81
leaf_count=29 59 77 144 17 42 12 54
internal_value=0.000339852 -0.0033835 0.00300882 0.00129889 -0.000140142 0.00665164 -0.00685552
internal_weight=984 410.5 573.5 391.5 213 182 197.5
internal_count=434 232 202 161 101 41 131
is_linear=0
shrinkage=0.03


Tree=26
num_leaves=7
num_cat=0
split_feature=10 14 23 19 11 27
split_gain=10.2476 4.78654 5.73467 2.49107 2.19116 3.16097
threshold=78.376768256563935 -1.6432276012707363 83.759171320831157 3269.5549622647081 27.785193396102901 -0.86091022668562589
decision_type=2 2 2 2 2 2
left_child=4 2 -2 -3 5 -1
right_child=1 3 -4 -5 -6 -7
leaf_value=-0.004239584461542276 -0.0012452675514713764 -0.0016513025118130267 0.0079251288731251989 -0.006369463500508008 0.01277256137674505 0.0060839890625993933
leaf_weight=31.5 293.5 201 76.5 205 32 150
leaf_count=16 139 105 19 135 4 33
internal_value=-0.000197694 -0.00180142 0.000662982 -0.00404711 0.00560555 0.00427066
internal_weight=989.5 776 370 406 213.5 181.5
internal_count=451 398 158 240 53 49
is_linear=0
shrinkage=0.03


Tree=27
num_leaves=8
num_cat=0
split_feature=7 31 28 8 17 18 15
split_gain=9.08011 3.62563 4.16353 2.83179 2.10396 1.37238 1.11241
threshold=5.0617065957109189 3.2630546226056185 -1.6856197794136767 10.010328016491576 2.9476016420872519 2.851322565780698 -1.6194528504920871
decision_type=2 2 2 2 2 2 2
left_child=3 2 -2 4 -1 -5 -3
right_child=1 6 -4 5 -6 -7 -8
leaf_value=-0.0051624210029840474 0.0061770578591296308 -0.0056338546251428539 -0.0020632687410838723 -0.0089809062586111189 0.0061245141558200281 0.00091581785463795218 -0.0022036787135293707
leaf_weight=14.999999999999998 77 216.5 187.5 15.999999999999998 230.5 47.5 146
leaf_count=9 25 139 95 10 52 20 79
internal_value=-0.00024648 -0.00232153 0.000344197 0.00395312 0.00541065 -0.00165517 -0.00426631
internal_weight=936 627 264.5 309 245.5 63.5 362.5
internal_count=429 338 120 91 61 30 218
is_linear=0
shrinkage=0.03


Tree=28
num_leaves=7
num_cat=0
split_feature=26 9 11 2 2 9
split_gain=10.3374 5.53043 4.054 3.75418 3.0645 0.3305
threshold=26.651008663281818 77.72816304999634 27.785193396102901 957394.35248148954 962649.56400143402 77.080490555862255
decision_type=2 2 2 2 2 2
left_child=1 5 3 -2 -3 -1
right_child=2 4 -4 -5 -6 -7
leaf_value=0.0033528127398179926 0.0047792092799012302 -0.0024145693672669127 0.011657344992344195 -0.0023779954598797241 -0.0082041595610491732 0.0078813130855560302
leaf_weight=33.5 212 453 51 94.5 100.5 32
leaf_count=8 60 251 7 45 66 5
internal_value=-0.000156651 -0.00250271 0.00389695 0.00256707 -0.0034814 0.00567301
internal_weight=976.5 619 357.5 306.5 553.5 65.5
internal_count=442 330 112 105 317 13
is_linear=0
shrinkage=0.03


end of trees

feature_importances:
city_estimated_population=30
city_area_weighted_pop_density_lag20=26
city_area_weighted_rh_lag14=14
city_area_weighted_temp_c_rollmean_lag1_w8=13
city_area_weighted_pop_density_lag19=11
city_area_weighted_u_component_of_wind_10m_lag20=10
city_area_weighted_rh_lag13=8
week_cos=7
city_area_weighted_rainfall_lag19=7
city_area_weighted_temp_c_lag5=7
city_area_weighted_u_component_of_wind_10m_rollmean_lag1_w8=7
week_sin=6
city_area_weighted_pop_density_rollmean_lag1_w4=6
city_area_weighted_temp_c_rollmean_lag1_w4=5
city_area_weighted_v_component_of_wind_10m_rollmean_lag1_w8=5
city_area_weighted_rainfall_lag20=4
city_area_weighted_u_component_of_wind_10m_lag1=4
city_area_weighted_rh_rollmean_lag1_w8=3
city_area_weighted_u_component_of_wind_10m_rollmean_lag1_w4=3
city_pop_density=2
city_area_weighted_wind_speed_10m_lag20=2
city_area_weighted_rh_rollmean_lag1_w4=2
city_area_weighted_v_component_of_wind_10m_lag1=1
city_area_weighted_wind_speed_10m_lag4=1
city_area_weighted_wind_speed_10m_rollmean_lag1_w4=1

parameters:
[boosting: gbdt]
[objective: regression]
[metric: rmse]
[tree_learner: serial]
[device_type: cpu]
[data_sample_strategy: bagging]
[data: ]
[valid: ]
[num_iterations: 29]
[learning_rate: 0.03]
[num_leaves: 15]
[num_threads: 0]
[seed: 0]
[deterministic: 0]
[force_col_wise: 1]
[force_row_wise: 0]
[histogram_pool_size: -1]
[max_depth: 3]
[min_data_in_leaf: 5]
[min_sum_hessian_in_leaf: 0.001]
[bagging_fraction: 0.85]
[pos_bagging_fraction: 1]
[neg_bagging_fraction: 1]
[bagging_freq: 1]
[bagging_seed: 3]
[bagging_by_query: 0]
[feature_fraction: 0.85]
[feature_fraction_bynode: 1]
[feature_fraction_seed: 2]
[extra_trees: 0]
[extra_seed: 6]
[early_stopping_round: 0]
[early_stopping_min_delta: 0]
[first_metric_only: 0]
[max_delta_step: 0]
[lambda_l1: 0.05]
[lambda_l2: 1]
[linear_lambda: 0]
[min_gain_to_split: 0]
[drop_rate: 0.1]
[max_drop: 50]
[skip_drop: 0.5]
[xgboost_dart_mode: 0]
[uniform_drop: 0]
[drop_seed: 4]
[top_rate: 0.2]
[other_rate: 0.1]
[min_data_per_group: 100]
[max_cat_threshold: 32]
[cat_l2: 10]
[cat_smooth: 10]
[max_cat_to_onehot: 4]
[top_k: 20]
[monotone_constraints: ]
[monotone_constraints_method: basic]
[monotone_penalty: 0]
[feature_contri: ]
[forcedsplits_filename: ]
[refit_decay_rate: 0.9]
[cegb_tradeoff: 1]
[cegb_penalty_split: 0]
[cegb_penalty_feature_lazy: ]
[cegb_penalty_feature_coupled: ]
[path_smooth: 0]
[interaction_constraints: ]
[verbosity: -1]
[saved_feature_importance_type: 0]
[use_quantized_grad: 0]
[num_grad_quant_bins: 4]
[quant_train_renew_leaf: 0]
[stochastic_rounding: 1]
[linear_tree: 0]
[max_bin: 255]
[max_bin_by_feature: ]
[min_data_in_bin: 3]
[bin_construct_sample_cnt: 200000]
[data_random_seed: 1]
[is_enable_sparse: 1]
[enable_bundle: 1]
[use_missing: 1]
[zero_as_missing: 0]
[feature_pre_filter: 1]
[pre_partition: 0]
[two_round: 0]
[header: 0]
[label_column: ]
[weight_column: ]
[group_column: ]
[ignore_column: ]
[categorical_feature: ]
[forcedbins_filename: ]
[precise_float_parser: 0]
[parser_config_file: ]
[objective_seed: 5]
[num_class: 1]
[is_unbalance: 0]
[scale_pos_weight: 1]
[sigmoid: 1]
[boost_from_average: 1]
[reg_sqrt: 0]
[alpha: 0.9]
[fair_c: 1]
[poisson_max_delta_step: 0.7]
[tweedie_variance_power: 1.5]
[lambdarank_truncation_level: 30]
[lambdarank_norm: 1]
[label_gain: ]
[lambdarank_position_bias_regularization: 0]
[eval_at: ]
[multi_error_top_k: 1]
[auc_mu_weights: ]
[num_machines: 1]
[local_listen_port: 12400]
[time_out: 120]
[machine_list_filename: ]
[machines: ]
[gpu_platform_id: -1]
[gpu_device_id: -1]
[gpu_use_dp: 0]
[num_gpu: 1]

end of parameters
