tree
version=v4
num_class=1
num_tree_per_iteration=1
label_index=0
max_feature_idx=56
objective=regression
feature_names=week_sin week_cos city_estimated_population city_area_m2 city_area_km2 city_pop_density n_barangays_reported city_area_weighted_rainfall_lag18 city_area_weighted_rainfall_lag19 city_area_weighted_rh_lag12 city_area_weighted_rh_lag13 city_area_weighted_temp_c_lag4 city_area_weighted_temp_c_lag3 city_area_weighted_u_component_of_wind_10m_lag20 city_area_weighted_u_component_of_wind_10m_lag19 city_area_weighted_v_component_of_wind_10m_lag1 city_area_weighted_v_component_of_wind_10m_lag2 city_area_weighted_wind_speed_10m_lag19 city_area_weighted_wind_speed_10m_lag3 city_area_weighted_pop_density_lag20 city_area_weighted_pop_density_lag19 city_area_weighted_rainfall_rollmean_lag1_w4 city_area_weighted_rainfall_rollmean_lag1_w8 city_area_weighted_rh_rollmean_lag1_w4 city_area_weighted_rh_rollmean_lag1_w8 city_area_weighted_temp_c_rollmean_lag1_w4 city_area_weighted_temp_c_rollmean_lag1_w8 city_area_weighted_u_component_of_wind_10m_rollmean_lag1_w4 city_area_weighted_u_component_of_wind_10m_rollmean_lag1_w8 city_area_weighted_v_component_of_wind_10m_rollmean_lag1_w4 city_area_weighted_v_component_of_wind_10m_rollmean_lag1_w8 city_area_weighted_wind_speed_10m_rollmean_lag1_w4 city_area_weighted_wind_speed_10m_rollmean_lag1_w8 city_area_weighted_pop_density_rollmean_lag1_w4 city_area_weighted_pop_density_rollmean_lag1_w8 city_area_weighted_flood_risk_index_rollmean_lag1_w4 city_area_weighted_flood_risk_index_rollmean_lag1_w8 city_area_weighted_percent_annual_crop_rollmean_lag1_w4 city_area_weighted_percent_annual_crop_rollmean_lag1_w8 city_area_weighted_percent_brush_shrubs_rollmean_lag1_w4 city_area_weighted_percent_brush_shrubs_rollmean_lag1_w8 city_area_weighted_percent_built_up_rollmean_lag1_w4 city_area_weighted_percent_built_up_rollmean_lag1_w8 city_area_weighted_percent_inland_water_rollmean_lag1_w4 city_area_weighted_percent_inland_water_rollmean_lag1_w8 city_area_weighted_percent_open_forest_rollmean_lag1_w4 city_area_weighted_percent_open_forest_rollmean_lag1_w8 city_area_weighted_percent_perennial_crop_rollmean_lag1_w4 city_area_weighted_percent_perennial_crop_rollmean_lag1_w8 city_area_weighted_percent_open_barren_rollmean_lag1_w4 city_area_weighted_percent_open_barren_rollmean_lag1_w8 city_area_weighted_percent_fishpond_rollmean_lag1_w4 city_area_weighted_percent_fishpond_rollmean_lag1_w8 city_area_weighted_percent_grassland_rollmean_lag1_w4 city_area_weighted_percent_grassland_rollmean_lag1_w8 city_area_weighted_percent_mangrove_forest_rollmean_lag1_w4 city_area_weighted_percent_mangrove_forest_rollmean_lag1_w8
feature_infos=[-1:1] [-1:1] [909262.48027323559:966027.15123180719] none none [3125.6331669833721:3320.7644322783972] none [0:403.77764092016611] [0:403.77764092016611] [74.166209495041301:89.224799485777211] [74.166209495041301:89.224799485777211] [24.178433964655767:28.356173140545412] [24.178433964655767:28.356173140545412] [-4.5717681780699149:4.4965446280041954] [-4.5717681780699149:4.4965446280041954] [-6.2680500182560719:5.1247667214851038] [-6.2680500182560719:5.1247667214851038] [1.39564484944224:6.8002328204854665] [1.39564484944224:6.8002328204854665] [3125.6331669833717:3316.1312454175909] [3125.6331669833717:3316.3367677517003] [0.06597045822318269:149.02606250490396] [0.34670367581884309:119.23124797939784] [75.920732847159741:87.36324422781334] [76.483294868292248:86.237507786239505] [24.524834464421016:28.067998122101869] [24.646253660584854:27.823998304699263] [-3.4486736035175789:3.6280013469861503] [-3.1133143420372855:3.131422920161175] [-4.48361272930451:3.4734894156434146] [-3.8559405516430854:3.0795858777581708] [1.7342058228275261:5.7925001460518359] [1.9506388693011207:5.3170040362056081] [3126.4705697467193:3320.1255093562004] [3128.1510842727353:3319.6315590972181] none none none none none none none none none none none none none none none none none none none none none none
tree_sizes=806 661 767 776 759 847 840 771 763 760 868 772 854 760 848 858 765 756 857 836 858 847 763 842 851 872 858 675 851

Tree=0
num_leaves=8
num_cat=0
split_feature=13 2 2 19 25 19 19
split_gain=34.6422 15.568 15.8639 8.89795 5.52283 5.10374 3.30748
threshold=-1.8281255052910648 964649.82884617511 957210.8146354456 3267.7613587176597 25.803418926426243 3314.1792491689762 3308.8425629542635
decision_type=2 2 2 2 2 2 2
left_child=1 2 -1 4 -2 -3 -5
right_child=3 5 -4 6 -6 -7 -8
leaf_value=0.5883986189017657 0.5719556182688017 0.60173387924994581 0.57602345535307187 0.56842119257841839 0.58269453089534584 0.58692124758984299 0.57589824846102866
leaf_weight=288.5 57 72 136.5 132.5 166.5 31 94.5
leaf_count=94 38 9 72 89 75 9 53
internal_value=0.581762 0.586973 0.584416 0.57566 0.579931 0.597383 0.571488
internal_weight=978.5 528 425 450.5 223.5 103 227
internal_count=439 184 166 255 113 18 142
is_linear=0
shrinkage=1


Tree=1
num_leaves=6
num_cat=0
split_feature=2 19 25 28 26
split_gain=32.656 38.7279 13.9026 7.00938 4.62842
threshold=964476.27698393806 3267.7613587176597 25.936650065641739 -2.615659392369809 27.179797216682299
decision_type=2 2 2 2 2
left_child=1 2 -1 -3 -2
right_child=4 3 -4 -5 -6
leaf_value=-0.0073160197604652281 0.0061841745669803305 -0.00087398516909400028 0.0055788370419550563 -0.011815282441998705 0.020623376246861051
leaf_weight=90 30 66 434 270 69
leaf_count=58 8 29 146 179 9
internal_value=0.000139983 -0.00174328 0.0033515 -0.00967952 0.0163685
internal_weight=959 860 524 336 99
internal_count=429 412 204 208 17
is_linear=0
shrinkage=0.03


Tree=2
num_leaves=7
num_cat=0
split_feature=13 26 2 20 25 19
split_gain=28.5785 13.5845 10.9922 9.14711 5.87237 2.81515
threshold=-1.8281255052910648 27.48291290848454 930932.6717473747 3269.5549622647081 25.803418926426243 3308.8425629542635
decision_type=2 2 2 2 2 2
left_child=1 2 -1 4 -2 -5
right_child=3 -3 -4 5 -6 -7
leaf_value=0.0098044084648229758 -0.0094410625061050781 0.021464848541631928 0.00017266238793212026 -0.012998011415523867 0.0013700062389242701 -0.0057153413370251644
leaf_weight=160.5 60 40 315 123 173.5 83.5
leaf_count=38 40 5 138 83 76 48
internal_value=9.04272e-05 0.00488099 0.00344066 -0.00551709 -0.00143002 -0.0101022
internal_weight=955.5 515.5 475.5 440 233.5 206.5
internal_count=428 181 176 247 116 131
is_linear=0
shrinkage=0.03


Tree=3
num_leaves=7
num_cat=0
split_feature=2 19 26 19 1 0
split_gain=29.0215 32.2785 11.843 6.21487 5.37762 1.1762
threshold=964476.27698393806 3267.7613587176597 26.178193275759153 3308.0747282588918 -0.78574730703237872 -0.82298386589365657
decision_type=2 2 2 2 2 2
left_child=1 2 -1 -3 -2 -6
right_child=4 3 -4 -5 5 -7
leaf_value=-0.005021209439313481 0.019255269762587873 -0.012862596453760157 0.0054618080010597611 -0.0048098490897916313 -0.0018757133689419976 0.0089148716711997984
leaf_weight=127.5 72 175 394.5 174.5 13.499999999999998 24
leaf_count=76 9 118 130 96 6 5
internal_value=5.37963e-06 -0.00182754 0.00289373 -0.00887146 0.0144915 0.00504348
internal_weight=981 871.5 522 349.5 109.5 37.5
internal_count=440 420 206 214 20 11
is_linear=0
shrinkage=0.03


Tree=4
num_leaves=7
num_cat=0
split_feature=9 20 26 2 13 30
split_gain=28.8263 16.7235 8.5538 6.94927 4.91802 3.49783
threshold=78.242467907425493 3185.4366870976887 26.298785056475086 964649.82884617511 -1.6789027471561815 0.74537376241342612
decision_type=2 2 2 2 2 2
left_child=3 2 -2 5 -3 -1
right_child=1 4 -4 -5 -6 -7
leaf_value=0.0011724194014725619 -0.0049807396771816099 -0.0023051200685556975 0.009561180095753222 0.017808548024984504 -0.0077753692912814858 0.010686978998845511
leaf_weight=72 51 269 121 64 333.5 67.5
leaf_count=29 31 136 27 8 202 12
internal_value=-0.000344819 -0.00298811 0.00523679 0.00967335 -0.0053434 0.00583021
internal_weight=978 774.5 172 203.5 602.5 139.5
internal_count=445 396 58 49 338 41
is_linear=0
shrinkage=0.03


Tree=5
num_leaves=8
num_cat=0
split_feature=10 19 26 19 2 19 0
split_gain=25.2837 12.9486 9.71879 9.34584 5.35221 4.72499 1.16541
threshold=78.376768256563935 3267.7613587176597 25.949616700261849 3308.5631296895158 964649.82884617511 3264.1986429764215 -0.2393156642875576
decision_type=2 2 2 2 2 2 2
left_child=4 2 -2 -3 5 -1 -6
right_child=1 3 -4 -5 6 -7 -8
leaf_value=0.0081678977856795756 -0.0077393949260952683 -0.011563150169935128 0.0036773871522627296 -0.0017706099651297743 0.010887603987346995 -0.0071537710279226301 0.019462446142987505
leaf_weight=103.5 85.5 181.5 298 170.5 32 21 40
leaf_count=26 57 122 113 80 5 12 5
internal_value=-0.000138199 -0.00269566 0.00111465 -0.00684259 0.00939197 0.00553516 0.0158733
internal_weight=932 735.5 383.5 352 196.5 124.5 72
internal_count=420 372 170 202 48 38 10
is_linear=0
shrinkage=0.03


Tree=6
num_leaves=8
num_cat=0
split_feature=9 19 11 19 2 2 0
split_gain=25.3617 17.8331 8.91895 6.74145 6.43241 3.59781 1.08319
threshold=78.242467907425493 3267.7613587176597 26.255440178111126 3308.0747282588918 964649.82884617511 950261.76418680756 -0.12053668025532321
decision_type=2 2 2 2 2 2 2
left_child=4 2 -2 -3 5 -1 -6
right_child=1 3 -4 -5 6 -7 -8
leaf_value=0.0080575011638820467 -0.0035983742000791452 -0.01208297920964828 0.0054117198796399171 -0.0036158219429126641 0.011916868084355403 -0.0037558326584393857 0.019994100617199407
leaf_weight=97.5 162.5 152.5 249 193 37 29.5 40
leaf_count=24 92 103 83 101 5 14 5
internal_value=0.000164864 -0.00236558 0.00184993 -0.00738155 0.00952785 0.00529384 0.0163346
internal_weight=961 757 411.5 345.5 204 127 77
internal_count=427 379 175 204 48 38 10
is_linear=0
shrinkage=0.03


Tree=7
num_leaves=7
num_cat=0
split_feature=13 26 7 20 10 20
split_gain=24.8369 10.8215 7.65256 7.49738 5.44859 1.66144
threshold=-1.8281255052910648 27.48291290848454 1.9593875654641042 3269.5549622647081 82.495573866518455 3308.8425629542635
decision_type=2 2 2 2 2 2
left_child=1 2 -1 4 -2 -5
right_child=3 -3 -4 5 -6 -7
leaf_value=0.0075229755519334047 0.0029083101900485085 0.019309863951148056 -8.9722572662100024e-05 -0.011270081775328693 -0.0064129634508358424 -0.0059158165165920495
leaf_weight=209.5 126 40 272 126.5 100.5 98.5
leaf_count=52 49 5 122 85 63 58
internal_value=4.17628e-05 0.00449913 0.00322817 -0.00510192 -0.00123103 -0.00896929
internal_weight=973 521.5 481.5 451.5 226.5 225
internal_count=434 179 174 255 112 143
is_linear=0
shrinkage=0.03


Tree=8
num_leaves=7
num_cat=0
split_feature=14 26 19 20 10 2
split_gain=23.7748 8.9979 9.1642 8.58591 5.44334 0.63338
threshold=-1.6432276012707363 27.48291290848454 3189.6179557168102 3269.5549622647081 82.495573866518455 962673.65007213911
decision_type=2 2 2 2 2 2
left_child=1 2 -1 4 -2 -5
right_child=3 -3 -4 5 -6 -7
leaf_value=0.0086351772047411849 0.0029861770561269044 0.017735343584200227 0.00024031408381280166 -0.0081952799196000643 -0.0067446362525224682 -0.012003676592232938
leaf_weight=177 121.5 40 343 112 88.5 82.5
leaf_count=41 47 5 152 72 57 55
internal_value=0.000187123 0.00418873 0.00311177 -0.00534578 -0.00112009 -0.00987148
internal_weight=964.5 560 520 404.5 210 194.5
internal_count=429 198 193 231 104 127
is_linear=0
shrinkage=0.03


Tree=9
num_leaves=7
num_cat=0
split_feature=26 26 28 8 2 2
split_gain=24.2204 8.74327 8.16507 4.44567 4.26564 3.18703
threshold=26.695406289810069 27.412580934330375 0.93248203860284073 1.5884321912982378 962546.38938965206 962160.55295646098
decision_type=2 2 2 2 2 2
left_child=2 3 4 -2 -1 -4
right_child=1 -3 5 -5 -6 -7
leaf_value=-0.0033351142342862845 0.008907939631667772 0.017174331388165875 0.0052892228629424281 0.00096695409132771092 -0.0099607061400617414 -0.0075288798198467344
leaf_weight=391 115.5 61 117 141 113 19.5
leaf_count=213 25 8 39 57 71 12
internal_value=0.000278198 0.00704204 -0.0030781 0.00456925 -0.00484037 0.00340572
internal_weight=958 317.5 640.5 256.5 504 136.5
internal_count=425 90 335 82 284 51
is_linear=0
shrinkage=0.03


Tree=10
num_leaves=8
num_cat=0
split_feature=8 7 2 11 19 12 13
split_gain=22.1675 6.96173 5.51518 8.68714 7.5618 4.22917 2.02146
threshold=8.3448225446294781 7.2732636624928872 962546.38938965206 28.018932301505036 3308.5631296895158 27.772622438683737 -2.112830940356369
decision_type=2 2 2 2 2 2 2
left_child=1 6 4 -4 -2 -3 -1
right_child=2 5 3 -5 -6 -7 -8
leaf_value=0.0092906388702109002 -0.0035886730412847453 -0.0039791411026208487 -0.01118522336447904 0.019473238627115887 0.0072736271314491003 0.013872448784964424 0.0022249137752729914
leaf_weight=226 433 80 120 7.9999999999999991 65.5 12.999999999999998 45
leaf_count=49 236 42 79 1 21 2 17
internal_value=-0.000165624 0.00571158 -0.00358636 -0.00912134 -0.00214672 -0.00134677 0.00813537
internal_weight=990.5 364 626.5 128 498.5 93 271
internal_count=447 110 337 80 257 44 66
is_linear=0
shrinkage=0.03


Tree=11
num_leaves=7
num_cat=0
split_feature=14 26 20 8 30 19
split_gain=21.381 10.0804 8.93026 8.29109 4.97941 1.54061
threshold=-1.9070057110408212 27.48291290848454 3269.5549622647081 1.9593875654641042 -1.0638361026349885 3308.9569756888009
decision_type=2 2 2 2 2 2
left_child=1 3 4 -1 -2 -4
right_child=2 -3 5 -5 -6 -7
leaf_value=0.0078054778257314163 -0.0063604540014370325 0.017447409065402285 -0.010887668959824544 -0.00025795549023080699 0.0025064265620309166 -0.0055025129308924076
leaf_weight=196.5 85.5 48 131.5 273 166 83
leaf_count=46 56 6 88 124 65 50
internal_value=0.000290901 0.00448568 -0.00436388 0.00312306 -0.000515271 -0.00884607
internal_weight=983.5 517.5 466 469.5 251.5 214.5
internal_count=435 176 259 170 121 138
is_linear=0
shrinkage=0.03


Tree=12
num_leaves=8
num_cat=0
split_feature=13 2 2 19 28 1 26
split_gain=20.0296 9.29412 14.158 5.52643 3.86351 2.9752 1.55308
threshold=-1.8281255052910648 964476.27698393806 957210.8146354456 3269.5549622647081 -1.1679048445444467 -0.61559370248597534 25.311517226646583
decision_type=2 2 2 2 2 2 2
left_child=1 2 -1 4 -2 -3 -5
right_child=3 5 -4 6 -6 -7 -8
leaf_value=0.0053402232661923415 -0.0057548156709869222 0.013874465696104281 -0.0072260072327953338 -0.0033495790428906967 0.0020376346075995696 0.0012056387947787614 -0.0094620272770014596
leaf_weight=278 103.5 90 112.5 50.5 125.5 21 174.5
leaf_count=86 66 13 66 27 50 8 117
internal_value=-0.000226174 0.00390124 0.00170695 -0.00478727 -0.00148747 0.0115232 -0.00811765
internal_weight=955.5 501.5 390.5 454 229 111 225
internal_count=433 173 152 260 116 21 144
is_linear=0
shrinkage=0.03


Tree=13
num_leaves=7
num_cat=0
split_feature=33 19 25 28 0 17
split_gain=17.1872 21.7769 9.83897 7.02086 2.8355 0.0498773
threshold=3315.1454837865781 3267.7613587176597 26.044435192174404 -2.6270636149769495 -0.35460488704253573 4.4676999438794605
decision_type=2 2 2 2 2 2
left_child=1 2 -1 -3 -2 -6
right_child=4 3 -4 -5 5 -7
leaf_value=-0.005245955017493511 0.0030171564350581982 0.0019146434021897092 0.0046817007678369204 -0.0090382974045019084 0.012283457953589302 0.016268830497090409
leaf_weight=114 26.5 63.5 409.5 293.5 34 40
leaf_count=71 8 26 135 193 5 5
internal_value=-3.44357e-05 -0.001382 0.00251106 -0.00708599 0.0116543 0.0146459
internal_weight=981 880.5 523.5 357 100.5 74
internal_count=443 425 206 219 18 10
is_linear=0
shrinkage=0.03


Tree=14
num_leaves=8
num_cat=0
split_feature=8 9 10 14 26 19 12
split_gain=18.6468 5.39834 4.79481 3.5247 2.7744 1.85706 0.774421
threshold=8.3448225446294781 82.198063680545616 83.319098143221439 -2.0303673885404838 27.412580934330375 3267.7613587176597 26.652349868321412
decision_type=2 2 2 2 2 2 2
left_child=2 5 4 -3 -1 -2 -4
right_child=1 3 6 -5 -6 -7 -8
leaf_value=0.0061179763253935626 0.0025831020684983531 -0.00055452558274634862 -0.0071697722658878417 -0.0069985866490216266 0.015439138585870914 -0.0027852416929529337 0.00018648202069427655
leaf_weight=283 157 109 19.5 260 32 90.5 33.5
leaf_count=75 62 53 13 163 4 47 14
internal_value=0.000376055 -0.00281109 0.0057126 -0.00510575 0.0071155 0.000610787 -0.00257494
internal_weight=984.5 616.5 368 369 315 247.5 53
internal_count=431 325 106 216 79 109 27
is_linear=0
shrinkage=0.03


Tree=15
num_leaves=8
num_cat=0
split_feature=14 33 19 19 10 1 19
split_gain=17.537 8.86548 11.2593 7.81679 4.43142 2.33943 0.364917
threshold=-1.6432276012707363 3315.1454837865781 3270.7552430883611 3267.7613587176597 82.495573866518455 -0.78574730703237872 3307.1492799521052
decision_type=2 2 2 2 2 2 2
left_child=1 2 -1 4 -2 -3 -5
right_child=3 5 -4 6 -6 -7 -8
leaf_value=0.0050756991214655567 0.0031410291757653741 0.014418508529663086 -0.004828760014467158 -0.010435929477594461 -0.0055664801783235377 0.0049399736130295632 -0.0074633964134937546
leaf_weight=310.5 126.5 72 153.5 77.5 88.5 37.5 126
leaf_count=98 46 9 85 52 56 10 82
internal_value=0.000212977 0.00361928 0.00179255 -0.00444885 -0.000445457 0.0112601 -0.00864827
internal_weight=992 573.5 464 418.5 215 109.5 203.5
internal_count=438 202 183 236 102 19 134
is_linear=0
shrinkage=0.03


Tree=16
num_leaves=7
num_cat=0
split_feature=10 19 26 19 26 27
split_gain=17.2972 11.3501 6.74948 5.77764 3.67129 2.76505
threshold=78.376768256563935 3267.7613587176597 26.264504391618718 3308.5631296895158 27.412580934330375 -1.0094425004988785
decision_type=2 2 2 2 2 2
left_child=4 2 -2 -3 5 -1
right_child=1 3 -4 -5 -6 -7
leaf_value=-0.0015063921776781607 -0.0034204073286843747 -0.00926032561200767 0.0044304248941019466 -0.001694217141612523 0.015738427720418786 0.0075852969101512105
leaf_weight=37.5 158 197.5 258 169.5 40 141
leaf_count=17 92 133 86 83 5 32
internal_value=0.000137644 -0.00194503 0.00144397 -0.00578407 0.00758265 0.00566917
internal_weight=1001.5 783 416 367 218.5 178.5
internal_count=448 394 178 216 54 49
is_linear=0
shrinkage=0.03


Tree=17
num_leaves=7
num_cat=0
split_feature=33 19 30 28 0 17
split_gain=17.0808 21.1623 8.29268 3.25555 2.07932 0.168812
threshold=3315.1454837865781 3267.7613587176597 -1.4047082756470519 -2.615659392369809 -0.46472317204376817 4.1907232517407129
decision_type=2 2 2 2 2 2
left_child=1 2 -1 -3 -2 -6
right_child=4 3 -4 -5 5 -7
leaf_value=-0.00453805075879944 0.0038194757841649601 -0.00068762948684161524 0.0045756985558798747 -0.0082724729039691351 0.010531285653795514 0.014630167082736366
leaf_weight=113 29.5 63 423 279.5 34 56
leaf_count=69 8 30 135 183 5 7
internal_value=0.000377708 -0.0010724 0.00264666 -0.00688773 0.010971 0.0132309
internal_weight=998 878.5 536 342.5 119.5 90
internal_count=437 417 204 213 20 12
is_linear=0
shrinkage=0.03


Tree=18
num_leaves=8
num_cat=0
split_feature=14 2 2 20 27 1 19
split_gain=17.0697 7.85812 10.7438 5.09676 3.03571 1.64985 0.545183
threshold=-1.6432276012707363 964476.27698393806 962406.11340854643 3269.5549622647081 -1.5898215148974815 -0.78574730703237872 3307.1492799521052
decision_type=2 2 2 2 2 2 2
left_child=1 2 -1 4 -2 -3 -5
right_child=3 5 -4 6 -6 -7 -8
leaf_value=0.0035644654833514584 -0.0055615008821387488 0.01305779787668815 -0.0097083955537381143 -0.0099054960933080902 0.001829216434653983 0.0048889863313713545 -0.0064787426766724542
leaf_weight=403 82.5 77 62.5 77.5 123.5 34.5 129
leaf_count=142 54 10 42 52 49 9 83
internal_value=0.000159174 0.00348984 0.00176219 -0.00449327 -0.00113598 0.0106095 -0.00781358
internal_weight=989.5 577 465.5 412.5 206 111.5 206.5
internal_count=441 203 184 238 103 19 135
is_linear=0
shrinkage=0.03


Tree=19
num_leaves=8
num_cat=0
split_feature=9 20 2 25 2 2 0
split_gain=15.2579 9.34173 5.78834 3.95624 3.22238 1.45721 0.491479
threshold=78.242467907425493 3185.4366870976887 924806.60658906971 27.446387918675928 964649.82884617511 952886.50091004989 -0.12053668025532321
decision_type=2 2 2 2 2 2 2
left_child=4 2 -2 -3 5 -1 -6
right_child=1 3 -4 -5 6 -7 -8
leaf_value=0.0060055564026720819 -0.002448840426436315 -0.0039438974386426743 0.0084125310607482268 0.0099771893526378434 0.0087843798430342415 -0.0018093418283896012 0.014164106135465659
leaf_weight=99 71 564 113.5 18 37 26.5 48
leaf_count=25 37 316 24 3 5 12 6
internal_value=0.000335715 -0.00162908 0.00423406 -0.0034944 0.00747114 0.00434228 0.0119692
internal_weight=977 766.5 184.5 582 210.5 125.5 85
internal_count=428 380 61 319 48 37 11
is_linear=0
shrinkage=0.03


Tree=20
num_leaves=8
num_cat=0
split_feature=7 10 9 21 14 17 8
split_gain=14.5406 5.17795 3.88665 2.65028 2.63635 2.53364 0.582644
threshold=8.3448225446294781 83.300769738570722 82.198063680545616 18.928796960979081 -2.0303673885404838 2.9012518020756004 19.802766738037679
decision_type=2 2 2 2 2 2 2
left_child=1 5 3 -2 -4 -1 -3
right_child=2 6 4 -5 -6 -7 -8
leaf_value=-0.0049240352715764725 -0.0065718653667263859 -0.00043650988094508648 -0.0007061715673329094 0.0018308211575814232 -0.0063564380010872178 0.0068590806128747198 -0.0068972558110420197
leaf_weight=16.5 40 24 107.5 190.5 246.5 310.5 27
leaf_count=10 26 11 53 77 158 73 17
internal_value=0.000280451 0.00485989 -0.00268178 0.000344085 -0.00465166 0.00624675 -0.00395261
internal_weight=962.5 378 584.5 230.5 354 327 51
internal_count=425 111 314 103 211 83 28
is_linear=0
shrinkage=0.03


Tree=21
num_leaves=8
num_cat=0
split_feature=14 33 2 20 28 26 2
split_gain=12.8953 5.95188 8.36571 4.13056 3.0388 1.03684 0.661739
threshold=-1.6432276012707363 3315.1454837865781 930508.84833992214 3269.5549622647081 -1.1679048445444467 27.412580934330375 962673.65007213911
decision_type=2 2 2 2 2 2 2
left_child=1 2 -1 4 -2 -3 -5
right_child=3 5 -4 6 -6 -7 -8
leaf_value=0.0067178121217199276 -0.005628729285490585 0.0066954339199627811 -0.0017984908119236167 -0.0055818308272114221 0.001806120931025011 0.013487212448585324 -0.0091848495809059572
leaf_weight=165.5 81 51 274.5 120 123.5 40 88.5
leaf_count=39 54 10 139 77 49 5 59
internal_value=-0.000220603 0.0028678 0.00140937 -0.00419237 -0.0011445 0.00981129 -0.00715487
internal_weight=944 531 440 413 204.5 91 208.5
internal_count=432 193 178 239 103 15 136
is_linear=0
shrinkage=0.03


Tree=22
num_leaves=7
num_cat=0
split_feature=9 20 2 2 26 22
split_gain=12.1321 8.74064 5.29532 3.26681 2.36978 1.83166
threshold=78.006817126476804 3185.4366870976887 924806.60658906971 962406.11340854643 27.412580934330375 51.293562768509155
decision_type=2 2 2 2 2 2
left_child=4 2 -2 -3 5 -1
right_child=1 3 -4 -5 -6 -7
leaf_value=0.0005851635241631379 -0.0018739114259243817 -0.0014893644305086721 0.0083779755079682831 -0.0062639077625320696 0.013199179435262874 0.0081066149232479241
leaf_weight=47.5 73 436 116.5 183.5 48 77
leaf_count=18 37 224 24 111 6 13
internal_value=0.00035283 -0.00118803 0.00443172 -0.00291385 0.00755306 0.00527647
internal_weight=981.5 809 189.5 619.5 172.5 124.5
internal_count=433 396 61 335 37 31
is_linear=0
shrinkage=0.03


Tree=23
num_leaves=8
num_cat=0
split_feature=13 25 23 20 27 19 5
split_gain=10.8795 4.48722 4.08808 3.00692 2.28612 1.39545 0.682032
threshold=-1.9221424824009294 27.446387918675928 84.847213509521083 3269.5549622647081 -1.5898215148974815 3308.8425629542635 3316.0298208503896
decision_type=2 2 2 2 2 2 2
left_child=1 2 -1 4 -2 -5 -3
right_child=3 6 -4 5 -6 -7 -8
leaf_value=0.00075715099322761208 -0.0048194567382374067 0.0065559305828064678 0.011768398024819113 -0.0081058826687867222 0.0012386110612243977 -0.0029814536075113687 0.013331327178261495
leaf_weight=386 96 31 32 137 131.5 77.5 32
leaf_count=158 62 6 4 92 54 45 4
internal_value=-0.000346785 0.00277095 0.00162977 -0.0037416 -0.0013211 -0.00628379 0.0101754
internal_weight=923 481 418 442 227.5 214.5 63
internal_count=425 172 162 253 116 137 10
is_linear=0
shrinkage=0.03


Tree=24
num_leaves=8
num_cat=0
split_feature=14 2 2 19 27 1 2
split_gain=10.3375 5.30118 8.25559 4.46209 2.62067 1.28777 0.549665
threshold=-1.6432276012707363 964476.27698393806 962381.13617024536 3269.5549622647081 -1.5640248682910711 -0.78574730703237872 962673.65007213911
decision_type=2 2 2 2 2 2 2
left_child=1 2 -1 4 -2 -3 -5
right_child=3 5 -4 6 -6 -7 -8
leaf_value=0.0030881644637258941 -0.0049255959180077441 0.011731499356489915 -0.0090926387359266687 -0.0051773823116531715 0.0020775392852531143 0.0040289489480783234 -0.0085994996352691862
leaf_weight=386 73.5 64 56.5 106 134.5 31 85.5
leaf_count=136 48 8 38 68 52 8 57
internal_value=0.00019081 0.00290672 0.0015125 -0.00345765 -0.000401676 0.00930181 -0.0067498
internal_weight=937 537.5 442.5 399.5 208 95 191.5
internal_count=415 190 174 225 100 16 125
is_linear=0
shrinkage=0.03


Tree=25
num_leaves=8
num_cat=0
split_feature=7 25 9 2 20 12 17
split_gain=9.86683 3.25481 3.11062 3.06456 7.13381 4.47315 1.76458
threshold=8.3448225446294781 26.366436515335721 79.979392290202313 962546.38938965206 3308.769725573869 27.867797068233738 2.9012518020756004
decision_type=2 2 2 2 2 2 2
left_child=1 2 -1 4 -2 -5 -3
right_child=3 6 -4 5 -6 -7 -8
leaf_value=0.0062364757524596319 -0.0024195275744615962 -0.0047375035532589626 -0.0067504832249048134 -0.0082120736900878986 0.0085733517589401606 0.0097938873767852777 0.0060489836179415928
leaf_weight=26 434 13.499999999999998 42 114 59.5 12.999999999999998 272
leaf_count=5 231 8 27 76 19 2 65
internal_value=0.000121243 0.00411648 -0.00174472 -0.0021554 -0.00107645 -0.00629511 0.00551895
internal_weight=974 353.5 68 620.5 493.5 127 285.5
internal_count=433 105 32 328 250 78 73
is_linear=0
shrinkage=0.03


Tree=26
num_leaves=8
num_cat=0
split_feature=2 19 30 28 0 11 0
split_gain=10.7737 11.5648 5.79463 4.83063 1.71159 0.273401 0.225137
threshold=964476.27698393806 3267.7613587176597 -1.4047082756470519 -2.615659392369809 -0.46472317204376817 27.785193396102901 -0.82298386589365657
decision_type=2 2 2 2 2 2 2
left_child=1 2 -1 -3 6 -6 -2
right_child=4 3 -4 -5 5 -7 -8
leaf_value=-0.0039864871605084489 -0.00023267860896885394 0.0017602445396780967 0.0035864255847557923 -0.0067839822512979686 0.0082386489614196447 0.012266456321794159 0.004525254848599434
leaf_weight=116 14.999999999999998 74 406.5 291.5 45 48 19
leaf_count=72 6 32 134 189 7 6 4
internal_value=0.000207745 -0.000962595 0.0018979 -0.00504992 0.00834622 0.0104419 0.00243664
internal_weight=1015 888 522.5 365.5 127 93 34
internal_count=450 427 206 221 23 13 10
is_linear=0
shrinkage=0.03


Tree=27
num_leaves=6
num_cat=0
split_feature=2 20 26 28 1
split_gain=9.39046 11.2715 6.02239 3.85089 1.32334
threshold=964476.27698393806 3267.7613587176597 26.204864770511865 -2.615659392369809 -0.78574730703237872
decision_type=2 2 2 2 2
left_child=1 2 -1 -3 -2
right_child=4 3 -4 -5 -6
leaf_value=-0.0036341007617991311 0.010737560200364621 0.0011272639681170456 0.0037273084796718417 -0.0068389334676865433 0.0031285338998422959
leaf_weight=135 72 67.5 376.5 273 31
leaf_count=82 9 30 120 178 9
internal_value=1.70088e-06 -0.00103438 0.00177819 -0.00525666 0.00851399
internal_weight=955 852 511.5 340.5 103
internal_count=428 410 202 208 18
is_linear=0
shrinkage=0.03


Tree=28
num_leaves=8
num_cat=0
split_feature=13 11 24 2 28 26 25
split_gain=9.68859 4.43131 3.6012 3.37068 2.43439 1.8378 0.0185675
threshold=-1.8281255052910648 26.699132880369671 84.174901277307157 962673.65007213911 0.95337381480386008 27.412580934330375 26.588150829251187
decision_type=2 2 2 2 2 2 2
left_child=1 2 -1 4 -2 -3 -5
right_child=3 5 -4 6 -6 -7 -8
leaf_value=-0.0010692731358571239 -0.0027369942902031167 0.004544740096085409 0.010180986884082184 -0.0081650934845778587 0.002927208667959679 0.010806846227910782 -0.0055256340367453435
leaf_weight=217.5 302.5 222 28 77.5 87 53 16.5
leaf_count=99 173 60 7 52 31 7 11
internal_value=0.000344694 0.00318343 0.000243864 -0.00270845 -0.00146372 0.00579184 -0.00778062
internal_weight=1004 520.5 245.5 483.5 389.5 275 94
internal_count=440 173 106 267 204 67 63
is_linear=0
shrinkage=0.03


end of trees

feature_importances:
city_estimated_population=31
city_area_weighted_pop_density_lag20=28
city_area_weighted_temp_c_rollmean_lag1_w8=18
city_area_weighted_pop_density_lag19=13
city_area_weighted_u_component_of_wind_10m_rollmean_lag1_w8=9
week_sin=8
city_area_weighted_u_component_of_wind_10m_lag20=8
city_area_weighted_u_component_of_wind_10m_lag19=8
city_area_weighted_temp_c_rollmean_lag1_w4=8
city_area_weighted_rh_lag12=7
city_area_weighted_rh_lag13=7
week_cos=6
city_area_weighted_rainfall_lag19=5
city_area_weighted_rainfall_lag18=4
city_area_weighted_temp_c_lag4=4
city_area_weighted_wind_speed_10m_lag19=4
city_area_weighted_u_component_of_wind_10m_rollmean_lag1_w4=4
city_area_weighted_v_component_of_wind_10m_rollmean_lag1_w8=4
city_area_weighted_pop_density_rollmean_lag1_w4=4
city_area_weighted_temp_c_lag3=3
city_pop_density=1
city_area_weighted_rainfall_rollmean_lag1_w4=1
city_area_weighted_rainfall_rollmean_lag1_w8=1
city_area_weighted_rh_rollmean_lag1_w4=1
city_area_weighted_rh_rollmean_lag1_w8=1

parameters:
[boosting: gbdt]
[objective: regression]
[metric: rmse]
[tree_learner: serial]
[device_type: cpu]
[data_sample_strategy: bagging]
[data: ]
[valid: ]
[num_iterations: 29]
[learning_rate: 0.03]
[num_leaves: 15]
[num_threads: 0]
[seed: 0]
[deterministic: 0]
[force_col_wise: 1]
[force_row_wise: 0]
[histogram_pool_size: -1]
[max_depth: 3]
[min_data_in_leaf: 5]
[min_sum_hessian_in_leaf: 0.001]
[bagging_fraction: 0.85]
[pos_bagging_fraction: 1]
[neg_bagging_fraction: 1]
[bagging_freq: 1]
[bagging_seed: 3]
[bagging_by_query: 0]
[feature_fraction: 0.85]
[feature_fraction_bynode: 1]
[feature_fraction_seed: 2]
[extra_trees: 0]
[extra_seed: 6]
[early_stopping_round: 0]
[early_stopping_min_delta: 0]
[first_metric_only: 0]
[max_delta_step: 0]
[lambda_l1: 0.05]
[lambda_l2: 1]
[linear_lambda: 0]
[min_gain_to_split: 0]
[drop_rate: 0.1]
[max_drop: 50]
[skip_drop: 0.5]
[xgboost_dart_mode: 0]
[uniform_drop: 0]
[drop_seed: 4]
[top_rate: 0.2]
[other_rate: 0.1]
[min_data_per_group: 100]
[max_cat_threshold: 32]
[cat_l2: 10]
[cat_smooth: 10]
[max_cat_to_onehot: 4]
[top_k: 20]
[monotone_constraints: ]
[monotone_constraints_method: basic]
[monotone_penalty: 0]
[feature_contri: ]
[forcedsplits_filename: ]
[refit_decay_rate: 0.9]
[cegb_tradeoff: 1]
[cegb_penalty_split: 0]
[cegb_penalty_feature_lazy: ]
[cegb_penalty_feature_coupled: ]
[path_smooth: 0]
[interaction_constraints: ]
[verbosity: -1]
[saved_feature_importance_type: 0]
[use_quantized_grad: 0]
[num_grad_quant_bins: 4]
[quant_train_renew_leaf: 0]
[stochastic_rounding: 1]
[linear_tree: 0]
[max_bin: 255]
[max_bin_by_feature: ]
[min_data_in_bin: 3]
[bin_construct_sample_cnt: 200000]
[data_random_seed: 1]
[is_enable_sparse: 1]
[enable_bundle: 1]
[use_missing: 1]
[zero_as_missing: 0]
[feature_pre_filter: 1]
[pre_partition: 0]
[two_round: 0]
[header: 0]
[label_column: ]
[weight_column: ]
[group_column: ]
[ignore_column: ]
[categorical_feature: ]
[forcedbins_filename: ]
[precise_float_parser: 0]
[parser_config_file: ]
[objective_seed: 5]
[num_class: 1]
[is_unbalance: 0]
[scale_pos_weight: 1]
[sigmoid: 1]
[boost_from_average: 1]
[reg_sqrt: 0]
[alpha: 0.9]
[fair_c: 1]
[poisson_max_delta_step: 0.7]
[tweedie_variance_power: 1.5]
[lambdarank_truncation_level: 30]
[lambdarank_norm: 1]
[label_gain: ]
[lambdarank_position_bias_regularization: 0]
[eval_at: ]
[multi_error_top_k: 1]
[auc_mu_weights: ]
[num_machines: 1]
[local_listen_port: 12400]
[time_out: 120]
[machine_list_filename: ]
[machines: ]
[gpu_platform_id: -1]
[gpu_device_id: -1]
[gpu_use_dp: 0]
[num_gpu: 1]

end of parameters
