tree
version=v4
num_class=1
num_tree_per_iteration=1
label_index=0
max_feature_idx=56
objective=regression
feature_names=week_sin week_cos city_estimated_population city_area_m2 city_area_km2 city_pop_density n_barangays_reported city_area_weighted_rainfall_lag20 city_area_weighted_rainfall_lag19 city_area_weighted_rh_lag20 city_area_weighted_rh_lag19 city_area_weighted_temp_c_lag14 city_area_weighted_temp_c_lag13 city_area_weighted_u_component_of_wind_10m_lag5 city_area_weighted_u_component_of_wind_10m_lag4 city_area_weighted_v_component_of_wind_10m_lag8 city_area_weighted_v_component_of_wind_10m_lag7 city_area_weighted_wind_speed_10m_lag13 city_area_weighted_wind_speed_10m_lag14 city_area_weighted_pop_density_lag20 city_area_weighted_pop_density_lag19 city_area_weighted_rainfall_rollmean_lag1_w4 city_area_weighted_rainfall_rollmean_lag1_w8 city_area_weighted_rh_rollmean_lag1_w4 city_area_weighted_rh_rollmean_lag1_w8 city_area_weighted_temp_c_rollmean_lag1_w4 city_area_weighted_temp_c_rollmean_lag1_w8 city_area_weighted_u_component_of_wind_10m_rollmean_lag1_w4 city_area_weighted_u_component_of_wind_10m_rollmean_lag1_w8 city_area_weighted_v_component_of_wind_10m_rollmean_lag1_w4 city_area_weighted_v_component_of_wind_10m_rollmean_lag1_w8 city_area_weighted_wind_speed_10m_rollmean_lag1_w4 city_area_weighted_wind_speed_10m_rollmean_lag1_w8 city_area_weighted_pop_density_rollmean_lag1_w4 city_area_weighted_pop_density_rollmean_lag1_w8 city_area_weighted_flood_risk_index_rollmean_lag1_w4 city_area_weighted_flood_risk_index_rollmean_lag1_w8 city_area_weighted_percent_annual_crop_rollmean_lag1_w4 city_area_weighted_percent_annual_crop_rollmean_lag1_w8 city_area_weighted_percent_brush_shrubs_rollmean_lag1_w4 city_area_weighted_percent_brush_shrubs_rollmean_lag1_w8 city_area_weighted_percent_built_up_rollmean_lag1_w4 city_area_weighted_percent_built_up_rollmean_lag1_w8 city_area_weighted_percent_inland_water_rollmean_lag1_w4 city_area_weighted_percent_inland_water_rollmean_lag1_w8 city_area_weighted_percent_open_forest_rollmean_lag1_w4 city_area_weighted_percent_open_forest_rollmean_lag1_w8 city_area_weighted_percent_perennial_crop_rollmean_lag1_w4 city_area_weighted_percent_perennial_crop_rollmean_lag1_w8 city_area_weighted_percent_open_barren_rollmean_lag1_w4 city_area_weighted_percent_open_barren_rollmean_lag1_w8 city_area_weighted_percent_fishpond_rollmean_lag1_w4 city_area_weighted_percent_fishpond_rollmean_lag1_w8 city_area_weighted_percent_grassland_rollmean_lag1_w4 city_area_weighted_percent_grassland_rollmean_lag1_w8 city_area_weighted_percent_mangrove_forest_rollmean_lag1_w4 city_area_weighted_percent_mangrove_forest_rollmean_lag1_w8
feature_infos=[-1:1] [-1:1] [909262.48027323559:966826.08647926059] none none [3125.6331669833721:3323.5108103176208] none [0:403.77764092016611] [0:403.77764092016611] [74.166209495041301:89.224799485777211] [74.166209495041301:89.224799485777211] [24.178433964655767:28.356173140545412] [24.178433964655767:28.356173140545412] [-4.5717681780699149:5.3108736337661018] [-4.5717681780699149:5.3108736337661018] [-6.2680500182560719:5.1247667214851038] [-6.2680500182560719:5.1247667214851038] [1.39564484944224:6.8002328204854665] [1.39564484944224:6.8002328204854665] [3125.6331669833717:3318.3085698195596] [3125.6331669833717:3318.541430856721] [0.06597045822318269:149.02606250490396] [0.34670367581884309:119.23124797939784] [75.920732847159741:87.36324422781334] [76.483294868292248:86.237507786239505] [24.524834464421016:28.067998122101869] [24.646253660584854:27.823998304699263] [-3.4486736035175789:3.6280013469861503] [-3.1133143420372855:3.131422920161175] [-4.48361272930451:3.4734894156434146] [-3.8559405516430854:3.0795858777581708] [1.7342058228275261:5.7925001460518359] [1.9506388693011207:5.3170040362056081] [3126.4705697467193:3322.7981673934155] [3128.1510842727353:3322.2459947977318] none none none none none none none none none none none none none none none none none none none none none none
tree_sizes=1239 1011 1293 1304 1296 1046 1223 1306 1288 1037 1030 1224 1205 1032 1295 1032 834 1300 1023 1496 1276 951 1042 1195 1301

Tree=0
num_leaves=13
num_cat=0
split_feature=28 2 2 22 2 19 30 2 19 19 22 19
split_gain=35.4422 14.883 28.4673 7.80728 7.48094 5.55854 4.73844 4.29143 2.70529 0.515266 0.340252 0.0280803
threshold=-0.1235762484068061 965279.26325034769 960744.37163792225 26.215136183994218 962254.90999848559 3308.0510282095079 0.57220054241830776 933668.58593632688 3315.4332280418562 3273.1667321807568 13.015014905281239 3307.5797048932131
decision_type=2 2 2 2 2 2 2 2 2 2 2 2
left_child=3 2 7 9 5 -5 -6 -2 -3 10 -1 -4
right_child=1 8 11 4 6 -7 -8 -9 -10 -11 -12 -13
leaf_value=0.5690451591527782 0.59110814158748803 0.60133341911637817 0.56455509766920042 0.5773745906970732 0.5681679065178652 0.58825402530306359 0.58605097272519913 0.58365478748239952 0.5908621514141752 0.56632807990131029 0.57415473472816647 0.56843877294207201
leaf_weight=48 145.5 48 16.5 234.5 104.5 50.5 14.499999999999998 137 50.5 67 22.5 64.5
leaf_count=32 29 6 11 119 70 12 4 51 10 45 15 43
internal_value=0.57976 0.585858 0.583028 0.574558 0.576679 0.579331 0.570395 0.587526 0.596147 0.568403 0.570555 0.567455
internal_weight=1003.5 462 363.5 541.5 404 285 119 282.5 98.5 137.5 70.5 81
internal_count=447 150 134 297 205 131 74 80 16 92 47 54
is_linear=0
shrinkage=1


Tree=1
num_leaves=10
num_cat=0
split_feature=2 19 28 1 1 1 26 2 2
split_gain=36.0974 33.3455 15.7373 5.71162 5.6967 4.89069 9.23651 3.8771 0.625826
threshold=965082.09415371588 3273.1667321807568 -0.69921319898159473 0.74851074817110097 0.17992617227144031 -0.70581670320594803 26.367405692572639 933230.64356323204 962468.45768148464
decision_type=2 2 2 2 2 2 2 2 2
left_child=1 2 3 -1 -2 6 -3 -4 -7
right_child=4 5 7 -5 -6 8 -8 -9 -10
leaf_value=-0.0077330116809255639 0.019665118965991709 0.0093316029662435691 0.010472943676623287 0.0021038416234716289 0.0049142666401607651 -0.0099069816244964273 -0.0098809248679120765 0.003724439710050959 -0.01342695200741291
leaf_weight=123 85 32 150 92 34 116.5 70 161 119
leaf_count=79 11 7 33 39 10 77 43 61 80
internal_value=0.000119298 -0.00201951 0.00270026 -0.00352656 0.0155392 -0.00936605 -0.00380682 0.00700729 -0.0117412
internal_weight=982.5 863.5 526 215 119 337.5 102 311 235.5
internal_count=440 419 212 118 21 207 50 94 157
is_linear=0
shrinkage=0.03


Tree=2
num_leaves=13
num_cat=0
split_feature=28 2 2 22 2 29 26 24 30 19 2 34
split_gain=33.6866 12.9282 26.421 6.51701 6.37128 5.15671 4.92756 3.15533 2.4915 1.69821 0.653568 0.411798
threshold=-0.44022183714557866 965082.09415371588 960179.91816793231 43.873483164072717 962271.33230460843 1.1893205519792927 26.213687574684762 83.137317538869965 0.19447064016698209 3273.1667321807568 962175.37748537399 3308.8111139176103
decision_type=2 2 2 2 2 2 2 2 2 2 2 2
left_child=3 2 7 8 6 -3 -5 -2 9 -1 -4 -6
right_child=1 5 10 4 11 -7 -8 -9 -10 -11 -12 -13
leaf_value=-0.007415642853561305 0.0049167976029636335 0.0048383307915713103 -0.0067370420529292178 0.0036398282852370054 -0.0066553226961724218 0.019229076411626109 -0.0087199492325653882 0.011296240605046396 0.0027962337151169773 -0.012897025015877514 -0.012558751762830294 -0.011990317673622807
leaf_weight=118.5 199 34 31.5 133.5 30 72 36 110.5 13.999999999999998 101.5 64 38.5
leaf_count=76 67 10 19 48 20 9 23 22 6 68 43 25
internal_value=0.000100099 0.00543395 0.00297073 -0.00567058 -0.00215278 0.0147156 0.000970198 0.00722831 -0.00921775 -0.00999826 -0.0107438 -0.00980478
internal_weight=983 511 405 472 238 106 169.5 309.5 234 220 95.5 68.5
internal_count=436 170 151 266 116 19 71 89 150 144 62 45
is_linear=0
shrinkage=0.03


Tree=3
num_leaves=13
num_cat=0
split_feature=27 23 19 2 34 8 2 1 1 32 20 19
split_gain=30.7357 10.5641 10.1305 9.21604 8.4339 5.55153 4.64327 2.18056 1.83787 1.22449 0.664286 0.259282
threshold=1.0473529647746187 82.018806126893992 3189.6179557168102 965279.26325034769 3269.2578464352105 21.501771488578445 926125.34723596147 -0.060268340127661524 0.29696027566504685 3.9240748953624216 3274.2263186259361 3273.1667321807568
decision_type=2 2 2 2 2 2 2 2 2 2 2 2
left_child=1 8 6 4 7 -4 -3 -2 11 -6 -10 -1
right_child=3 2 5 -5 9 -7 -8 -9 10 -11 -12 -13
leaf_value=-0.0090889467233870192 0.0044401395040913486 -0.0025069282663029596 0.00098256606252880769 0.016314275325834751 -0.01117830611033873 -0.0060609438328181999 0.010192989548498933 0.011236911140564011 -0.00029295912623405459 2.5216102600097648e-05 -0.0087955992772029007 -0.012461734585140062
leaf_weight=58.5 95 36 165.5 89 26.5 254 87 81 24 12.499999999999998 11.999999999999998 79.5
leaf_count=39 33 20 68 14 18 147 18 15 12 5 8 53
internal_value=0.00025703 -0.00313289 -0.0010602 0.00823574 0.00482462 -0.00328286 0.0064736 0.00762249 -0.00954359 -0.00763908 -0.00332883 -0.0111184
internal_weight=1020.5 716.5 542.5 304 215 419.5 123 176 174 39 36 138
internal_count=450 365 253 85 71 215 38 48 112 23 20 92
is_linear=0
shrinkage=0.03


Tree=4
num_leaves=13
num_cat=0
split_feature=28 2 2 24 2 20 1 23 11 1 19 2
split_gain=30.5371 11.7892 25.9167 6.43162 6.97378 4.80638 4.28769 3.89543 1.35466 0.894276 0.868558 0.204667
threshold=-0.29042322015178662 965082.09415371588 960744.37163792225 82.613981162820878 962239.62019816437 3308.1769869968125 0.17992617227144031 83.762754746229191 26.292666467282867 -0.12053668025532321 3273.1667321807568 962182.84546982078
decision_type=2 2 2 2 2 2 2 2 2 2 2 2
left_child=3 2 7 8 5 -5 -3 -2 10 -6 -1 -4
right_child=1 6 11 4 9 -7 -8 -9 -10 -11 -12 -13
leaf_value=-0.0077989446318390736 0.0047833026052028146 0.018004907993169929 -0.007630191873908042 -0.001464467975042634 -0.0020382178791544651 0.0096127214702692882 0.0047778571578882528 0.011852517611083559 -0.0021085721168746336 -0.010181769858291544 -0.012444725055292429 -0.01189947420750221
leaf_weight=85.5 219.5 77 24 176 15.499999999999998 43 32.5 105 22.5 80.5 82 67.5
leaf_count=56 73 10 15 87 8 9 9 18 12 54 55 45
internal_value=0.000394463 0.00545329 0.00312642 -0.00486713 -0.00221897 0.000737495 0.0141714 0.00710472 -0.00921504 -0.00891696 -0.0101426 -0.0108905
internal_weight=1030.5 525.5 416 505 315 219 109.5 324.5 190 96 167.5 91.5
internal_count=451 170 151 281 158 96 19 91 123 62 111 60
is_linear=0
shrinkage=0.03


Tree=5
num_leaves=10
num_cat=0
split_feature=12 2 9 2 2 22 19 23 33
split_gain=30.0366 9.14366 9.12298 8.55963 7.63281 6.2199 3.33842 1.44596 0.751453
threshold=26.72477882873731 965279.26325034769 77.72816304999634 962328.75775476627 959617.91746067093 22.516572192309152 3313.4788047344596 83.762754746229191 3316.1332503269746
decision_type=2 2 2 2 2 2 2 2 2
left_child=2 4 -1 5 7 -4 -6 -2 -5
right_child=1 -3 3 8 6 -7 -8 -9 -10
leaf_value=0.0088426217227540113 0.0051235738994770269 0.016615407871785545 -0.0095742875120856542 -0.011624527446133025 -0.0098269339665770523 -0.00082377737136735997 0.0066056745754134267 0.010668540969297483 -0.0032773404327722691
leaf_weight=46 106.5 74.5 92.5 140 39 338.5 14.499999999999998 76 11.999999999999998
leaf_count=11 35 12 62 94 25 164 4 14 6
internal_value=-0.000109934 0.00750894 -0.00387925 -0.00489903 0.00456993 -0.00272307 -0.00530623 0.00748644 -0.0110011
internal_weight=939.5 310.5 629 583 236 431 53.5 182.5 152
internal_count=427 90 337 326 78 226 29 49 100
is_linear=0
shrinkage=0.03


Tree=6
num_leaves=12
num_cat=0
split_feature=12 2 11 22 19 2 2 2 1 24 2
split_gain=23.7701 11.389 10.6764 9.06773 6.91215 5.03166 7.47969 2.36706 2.11159 0.367627 0.305117
threshold=26.72477882873731 962328.75775476627 27.772622438683737 22.516572192309152 3186.8229123817773 952533.08888109215 965082.09415371588 965914.79304376442 -0.060268340127661524 79.100467858816444 962414.33575027424
decision_type=2 2 2 2 2 2 2 2 2 2 2
left_child=1 3 5 9 -5 8 -7 10 -2 -1 -3
right_child=2 7 -4 4 -6 6 -8 -9 -10 -11 -12
leaf_value=-0.010886571170920033 0.0040980767927052989 -0.0063429371304810052 0.018930750358563203 0.0076474234709892367 -0.001461802702682356 -0.0081353168293458074 0.0085757865375942644 0.0013381996616721151 0.010825253633529909 -0.0066239876467061327 -0.011866510912612243
leaf_weight=58 98.5 14.999999999999998 51 100.5 285.5 58.5 39.5 13.999999999999998 76.5 40.5 135.5
leaf_count=39 34 10 7 28 141 36 9 5 13 27 91
internal_value=-0.000169513 -0.00348306 0.00645349 -0.00115612 0.000919656 0.00405651 -0.00136598 -0.0102791 0.00709214 -0.0092332 -0.0113714
internal_weight=973 649 324 484.5 386 273 98 164.5 175 98.5 150.5
internal_count=440 341 99 235 169 92 45 106 47 66 101
is_linear=0
shrinkage=0.03


Tree=7
num_leaves=13
num_cat=0
split_feature=27 24 20 2 2 24 28 31 1 32 20 20
split_gain=25.8247 9.3339 7.55208 6.90452 8.95776 5.29283 2.32347 1.41759 1.38903 0.976386 0.812062 0.246447
threshold=1.0473529647746187 82.672295588287739 3189.6179557168102 965279.26325034769 952004.96345572313 83.665561506936825 1.2261618111030173 3.6828868137456854 0.29696027566504685 2.5934569961235829 3274.2263186259361 3307.9152160243407
decision_type=2 2 2 2 2 2 2 2 2 2 2 2
left_child=1 8 7 4 6 -4 -2 -3 9 -1 -10 -6
right_child=3 2 5 -5 11 -7 -8 -9 10 -11 -12 -13
leaf_value=-0.0043779154300689696 -0.00058854512944817537 0.0094176375213123487 0.00011091780950067215 0.01479500025765198 -0.0044468517655442503 -0.0074582525378671192 0.0085220888523951811 0.0019611178029042024 -0.00085974965412432029 -0.010526298466787442 -0.008485021870310713 -0.010270862742112231
leaf_weight=31.5 29 62 228 81 13.499999999999998 129.5 171.5 38 34.5 137.5 19.5 25
leaf_count=19 14 12 102 13 8 79 38 16 18 92 13 17
internal_value=0.000244959 -0.00305832 -0.000596744 0.00726191 0.00465159 -0.00263989 0.00720052 0.00664648 -0.00807651 -0.00942162 -0.0037448 -0.00843093
internal_weight=1000.5 680.5 457.5 320 239 357.5 200.5 100 223 169 54 38.5
internal_count=441 351 209 90 77 181 52 28 142 111 31 25
is_linear=0
shrinkage=0.03


Tree=8
num_leaves=13
num_cat=0
split_feature=27 19 24 11 28 1 19 20 1 22 26 1
split_gain=24.2674 9.92599 8.26879 7.09751 4.26719 4.22044 3.96233 3.87647 2.03894 0.961543 0.827604 0.182723
threshold=1.0473529647746187 3189.6179557168102 83.13586901423642 27.772622438683737 1.2261618111030173 -0.78574730703237872 3308.1248696192065 3274.2263186259361 -0.1799261722714405 83.282063134532152 26.752528270780399 -1.7225262015363449e-16
decision_type=2 2 2 2 2 2 2 2 2 2 2 2
left_child=1 2 11 4 10 6 -3 -7 -6 -4 -2 -1
right_child=3 5 9 -5 8 7 -8 -9 -10 -11 -12 -13
leaf_value=-0.0076448171138763432 -0.005238225454385851 -0.0066388316805209586 0.0052352765310317911 0.01810028116269545 0.0027765436239439892 -0.0028638555872505596 0.0040973356929379741 -0.0092629435210008371 0.0090429815275070921 0.0114859278683479 0.0024483137359985934 -0.003709422002493773
leaf_weight=28.5 34.5 53.5 46 43 73 136 70.5 236.5 139.5 51 18.5 25.5
leaf_count=19 20 35 14 6 26 71 24 154 29 8 7 17
internal_value=-4.64895e-06 -0.00330478 0.00340792 0.00690533 0.00502547 -0.00535207 -0.000538855 -0.00694457 0.00692039 0.00862068 -0.00253176 -0.00591494
internal_weight=956 647.5 151 308.5 265.5 496.5 124 372.5 212.5 97 53 54
internal_count=430 342 58 88 82 284 59 225 55 22 27 36
is_linear=0
shrinkage=0.03


Tree=9
num_leaves=10
num_cat=0
split_feature=34 20 0 19 2 20 1 19 25
split_gain=25.4668 23.2419 10.0205 3.30581 9.12512 3.2558 2.02736 1.76044 0.312616
threshold=3316.7633164501012 3274.2263186259361 0.35460488704253579 3307.5797048932131 962414.33575027424 3137.9095973992421 0.4647231720437684 3315.4332280418562 25.25996692440329
decision_type=2 2 2 2 2 2 2 2 2
left_child=1 2 5 8 -5 -1 -4 -2 -3
right_child=7 3 6 4 -6 -7 -8 -9 -10
leaf_value=-0.0092197207171341462 0.016743131160736086 -0.008413490479483322 -0.0078264045146203814 0.0028500162036210861 -0.0098140996683221387 0.0052746087623350892 -0.00033824077002896823 0.0088726118247485844 -0.012704295861238689
leaf_weight=13.499999999999998 66 33 76.5 78.5 143.5 395 57 50.5 85.5
leaf_count=9 9 22 51 34 95 126 27 10 58
internal_value=0.000326583 -0.00141726 0.00243903 -0.00754917 -0.0053366 0.0047706 -0.00466665 0.0134488 -0.0116023
internal_weight=999 882.5 542 340.5 222 408.5 133.5 116.5 118.5
internal_count=441 422 213 209 129 135 78 19 80
is_linear=0
shrinkage=0.03


Tree=10
num_leaves=10
num_cat=0
split_feature=34 20 0 19 2 29 20 1 25
split_gain=21.0889 23.0771 10.3411 3.81719 8.96406 3.79291 3.57659 2.10971 0.298617
threshold=3316.7633164501012 3274.2263186259361 0.35460488704253579 3307.5797048932131 962308.2027272135 0.92006332829046578 3137.9095973992421 0.4647231720437684 25.249121269991235
decision_type=2 2 2 2 2 2 2 2 2
left_child=1 2 6 8 -5 -2 -1 -4 -3
right_child=5 3 7 4 -6 -7 -8 -9 -10
leaf_value=-0.0085573586940765368 0.0021880882160230119 -0.0083673929947037842 -0.0076352215513314408 0.0045422831043778426 -0.0090696379707158672 0.015199896500465718 0.0052940854419274161 -0.00025453927619755265 -0.012738466353389804
leaf_weight=16.5 26.5 30 81 62 140.5 93 432.5 61.5 88.5
leaf_count=11 9 20 54 24 93 12 137 29 60
internal_value=0.000572145 -0.000982963 0.00252951 -0.00744774 -0.00489283 0.012369 0.00476385 -0.0044843 -0.0117237
internal_weight=1032 912.5 591.5 321 202.5 119.5 449 142.5 118.5
internal_count=449 428 231 197 117 21 148 83 80
is_linear=0
shrinkage=0.03


Tree=11
num_leaves=12
num_cat=0
split_feature=28 11 2 28 24 2 20 20 11 12 19
split_gain=16.414 7.42285 7.18666 6.46705 4.63483 5.61101 2.90769 2.20941 0.968019 0.677203 0.338733
threshold=-0.44022183714557866 27.824984546301739 933230.64356323204 1.3749715783372856 82.613981162820878 962328.75775476627 3308.1769869968125 3143.0794339594595 26.292666467282867 26.652349868321412 3276.2016266259575
decision_type=2 2 2 2 2 2 2 2 2 2 2
left_child=4 2 7 -4 8 6 -6 -2 10 -7 -1
right_child=1 -3 3 -5 5 9 -8 -9 -10 -11 -12
leaf_value=-0.0074086483811939153 0.00078131264781773971 0.016943065434694288 -0.0037728737791841364 0.0049881029418359195 -0.001134824694134295 -0.0098567894334183597 0.0069328348820289478 0.0095969290410289326 -0.0024231609766637643 -0.0022531709313392636 -0.010811012295018071
leaf_weight=90 32.5 35 172 134 188.5 65.5 50 130 27 13.999999999999998 56.5
leaf_count=60 13 5 93 41 92 44 15 23 15 7 38
internal_value=-1.91638e-06 0.00379982 0.00278074 6.24975e-05 -0.00389932 -0.00173119 0.000572131 0.00785854 -0.00783191 -0.00858104 -0.00879539
internal_weight=995 503.5 468.5 306 491.5 318 238.5 162.5 173.5 79.5 146.5
internal_count=446 175 170 134 271 158 107 36 113 51 98
is_linear=0
shrinkage=0.03


Tree=12
num_leaves=12
num_cat=0
split_feature=27 8 22 11 28 19 23 32 22 2 13
split_gain=18.0819 5.32934 5.61393 4.15278 4.59075 4.02648 2.34495 2.34247 2.31115 2.06579 0.804845
threshold=1.0473529647746187 21.250204471494254 82.498218510153592 27.772622438683737 1.2261618111030173 3189.6179557168102 82.036099952466444 3.5388314943539156 76.032937290243481 962440.68915376544 1.0286029435761168
decision_type=2 2 2 2 2 2 2 2 2 2 2
left_child=1 2 6 4 10 8 -1 -6 -3 -7 -2
right_child=3 5 -4 -5 7 9 -8 -9 -10 -11 -12
leaf_value=-0.0070818159443087276 -0.0055826030193598239 -0.0029961951557319439 0.008357342018967583 0.016083470647985286 0.0089469865532790099 -0.0044578202037861064 8.2319633397846131e-05 0.0025722742122273111 0.0077437280185760982 -0.0093681053577661516 0.0029381199321813051
leaf_weight=55.5 37.5 42 62 32 140 217.5 149.5 85 30 124 12.499999999999998
leaf_count=37 23 24 14 4 27 127 65 30 7 81 4
internal_value=-5.29277e-05 -0.0027807 0.000517832 0.00597802 0.00474266 -0.00491032 -0.00187492 0.00656744 0.001503 -0.00626729 -0.00340717
internal_weight=987.5 680.5 267 307 275 413.5 205 225 72 341.5 50
internal_count=443 355 116 88 84 239 102 57 31 208 27
is_linear=0
shrinkage=0.03


Tree=13
num_leaves=10
num_cat=0
split_feature=34 20 0 11 23 29 22 2 19
split_gain=20.2735 18.8973 9.31753 4.03771 6.09548 2.6717 1.83854 1.32512 1.12674
threshold=3316.7633164501012 3274.2263186259361 0.46472317204376884 25.395006314376012 82.419326272189593 1.1893205519792927 40.259408466667317 954669.54912594671 3307.5022873401035
decision_type=2 2 2 2 2 2 2 2 2
left_child=1 2 6 4 -3 -2 -1 -4 -5
right_child=5 3 7 8 -6 -7 -8 -9 -10
leaf_value=0.00065882339201867577 0.004561613963866556 -0.010046243748244116 -0.0061874745241218831 -0.010892627374350447 0.0068642802655866191 0.014535680036212122 0.0053537198337339437 0.0030894173718988894 -0.0068073462859874756
leaf_weight=99 36 33 109.5 102 43 85 324 14.999999999999998 185.5
leaf_count=45 10 22 70 69 12 11 97 5 116
internal_value=0.000155711 -0.00137938 0.00213866 -0.00667368 -0.000494077 0.0116422 0.0042626 -0.00504211 -0.00829466
internal_weight=1032 911 547.5 363.5 76 121 423 124.5 287.5
internal_count=457 436 217 219 34 21 142 75 185
is_linear=0
shrinkage=0.03


Tree=14
num_leaves=13
num_cat=0
split_feature=13 11 2 28 22 2 33 19 20 19 11 1
split_gain=13.0191 4.61393 6.47308 4.85759 4.39381 3.0032 5.01078 3.79425 1.22137 0.192174 0.18246 0.00896061
threshold=0.04218293103869411 27.911710309964445 933668.58593632688 1.3749715783372856 26.215136183994218 962225.73318909563 3316.7579046540363 3308.0510282095079 3179.9668406118976 3273.1667321807568 25.454143483659269 0.23931566428755774
decision_type=2 2 2 2 2 2 2 2 2 2 2 2
left_child=4 2 8 -4 9 7 -7 -6 -2 10 -1 -11
right_child=1 -3 3 -5 5 6 -8 -9 -10 11 -12 -13
leaf_value=-0.0081408339665486242 0.0052757614508782535 0.016352912750244142 -0.0037953456895889839 0.0045071226197294888 -0.001348014824031567 -0.0082344765390594335 0.006350614283339313 0.0084109368792602002 0.01097634037562779 -0.0096953387450327902 -0.0044318951684695022 -0.006490542368642215
leaf_weight=31.5 75.5 24 133.5 119 244 106.5 25.5 41 69 55.5 31.5 13.499999999999998
leaf_count=21 20 3 72 35 120 70 7 9 9 37 21 9
internal_value=-0.00013727 0.00382498 0.00302467 0.000113928 -0.00317988 -0.00165651 -0.00537906 7.51598e-05 0.00806488 -0.00793243 -0.00640803 -0.00919142
internal_weight=970 421 397 252.5 549 417 132 285 144.5 132 63 69
internal_count=433 139 136 107 294 206 77 129 29 88 42 46
is_linear=0
shrinkage=0.03


Tree=15
num_leaves=10
num_cat=0
split_feature=34 20 15 29 1 26 2 1 2
split_gain=15.2916 17.7543 7.31756 3.42121 3.13923 5.99513 2.81477 2.29741 0.434227
threshold=3316.7633164501012 3274.2263186259361 -0.26136232071612125 1.1893205519792927 -0.70581670320594803 26.480641398666879 932794.93961261341 0.70581670320594814 962468.45768148464
decision_type=2 2 2 2 2 2 2 2 2
left_child=1 2 7 -2 5 -3 -4 -1 -6
right_child=3 4 6 -5 8 -7 -8 -9 -10
leaf_value=-0.0043524986082507716 0.0021548515815959604 0.0058029769994318477 0.0077351982322546231 0.014407455183055303 -0.0069058167723119257 -0.0082438955682469159 0.0019681583036717611 0.0017219624495442539 -0.0096859814503363201
leaf_weight=138.5 29.5 47 168.5 72 124 62.5 141.5 92.5 125
leaf_count=83 10 13 36 9 82 40 58 38 84
internal_value=-6.11072e-05 -0.00131227 0.00211607 0.0109168 -0.00648152 -0.00220312 0.00512244 -0.00191668 -0.00834064
internal_weight=1001 899.5 541 101.5 358.5 109.5 310 231 249
internal_count=453 434 215 19 219 53 94 121 166
is_linear=0
shrinkage=0.03


Tree=16
num_leaves=8
num_cat=0
split_feature=11 19 0 33 20 2 1
split_gain=12.5387 11.4181 7.41873 6.04433 3.0881 3.06138 1.4969
threshold=27.68273330475758 3273.1667321807568 0.35460488704253579 3316.7579046540363 3137.9095973992421 962468.45768148464 0.56806474673115548
decision_type=2 2 2 2 2 2 2
left_child=1 2 4 5 -1 -3 -4
right_child=-2 3 6 -5 -6 -7 -8
leaf_value=-0.0082946229866572782 0.013122318486529071 -0.0034846443376649926 -0.0064962511059499075 0.0047965881936252114 0.0045849871422328492 -0.0092550118861582462 0
leaf_weight=16.5 62.5 193.5 82.5 53 407 148 51
leaf_count=11 10 105 55 15 129 99 24
internal_value=0.000213769 -0.00064545 0.0021173 -0.0045455 0.00406129 -0.00600952 -0.00402279
internal_weight=1014 951.5 557 394.5 423.5 341.5 133.5
internal_count=448 438 219 219 140 204 79
is_linear=0
shrinkage=0.03


Tree=17
num_leaves=13
num_cat=0
split_feature=27 24 20 23 24 28 5 1 9 20 31 10
split_gain=15.1297 5.90101 5.89775 4.11696 3.60941 2.7129 2.50844 1.38784 1.32511 0.579946 0.521854 0.468057
threshold=1.1047980303594889 82.672295588287739 3189.6179557168102 83.301346840681632 83.137317538869965 1.3749715783372856 3183.6000768830149 0.29696027566504685 79.874997409875235 3274.2263186259361 3.6999531125055616 79.226710587404753
decision_type=2 2 2 2 2 2 2 2 2 2 2 2
left_child=1 7 6 -4 5 10 -3 11 -7 -9 -2 -1
right_child=4 2 3 -5 -6 8 -8 9 -10 -11 -12 -13
leaf_value=-0.0022413612403906881 0 -0.0022004145138686702 0.0011754431362564746 -0.0052963137888954476 0.012319123212884111 0.0082086025847814461 0.0076659092028090285 -0.00032221324959497773 0.0029678320166070101 -0.006491275265449431 -0.0066269597914069894 -0.0081235790157202468
leaf_weight=14.999999999999998 33.5 30 161.5 193 60.5 94.5 93 43.5 85 19.5 14.999999999999998 154
leaf_count=9 16 16 68 114 9 19 20 22 28 13 9 103
internal_value=5.84273e-05 -0.00229559 -0.000381594 -0.00234874 0.00584072 0.00406883 0.00524905 -0.00620998 0.0057654 -0.00232671 -0.00216956 -0.00762657
internal_weight=998 709.5 477.5 354.5 288.5 228 123 232 179.5 63 48.5 169
internal_count=446 365 218 182 81 72 36 147 47 35 25 112
is_linear=0
shrinkage=0.03


Tree=18
num_leaves=10
num_cat=0
split_feature=2 20 0 19 2 23 29 1 29
split_gain=16.2613 16.2641 6.02039 2.23095 6.33789 1.92083 1.9074 1.5095 0.33377
threshold=965082.09415371588 3274.2263186259361 0.35460488704253579 3307.5494477669067 962389.48995699582 83.762754746229191 1.1893205519792927 0.4647231720437684 -2.5151366396272796
decision_type=2 2 2 2 2 2 2 2 2
left_child=1 2 5 8 -5 -1 -2 -4 -3
right_child=6 3 7 4 -6 -7 -8 -9 -10
leaf_value=0.0020221878406259772 0.0043510492645518883 -0.0069366526548252545 -0.0061759187293392191 0.0023580909456864421 -0.0081942035178154404 0.0061622314468408237 0.012950278289096302 0.00015470447353705641 -0.010792421366746831
leaf_weight=244.5 34.5 42 78 78.5 143.5 174.5 85 58.5 81
leaf_count=95 9 28 52 35 96 46 11 27 55
internal_value=0.000185175 -0.00119703 0.00197794 -0.00630448 -0.00446231 0.00376052 0.0105368 -0.00347049 -0.00955447
internal_weight=1020 900.5 555.5 345 222 419 119.5 136.5 123
internal_count=454 434 220 214 131 141 20 79 83
is_linear=0
shrinkage=0.03


Tree=19
num_leaves=15
num_cat=0
split_feature=27 24 7 2 9 22 23 18 16 32 1 32 22 12
split_gain=11.88 5.36944 4.34012 3.76252 2.58636 2.55397 2.42134 1.07963 1.07029 0.879563 0.731997 0.340735 0.258668 0.141528
threshold=1.1047980303594889 82.672295588287739 25.014385680638259 962328.75775476627 82.694127019999499 83.282063134532152 81.899616731195536 2.7277960996252437 3.1779024318151419 2.8230183417763581 0.4647231720437684 2.5934569961235829 55.493762728600416 26.319729264098918
decision_type=2 2 2 2 2 2 2 2 2 2 2 2 2 2
left_child=1 10 5 -4 6 -3 7 -2 12 -8 11 -1 -6 -12
right_child=4 2 3 -5 8 -7 9 -9 -10 -11 13 -13 -14 -15
leaf_value=-0.0039169486970514859 0.0045985142193057313 0.00092283793328410367 -0.00039944762997647635 -0.0081710360534040308 -0.0012016572377898476 0.0085831237727793577 0.014492875328063964 -0.0032587930384007369 0.0048377456038582083 0.0078645954074817968 -0.0035259456133588832 -0.0074665703145233367 -0.0063442704739241768 0.00010422033048234879
leaf_weight=36 54 149.5 174.5 82 26.5 52.5 24 21 23.5 113.5 22.5 147 13.499999999999998 14.999999999999998
leaf_count=22 15 61 84 55 12 11 3 11 6 21 14 98 9 7
internal_value=-4.58749e-05 -0.00218072 -0.000323645 -0.00291184 0.00518964 0.00295362 0.00677069 0.0023648 -0.000100973 0.00912865 -0.00601658 -0.00680152 -0.00308628 -0.00206993
internal_weight=955 679 458.5 256.5 276 202 212.5 75 63.5 137.5 220.5 183 40 37.5
internal_count=429 352 211 139 77 72 50 26 27 24 141 120 21 21
is_linear=0
shrinkage=0.03


Tree=20
num_leaves=13
num_cat=0
split_feature=14 11 2 2 7 24 2 21 23 22 13 2
split_gain=8.47723 4.22376 5.43477 3.83496 3.54542 3.68417 2.11291 1.62654 1.4215 1.28422 0.790749 0.193473
threshold=0.35760866567670863 27.772622438683737 960179.91816793231 965695.52032094251 22.287292405241473 82.774821063416695 962414.33575027424 25.537891332121603 83.762754746229191 72.85658171600781 -0.06791072019038473 964533.35668022989
decision_type=2 2 2 2 2 2 2 2 2 2 2 2
left_child=4 2 8 -4 5 10 7 -6 -2 -7 -1 -8
right_child=1 -3 3 -5 6 9 11 -9 -10 -11 -12 -13
leaf_value=-0.0058145245180784401 0.003254749290004212 0.013843062314120204 -0.0071995778497603293 0.0050966981103753341 -0.0066800968615632304 0.0005051400378434615 -0.0082941141050794833 -0.0011717335458232524 0.0082750685888209503 0.0058107698034156451 0 -0.0035400993422820015
leaf_weight=70.5 138.5 32 68.5 33 65.5 83.5 91 181.5 83 81.5 30.5 11.999999999999998
leaf_count=46 46 4 44 7 44 37 61 92 15 21 13 6
internal_value=-8.41541e-05 0.00360079 0.00254185 -0.00317642 -0.00221261 0.00039314 -0.00419273 -0.00265955 0.00517143 0.00315405 -0.00408926 -0.00779404
internal_weight=971 355 323 101.5 616 266 350 247 221.5 165 101 103
internal_count=436 116 112 51 320 117 203 136 61 58 59 67
is_linear=0
shrinkage=0.03


Tree=21
num_leaves=9
num_cat=0
split_feature=34 2 22 20 29 26 2 12
split_gain=13.453 12.1052 6.47386 3.78936 2.3653 0.339354 0.437201 0.191978
threshold=3316.7633164501012 962239.62019816437 22.516572192309152 3188.2166649214728 0.89478854457256241 27.204263034790291 962497.18661207694 25.454143483659269
decision_type=2 2 2 2 2 2 2 2
left_child=1 2 7 -4 -2 6 -3 -1
right_child=4 5 3 -5 -6 -7 -8 -9
leaf_value=-0.0077690246590633978 0.0010547198057174682 -0.0047263406877932337 0.0054347385826706892 0.00034562052770788308 0.01158120099703471 -0.0020111674574705266 -0.0083770504588117963 -0.0046919448244936617
leaf_weight=47.5 24.5 45 199 388 98 11.999999999999998 155 48
leaf_count=32 9 30 52 172 13 7 104 32
internal_value=0.000230598 -0.00104823 0.000897134 0.00207975 0.00951364 -0.00729285 -0.0075907 -0.00630262
internal_weight=1017 894.5 682.5 587 122.5 212 200 95.5
internal_count=451 429 288 224 22 141 134 64
is_linear=0
shrinkage=0.03


Tree=22
num_leaves=10
num_cat=0
split_feature=2 20 12 1 26 22 25 16 19
split_gain=12.0512 12.2669 6.02133 3.11356 4.20079 1.97234 1.87313 0.602934 0.470619
threshold=965082.09415371588 3274.2263186259361 25.735634442209189 -0.85421994577343285 26.499061458723748 52.947020219858743 25.646176847055692 -0.6846438347024324 3306.5106535805053
decision_type=2 2 2 2 2 2 2 2 2
left_child=1 2 7 4 -3 -2 -4 -1 -5
right_child=5 3 6 8 -6 -7 -8 -9 -10
leaf_value=-0.0063743400571730311 0.0033518030455184948 0.0063255484075431358 -0.0014722080118954183 -0.009168879692460977 -0.0079556041740214637 0.012028076234918373 0.0040855722389814839 0.00011368747008964418 -0.0061502477837721481
leaf_weight=73.5 36 40.5 63 75.5 32.5 77 371 14.999999999999998 185.5
leaf_count=49 9 11 33 51 22 11 116 8 121
internal_value=0.000165694 -0.0010512 0.0018167 -0.00553416 -3.38173e-05 0.00933076 0.00327382 -0.00526893 -0.00706084
internal_weight=969.5 856.5 522.5 334 73 113 434 88.5 261
internal_count=431 411 206 205 33 20 149 57 172
is_linear=0
shrinkage=0.03


Tree=23
num_leaves=12
num_cat=0
split_feature=11 28 22 5 24 28 5 32 29 5 5
split_gain=10.2944 6.08081 3.35896 2.7125 2.94511 2.22466 1.78838 1.27927 1.17442 0.68336 0.400409
threshold=26.699132880369671 1.4537583790292501 78.484972344603349 3308.0510282095079 83.291112472567633 1.5617007503149287 3298.73238533416 3.4608314270084382 1.0503290734136683 3316.8626787884382 3236.3119933935291
decision_type=2 2 2 2 2 2 2 2 2 2 2
left_child=1 3 5 4 -1 6 -2 -7 -4 -5 -3
right_child=2 10 8 9 -6 7 -8 -9 -10 -11 -12
leaf_value=-0.0039393167608459557 0.002319582442424709 0.00733295041711434 0.0053732782073996283 -0.0071811208082297887 0.0013731032427736238 0.0096935429456757333 -0.0056391784703359003 0.0029589844085276128 0.012378977234546954 1.3679458035363085e-05 0.0029820033182390037
leaf_weight=243 68.5 45 43 142 151.5 40 39 73 51 12.499999999999998 39
leaf_count=146 24 7 10 95 64 5 22 23 7 5 13
internal_value=0.000124154 -0.00207794 0.00455365 -0.00323093 -0.00189708 0.00249907 -0.000579319 0.00542018 0.00928033 -0.00659303 0.00538936
internal_weight=947.5 633 314.5 549 394.5 220.5 107.5 113 94 154.5 84
internal_count=421 330 91 310 210 74 46 28 17 100 20
is_linear=0
shrinkage=0.03


Tree=24
num_leaves=13
num_cat=0
split_feature=27 24 20 24 12 28 29 25 1 26 20 8
split_gain=9.6956 4.44955 3.83978 3.43443 3.11461 2.20405 1.37259 1.00872 0.730889 0.629418 0.360848 0.299474
threshold=1.0473529647746187 82.672295588287739 3189.6179557168102 83.58777758918022 27.772622438683737 1.2261618111030173 -1.8437550980948532 26.535014301588827 0.29696027566504685 26.752528270780399 3274.2263186259361 10.010328016491576
decision_type=2 2 2 2 2 2 2 2 2 2 2 2
left_child=1 8 6 -4 5 9 -3 -7 11 -2 -10 -1
right_child=4 2 3 -5 -6 7 -8 -9 10 -11 -12 -13
leaf_value=-0.0041839131136647374 -0.0046225900555172793 -0.00080302187986671921 0.00087046372455258203 -0.0050770610756684783 0.013368885907259855 0.0070134026736599717 0.006989750676879695 0.0027821140642694201 -0.00040108609083410975 0.0021834879566270571 -0.0055379362435717333 -0.0070969095197332341
leaf_weight=55.5 31.5 27 207 149.5 32 102 75.5 107.5 37.5 18.5 18 119.5
leaf_count=35 19 13 90 90 4 19 16 34 20 7 12 80
internal_value=7.30303e-05 -0.00186465 -0.000150674 -0.00162669 0.00465216 0.00352431 0.0049346 0.00487287 -0.00525586 -0.00208149 -0.00216217 -0.00621062
internal_weight=981 689.5 459 356.5 291.5 259.5 102.5 209.5 230.5 50 55.5 175
internal_count=439 356 209 180 83 79 29 53 147 26 32 115
is_linear=0
shrinkage=0.03


end of trees

feature_importances:
city_estimated_population=48
city_area_weighted_pop_density_lag20=24
week_cos=23
city_area_weighted_pop_density_lag19=23
city_area_weighted_rainfall_rollmean_lag1_w8=16
city_area_weighted_rh_rollmean_lag1_w8=14
city_area_weighted_u_component_of_wind_10m_rollmean_lag1_w8=14
city_area_weighted_temp_c_lag14=12
city_area_weighted_rh_rollmean_lag1_w4=9
city_area_weighted_v_component_of_wind_10m_rollmean_lag1_w4=9
city_area_weighted_temp_c_lag13=7
city_area_weighted_temp_c_rollmean_lag1_w8=7
city_area_weighted_u_component_of_wind_10m_rollmean_lag1_w4=7
city_area_weighted_pop_density_rollmean_lag1_w8=7
city_area_weighted_wind_speed_10m_rollmean_lag1_w8=6
week_sin=5
city_pop_density=5
city_area_weighted_temp_c_rollmean_lag1_w4=4
city_area_weighted_rainfall_lag19=3
city_area_weighted_rh_lag20=3
city_area_weighted_u_component_of_wind_10m_lag5=3
city_area_weighted_pop_density_rollmean_lag1_w4=3
city_area_weighted_rainfall_lag20=2
city_area_weighted_v_component_of_wind_10m_lag7=2
city_area_weighted_v_component_of_wind_10m_rollmean_lag1_w8=2
city_area_weighted_wind_speed_10m_rollmean_lag1_w4=2
city_area_weighted_rh_lag19=1
city_area_weighted_u_component_of_wind_10m_lag4=1
city_area_weighted_v_component_of_wind_10m_lag8=1
city_area_weighted_wind_speed_10m_lag14=1
city_area_weighted_rainfall_rollmean_lag1_w4=1

parameters:
[boosting: gbdt]
[objective: regression]
[metric: rmse]
[tree_learner: serial]
[device_type: cpu]
[data_sample_strategy: bagging]
[data: ]
[valid: ]
[num_iterations: 25]
[learning_rate: 0.03]
[num_leaves: 31]
[num_threads: 0]
[seed: 0]
[deterministic: 0]
[force_col_wise: 1]
[force_row_wise: 0]
[histogram_pool_size: -1]
[max_depth: 4]
[min_data_in_leaf: 8]
[min_sum_hessian_in_leaf: 0.001]
[bagging_fraction: 0.85]
[pos_bagging_fraction: 1]
[neg_bagging_fraction: 1]
[bagging_freq: 1]
[bagging_seed: 3]
[bagging_by_query: 0]
[feature_fraction: 0.85]
[feature_fraction_bynode: 1]
[feature_fraction_seed: 2]
[extra_trees: 0]
[extra_seed: 6]
[early_stopping_round: 0]
[early_stopping_min_delta: 0]
[first_metric_only: 0]
[max_delta_step: 0]
[lambda_l1: 0.05]
[lambda_l2: 1]
[linear_lambda: 0]
[min_gain_to_split: 0]
[drop_rate: 0.1]
[max_drop: 50]
[skip_drop: 0.5]
[xgboost_dart_mode: 0]
[uniform_drop: 0]
[drop_seed: 4]
[top_rate: 0.2]
[other_rate: 0.1]
[min_data_per_group: 100]
[max_cat_threshold: 32]
[cat_l2: 10]
[cat_smooth: 10]
[max_cat_to_onehot: 4]
[top_k: 20]
[monotone_constraints: ]
[monotone_constraints_method: basic]
[monotone_penalty: 0]
[feature_contri: ]
[forcedsplits_filename: ]
[refit_decay_rate: 0.9]
[cegb_tradeoff: 1]
[cegb_penalty_split: 0]
[cegb_penalty_feature_lazy: ]
[cegb_penalty_feature_coupled: ]
[path_smooth: 0]
[interaction_constraints: ]
[verbosity: -1]
[saved_feature_importance_type: 0]
[use_quantized_grad: 0]
[num_grad_quant_bins: 4]
[quant_train_renew_leaf: 0]
[stochastic_rounding: 1]
[linear_tree: 0]
[max_bin: 255]
[max_bin_by_feature: ]
[min_data_in_bin: 3]
[bin_construct_sample_cnt: 200000]
[data_random_seed: 1]
[is_enable_sparse: 1]
[enable_bundle: 1]
[use_missing: 1]
[zero_as_missing: 0]
[feature_pre_filter: 1]
[pre_partition: 0]
[two_round: 0]
[header: 0]
[label_column: ]
[weight_column: ]
[group_column: ]
[ignore_column: ]
[categorical_feature: ]
[forcedbins_filename: ]
[precise_float_parser: 0]
[parser_config_file: ]
[objective_seed: 5]
[num_class: 1]
[is_unbalance: 0]
[scale_pos_weight: 1]
[sigmoid: 1]
[boost_from_average: 1]
[reg_sqrt: 0]
[alpha: 0.9]
[fair_c: 1]
[poisson_max_delta_step: 0.7]
[tweedie_variance_power: 1.5]
[lambdarank_truncation_level: 30]
[lambdarank_norm: 1]
[label_gain: ]
[lambdarank_position_bias_regularization: 0]
[eval_at: ]
[multi_error_top_k: 1]
[auc_mu_weights: ]
[num_machines: 1]
[local_listen_port: 12400]
[time_out: 120]
[machine_list_filename: ]
[machines: ]
[gpu_platform_id: -1]
[gpu_device_id: -1]
[gpu_use_dp: 0]
[num_gpu: 1]

end of parameters
