tree
version=v4
num_class=1
num_tree_per_iteration=1
label_index=0
max_feature_idx=56
objective=regression
feature_names=week_sin week_cos city_estimated_population city_area_m2 city_area_km2 city_pop_density n_barangays_reported city_area_weighted_rainfall_lag20 city_area_weighted_rainfall_lag19 city_area_weighted_rh_lag20 city_area_weighted_rh_lag19 city_area_weighted_temp_c_lag13 city_area_weighted_temp_c_lag12 city_area_weighted_u_component_of_wind_10m_lag4 city_area_weighted_u_component_of_wind_10m_lag3 city_area_weighted_v_component_of_wind_10m_lag7 city_area_weighted_v_component_of_wind_10m_lag6 city_area_weighted_wind_speed_10m_lag12 city_area_weighted_wind_speed_10m_lag13 city_area_weighted_pop_density_lag20 city_area_weighted_pop_density_lag19 city_area_weighted_rainfall_rollmean_lag1_w4 city_area_weighted_rainfall_rollmean_lag1_w8 city_area_weighted_rh_rollmean_lag1_w4 city_area_weighted_rh_rollmean_lag1_w8 city_area_weighted_temp_c_rollmean_lag1_w4 city_area_weighted_temp_c_rollmean_lag1_w8 city_area_weighted_u_component_of_wind_10m_rollmean_lag1_w4 city_area_weighted_u_component_of_wind_10m_rollmean_lag1_w8 city_area_weighted_v_component_of_wind_10m_rollmean_lag1_w4 city_area_weighted_v_component_of_wind_10m_rollmean_lag1_w8 city_area_weighted_wind_speed_10m_rollmean_lag1_w4 city_area_weighted_wind_speed_10m_rollmean_lag1_w8 city_area_weighted_pop_density_rollmean_lag1_w4 city_area_weighted_pop_density_rollmean_lag1_w8 city_area_weighted_flood_risk_index_rollmean_lag1_w4 city_area_weighted_flood_risk_index_rollmean_lag1_w8 city_area_weighted_percent_annual_crop_rollmean_lag1_w4 city_area_weighted_percent_annual_crop_rollmean_lag1_w8 city_area_weighted_percent_brush_shrubs_rollmean_lag1_w4 city_area_weighted_percent_brush_shrubs_rollmean_lag1_w8 city_area_weighted_percent_built_up_rollmean_lag1_w4 city_area_weighted_percent_built_up_rollmean_lag1_w8 city_area_weighted_percent_inland_water_rollmean_lag1_w4 city_area_weighted_percent_inland_water_rollmean_lag1_w8 city_area_weighted_percent_open_forest_rollmean_lag1_w4 city_area_weighted_percent_open_forest_rollmean_lag1_w8 city_area_weighted_percent_perennial_crop_rollmean_lag1_w4 city_area_weighted_percent_perennial_crop_rollmean_lag1_w8 city_area_weighted_percent_open_barren_rollmean_lag1_w4 city_area_weighted_percent_open_barren_rollmean_lag1_w8 city_area_weighted_percent_fishpond_rollmean_lag1_w4 city_area_weighted_percent_fishpond_rollmean_lag1_w8 city_area_weighted_percent_grassland_rollmean_lag1_w4 city_area_weighted_percent_grassland_rollmean_lag1_w8 city_area_weighted_percent_mangrove_forest_rollmean_lag1_w4 city_area_weighted_percent_mangrove_forest_rollmean_lag1_w8
feature_infos=[-1:1] [-1:1] [909262.48027323559:966742.2853774617] none none [3125.6331669833721:3323.2227400311026] none [0:403.77764092016611] [0:403.77764092016611] [74.166209495041301:89.224799485777211] [74.166209495041301:89.224799485777211] [24.178433964655767:28.356173140545412] [24.178433964655767:28.356173140545412] [-4.5717681780699149:5.3108736337661018] [-4.5717681780699149:5.3108736337661018] [-6.2680500182560719:5.1247667214851038] [-6.2680500182560719:5.1247667214851038] [1.39564484944224:6.8002328204854665] [1.39564484944224:6.8002328204854665] [3125.6331669833717:3318.0784934845619] [3125.6331669833717:3318.3085698195596] [0.06597045822318269:149.02606250490396] [0.34670367581884309:119.23124797939784] [75.920732847159741:87.36324422781334] [76.483294868292248:86.237507786239505] [24.524834464421016:28.067998122101869] [24.646253660584854:27.823998304699263] [-3.4486736035175789:3.6280013469861503] [-3.1133143420372855:3.131422920161175] [-4.48361272930451:3.4734894156434146] [-3.8559405516430854:3.0795858777581708] [1.7342058228275261:5.7925001460518359] [1.9506388693011207:5.3170040362056081] [3126.4705697467193:3322.5176135254787] [3128.1510842727353:3321.9713762714046] none none none none none none none none none none none none none none none none none none none none none none
tree_sizes=1223 1336 1364 1281 1626 1090 1354 1356 1447 1381 1456 1547 1450 1282 1515 1378 1707 1619 1552 1267 1370 1561 1128 1388 1451 1256 1457 1476 1178 1539 1450 1397 1343 1438 1203 1112 1469 1643 1293 1216 1306

Tree=0
num_leaves=13
num_cat=0
split_feature=2 19 28 22 1 2 2 9 19 19 2 30
split_gain=32.9034 34.3466 14.7846 6.06222 5.70448 4.36755 2.59173 1.28163 1.18777 0.912611 3.61279 0.850287
threshold=965017.97245570307 3273.1667321807568 -0.69921319898159473 82.973944975425752 0.74851074817110097 933522.35621840123 941300.40759226016 82.567289392403964 3178.6180886983461 3307.4649162254332 962343.07723132789 1.0000000180025095e-35
decision_type=2 2 2 2 2 2 2 2 2 2 2 2
left_child=1 2 4 9 11 8 -7 -6 -4 -3 -11 -1
right_child=-2 3 5 -5 7 6 -8 -9 -10 10 -12 -13
leaf_value=0.56952041675651899 0.59313795201483177 0.56371572476717535 0.58583136652725643 0.5779072055110297 0.58238190233342979 0.57432953961232303 0.58372851578747575 0.57453233442310392 0.59207663349423356 0.5753310493148166 0.56574750337317314 0.57710214805436599
leaf_weight=97.5 116 81 72.5 54 72.5 31.5 118.5 22.5 72 51.5 137.5 18
leaf_count=64 21 55 20 23 25 19 39 13 10 28 92 10
internal_value=0.578309 0.57621 0.581091 0.568612 0.575055 0.585416 0.581694 0.580429 0.589135 0.566789 0.568273 0.570616
internal_weight=945 829 505 324 210.5 294.5 150 95 144.5 270 189 115.5
internal_count=419 398 200 198 112 88 58 38 30 175 120 74
is_linear=0
shrinkage=1


Tree=1
num_leaves=14
num_cat=0
split_feature=9 19 5 0 5 5 19 23 19 28 19 15 31
split_gain=31.6101 15.9789 13.7331 11.5421 6.66588 3.39862 10.4896 3.16033 2.66545 2.44734 2.23587 1.06459 0.156462
threshold=78.242467907425493 3273.1667321807568 3317.2953320763754 0.35460488704253579 3317.9648419125547 3308.4982315433995 3307.8939020731991 83.806859186573135 3185.4366870976887 0.73645474838583358 3223.9544122513321 -0.73927300093369352 4.2637126739593905
decision_type=2 2 2 2 2 2 2 2 2 2 2 2 2
left_child=4 3 5 7 9 6 -3 10 -9 -1 -2 12 -5
right_child=1 2 -4 11 -6 -7 -8 8 -10 -11 -12 -13 -14
leaf_value=0.00034415013901889318 -0.0019471904653894996 -0.012056940668650219 0.0081666559798868141 -0.0088996335403672584 0.0185089819061924 -0.012980797570630122 0.0036430522370929559 0.011748885838629363 0.002404456506172816 0.0095384793366704683 0.0048453484301024408 0 -0.0042240941139414555
leaf_weight=40 74 102.5 43.5 70.5 69 140.5 58.5 75 47.5 82 98.5 18 19.5
leaf_count=17 40 69 12 47 9 94 23 14 19 19 34 8 12
internal_value=0.00026476 -0.00251558 -0.0072384 0.0015285 0.0110975 -0.00951996 -0.00634077 0.00460827 0.00827056 0.0066265 0.00190814 -0.00676013 -0.00806567
internal_weight=939 748 345 403 191 301.5 161 295 122.5 122 172.5 108 90
internal_count=417 372 198 174 45 186 92 107 33 36 74 67 59
is_linear=0
shrinkage=0.03


Tree=2
num_leaves=14
num_cat=0
split_feature=9 12 2 24 2 21 10 28 10 26 12 34 19
split_gain=26.784 15.887 6.71025 5.69809 5.40893 3.73776 3.50326 2.57225 2.12723 1.55306 3.23153 1.02794 0.0136882
threshold=79.979392290202313 26.914880902268376 962406.11340854643 80.46122800600422 965212.73624968959 82.410554724485493 82.451756294200351 1.1490940523256483 82.160130178216932 26.241329218763109 27.174533148698305 3314.4076616143493 3273.1667321807568
decision_type=2 2 2 2 2 2 2 2 2 2 2 2 2
left_child=4 2 3 12 7 8 -5 9 -3 -1 -11 -4 -2
right_child=1 5 11 6 -6 -7 -8 -9 -10 10 -12 -13 -14
leaf_value=0.0055944462624879987 -0.0090834634131991988 0.004735393545917563 -0.012865955139487241 0.0018287401617300217 0.015397626695178801 0.01132195782178157 -0.0047889219584206864 0.0087009960962700708 -0.0049478940103581401 -0.0081944876822332546 0.0055906943830393123 -0.0040288767412304874 -0.013592771791276478
leaf_weight=50 46.5 53.5 119 121 61 53.5 169.5 94.5 30 29.5 27.5 18 29.5
leaf_count=15 31 17 80 51 8 12 100 23 17 20 8 9 20
internal_value=-0.000393576 -0.00370676 -0.00617298 -0.00399209 0.00763481 0.0052723 -0.00201834 0.00512706 0.00115183 0.00181386 -0.00147798 -0.0118227 -0.0112144
internal_weight=903 640.5 503.5 366.5 262.5 137 290.5 201.5 83.5 107 57 137 76
internal_count=411 337 291 202 74 46 151 66 34 43 28 89 51
is_linear=0
shrinkage=0.03


Tree=3
num_leaves=13
num_cat=0
split_feature=10 19 0 2 34 2 19 2 2 2 1 13
split_gain=22.6081 18.5566 12.3006 7.91405 5.94483 3.93876 10.4096 3.32204 3.20628 2.73489 1.24443 0.896255
threshold=78.006817126476804 3273.1667321807568 0.35460488704253579 965212.73624968959 3316.1385968800464 962458.85146405257 3307.8939020731991 929667.84895722091 925992.3839295794 941300.40759226016 0.56806474673115548 -0.27267952712920612
decision_type=2 2 2 2 2 2 2 2 2 2 2 2
left_child=3 2 7 11 5 6 -3 8 -2 -9 -4 -1
right_child=1 4 10 -5 -6 -7 -8 9 -10 -11 -12 -13
leaf_value=0.0012949066522357229 0.0023966655267321541 -0.011514077277019105 -0.0083691076341947893 0.01882701567945809 0.0033078561638082773 -0.012316706738471983 0.0035186161648482085 -0.0040595891094033386 0.011751147866249083 0.0045522129116453468 -0.0012627492726665654 0.0070452024341698099
leaf_weight=43.5 55.5 99.5 79.5 56 40 148 68 45 92 108.5 34.5 68
leaf_count=17 23 67 53 7 13 99 27 28 16 38 17 19
internal_value=-0.000145149 -0.00232814 0.00196754 0.0097702 -0.00734252 -0.00872404 -0.00540635 0.00515061 0.00835061 0.00196925 -0.00632907 0.00491703
internal_weight=938 770.5 415 167.5 355.5 315.5 167.5 301 147.5 153.5 114 111.5
internal_count=424 381 175 43 206 193 94 105 39 66 70 36
is_linear=0
shrinkage=0.03


Tree=4
num_leaves=17
num_cat=0
split_feature=9 19 0 5 19 33 34 5 5 13 1 23 5 31 19 29
split_gain=24.1211 16.3958 11.3383 6.84078 4.11284 8.91734 4.68333 3.35183 3.04259 2.56392 2.49152 1.64789 1.08675 0.551898 0.530749 0.138907
threshold=79.226710587404753 3273.1667321807568 0.06026834012766185 3317.9648419125547 3308.0265618380145 3307.8955425541913 3316.1385968800464 3207.5247666608907 3234.1295781690173 0.04218293103869411 0.56806474673115548 83.765993554362538 3190.0867297264081 3.1127283860789823 3238.5084860945931 0.11587244286443131
decision_type=2 2 2 2 2 2 2 2 2 2 2 2 2 2 2 2
left_child=3 2 7 9 -3 -6 -7 12 -9 11 15 -1 -2 -11 -12 -4
right_child=1 4 10 -5 5 6 -8 8 -10 13 14 -13 -14 -15 -16 -17
leaf_value=-0.0036872877086463725 0.0057615332731912874 -0.011580344582442193 -0.0085142050540292415 0.016538945725266364 0.0066346513832710226 -0.010583986546223362 0.0022368108885506026 -0.0055874668611074554 0.004717895070979492 0.010654444774668112 -0.0026314054511744397 0.0056597872132160623 0.012265508598968631 0.0053796370692342247 0.0030702369374743959 -0.0039203722614794961
leaf_weight=36 56 126 75 69 47 124 30.5 31.5 107 48.5 27 28.5 59 51.5 27.5 18
leaf_count=19 17 85 50 9 13 83 11 21 36 9 15 8 10 16 10 12
internal_value=0.000328065 -0.00235781 0.00169651 0.00868209 -0.0073204 -0.0045395 -0.00801844 0.00553986 0.0022852 0.00519139 -0.00485445 0.000398595 0.00930226 0.00815549 0.000146216 -0.00778949
internal_weight=962 728.5 401 233.5 327.5 201.5 154.5 253.5 138.5 164.5 147.5 64.5 115 100 54.5 93
internal_count=424 363 171 61 192 107 94 84 57 52 87 27 27 25 25 62
is_linear=0
shrinkage=0.03


Tree=5
num_leaves=11
num_cat=0
split_feature=2 20 0 22 23 0 10 27 1 20
split_gain=28.1962 23.0283 13.7923 5.14511 3.36056 2.76706 2.23117 1.8361 0.86807 0.403556
threshold=965017.97245570307 3273.1667321807568 0.35460488704253579 82.973944975425752 83.755431850349069 -0.51639395938746191 85.608394936242931 1.254313343992753 0.56806474673115548 3307.4619735572437
decision_type=2 2 2 2 2 2 2 2 2 2
left_child=1 2 4 6 7 -6 9 -1 -4 -3
right_child=-2 3 8 -5 5 -7 -8 -9 -10 -11
leaf_value=0 0.014324132947982111 -0.01302869450863991 -0.0080618185188621287 0.0011015574726462366 0.012753501026930208 0.0042767111465964519 -0.00078040441019194471 0.0055665467948648913 -0.0020450882453373386 -0.0091859731194481511
leaf_weight=97 116.5 63.5 78 48 81.5 69 26 117.5 36 169
leaf_count=48 20 43 52 19 12 23 12 36 19 110
internal_value=0.000677684 -0.00136988 0.00272801 -0.00776971 0.00557719 0.00901353 -0.00943582 0.00307744 -0.00628154 -0.0103632
internal_weight=902 785.5 479 306.5 365 150.5 258.5 214.5 114 232.5
internal_count=394 374 190 184 119 35 165 84 71 153
is_linear=0
shrinkage=0.03


Tree=6
num_leaves=14
num_cat=0
split_feature=2 19 0 11 22 9 22 1 10 18 23 1 2
split_gain=22.5307 22.7816 11.3574 5.01135 6.74732 2.62944 2.1839 1.22536 1.03283 0.981886 0.603411 0.470653 0.109182
threshold=965017.97245570307 3273.1667321807568 0.46472317204376884 25.416652015498901 77.691101486862976 83.077606683049126 30.544784131603645 -0.88545602565320969 83.859184163549614 3.289868755805236 81.929133845633871 0.56806474673115548 962487.65254911466
decision_type=2 2 2 2 2 2 2 2 2 2 2 2 2
left_child=1 2 5 4 10 6 -1 8 -5 -7 -3 -4 -9
right_child=-2 3 11 7 -6 9 -8 12 -10 -11 -12 -13 -14
leaf_value=-0.0025241845909278002 0.013281909902087028 -0.011522875742036469 -0.007767410549360353 -0.0082467345923185349 0.010105197998544863 -0.0034764352152241934 0.0068146455389819375 -0.0089495088541598038 0.0003117541767830072 0.0030739565712594708 -0.0032341320965348216 -0.0024855888941935421 -0.011840885027418743
leaf_weight=22.5 100 22.5 72 28 29 37.5 281 97 19.5 41 18.5 27 115.5
leaf_count=14 18 15 48 18 6 22 80 64 8 16 10 15 77
internal_value=-2.08791e-06 -0.00167609 0.00247762 -0.00772697 -0.000490959 0.0048322 0.00609068 -0.00963361 -0.0047414 0 -0.00824675 -0.00646406 -0.0106448
internal_weight=911 811 481 330 70 382 303.5 260 47.5 78.5 41 99 212.5
internal_count=411 393 195 198 31 132 94 167 26 38 25 63 141
is_linear=0
shrinkage=0.03


Tree=7
num_leaves=14
num_cat=0
split_feature=27 20 0 34 31 2 20 22 2 34 9 1 18
split_gain=23.5003 8.16569 6.05743 5.09032 3.53226 2.98661 8.7706 2.4704 2.35402 3.57697 1.65836 0.979837 0.335375
threshold=1.1866365318082643 3273.1667321807568 0.35460488704253579 3316.1385968800464 2.9815151368979098 962431.79967667698 3307.8536254841815 88.880326434099274 965212.73624968959 3306.1863297487739 80.284586817689288 0.4647231720437684 2.0630567898971566
decision_type=2 2 2 2 2 2 2 2 2 2 2 2 2
left_child=1 2 7 5 -2 6 -3 10 9 12 -1 -4 -6
right_child=4 3 11 -5 8 -7 -8 -9 -10 -11 -12 -13 -14
leaf_value=0.005446683726825957 0.012546328845620154 -0.010210216227564876 -0.008020141232142345 0.0057622104833523428 0.0065616142170769826 -0.011137088357134069 0.0035380665721065959 0.0099362587509928529 0.010646046881377698 -0.0086560540462649136 -0.00066221091095627514 -0.0017381872067727692 0.0027668760385190657
leaf_weight=57 78 108.5 67.5 25 50.5 139 65 35 43 19.5 119 39 57
leaf_count=18 13 72 45 8 14 93 26 6 7 13 59 21 21
internal_value=-0.000556156 -0.00353992 -6.19627e-05 -0.00677446 0.00726561 -0.00782673 -0.00504375 0.00285854 0.0046901 0.00249322 0.0013215 -0.00584945 0.0046916
internal_weight=903 655 317.5 337.5 248 312.5 173.5 211 170 127 176 106.5 107.5
internal_count=416 348 149 199 68 191 98 83 55 48 77 66 35
is_linear=0
shrinkage=0.03


Tree=8
num_leaves=15
num_cat=0
split_feature=27 22 8 2 19 22 11 1 2 10 31 10 10 1
split_gain=23.6954 11.9362 6.65217 5.57277 3.89743 3.74764 3.23619 3.16392 1.61988 2.78607 1.48593 1.44843 0.821861 0.0324667
threshold=1.1866365318082643 75.231263341670385 31.378407082935198 934847.40204391954 3273.1667321807568 67.698725379505689 25.64735919512319 -0.91023613416931226 942258.86453251645 80.482597064668184 2.3391792761796895 81.285285007288394 84.46467562887382 0.29696027566504685
decision_type=2 2 2 2 2 2 2 2 2 2 2 2 2 2
left_child=1 4 -3 -4 6 8 -1 10 -2 -10 -6 -8 -5 -9
right_child=5 2 3 12 7 -7 11 13 9 -11 -12 -13 -14 -15
leaf_value=-0.0079919119697350726 0.0089388933979695842 0.009594843409414397 0.0072780481118422296 -0.0092869643313544144 0.0034386960576320512 0.014982703290814938 0.0025332658814915111 -0.010721616553495059 0.0072704935390502214 -0.0024364382719000177 -0.0062983419696489963 -0.0031460958800555482 -0.001222858520542703 -0.0080641044787834026
leaf_weight=63 91 87.5 37 43.5 27 55.5 87 109 62 43 25 72 18.5 79.5
leaf_count=42 19 19 9 29 9 10 34 73 14 21 15 44 9 52
internal_value=0.000317972 -0.00270588 0.00365494 -0.0016216 -0.00528844 0.00810451 -0.0023519 -0.00793261 0.00599489 0.00326796 -0.00119135 -8.38777e-06 -0.0070879 -0.00972873
internal_weight=900.5 649 186.5 99 462.5 251.5 222 240.5 196 105 52 159 62 188.5
internal_count=399 335 66 47 269 64 120 149 54 35 24 78 38 125
is_linear=0
shrinkage=0.03


Tree=9
num_leaves=14
num_cat=0
split_feature=34 19 0 2 2 19 34 19 1 1 31 1 25
split_gain=19.0632 21.6339 9.67886 2.86932 3.16679 2.07933 6.67274 1.95595 1.65481 0.773282 0.205348 0.0712033 0.00993612
threshold=3316.7633164501012 3273.1667321807568 0.12053668025532312 932650.20179399312 940824.63445610029 3307.6817795632392 3308.5042143636997 3178.6180886983461 0.78574730703237883 -0.51639395938746235 4.2637126739593905 -0.91023613416931226 25.251112468538558
decision_type=2 2 2 2 2 2 2 2 2 2 2 2 2
left_child=1 2 3 7 -5 12 9 -1 10 -7 -4 -8 -3
right_child=-2 5 8 4 -6 6 11 -9 -10 -11 -12 -13 -14
leaf_value=0.0043211287273180916 0.011617305743442455 -0.0075396900643001901 -0.0075287692846291382 -0.0056871127399959059 0.0041017351916290065 0.00492259567900549 -0.0060519641099067833 0.010970619752639677 0.00048874501035183295 -0.0017775009989130252 -0.002817000125348568 -0.010176674226375474 -0.011731335859487551
leaf_weight=94.5 104.5 25.5 76.5 36 131.5 37.5 24 80 37.5 22.5 18 107.5 99
leaf_count=32 20 17 51 24 46 12 15 13 17 14 11 72 67
internal_value=-0.000291978 -0.00190025 0.00214287 0.00480829 0.00192019 -0.00795915 -0.00582327 0.00749337 -0.00468689 0.002337 -0.00677045 -0.00957076 -0.011053
internal_weight=894.5 790 474 342 167.5 316 191.5 174.5 132 60 94.5 131.5 124.5
internal_count=411 391 194 115 70 197 113 45 79 26 62 87 84
is_linear=0
shrinkage=0.03


Tree=10
num_leaves=15
num_cat=0
split_feature=27 11 22 2 24 12 9 33 19 2 21 12 7 26
split_gain=20.6339 9.09457 5.66 5.53849 4.81288 3.06641 2.57425 3.01265 2.14503 1.55067 0.991884 0.685315 0.207448 0.200433
threshold=1.0473529647746187 26.888393001617334 75.231263341670385 962343.07723132789 82.672295588287739 27.095717308643518 78.783248597626411 3271.658412333632 3308.3169419608771 959431.12817073648 31.077728347722111 26.921732521403793 14.25917522522913 26.660823047891707
decision_type=2 2 2 2 2 2 2 2 2 2 2 2 2 2
left_child=1 3 6 4 10 9 11 12 -6 -3 -1 -2 -8 -5
right_child=2 5 -4 13 8 -7 7 -9 -10 -11 -12 -13 -14 -15
leaf_value=-0.0086694138873191096 0.0097314219399237296 0.0032543335814471737 0.014626340139458198 -0.010453730619748433 -0.0012428719911803589 0.0076706708566567239 0.0024841508777772494 -0.0056666790390014644 0.0060785942603363086 -0.0065250846992839463 -0.0034506316894496025 0.004621913641691208 0.0058695717295821834 -0.0050979228436946866
leaf_weight=92.5 69 28.5 63.5 110.5 186 84 45 35.5 42.5 25.5 64 54.5 47 18
leaf_count=62 11 10 12 74 93 20 16 20 13 15 37 17 13 11
internal_value=0.000406287 -0.00263301 0.00669813 -0.00447365 -0.00262575 0.00413925 0.0045689 0.00148157 0.000133785 -0.00132469 -0.00664354 0.00763402 0.00436558 -0.0098391
internal_weight=966 651.5 314.5 513.5 385 138 251 127.5 228.5 54 156.5 123.5 92 128.5
internal_count=424 335 89 290 205 45 77 49 106 25 99 28 29 85
is_linear=0
shrinkage=0.03


Tree=11
num_leaves=16
num_cat=0
split_feature=28 12 2 2 22 2 19 2 19 33 19 2 19 2 11
split_gain=15.2725 6.85053 10.1443 8.12377 3.74337 4.06944 2.8468 2.7564 2.33832 2.04325 1.19948 0.603931 0.118354 0.0617546 0.0242477
threshold=-0.71938626510368064 27.824984546301739 960555.94767310994 965624.09197096468 26.215136183994218 962265.78251524281 3308.3169419608771 933085.16036982159 3273.1667321807568 3233.8583131041105 3178.6180886983461 962173.1274550719 3273.1667321807568 962458.85146405257 25.454143483659269
decision_type=2 2 2 2 2 2 2 2 2 2 2 2 2 2 2
left_child=4 2 7 11 12 6 8 10 -6 -9 -2 -4 14 -7 -1
right_child=1 -3 3 -5 5 13 -8 9 -10 -11 -12 -13 -14 -15 -16
leaf_value=-0.008249629978273736 0.0055851135474148687 0.016275903721650442 -0.0044321754080983355 0.0068786589804660072 9.0862559427501283e-05 -0.0054935801429674023 0.0076252696404994378 -0.0043624503567326264 -0.0077430275925274555 0.004325946162732971 0.011160034947757479 -0.010129246770067419 -0.0098743524806840077 -0.0092554800595343115 -0.0049970245765885565
leaf_weight=28.5 89 34 34.5 42.5 155 30 33.5 28.5 41.5 113.5 77 68.5 61 48 39
leaf_count=19 25 5 20 9 72 20 8 18 27 38 11 46 41 31 26
internal_value=-2.56696e-06 0.00363356 0.00260526 -0.00386296 -0.00407526 -0.00222719 -0.000171807 0.00568542 -0.00159474 0.00250411 0.00830886 -0.00839892 -0.0083569 -0.00805711 -0.00665456
internal_weight=924 487.5 453.5 145.5 436.5 308 230 308 196.5 142 166 103 128.5 78 67.5
internal_count=416 172 167 75 244 158 107 92 99 56 36 66 86 51 45
is_linear=0
shrinkage=0.03


Tree=12
num_leaves=15
num_cat=0
split_feature=27 2 23 31 34 19 19 22 28 1 15 2 28 25
split_gain=17.4566 5.94685 5.98807 5.25407 3.2703 2.43081 3.5932 1.88267 1.86776 1.00342 0.937634 0.513788 0.360486 0.294172
threshold=1.0473529647746187 962265.78251524281 82.330419052020616 3.2105840624546507 3316.1385968800464 3308.4052397333535 3189.6179557168102 75.231263341670385 1.4333441480023812 0.29696027566504685 3.0538784103069898 962458.85146405257 -1.1760654447477241 26.617733626471509
decision_type=2 2 2 2 2 2 2 2 2 2 2 2 2 2
left_child=1 2 9 7 11 6 -4 10 -5 12 -2 -3 -1 -10
right_child=3 4 5 8 -6 -7 -8 -9 13 -11 -12 -13 -14 -15
leaf_value=-0.0090853416773657141 0.0041493755370378502 -0.0048095205494335718 0.0046726443393700669 -0.0047239683839812203 0.0023365442559071295 0.0083969927140184353 -0.0021932246977002501 0.014618332472049965 0.0055778816811740397 -0.0017799389621144844 0.010286145054101943 -0.009966950215044474 -0.0035302233078881445 0.0016466742592953865
leaf_weight=73.5 58 33 104 31.5 25 35 192 51 38 36 48 124 21 44.5
leaf_count=49 19 22 34 17 9 7 100 8 9 20 7 83 14 17
internal_value=-0.000135167 -0.00283091 -0.000993037 0.00621785 -0.00739719 0.00114265 0.000214143 0.00974869 0.00121925 -0.00639076 0.00712287 -0.00899477 -0.0080118 0.00361758
internal_weight=914.5 643.5 461.5 271 182 331 296 157 114 130.5 106 157 94.5 82.5
internal_count=415 338 224 77 114 141 134 34 43 83 26 105 63 26
is_linear=0
shrinkage=0.03


Tree=13
num_leaves=13
num_cat=0
split_feature=2 19 0 33 2 20 2 21 11 33 2 29
split_gain=18.32 20.1027 8.14093 2.00996 2.64664 1.94055 6.0056 1.22992 1.13155 0.565057 0.0455231 0.0150779
threshold=965017.97245570307 3273.1667321807568 0.12053668025532312 3154.0251920126807 932650.20179399312 3307.5494477669067 962343.07723132789 47.020449198037433 25.64735919512319 3232.2320362472606 962487.65254911466 -2.9726287518051109
decision_type=2 2 2 2 2 2 2 2 2 2 2 2
left_child=1 2 3 -1 -5 11 7 -7 -4 -10 -8 -3
right_child=-2 5 8 4 -6 6 10 -9 9 -11 -12 -13
leaf_value=-0.0039947564844649442 0.011535040406724822 -0.0071891387788975821 -0.0069063256479078719 0.0078847628796854634 0.0025163447419786055 0.0060507513094693417 -0.0050158686943352218 -0.0019307832421540324 -0.0032985843918158096 0.0015886328950691132 -0.0091474694875505504 -0.011048443081759915
leaf_weight=21 106.5 28.5 60 164 179 33 18 31.5 52.5 31.5 126 95
leaf_count=11 19 19 40 37 71 10 12 19 32 13 84 64
internal_value=-6.09493e-05 -0.00156219 0.00217981 0.00456953 0.00513139 -0.00728463 -0.00536864 0.00212173 -0.00379963 -0.00140179 -0.0087479 -0.0103344
internal_weight=946.5 840 508 364 343 332 208.5 64.5 144 84 144 123.5
internal_count=431 412 204 119 108 208 125 29 85 45 96 83
is_linear=0
shrinkage=0.03


Tree=14
num_leaves=16
num_cat=0
split_feature=27 9 2 2 2 19 0 22 19 2 19 23 22 10 33
split_gain=18.0976 5.38896 4.09654 3.78203 3.57177 3.54689 3.02671 2.13696 1.84825 3.70651 1.48629 0.979111 0.726393 0.721601 0.592191
threshold=1.0473529647746187 80.028811902153606 965212.73624968959 933961.79279496009 962158.25481731759 3273.1667321807568 -0.12053668025532321 75.231263341670385 3307.7789820513772 962343.07723132789 3271.356748631234 84.080348897507562 44.0768753017027 82.529662588703673 3185.6677244763937
decision_type=2 2 2 2 2 2 2 2 2 2 2 2 2 2 2
left_child=1 7 3 14 13 6 11 10 -7 -10 -1 -3 -8 -5 -2
right_child=2 5 -4 4 -6 8 12 -9 9 -11 -12 -13 -14 -15 -16
leaf_value=0.0031442921469951499 0.0052410571582027169 0 0.012410409924852385 0.0053996712601390379 -0.0083150674076307388 -0.0093018849798043573 -0.0058879530475940559 0.0091247931912138668 0.0027298963029007426 -0.0070771076175730856 -0.0052587778419256213 0.0060504826970638774 -0.0012424392722925896 -0.00031754566279464753 0.010302289806428503
leaf_weight=56 55 48 75 56 29.5 110.5 78 35 48 109.5 26 44.5 57 27 59
leaf_count=21 15 23 11 15 20 74 52 7 20 70 14 11 29 13 9
internal_value=0.000363231 -0.0025909 0.00636187 0.0042417 0.000262423 -0.00396151 -0.00115811 0.00313227 -0.00629283 -0.00405394 0.000346704 0.00294767 -0.00401708 0.00350555 0.00804465
internal_weight=914 612.5 301.5 226.5 112.5 495.5 227.5 117 268 157.5 82 92.5 135 83 114
internal_count=404 321 83 72 48 279 115 42 164 90 35 34 81 28 24
is_linear=0
shrinkage=0.03


Tree=15
num_leaves=14
num_cat=0
split_feature=2 19 0 19 2 2 2 2 1 9 2 29 29
split_gain=16.576 14.5715 6.51787 2.73061 7.71173 2.55527 2.87177 2.35601 1.95382 0.727355 0.383765 0.146475 0.0626599
threshold=965017.97245570307 3273.1667321807568 0.06026834012766185 3307.6022758319154 962283.04896784772 933085.16036982159 940824.63445610029 926392.00140437984 0.56806474673115548 82.184472405508615 962487.65254911466 -2.9726287518051109 -0.12855953431627509
decision_type=2 2 2 2 2 2 2 2 2 2 2 2 2
left_child=1 2 5 11 -5 7 -7 -1 12 -10 -6 -3 -4
right_child=-2 3 8 4 10 6 -8 -9 9 -11 -12 -13 -14
leaf_value=0.0013731597479466997 0.010828612876579899 -0.0064812065851874642 -0.0064975179059279927 0.0042990784229390991 -0.0030979603570561072 -0.005545383211178115 0.0037915178107441497 0.0092281148341985843 0.0030950842633675987 -0.0028059195434907451 -0.0086471399969110865 -0.01077436685499392 -0.0029799319932237267
leaf_weight=52.5 109.5 30 72 65 19.5 37.5 114.5 115 42.5 30 124 93 18
leaf_count=21 21 20 48 23 13 25 39 20 15 17 83 63 12
internal_value=-1.40086e-05 -0.0015038 0.00181554 -0.00633005 -0.00412403 0.00430232 0.00140694 0.00684676 -0.00303023 0.000562978 -0.00798726 -0.00989571 -0.00593929
internal_weight=923 813.5 482 331.5 208.5 319.5 152 167.5 162.5 72.5 143.5 123 90
internal_count=420 399 197 202 119 105 64 41 92 32 96 83 60
is_linear=0
shrinkage=0.03


Tree=16
num_leaves=18
num_cat=0
split_feature=27 22 31 10 32 19 12 2 9 2 28 2 2 24 19 10 12
split_gain=13.6498 5.61638 4.86182 3.61914 3.74597 3.45473 3.08672 2.15352 1.34489 1.77457 1.25522 1.108 0.914592 0.85102 0.67773 0.6708 0.585152
threshold=1.0473529647746187 75.231263341670385 3.4864968246284489 82.694127019999499 2.8285114897359329 3273.1667321807568 26.303565725558823 965017.97245570307 78.242467907425493 942741.55593720172 1.6693607172334557 962265.78251524281 949228.51318365603 83.158103377292193 3307.7789820513772 80.028811902153606 26.921732521403793
decision_type=2 2 2 2 2 2 2 2 2 2 2 2 2 2 2 2 2
left_child=1 5 15 4 -2 6 12 14 16 -10 -5 -4 -1 -8 -7 -3 -6
right_child=3 2 11 10 8 7 13 -9 9 -11 -12 -13 -14 -15 -16 -17 -18
leaf_value=-0.005061487904399151 0.016658989022759831 0.011135133172784533 -0.0001081028063613248 -0.0039657781458482507 0.0094421196539659757 -0.0091542678437052435 -0.00032656327741486683 0.0028503651959555492 0.0054181462228298184 -0.0038102680856531316 0.0038147599506465828 -0.007996539176024239 0.0017883511304855348 0.0050798392807826021 -0.0053828213080366859 0.0049224506820832103 0.004509732382768525
leaf_weight=121.5 32 26 39.5 39 72 102 43.5 19 55 25.5 32 27 18 56.5 120 69.5 48.5
leaf_count=79 4 4 17 21 11 69 22 6 15 14 10 18 7 17 74 20 14
internal_value=0.00025458 -0.00221653 0.00256923 0.00547719 0.00727198 -0.00384644 -0.00124644 -0.00637403 0.00559857 0.00240063 -0.000368426 -0.00353848 -0.00412245 0.00270894 -0.0072087 0.00686912 0.0076119
internal_weight=946.5 642.5 162 304 233 480.5 239.5 241 201 80.5 71 66.5 139.5 100 222 95.5 120.5
internal_count=422 333 59 89 58 274 125 149 54 29 31 35 86 39 143 24 25
is_linear=0
shrinkage=0.03


Tree=17
num_leaves=17
num_cat=0
split_feature=28 9 19 19 31 21 19 23 9 19 24 21 7 19 8 17
split_gain=10.873 5.73911 8.944 3.1862 2.6901 2.35503 1.95223 1.89311 1.14912 0.800923 0.720856 0.547918 0.526241 0.455172 0.343837 0.199301
threshold=0.11687088594321483 78.242467907425493 3290.4578545027516 3273.1667321807568 2.3831728283071034 35.782789239521456 3314.1145922283804 83.806859186573135 82.184472405508615 3312.8600556558663 83.503341414769281 54.532815563646473 134.75154712288477 3250.2722679291032 111.04407427820142 3.7859246428973305
decision_type=2 2 2 2 2 2 2 2 2 2 2 2 2 2 2 2
left_child=3 6 7 5 -5 13 -2 11 10 -4 -7 -3 14 -1 -6 -10
right_child=1 2 9 4 12 8 -8 -9 15 -11 -12 -13 -14 -15 -16 -17
leaf_value=-0.00537677127307547 0.004750798478190388 0.0034705159320856968 -0.0080961294307065855 0.0012246829195934183 -0.0079893630477690589 0.00047082611341630264 0.013030953324924816 0.009190586007874587 -8.0901277216174932e-05 -0.00060109194628894325 0.0059050110983848575 -0.0012036277067932217 -0.0020869390225410462 0 -0.0031248331167259991 -0.0035754557716949228
leaf_weight=85.5 61 102.5 73.5 40.5 177.5 44.5 53 56 37.5 18 48 25.5 23 18 22.5 27
leaf_count=56 17 34 49 16 118 20 7 9 18 7 12 13 11 9 13 17
internal_value=-0.000572461 0.0032065 0.000819256 -0.00339436 -0.00571289 -0.00100061 0.00881037 0.00463776 0.00128466 -0.00673026 0.00341951 0.00248899 -0.00699921 -0.00448266 -0.00750816 -0.0016975
internal_weight=913.5 389.5 275.5 524 263.5 260.5 114 184 157 91.5 92.5 128 223 103.5 200 64.5
internal_count=426 136 112 290 158 132 24 56 67 56 32 47 142 65 131 35
is_linear=0
shrinkage=0.03


Tree=18
num_leaves=16
num_cat=0
split_feature=10 19 16 2 2 19 2 2 1 22 18 25 21 29 10
split_gain=12.1831 8.27542 5.22731 3.68355 2.36404 2.12304 3.08828 2.54025 1.81687 1.37513 0.772259 0.750387 0.468255 0.460263 0.264697
threshold=78.242467907425493 3273.1667321807568 0.12758678575951626 965212.73624968959 933085.16036982159 3307.6817795632392 962343.07723132789 964830.36563587619 0.5163939593874618 56.406447518754192 2.8083868674224184 26.348450118073536 42.705848907818797 1.1377280327520773 76.940340801264242
decision_type=2 2 2 2 2 2 2 2 2 2 2 2 2 2 2
left_child=3 2 8 11 -4 -3 12 -8 13 -6 -10 -1 -7 -2 -13
right_child=1 5 4 -5 9 6 7 -9 10 -11 -12 14 -14 -15 -16
leaf_value=0.00016601350903511046 -0.0059723983128344149 -0.0087618409932026121 0.0077656083138649941 0.013555557088851929 0.0030044910150005461 0.0043932079855352633 -0.0078760857176966952 0.00040496844748655954 0.003331918987535661 -0.0054115091011576024 -0.0016495821683419692 0.0030788771058176899 -0.0007348199874839999 -0.00031156116798520086 0.0069603688818277772
leaf_weight=40 88.5 120 94.5 48 68.5 33 126 43 44.5 21 67.5 43.5 25.5 18 46.5
leaf_count=15 59 81 20 6 23 11 84 15 16 14 36 15 14 9 10
internal_value=-0.000445806 -0.00212901 0.000786868 0.00655787 0.00449857 -0.00550874 -0.00370528 -0.00575389 -0.00232401 0.000889092 0.000300774 0.00376242 0.00210834 -0.00509432 0.00525725
internal_weight=928 750 402.5 178 184 347.5 227.5 169 218.5 89.5 112 130 58.5 106.5 90
internal_count=428 382 177 46 57 205 124 99 120 37 52 40 25 68 25
is_linear=0
shrinkage=0.03


Tree=19
num_leaves=13
num_cat=0
split_feature=9 20 2 22 10 2 20 9 28 27 2 26
split_gain=15.0654 6.40728 4.98157 3.62422 2.99188 2.36202 2.19868 1.27195 1.04544 1.03569 0.618409 0.0440002
threshold=78.242467907425493 3189.6179557168102 925992.3839295794 81.848931365808525 80.284586817689288 962406.11340854643 3307.9803693213858 82.315653249531906 0.45330116686241212 1.1866365318082643 964649.82884617511 26.253698584392993
decision_type=2 2 2 2 2 2 2 2 2 2 2 2
left_child=3 2 8 9 7 6 -6 -3 11 -1 -7 -2
right_child=1 4 -4 -5 5 10 -8 -9 -10 -11 -12 -13
leaf_value=0.00061765081627985065 -0.003137162491679191 0.0033956912362829166 0.0073074876129627228 0.013954331652871493 -0.0040138843371856107 -0.0083970431617715127 0.003089103275766739 -0.0048919134715268769 0.0023465647206027461 0.00654128135740757 -0.0017687501169741154 -0.0064520130696995503
leaf_weight=42.5 24 68.5 100.5 56 264.5 130 43.5 19.5 21.5 84 18 27
leaf_count=16 16 22 21 7 157 87 17 12 7 18 8 18
internal_value=0 -0.00195998 0.00302564 0.00764979 -0.00356174 -0.00453915 -0.00297789 0.00142467 -0.00286618 0.00463841 -0.00766523 -0.00518254
internal_weight=899.5 717 173 182.5 544 456 308 88 72.5 126.5 148 51
internal_count=406 365 62 41 303 269 174 34 41 34 95 34
is_linear=0
shrinkage=0.03


Tree=20
num_leaves=14
num_cat=0
split_feature=2 19 28 1 2 19 2 19 25 1 9 19 27
split_gain=12.8061 10.961 4.90214 2.12982 1.72847 4.38218 1.34558 1.47221 1.0016 0.958456 0.781171 0.187346 0.126841
threshold=965017.97245570307 3273.1667321807568 -0.69921319898159473 0.61559370248597578 962487.65254911466 3307.8939020731991 933085.16036982159 3222.3765652028364 26.288181606333126 -0.1799261722714405 82.567289392403964 3307.5691003367588 -1.2839033143547816
decision_type=2 2 2 2 2 2 2 2 2 2 2 2 2
left_child=1 2 3 12 5 11 9 -8 -7 -4 -5 -3 -1
right_child=-2 4 6 10 -6 8 7 -9 -10 -11 -12 -13 -14
leaf_value=-0.0055868324912994741 0.0096914753319245379 -0.008228000421144745 0.0029688172247260805 0.0029222633407052071 -0.0081702474259014498 -0.0015162866619648412 -0.0044810413832847883 0.0034099106204103342 0.0056184668382139574 0.0084828969695765494 -0.002690980714280158 -0.0034540890919044611 -0.0023283867849883707
leaf_weight=81 103.5 80.5 56 68 147.5 30 24 108 36 76.5 30 18 25.5
leaf_count=54 19 54 17 24 99 18 16 38 10 13 17 12 16
internal_value=-0.000113391 -0.00144185 0.00144669 -0.00201109 -0.0057846 -0.003537 0.00413764 0.00188495 0.00233795 0.00627583 0.00112447 -0.00750141 -0.00491924
internal_weight=884.5 781 469 204.5 312 164.5 264.5 132 66 132.5 98 98.5 106.5
internal_count=407 388 195 111 193 94 84 54 28 30 41 66 70
is_linear=0
shrinkage=0.03


Tree=21
num_leaves=16
num_cat=0
split_feature=9 20 12 22 28 28 20 33 2 10 10 1 2 31 20
split_gain=15.1056 6.75048 3.89182 2.94792 1.58336 1.30351 1.22056 4.06031 0.864112 0.849063 0.836511 0.773515 0.348343 0.267069 0.0693749
threshold=78.242467907425493 3273.1667321807568 26.195722467613649 81.848931365808525 -0.71938626510368064 1.4537583790292501 3307.5797048932131 3308.1790350809365 964830.36563587619 83.661166887993645 82.630946267553895 -0.51639395938746235 956115.24948820251 4.5629629226247026 3306.5106535805053
decision_type=2 2 2 2 2 2 2 2 2 2 2 2 2 2 2
left_child=3 2 4 5 13 -1 12 11 -9 10 -4 -8 -3 -2 -14
right_child=1 6 9 -5 -6 -7 7 8 -10 -11 -12 -13 14 -15 -16
leaf_value=0.00086327534885082425 -0.0050157305198401851 -0.0037361133334311569 0.0025523074662244798 0.013286272188712811 0.0025099234208464621 0.0070302214219019957 0.005074318380603059 -0.0069872980793105784 -0.0005034997448898279 -0.00056123384367674583 0.0068967184366718415 -0.0017783924233774806 -0.0098989835015130707 -0.00072230137434116631 -0.0058219470731143289
leaf_weight=49.5 106.5 25.5 148.5 56 36 95.5 42 139 24 44 60 19.5 52.5 19.5 27
leaf_count=20 70 16 52 7 13 18 13 93 10 21 13 12 36 11 18
internal_value=0.00018977 -0.00177855 0.000757606 0.00745078 -0.00283146 0.00500616 -0.00497237 -0.00361707 -0.00608667 0.00308802 0.00388465 0.00281944 -0.00769228 -0.00441981 -0.0087648
internal_weight=945 744 414.5 201 162 145 329.5 224.5 163 252.5 208.5 61.5 105 126 79.5
internal_count=423 378 180 45 94 38 198 128 103 86 65 25 70 81 54
is_linear=0
shrinkage=0.03


Tree=22
num_leaves=11
num_cat=0
split_feature=2 2 22 28 19 2 2 24 1 28
split_gain=10.0196 9.01319 4.95665 2.6739 2.39788 0.626292 0.29907 0.188845 0.0933391 0.00227838
threshold=965017.97245570307 962265.78251524281 26.215136183994218 1.3749715783372856 3308.4052397333535 942258.86453251645 962487.65254911466 80.126135007609307 -0.91023613416931226 -2.3842345255344255
decision_type=2 2 2 2 2 2 2 2 2 2
left_child=1 2 7 4 -4 -5 9 -1 -8 -3
right_child=-2 6 3 5 -6 -7 8 -9 -10 -11
leaf_value=-0.0074251333577292312 0.0087540500608907224 -0.0021895702628418803 -0.00046276978466273342 0.0066401884663907975 0.0070128369557446446 0.0019137025736167693 -0.0041681578450424722 -0.0035622600613960196 -0.0081628253623783811 -0.0048829342830319731
leaf_weight=50.5 101.5 18 336 94.5 41.5 42.5 19.5 33 123.5 19.5
leaf_count=34 19 12 161 20 9 16 13 22 83 13
internal_value=-9.86249e-06 -0.00117968 0.000590136 0.0017049 0.000375869 0.00526574 -0.00701822 -0.0060877 -0.00772448 -0.00391834
internal_weight=880 778.5 598 514.5 377.5 137 180.5 83.5 143 37.5
internal_count=402 383 262 206 170 36 121 56 96 25
is_linear=0
shrinkage=0.03


Tree=23
num_leaves=14
num_cat=0
split_feature=11 5 28 24 19 5 34 23 19 26 34 28 30
split_gain=8.53198 4.87603 3.89825 3.2471 2.39467 4.61077 1.66341 1.07088 1.01846 0.439271 0.121089 0.184518 0.0253015
threshold=26.727622419785664 3307.8345478183955 1.1198953604053894 83.319996805054132 3313.6947287915564 3300.0193854353097 3307.5546861196431 83.755431850349069 3236.8597955993246 26.595532351817557 3314.4076616143493 -2.4378385591011127 0.8954914779665154
decision_type=2 2 2 2 2 2 2 2 2 2 2 2 2
left_child=1 2 3 6 5 7 -1 9 -5 -2 11 -3 -7
right_child=4 10 -4 8 -6 12 -8 -9 -10 -11 -12 -13 -14
leaf_value=-0.0047005276422900392 0.0001797677521881099 -0.0042836639917322563 0.0067211036347824592 -0.00013406232425144739 0.0087523263583377912 -0.0042284225592779555 0.0032376111543403478 0.0071251232073857229 0.0052009670170577796 0.0040019709905470486 -0.0031654760845005511 -0.0079523008422575144 -0.008414663612842559
leaf_weight=205 51.5 33 55.5 71.5 71.5 19.5 24.5 76 53.5 65 18 101.5 19
leaf_count=130 22 22 13 33 13 12 8 15 15 18 10 68 13
internal_value=-4.96697e-05 -0.00223959 -0.000509585 -0.0016898 0.00399076 0.00242871 -0.00380653 0.00434709 0.00214803 0.00239451 -0.00678512 -0.0071721 -0.00675603
internal_weight=865 562.5 410 354.5 302.5 231 229.5 192.5 125 116.5 152.5 134.5 38.5
internal_count=392 299 199 186 93 80 138 55 48 40 100 90 25
is_linear=0
shrinkage=0.03


Tree=24
num_leaves=15
num_cat=0
split_feature=27 12 22 2 19 1 22 28 2 9 25 19 26 2
split_gain=10.2881 5.18288 3.03752 2.9579 2.84235 2.75793 1.78896 1.74743 0.9401 1.08485 0.801478 0.718098 0.112838 0.0735619
threshold=1.0473529647746187 27.047715935466933 75.231263341670385 962343.07723132789 3308.2310815122751 0.40966402954315184 79.839403555598921 1.3749715783372856 942258.86453251645 78.618638013662192 26.526356659616216 3307.6817795632392 26.749083595969299 962487.65254911466
decision_type=2 2 2 2 2 2 2 2 2 2 2 2 2 2
left_child=1 3 7 4 5 -1 10 11 -9 -10 -3 -2 13 -5
right_child=2 6 -4 12 -6 -7 -8 8 9 -11 -12 -13 -14 -15
leaf_value=-0.0052906081928106559 0.001660567813515663 -0.0030459665316801801 0.011343326370630945 -0.0038510689562143282 0.0050885611573547717 0 0.0075488552345383542 0.0068326763670209425 0.0058327910936984816 -0.00024074568306761126 0.0038069323404081937 -0.0047791637228085443 -0.0032754894300948741 -0.0076016004681587227
leaf_weight=166 35.5 30.5 54 19.5 48.5 188.5 60 104.5 46.5 54 27 24 19.5 98.5
leaf_count=110 13 15 10 13 15 88 12 20 9 23 9 14 11 66
internal_value=0.000504729 -0.00163099 0.00491834 -0.00287905 -0.00154742 -0.00249559 0.00401202 0.00350882 0.00481685 0.00256984 9.08761e-05 -0.000910357 -0.0066608 -0.00710632
internal_weight=976.5 658 318.5 540.5 403 354.5 117.5 264.5 205 100.5 57.5 59.5 137.5 118
internal_count=428 339 89 303 213 198 36 79 52 32 24 27 90 79
is_linear=0
shrinkage=0.03


Tree=25
num_leaves=13
num_cat=0
split_feature=12 9 11 2 20 2 2 27 28 15 17 29
split_gain=10.2567 5.87562 5.13847 2.05209 2.66653 1.54638 2.60553 1.48114 1.22262 1.00402 0.945875 0.386326
threshold=26.72477882873731 79.979392290202313 27.772622438683737 962487.65254911466 3308.0510282095079 959431.12817073648 965017.97245570307 1.2754724633487011 1.4333441480023812 0.32052235374039439 3.0635774963086688 1.6839025154973326
decision_type=2 2 2 2 2 2 2 2 2 2 2 2
left_child=1 8 5 4 7 9 -7 -3 10 -2 -1 -11
right_child=2 3 -4 -5 -6 6 -8 -9 -10 11 -12 -13
leaf_value=0.002943962209224701 0 -0.0045261748832548451 0.013938954226175944 -0.0073040414729196087 0.0030032064589262009 -0.006199324804770796 0.0045487949112093589 0.0020801056334201025 0.0062612952182499269 0.0066741453391641224 -0.004087603410849204 0.0030864422935045371
leaf_weight=48 38 265 43 113 60.5 37.5 39.5 32 63 93.5 24 57
leaf_count=16 16 166 6 76 23 24 9 12 11 19 15 18
internal_value=7.10591e-05 -0.00218951 0.00451277 -0.00377572 -0.00260936 0.00287089 -0.000634156 -0.00378517 0.00326938 0.00432578 0.000471898 0.00541299
internal_weight=914 605.5 308.5 470.5 357.5 265.5 77 297 135 188.5 72 150.5
internal_count=411 319 92 277 201 86 33 178 42 53 31 37
is_linear=0
shrinkage=0.03


Tree=26
num_leaves=15
num_cat=0
split_feature=27 23 2 21 2 9 33 19 19 1 2 11 14 30
split_gain=9.90688 2.87581 3.22698 2.51357 2.42975 2.07983 2.02775 2.14342 1.54372 0.854559 0.363124 0.357528 0.311637 0.0384019
threshold=1.0473529647746187 82.244732277291163 962234.8855507368 86.408791722957503 964830.36563587619 78.783248597626411 3307.6546071188818 3191.0267958279514 3260.6684878902397 0.40966402954315184 962487.65254911466 26.572562691078328 1.2313639985128264 -0.30933964157969468
decision_type=2 2 2 2 2 2 2 2 2 2 2 2 2 2
left_child=1 9 6 5 10 12 7 -3 11 13 -4 -7 -2 -1
right_child=3 2 4 -5 -6 8 -8 -9 -10 -11 -12 -13 -14 -15
leaf_value=-0.0064401806889854843 0.0074264788579296416 0.0034416387954979764 -0.0029323253784237836 0.010578518354466984 0.0037910617840917482 0.0053870382116686915 0.0081598372242667472 -0.0016426654166602471 -0.0044539256302209996 -0.00091837287697390732 -0.0069874055954317251 0.0010430692452761644 0.0038968373789421982 -0.0037398732531754692
leaf_weight=115.5 72 119.5 39 54 26.5 29 31 190.5 37 42 88 51 60 28.5
leaf_count=77 12 39 25 10 8 7 5 98 21 23 59 19 15 19
internal_value=0.000254811 -0.00174802 -0.000531371 0.00475455 -0.00412249 0.00339339 0.00108228 0.000307519 0.000408216 -0.00491062 -0.00585343 0.00278391 0.00594898 -0.00600539
internal_weight=983.5 680.5 494.5 303 153.5 249 341 310 117 186 127 80 132 144
internal_count=437 353 234 84 92 74 142 137 47 119 84 26 27 96
is_linear=0
shrinkage=0.03


Tree=27
num_leaves=15
num_cat=0
split_feature=34 20 16 1 2 20 2 24 10 28 20 2 2 20
split_gain=8.65891 8.19858 3.9968 1.7341 1.58183 1.31444 3.91743 1.11146 0.632311 0.525525 0.413209 0.310326 0.159649 0.0855792
threshold=3316.7633164501012 3273.1667321807568 -0.032919786136501046 0.74851074817110097 933085.16036982159 3307.5797048932131 962301.84408076108 82.224679818956346 81.784151756999492 -0.91816500541321189 3276.2016266259575 927197.79279134318 962487.65254911466 3306.5106535805053
decision_type=2 2 2 2 2 2 2 2 2 2 2 2 2 2
left_child=1 2 3 9 11 10 -7 -6 -5 -1 -3 -4 -8 -12
right_child=-2 5 4 8 7 6 12 -9 -10 -11 13 -13 -14 -15
leaf_value=-0.0047020528218030327 0.0088986068969964978 -0.0031436276793479915 0.0041347172751605935 0.003347539924925431 0.0029567485382943413 0.0031540512260198592 -0.0023986011053556983 -0.004057071361216631 -0.0012327541922303763 -0.00027012107982055133 -0.0093104317751456448 0.0074593997139756271 -0.0061413326426185801 -0.0054394596746710471
leaf_weight=97.5 85.5 25.5 69.5 64.5 73 60.5 21 25.5 42 36 61.5 80 133.5 28.5
leaf_count=65 16 16 18 21 24 22 14 16 21 18 42 12 88 19
internal_value=-6.55482e-05 -0.00102866 0.00143212 -0.00130475 0.00409396 -0.00466694 -0.0031806 0.00103668 0.0014965 -0.00357283 -0.00728141 0.0060284 -0.0057081 -0.00829474
internal_weight=904 818.5 488 240 248 330.5 215 98.5 106.5 133.5 115.5 149.5 154.5 90
internal_count=412 396 195 125 70 201 124 40 42 83 77 30 102 61
is_linear=0
shrinkage=0.03


Tree=28
num_leaves=12
num_cat=0
split_feature=9 19 22 34 2 22 19 27 13 25 32
split_gain=8.5358 5.63826 4.0064 2.2092 2.64996 1.9962 1.88477 1.14656 0.251072 0.088047 0.0738268
threshold=78.242467907425493 3188.2166649214728 42.518947102101812 3316.1385968800464 962301.84408076108 82.973944975425752 3308.1002520935303 1.1047980303594889 0.76874855022332189 27.006897585363529 4.3814414169166751
decision_type=2 2 2 2 2 2 2 2 2 2 2
left_child=5 2 9 4 6 7 -3 -1 -4 -2 -6
right_child=1 3 8 -5 10 -7 -8 -9 -10 -11 -12
leaf_value=0 -0.0018078797216437858 -0.0023274345999726885 0.0048565545478174771 0.0046911139561106319 -0.0066214730549799764 0.01129490478515625 0.0049840357201439986 0.0058005601888749658 0.0083615197172531713 -0.004970396186030188 -0.0033934434631041114
leaf_weight=43 34.5 310 75.5 32.5 140.5 48 33 100.5 50 19.5 22.5
leaf_count=19 20 171 18 9 94 6 9 19 7 13 15
internal_value=0.000416353 -0.00108089 0.00348392 -0.00262086 -0.00311893 0.00601421 -0.00158179 0.00407563 0.00640927 -0.00319377 -0.00625878
internal_weight=909.5 718 179.5 538.5 506 191.5 343 143.5 125.5 54 163
internal_count=400 356 58 298 289 44 180 38 25 33 109
is_linear=0
shrinkage=0.03


Tree=29
num_leaves=16
num_cat=0
split_feature=10 19 2 0 19 33 2 2 19 2 15 28 31 28 29
split_gain=7.74708 5.92673 3.36591 3.36019 1.26358 2.30023 1.2492 2.11153 1.88895 0.901458 0.863708 0.842334 0.366306 0.0878879 0.0318509
threshold=78.242467907425493 3273.1667321807568 965017.97245570307 0.46472317204376884 3307.8939020731991 3307.8955425541913 929667.84895722091 940351.15984073735 3174.6165657363485 964830.36563587619 2.2248587821551578 -0.27901943904096643 4.5260065227635229 -2.5741166984586425 -3.1983514949714986
decision_type=2 2 2 2 2 2 2 2 2 2 2 2 2 2 2
left_child=2 3 10 6 14 -6 8 -8 -2 -7 11 -1 13 -5 -3
right_child=1 4 -4 12 5 9 7 -9 -10 -11 -12 -13 -14 -15 -16
leaf_value=-0.0044163650752833258 0.00068565983578730799 -0.0036538098499525424 0.010492102680327017 -0.0025952634736019021 0.0033880633720821075 -0.0053272052687889596 -0.0042699581065401429 0.0029431959365291476 0.0075782376656478101 -0.00018780382577873142 0.0056316459623860634 0.0025979637765884394 0 -0.0052685560819107236 -0.0069004618602822414
leaf_weight=24 64.5 19.5 77 40.5 43.5 134.5 48 131 86 43 33.5 35.5 21 46.5 104
leaf_count=14 27 13 10 25 14 90 30 46 13 15 7 11 11 31 70
internal_value=0.000144099 -0.0011147 0.0059151 0.00119121 -0.0040504 -0.00260743 0.00270416 0.000949984 0.00471135 -0.00413156 0.00192128 -0.000185396 -0.00333539 -0.00417779 -0.00650204
internal_weight=952 782 170 437.5 344.5 221 329.5 179 150.5 177.5 93 59.5 108 87 123.5
internal_count=427 385 42 183 202 119 116 76 40 105 32 25 67 56 83
is_linear=0
shrinkage=0.03


Tree=30
num_leaves=15
num_cat=0
split_feature=9 19 16 5 19 33 23 5 8 1 5 9 29 5
split_gain=8.28898 3.81432 2.98093 2.15893 1.57904 2.28969 1.27697 1.12652 1.10231 1.07753 0.731814 0.465573 0.164316 0.0533281
threshold=78.242467907425493 3273.1667321807568 0.37972051931624246 3317.9648419125547 3307.7789820513772 3307.8955425541913 83.755431850349069 3316.6504246804084 2.9633327329725923 0.17992617227144031 3235.765071029005 82.184472405508615 0.11587244286443131 3136.1981572819986
decision_type=2 2 2 2 2 2 2 2 2 2 2 2 2 2
left_child=3 2 9 8 13 -6 10 -7 -1 12 -4 -11 -2 -3
right_child=1 4 6 -5 5 7 -8 -9 -10 11 -12 -13 -14 -15
leaf_value=-0.00096529140760158677 -0.0050289078502751446 -0.0032641121584922072 -0.0019258908329598875 0.0094117168678513052 0.003140294631277876 -0.0051158136145156973 0.0063009786989539863 0.001293009902522317 0.0049015578072932036 0.0017471125589116759 0.0031459636176587079 -0.0017506317404810995 -0.0015191946141421796 -0.0067066275480691558
leaf_weight=41.5 66 18 39.5 77 54 125.5 78 28 79 67 62 66 24 111.5
leaf_count=18 44 12 20 10 19 84 14 9 19 27 21 37 14 75
internal_value=7.24135e-05 -0.00138175 0.000577351 0.00550657 -0.00372892 -0.0020316 0.00344626 -0.0039066 0.00284927 -0.00171536 0.00111514 0 -0.00421157 -0.00633068
internal_weight=937 739.5 402.5 197.5 337 207.5 179.5 153.5 120.5 223 101.5 133 90 129.5
internal_count=423 376 177 47 199 112 55 93 37 122 41 64 58 87
is_linear=0
shrinkage=0.03


Tree=31
num_leaves=14
num_cat=0
split_feature=2 19 0 2 2 19 2 1 31 2 19 30 31
split_gain=6.85676 7.90733 3.16284 1.48273 1.55447 1.22209 3.22159 0.612106 0.392406 0.197359 0.12006 0.0313214 0.000235775
threshold=965017.97245570307 3273.1667321807568 0.35460488704253579 917650.38756081497 929667.84895722091 3307.6398612412672 962431.79967667698 -0.61559370248597534 4.2078923952439737 956115.24948820251 3307.4610286139264 -2.3762315867418384 2.877435688966802
decision_type=2 2 2 2 2 2 2 2 2 2 2 2 2
left_child=1 2 3 -1 -5 9 7 -7 12 -3 -11 -8 -4
right_child=-2 5 8 4 -6 6 11 -9 -10 10 -12 -13 -14
leaf_value=-0.0061593226617382415 0.0076579305275361271 -0.003561049588538449 -0.0022930361595080826 0.0050770254683127434 0.0013279880826683858 0.0046705150590386499 -0.0028768732611089945 -0.00087984844138203511 -6.9260766593421376e-05 -0.008586572765350341 -0.0047796975080855184 -0.005901345368525753 -0.0044110265956217544
leaf_weight=13.499999999999998 102 27 22.5 205 206 41 18 27 39 60.5 30 107.5 52.5
leaf_count=8 18 18 15 48 84 12 12 17 19 41 20 72 35
internal_value=0.000383221 -0.000499147 0.00169154 0.00288792 0.003228 -0.00429808 -0.0027336 0.00241881 -0.00268466 -0.00673541 -0.00752012 -0.00556655 -0.00392961
internal_weight=951.5 849.5 538.5 424.5 411 311 193.5 68 114 117.5 90.5 125.5 75
internal_count=419 401 209 140 132 192 113 29 69 79 61 84 50
is_linear=0
shrinkage=0.03


Tree=32
num_leaves=14
num_cat=0
split_feature=11 28 2 24 2 33 32 11 23 26 2 2 26
split_gain=7.9875 5.58058 2.69699 2.22331 1.77405 1.35277 1.20113 0.964289 1.61124 0.577001 0.545225 0.531157 0.2907
threshold=27.772622438683737 1.3749715783372856 956115.24948820251 83.158103377292193 930087.24185297696 3230.6136456266645 3.11117875277546 25.416652015498901 82.426649179447352 26.931760197530277 950781.94788297673 965840.86733775283 26.702580872417148
decision_type=2 2 2 2 2 2 2 2 2 2 2 2 2
left_child=1 2 3 5 -5 -1 -3 8 -4 -9 12 -12 -8
right_child=-2 6 7 4 -6 -7 10 9 -10 -11 11 -13 -14
leaf_value=-0.0043472358009232015 0.011743013429410249 0.0075922443615762817 -0.0056407829269033965 0.0052907706547690473 -0.00060133631626764928 0.00041396578149153633 0.0017333715497516093 -0.005251117829122744 0.0036545441026824546 0 -0.0025351178232919085 0.0027603783366935593 0.0053883950286186663
leaf_weight=114 49.5 55 28.5 90 88 95.5 46 210.5 35 23 31 33 50
leaf_count=74 7 8 19 20 44 46 15 136 11 11 17 7 9
internal_value=0.000248502 -0.000402041 -0.00173278 -6.49218e-05 0.00237017 -0.0021651 0.00378392 -0.00387379 -0.000470622 -0.00476194 0.0023602 0.000105369 0.00376937
internal_weight=949 899.5 684.5 387.5 178 209.5 215 297 63.5 233.5 160 64 96
internal_count=424 417 361 184 64 120 56 177 30 147 48 24 24
is_linear=0
shrinkage=0.03


Tree=33
num_leaves=15
num_cat=0
split_feature=10 19 12 5 19 33 9 5 11 8 23 13 29 29
split_gain=6.73788 4.41738 2.29761 2.12267 1.31812 2.08227 0.787282 0.58772 0.565238 0.544369 0.499331 0.326512 0.217379 0.0431794
threshold=78.376768256563935 3273.1667321807568 26.195722467613649 3317.9648419125547 3307.6398612412672 3307.8955425541913 83.331839601423866 3317.2953320763754 26.195722467613649 0.35540127857717541 84.080348897507562 0.8512644575329561 0.11587244286443131 -3.1983514949714986
decision_type=2 2 2 2 2 2 2 2 2 2 2 2 2 2
left_child=3 2 8 9 13 -6 10 -7 12 -1 -4 -8 -2 -3
right_child=1 4 6 -5 5 7 11 -9 -10 -11 -12 -13 -14 -15
leaf_value=0 -0.0035978896345763918 -0.0035656196919022771 0.002673659703514793 0.0094740830443122166 0.0030036850426919184 -0.0046547935342726608 -0.0024952964126208764 -0.00029209181887132152 0.00081641902083281386 0.0041222644691114073 0.006486712139906343 0.0020266422663094861 0 -0.006643013802570541
leaf_weight=45.5 91.5 22.5 135.5 64 50 142 28.5 38.5 46.5 79 46.5 24.5 19.5 100.5
leaf_count=18 59 15 43 8 17 95 16 12 21 20 8 8 11 68
internal_value=2.86017e-05 -0.00124784 0.000929818 0.00507174 -0.00367425 -0.00226206 0.00280942 -0.00377052 -0.00183712 0.00264725 0.0037404 -0.000298191 -0.0029966 -0.00619413
internal_weight=934.5 746 392.5 188.5 353.5 230.5 235 180.5 157.5 124.5 182 53 111 123
internal_count=419 373 166 46 207 124 75 107 91 38 51 24 70 83
is_linear=0
shrinkage=0.03


Tree=34
num_leaves=12
num_cat=0
split_feature=11 28 19 21 20 2 32 11 9 25 32
split_gain=6.64016 4.3795 2.24248 1.84739 1.34467 2.10123 1.2104 0.829763 0.433434 0.674812 0.187183
threshold=27.772622438683737 1.1490940523256483 3273.1667321807568 25.690215154159727 3307.5797048932131 962283.04896784772 3.1717636105852698 26.888393001617334 78.242467907425493 26.678685950653286 3.1551420147777449
decision_type=2 2 2 2 2 2 2 2 2 2 2
left_child=1 2 3 -1 10 -6 -3 -5 -8 -10 -4
right_child=-2 6 4 7 5 -7 8 -9 9 -11 -12
leaf_value=-0.0042959023610883058 0.01122111673508921 0.0062350044319706577 -0.0086434360742568984 4.0433343241914814e-05 0.0024826713781803847 -0.0040476102842037899 0.003705173887951033 0.0037529654325451703 0.0019904992204077925 -0.0032182589877735482 -0.0049604114786041186
leaf_weight=67.5 44.5 75.5 31.5 178.5 62 138.5 50.5 78 66.5 31 76
leaf_count=45 7 14 21 87 24 87 11 20 20 18 51
internal_value=0.000175574 -0.000416809 -0.0016992 2.75161e-05 -0.00352344 -0.00199407 0.00316577 0.0012129 0.00149779 0.00024268 -0.00623258
internal_weight=900 855.5 632 324 308 200.5 223.5 256.5 148 97.5 107.5
internal_count=405 398 335 152 183 111 63 107 49 38 72
is_linear=0
shrinkage=0.03


Tree=35
num_leaves=11
num_cat=0
split_feature=11 28 22 2 1 19 2 32 1 26
split_gain=6.73104 4.83589 2.84235 2.4806 3.20789 1.38446 1.69221 1.02274 0.719838 0.27651
threshold=27.739736922099777 1.3749715783372856 75.231263341670385 933522.35621840123 -0.35460488704253562 3273.1667321807568 940351.15984073735 3.1414084879868085 -0.91023613416931226 26.707794146739129
decision_type=2 2 2 2 2 2 2 2 2 2
left_child=1 2 5 -4 -5 6 -1 -3 -7 -9
right_child=-2 7 3 4 -6 8 -8 9 -10 -11
leaf_value=-0.0037810896122867257 0.010844327180385591 0.006413677419701668 0.0052915806387151994 0.0053799606111102002 -0.0056126103964179086 -0.0010860775924391216 0.0011835824433427025 0.00011513031138026195 -0.0052488480646126611 0.0029677556306123734
leaf_weight=117 48 71 82 35 64.5 52 124.5 55.5 201.5 82
leaf_count=73 7 12 17 8 43 26 55 22 134 21
internal_value=0.000130079 -0.00046741 -0.00170479 0.00147309 -0.00165695 -0.00288333 -0.00120832 0.00349696 -0.00443362 0.0018775
internal_weight=933 885 676.5 181.5 99.5 495 241.5 208.5 253.5 137.5
internal_count=418 411 356 68 51 288 128 55 160 43
is_linear=0
shrinkage=0.03


Tree=36
num_leaves=15
num_cat=0
split_feature=5 19 22 12 22 5 5 19 19 5 5 11 23 11
split_gain=6.52397 5.929 2.34074 1.32464 2.33742 1.24212 2.72543 0.753632 0.326404 0.512522 0.301023 0.126546 0.0177995 0.0133828
threshold=3317.2953320763754 3273.1667321807568 32.766255823263769 25.395006314376012 77.691101486862976 3197.2192786951423 3234.1295781690173 3178.6180886983461 3307.4610286139264 3308.4982315433995 3288.5706584421318 25.454143483659269 81.869665271528092 26.288160221769775
decision_type=2 2 2 2 2 2 2 2 2 2 2 2 2 2
left_child=1 2 11 4 12 7 -7 -4 10 -10 -5 -1 -3 -13
right_child=-2 3 5 8 -6 6 -8 -9 9 -11 -12 13 -14 -15
leaf_value=-0.0048023556232452387 0.0068603647525411057 -0.0056097321576542326 0.0021968691122630679 -0.0024501954324890013 0.0056728292941574899 -0.0038507765698915638 0.0032394200649064082 0.0062463768373445137 -0.0015138289998219885 -0.0049651035676123922 -0.007723649228612582 -0.0022446959304975389 -0.0025259589951485396 -0.00053269268064759664
leaf_weight=25.5 122.5 25 88.5 19.5 33.5 69 152 95 69 119.5 52 39 18 18
leaf_count=17 21 17 28 13 7 45 48 16 41 80 35 26 11 10
internal_value=0.000456171 -0.000503531 0.00160211 -0.0035601 -7.59883e-06 0.00254903 0.00098415 0.00437043 -0.00457442 -0.00376242 -0.00647287 -0.00292013 -0.00462182 -0.00184214
internal_weight=946 823.5 487 336.5 76.5 404.5 221 183.5 260 188.5 71.5 82.5 43 57
internal_count=415 394 190 204 35 137 93 44 169 121 48 53 28 36
is_linear=0
shrinkage=0.03


Tree=37
num_leaves=17
num_cat=0
split_feature=9 2 28 2 2 26 28 1 1 29 31 10 28 33 12 11
split_gain=4.96705 2.85611 2.36327 1.81674 1.44503 1.17446 1.251 0.52951 0.385368 0.237211 0.20272 0.17487 0.164171 0.0953446 0.060305 0.00674257
threshold=80.028811902153606 962301.84408076108 -1.8525062594344102 965017.97245570307 958872.39080992306 26.219630297023823 1.1490940523256483 0.8542199457734333 -0.29696027566504651 -0.6077296081396093 4.5629629226247026 82.176856859858617 -2.4580188828965368 3313.3065750373403 27.064325984127187 26.758058316963702
decision_type=2 2 2 2 2 2 2 2 2 2 2 2 2 2 2 2
left_child=3 2 7 4 8 9 -7 10 -1 -4 -2 -9 13 -3 15 -14
right_child=1 12 5 -5 -6 6 -8 11 -10 -11 -12 -13 14 -15 -16 -17
leaf_value=0.00080947979560138978 -0.0045941035186605793 -0.00028056252636015413 0.0022470201364933294 0.007024559760529004 -0.0036155740185959697 -0.0014257783525379248 0.0032520919101578852 0.00100506114088572 0.0042415135236076231 0.0056445706631198071 -0.00063795794527977696 -0.0024422516572440781 -0.0058723145519592318 -0.0037566900596022607 -0.0025590775103672692 -0.0032734204586595296
leaf_weight=52.5 103 18 50 87 34.5 152.5 75 30.5 88.5 47.5 18 19.5 96 18 21 22
leaf_count=20 69 12 16 12 19 81 22 13 23 10 11 12 64 12 12 13
internal_value=1.59636e-05 -0.00134659 -0.000165872 0.00350545 0.00166763 0.00132226 0.000105134 -0.00301147 0.00303478 0.00404273 -0.00407431 -0.000266229 -0.00461951 -0.00228276 -0.00514119 -0.00550041
internal_weight=933.5 671 496 262.5 175.5 325 227.5 171 141 97.5 121 50 175 36 139 118
internal_count=421 347 234 74 62 129 103 105 43 26 80 25 113 24 89 77
is_linear=0
shrinkage=0.03


Tree=38
num_leaves=13
num_cat=0
split_feature=11 28 19 12 19 2 32 19 21 9 2 32
split_gain=6.19018 4.52913 1.70776 1.52706 1.20314 1.88669 1.06864 0.890744 0.544783 0.294238 0.299475 0.15459
threshold=27.739736922099777 1.3749715783372856 3273.1667321807568 26.914880902268376 3307.6022758319154 962283.04896784772 3.1414084879868085 3251.9848180394306 64.954889236358781 79.874997409875235 951829.4523877782 3.0083154965320147
decision_type=2 2 2 2 2 2 2 2 2 2 2 2
left_child=1 2 3 7 11 -6 -3 -1 -5 -8 -11 -4
right_child=-2 6 4 8 5 -7 9 -9 -10 10 -12 -13
leaf_value=-0.0020978470665540222 0.0094506044262597545 0.0069657416712154046 -0.008237365297202405 0.00025635495942763308 0.0025567418027852397 -0.0037131865994618615 0.0030826221249740699 0.0041109572415550548 0.0050150952356202263 0.0018727906017467892 -0.0021931880484609046 -0.0047521208893332185
leaf_weight=221.5 57.5 53 27 42 59 141.5 85 20.5 50.5 41.5 23.5 93.5
leaf_count=125 9 7 18 17 23 89 19 7 10 13 13 63
internal_value=8.68874e-05 -0.000553804 -0.00177246 -0.000249035 -0.00333001 -0.00183151 0.00333095 -0.00151792 0.00296902 0.00193242 0.000291643 -0.00570376
internal_weight=916 858.5 655.5 334.5 321 200.5 203 242 92.5 150 65 120.5
internal_count=413 404 352 159 193 112 52 132 27 45 26 81
is_linear=0
shrinkage=0.03


Tree=39
num_leaves=12
num_cat=0
split_feature=11 28 19 24 8 19 5 19 5 9 29
split_gain=5.76289 3.61705 2.25715 1.57565 1.02099 0.949346 1.43046 0.806204 0.457591 0.421289 0.0898283
threshold=27.772622438683737 1.4537583790292501 3273.1667321807568 83.158103377292193 33.894123670260512 3307.7283380284671 3308.4052397333539 3220.8065263401609 3239.0598124997955 78.618638013662192 0.66279109827200855
decision_type=2 2 2 2 2 2 2 2 2 2 2
left_child=1 2 3 7 -5 10 -7 -1 -3 -10 -4
right_child=-2 8 5 4 -6 6 -8 -9 9 -11 -12
leaf_value=-0.0036651179481316173 0.0095504026992605361 0.0045789869012740946 -0.0045820472282780836 0.0040421761408232261 -0.00042240470452291991 0.0018512627615724219 -0.0036379821409661603 0.00011920102247251914 0.003447706516560854 -0.00029277002994181973 -0.0075250501935599269
leaf_weight=99 52.5 95.5 97 101.5 78.5 58.5 137.5 95.5 49.5 51 28.5
leaf_count=62 8 20 65 27 39 25 83 47 10 22 19
internal_value=7.41271e-05 -0.00049702 -0.00151694 5.26078e-05 0.00207891 -0.00335281 -0.00196716 -0.00179417 0.00307319 0.00152234 -0.00540499
internal_weight=944.5 892 696 374.5 180 321.5 196 194.5 196 100.5 125.5
internal_count=427 419 367 175 66 192 108 109 52 32 84
is_linear=0
shrinkage=0.03


Tree=40
num_leaves=13
num_cat=0
split_feature=2 2 21 20 19 2 2 12 28 27 32 14
split_gain=5.3273 4.42906 2.34409 1.24357 1.91671 1.26374 0.24846 0.0973848 0.0472686 0.0433899 0.0744416 0.00102267
threshold=965017.97245570307 962234.8855507368 24.680503015519903 3189.6179557168102 3222.3765652028364 925992.3839295794 962517.21973064984 25.859453746990962 -2.7214058003004316 -2.6622797928106503 2.7594939380947419 -2.3106480850530775
decision_type=2 2 2 2 2 2 2 2 2 2 2 2
left_child=1 2 7 5 -5 -4 11 8 -1 -8 -11 -3
right_child=-2 6 3 4 -6 -7 9 -9 -10 10 -12 -13
leaf_value=-0.0017008370988070964 0.0064308242135211425 -0.0011529618173372002 -0.00014204233078178293 -0.0043912386032329363 0.0015317368794189458 0.0050092556333990509 -0.0028829298212096608 -0.0015527473766552774 -0.0045561549227445498 -0.00322722427652273 -0.0059832430775178238 -0.0027572807647965169
leaf_weight=18 111 24 58.5 58.5 257 137.5 27 36 52.5 31.5 92 25.5
leaf_count=12 20 16 24 39 102 27 18 21 35 21 62 16
internal_value=0.000320789 -0.000514668 0.000735348 0.00158763 0.000393858 0.00345554 -0.00437596 -0.00325651 -0.00397693 -0.00502388 -0.00539073 -0.00217092
internal_weight=929 818 618 511.5 315.5 196 200 106.5 70.5 150.5 123.5 49.5
internal_count=413 393 260 192 141 51 133 68 47 101 83 32
is_linear=0
shrinkage=0.03


end of trees

feature_importances:
city_estimated_population=103
city_area_weighted_pop_density_lag20=75
city_area_weighted_u_component_of_wind_10m_rollmean_lag1_w8=30
week_cos=28
city_area_weighted_rh_lag20=27
city_area_weighted_rainfall_rollmean_lag1_w8=24
city_pop_density=22
city_area_weighted_rh_lag19=20
city_area_weighted_temp_c_lag13=19
city_area_weighted_pop_density_lag19=17
city_area_weighted_temp_c_lag12=15
city_area_weighted_u_component_of_wind_10m_rollmean_lag1_w4=14
week_sin=13
city_area_weighted_rh_rollmean_lag1_w4=13
city_area_weighted_wind_speed_10m_rollmean_lag1_w4=13
city_area_weighted_pop_density_rollmean_lag1_w4=13
city_area_weighted_v_component_of_wind_10m_rollmean_lag1_w4=12
city_area_weighted_pop_density_rollmean_lag1_w8=12
city_area_weighted_rainfall_rollmean_lag1_w4=10
city_area_weighted_rh_rollmean_lag1_w8=9
city_area_weighted_temp_c_rollmean_lag1_w8=9
city_area_weighted_wind_speed_10m_rollmean_lag1_w8=9
city_area_weighted_temp_c_rollmean_lag1_w4=7
city_area_weighted_rainfall_lag19=5
city_area_weighted_u_component_of_wind_10m_lag4=4
city_area_weighted_v_component_of_wind_10m_lag7=4
city_area_weighted_v_component_of_wind_10m_rollmean_lag1_w8=4
city_area_weighted_v_component_of_wind_10m_lag6=3
city_area_weighted_wind_speed_10m_lag13=3
city_area_weighted_rainfall_lag20=2
city_area_weighted_u_component_of_wind_10m_lag3=2
city_area_weighted_wind_speed_10m_lag12=2

parameters:
[boosting: gbdt]
[objective: regression]
[metric: rmse]
[tree_learner: serial]
[device_type: cpu]
[data_sample_strategy: bagging]
[data: ]
[valid: ]
[num_iterations: 41]
[learning_rate: 0.03]
[num_leaves: 63]
[num_threads: 0]
[seed: 0]
[deterministic: 0]
[force_col_wise: 1]
[force_row_wise: 0]
[histogram_pool_size: -1]
[max_depth: 5]
[min_data_in_leaf: 12]
[min_sum_hessian_in_leaf: 0.001]
[bagging_fraction: 0.8]
[pos_bagging_fraction: 1]
[neg_bagging_fraction: 1]
[bagging_freq: 1]
[bagging_seed: 3]
[bagging_by_query: 0]
[feature_fraction: 0.8]
[feature_fraction_bynode: 1]
[feature_fraction_seed: 2]
[extra_trees: 0]
[extra_seed: 6]
[early_stopping_round: 0]
[early_stopping_min_delta: 0]
[first_metric_only: 0]
[max_delta_step: 0]
[lambda_l1: 0.2]
[lambda_l2: 2]
[linear_lambda: 0]
[min_gain_to_split: 0]
[drop_rate: 0.1]
[max_drop: 50]
[skip_drop: 0.5]
[xgboost_dart_mode: 0]
[uniform_drop: 0]
[drop_seed: 4]
[top_rate: 0.2]
[other_rate: 0.1]
[min_data_per_group: 100]
[max_cat_threshold: 32]
[cat_l2: 10]
[cat_smooth: 10]
[max_cat_to_onehot: 4]
[top_k: 20]
[monotone_constraints: ]
[monotone_constraints_method: basic]
[monotone_penalty: 0]
[feature_contri: ]
[forcedsplits_filename: ]
[refit_decay_rate: 0.9]
[cegb_tradeoff: 1]
[cegb_penalty_split: 0]
[cegb_penalty_feature_lazy: ]
[cegb_penalty_feature_coupled: ]
[path_smooth: 0]
[interaction_constraints: ]
[verbosity: -1]
[saved_feature_importance_type: 0]
[use_quantized_grad: 0]
[num_grad_quant_bins: 4]
[quant_train_renew_leaf: 0]
[stochastic_rounding: 1]
[linear_tree: 0]
[max_bin: 255]
[max_bin_by_feature: ]
[min_data_in_bin: 3]
[bin_construct_sample_cnt: 200000]
[data_random_seed: 1]
[is_enable_sparse: 1]
[enable_bundle: 1]
[use_missing: 1]
[zero_as_missing: 0]
[feature_pre_filter: 1]
[pre_partition: 0]
[two_round: 0]
[header: 0]
[label_column: ]
[weight_column: ]
[group_column: ]
[ignore_column: ]
[categorical_feature: ]
[forcedbins_filename: ]
[precise_float_parser: 0]
[parser_config_file: ]
[objective_seed: 5]
[num_class: 1]
[is_unbalance: 0]
[scale_pos_weight: 1]
[sigmoid: 1]
[boost_from_average: 1]
[reg_sqrt: 0]
[alpha: 0.9]
[fair_c: 1]
[poisson_max_delta_step: 0.7]
[tweedie_variance_power: 1.5]
[lambdarank_truncation_level: 30]
[lambdarank_norm: 1]
[label_gain: ]
[lambdarank_position_bias_regularization: 0]
[eval_at: ]
[multi_error_top_k: 1]
[auc_mu_weights: ]
[num_machines: 1]
[local_listen_port: 12400]
[time_out: 120]
[machine_list_filename: ]
[machines: ]
[gpu_platform_id: -1]
[gpu_device_id: -1]
[gpu_use_dp: 0]
[num_gpu: 1]

end of parameters
