tree
version=v4
num_class=1
num_tree_per_iteration=1
label_index=0
max_feature_idx=56
objective=regression
feature_names=week_sin week_cos city_estimated_population city_area_m2 city_area_km2 city_pop_density n_barangays_reported city_area_weighted_rainfall_lag20 city_area_weighted_rainfall_lag19 city_area_weighted_rh_lag20 city_area_weighted_rh_lag19 city_area_weighted_temp_c_lag12 city_area_weighted_temp_c_lag11 city_area_weighted_u_component_of_wind_10m_lag3 city_area_weighted_u_component_of_wind_10m_lag2 city_area_weighted_v_component_of_wind_10m_lag6 city_area_weighted_v_component_of_wind_10m_lag5 city_area_weighted_wind_speed_10m_lag11 city_area_weighted_wind_speed_10m_lag12 city_area_weighted_pop_density_lag20 city_area_weighted_pop_density_lag19 city_area_weighted_rainfall_rollmean_lag1_w4 city_area_weighted_rainfall_rollmean_lag1_w8 city_area_weighted_rh_rollmean_lag1_w4 city_area_weighted_rh_rollmean_lag1_w8 city_area_weighted_temp_c_rollmean_lag1_w4 city_area_weighted_temp_c_rollmean_lag1_w8 city_area_weighted_u_component_of_wind_10m_rollmean_lag1_w4 city_area_weighted_u_component_of_wind_10m_rollmean_lag1_w8 city_area_weighted_v_component_of_wind_10m_rollmean_lag1_w4 city_area_weighted_v_component_of_wind_10m_rollmean_lag1_w8 city_area_weighted_wind_speed_10m_rollmean_lag1_w4 city_area_weighted_wind_speed_10m_rollmean_lag1_w8 city_area_weighted_pop_density_rollmean_lag1_w4 city_area_weighted_pop_density_rollmean_lag1_w8 city_area_weighted_flood_risk_index_rollmean_lag1_w4 city_area_weighted_flood_risk_index_rollmean_lag1_w8 city_area_weighted_percent_annual_crop_rollmean_lag1_w4 city_area_weighted_percent_annual_crop_rollmean_lag1_w8 city_area_weighted_percent_brush_shrubs_rollmean_lag1_w4 city_area_weighted_percent_brush_shrubs_rollmean_lag1_w8 city_area_weighted_percent_built_up_rollmean_lag1_w4 city_area_weighted_percent_built_up_rollmean_lag1_w8 city_area_weighted_percent_inland_water_rollmean_lag1_w4 city_area_weighted_percent_inland_water_rollmean_lag1_w8 city_area_weighted_percent_open_forest_rollmean_lag1_w4 city_area_weighted_percent_open_forest_rollmean_lag1_w8 city_area_weighted_percent_perennial_crop_rollmean_lag1_w4 city_area_weighted_percent_perennial_crop_rollmean_lag1_w8 city_area_weighted_percent_open_barren_rollmean_lag1_w4 city_area_weighted_percent_open_barren_rollmean_lag1_w8 city_area_weighted_percent_fishpond_rollmean_lag1_w4 city_area_weighted_percent_fishpond_rollmean_lag1_w8 city_area_weighted_percent_grassland_rollmean_lag1_w4 city_area_weighted_percent_grassland_rollmean_lag1_w8 city_area_weighted_percent_mangrove_forest_rollmean_lag1_w4 city_area_weighted_percent_mangrove_forest_rollmean_lag1_w8
feature_infos=[-1:1] [-1:1] [909262.48027323559:966659.36271991953] none none [3125.6331669833721:3322.9376894386373] none [0:403.77764092016611] [0:403.77764092016611] [74.166209495041301:89.224799485777211] [74.166209495041301:89.224799485777211] [24.178433964655767:28.356173140545412] [24.178433964655767:28.356173140545412] [-4.5717681780699149:5.3108736337661018] [-4.5717681780699149:5.3108736337661018] [-6.2680500182560719:5.1247667214851038] [-6.2680500182560719:5.1247667214851038] [1.39564484944224:6.8002328204854665] [1.39564484944224:6.8002328204854665] [3125.6331669833717:3317.8511903405465] [3125.6331669833717:3318.0784934845619] [0.06597045822318269:149.02606250490396] [0.34670367581884309:119.23124797939784] [75.920732847159741:87.36324422781334] [76.483294868292248:86.237507786239505] [24.524834464421016:28.067998122101869] [24.646253660584854:27.823998304699263] [-3.4486736035175789:3.6280013469861503] [-3.1133143420372855:3.131422920161175] [-4.48361272930451:3.4734894156434146] [-3.8559405516430854:3.0795858777581708] [1.7342058228275261:5.7925001460518359] [1.9506388693011207:5.3170040362056081] [3126.4705697467193:3322.2400466505674] [3128.1510842727353:3321.6997191263745] none none none none none none none none none none none none none none none none none none none none none none
tree_sizes=814 1005 1090 1094 1012 1180 942 1272 1106 928 1449 1108 1007 924 835 1200 849 941 855 1212 1207 861 847 851 1196 941

Tree=0
num_leaves=8
num_cat=0
split_feature=2 19 28 22 1 2 19
split_gain=33.912 32.9143 13.1547 7.97763 5.73647 4.23329 0.895078
threshold=964954.64596157556 3273.1667321807568 -1.0049677131594603 82.973944975425752 0.91023613416931248 932939.92576212331 3307.6817795632392
decision_type=2 2 2 2 2 2 2
left_child=1 2 4 6 -1 -4 -3
right_child=-2 3 5 -5 -6 -7 -8
leaf_value=0.56690225408598527 0.60361925341501321 0.55511505093088487 0.59589931774562377 0.57942238661178336 0.58475968720277727 0.58388025372827157 0.56204707554490196
leaf_weight=129 116 110 140.5 57.5 66.5 160 157.5
leaf_count=81 21 74 31 23 25 63 100
internal_value=0.578548 0.574958 0.583052 0.562636 0.573006 0.589596 0.559027
internal_weight=937 821 496 325 195.5 300.5 267.5
internal_count=418 397 200 197 106 94 174
is_linear=0
shrinkage=1


Tree=1
num_leaves=10
num_cat=0
split_feature=9 19 0 5 5 13 5 15 1
split_gain=29.0368 18.638 10.5815 6.98313 5.32237 3.6794 3.6666 2.32462 0.578002
threshold=78.242467907425493 3273.1667321807568 0.46472317204376884 3316.4408709165004 3317.7389196492727 0.43738192770419859 3308.4672548621284 0.32052235374039439 0.61559370248597578
decision_type=2 2 2 2 2 2 2 2 2
left_child=4 2 7 6 5 -1 -3 -2 -4
right_child=1 3 8 -5 -6 -7 -8 -9 -10
leaf_value=-0.0034062104510224379 0.001887226755480602 -0.010198584945624457 -0.013880872954795887 0.0083835578237331544 0.028430861167504751 0.01609264199197645 -0.021560744591290943 0.010674004910325972 -0.003422677863692475
leaf_weight=32.5 132 159.5 75 32 69 82.5 141.5 181.5 19.5
leaf_count=15 59 90 50 11 9 18 95 59 10
internal_value=-0.000130462 -0.00455834 0.0025955 -0.0133015 0.0175317 0.0105753 -0.0156635 0.00702557 -0.0118903
internal_weight=925 741 408 333 184 115 301 313.5 94.5
internal_count=416 374 178 196 42 33 185 118 60
is_linear=0
shrinkage=0.05


Tree=2
num_leaves=11
num_cat=0
split_feature=9 19 21 2 19 2 9 28 12 19
split_gain=29.7564 15.383 8.13167 6.14146 5.43695 7.47762 3.8693 1.09756 0.917388 0.0706282
threshold=78.091959911703398 3273.1667321807568 29.451507685044202 965147.0143218477 3307.7789820513772 962295.33902072103 84.044741544715023 -0.73123809512797722 26.443094104177025 3307.4610286139264
decision_type=2 2 2 2 2 2 2 2 2 2
left_child=3 2 7 8 9 -6 -4 -2 -1 -3
right_child=1 4 6 -5 5 -7 -8 -9 -10 -11
leaf_value=0.015118224630230352 -0.012690105173130368 -0.022813146281778142 0.008570856669458846 0.02923541994162009 0.0091628150142263626 -0.013064626930459481 -0.0069251503215469043 0.00056725219846703119 0.0053277149988758959 -0.016290259422226387
leaf_weight=45.5 84 87 237.5 69 48 155 46.5 18 60 42
leaf_count=10 55 59 81 9 17 93 28 9 21 28
internal_value=-0.000636279 -0.00515042 0.00162847 0.0177572 -0.0130094 -0.00774637 0.00598549 -0.0103366 0.00979939 -0.0210087
internal_weight=892.5 718 386 174.5 332 203 284 102 105.5 129
internal_count=410 370 173 40 197 110 109 64 31 87
is_linear=0
shrinkage=0.05


Tree=3
num_leaves=11
num_cat=0
split_feature=10 19 22 2 2 2 0 25 10 12
split_gain=26.2827 12.1508 9.17373 6.58833 6.22533 9.7171 2.13976 1.27833 0.548114 0.48253
threshold=78.242467907425493 3188.2166649214728 41.261948279480968 965147.0143218477 964954.64596157556 962354.67382790719 -0.88545602565320969 26.473500032368758 82.127973050753866 26.292666467282867
decision_type=2 2 2 2 2 2 2 2 2 2
left_child=3 2 9 6 5 -3 -1 -8 -4 -2
right_child=1 4 8 -5 -6 -7 7 -9 -10 -11
leaf_value=0.017983658158779142 -0.012956733973058937 -0.0044822219674009204 0.011005426340902499 0.029427334142453743 0.011385368263279952 -0.019155018302050936 -0.0021617203110303631 0.009962656905456467 0.018996839599084048 -0.0022672793492674831
leaf_weight=48 34.5 374.5 62.5 64 38.5 161.5 37 47 57 18
leaf_count=8 23 196 17 8 12 108 16 15 10 10
internal_value=0.000211067 -0.00406934 0.00751378 0.0164154 -0.00755992 -0.00896729 0.00972422 0.00463794 0.0151083 -0.00960122
internal_weight=942.5 746.5 172 196 574.5 536 132 84 119.5 52.5
internal_count=423 376 60 47 316 304 39 31 27 33
is_linear=0
shrinkage=0.05


Tree=4
num_leaves=10
num_cat=0
split_feature=9 19 0 5 5 12 28 5 31
split_gain=21.9043 13.3123 10.2481 7.46915 5.76488 4.32529 2.69639 2.51806 0.907883
threshold=78.006817126476804 3273.1667321807568 0.35460488704253579 3316.4408709165004 3317.7389196492727 25.395006314376012 1.5617007503149287 3195.2987235629544 4.2078923952439737
decision_type=2 2 2 2 2 2 2 2 2
left_child=4 2 7 5 6 -3 -1 -2 -4
right_child=1 3 8 -5 -6 -7 -8 -9 -10
leaf_value=0.00066121715607993107 0.012073122564960565 -0.0017842631823030012 -0.013751860446703266 0.010024441339802452 0.027690208898463721 -0.016053406342513048 0.016079139946377836 0.003307936493136117 -0.0036637523902367944
leaf_weight=52.5 150 70.5 69 39 69 231.5 62 187 37.5
leaf_count=22 43 32 46 12 9 151 11 78 20
internal_value=0.000936591 -0.00270517 0.00299487 -0.0101074 0.0163941 -0.0127725 0.00918542 0.00727231 -0.0103788
internal_weight=968 784.5 443.5 341 183.5 302 114.5 337 106.5
internal_count=424 382 187 195 42 183 33 121 66
is_linear=0
shrinkage=0.05


Tree=5
num_leaves=12
num_cat=0
split_feature=27 22 10 2 22 0 22 2 2 23 26
split_gain=21.6867 7.58009 6.92716 4.43302 5.31866 3.12059 2.85593 2.65873 1.72083 1.13017 0.84902
threshold=1.0473529647746187 75.231263341670385 80.028811902153606 962295.33902072103 77.691101486862976 -0.95297903005573326 72.634615569761607 962592.30245371582 934699.17592695937 84.090577222772637 26.749083595969299
decision_type=2 2 2 2 2 2 2 2 2 2 2
left_child=2 5 6 4 -4 8 9 -7 -2 -1 -5
right_child=1 -3 3 10 -6 7 -8 -9 -10 -11 -12
leaf_value=-0.0041372501807144064 0.019531071103852368 0.027831576020777727 -0.007964283584301483 -0.016452994277337339 0.0061925347840319804 0.0060140685794319512 0.016580849914665682 -0.011272514825065931 0.0070974525858676354 0.0079795792356866305 -0.004292951241828674
leaf_weight=50 56 57.5 254 121 87.5 83.5 39.5 28 64 28.5 19.5
leaf_count=26 8 8 149 81 31 29 8 16 20 9 10
internal_value=0.000621711 0.0118324 -0.00479119 -0.00744967 -0.0043075 0.00763281 0.00596955 0.00150685 0.0131659 0.000288698 -0.0148843
internal_weight=889 289 600 482 341.5 231.5 118 111.5 120 78.5 140.5
internal_count=395 81 314 271 180 73 43 45 28 35 91
is_linear=0
shrinkage=0.05


Tree=6
num_leaves=9
num_cat=0
split_feature=2 19 0 19 33 13 29 19
split_gain=20.6319 17.6352 8.68378 4.37496 11.7368 2.04282 0.702999 0.122062
threshold=964954.64596157556 3273.1667321807568 0.35460488704253579 3307.7789820513772 3308.233207547773 0.04218293103869411 -2.7620587267740411 3307.4610286139264
decision_type=2 2 2 2 2 2 2 2
left_child=1 2 5 7 -5 -1 -4 -3
right_child=-2 3 6 4 -6 -7 -8 -9
leaf_value=0.0016305117758769379 0.01995251665601816 -0.020955843108926897 -0.0020123683146455072 0.010764191048071971 -0.015527297923790997 0.0094567117681007423 -0.012006936180553618 -0.014724826837323377
leaf_weight=132 109.5 84.5 25.5 61 128.5 237.5 76.5 46.5
leaf_count=60 21 57 13 20 86 71 51 31
internal_value=-0.000182414 -0.00301576 0.00312669 -0.012031 -0.00701393 0.00669817 -0.00964312 -0.0190363
internal_weight=901.5 792 471.5 320.5 189.5 369.5 102 131
internal_count=410 389 195 194 106 131 64 88
is_linear=0
shrinkage=0.05


Tree=7
num_leaves=13
num_cat=0
split_feature=27 23 8 2 31 22 2 21 20 9 23 1
split_gain=15.8736 6.84172 5.53916 4.9687 4.74105 4.57815 1.78381 1.43106 1.02553 0.906114 0.542371 0.00557917
threshold=1.1047980303594889 82.330419052020616 21.501771488578445 962277.22886830091 3.3899552690455548 72.634615569761607 951654.20643069595 86.408791722957503 3273.1667321807568 77.531484163729374 79.581629734408395 0.17992617227144031
decision_type=2 2 2 2 2 2 2 2 2 2 2 2
left_child=1 8 5 -4 7 -3 -6 9 10 -2 -1 -10
right_child=4 2 3 -5 6 -7 -8 -9 11 -11 -12 -13
leaf_value=-0.01360180106945336 0.0173391790823503 -0.0015598486143160234 -0.00068412725179538432 -0.014631322779117481 0.0066834681552648545 0.013685154397597259 -0.0068749809632950203 0.022401601398756743 -0.017384970495903412 0.0073012672662735 -0.0048670461564122337 -0.011276230629609557
leaf_weight=30 42 111.5 173.5 100 60.5 85 37.5 52.5 74.5 63 55.5 22.5
leaf_count=20 6 53 82 66 20 21 20 9 50 20 32 15
internal_value=-0.000357885 -0.00449996 -0.00127944 -0.005871 0.0101536 0.00508094 0.00141155 0.0154758 -0.012663 0.0116122 -0.00822986 -0.0162749
internal_weight=908 652.5 470 273.5 255.5 196.5 98 157.5 182.5 105 85.5 97
internal_count=414 339 222 148 75 74 40 35 117 26 52 65
is_linear=0
shrinkage=0.05


Tree=8
num_leaves=11
num_cat=0
split_feature=10 19 0 2 2 2 19 2 2 15
split_gain=14.2025 10.0197 6.51754 5.94883 3.86658 2.44506 2.36224 4.60238 0.797399 0.686453
threshold=80.028811902153606 3273.1667321807568 1.0000000180025095e-35 964954.64596157556 959244.61074296036 932939.92576212331 3307.7789820513772 962477.7306626502 926258.55302196217 -1.2128375037874422
decision_type=2 2 2 2 2 2 2 2 2 2
left_child=3 2 5 4 8 -2 -3 -8 -1 -4
right_child=1 6 9 -5 -6 -7 7 -9 -10 -11
leaf_value=0.00043926054792058089 0.013865825892183823 -0.016645557790346769 -0.0088990377130851676 0.021447930226200507 -0.0097858578691611426 0.0025152873742911551 0.0049293806138025094 -0.012493170556135294 0.0098217720992263696 -0.000748685034864311
leaf_weight=29 84.5 113 96 74 35 110.5 53 121 128.5 37.5
leaf_count=12 20 76 61 10 19 47 24 75 37 18
internal_value=-2.9156e-05 -0.00420907 0.00174186 0.00956545 0.00479836 0.00755007 -0.0110027 -0.00716218 0.00815272 -0.00669136
internal_weight=882 615.5 328.5 266.5 192.5 195 287 174 157.5 133.5
internal_count=399 321 146 78 68 67 175 99 49 79
is_linear=0
shrinkage=0.05


Tree=9
num_leaves=9
num_cat=0
split_feature=34 19 0 19 2 2 1 19
split_gain=15.6563 15.4857 8.40051 3.35985 8.3945 2.81034 0.924998 0.0626277
threshold=3316.5523851354897 3273.1667321807568 0.06026834012766185 3307.6817795632392 962423.3137183293 932939.92576212331 0.61559370248597578 3307.4610286139264
decision_type=2 2 2 2 2 2 2 2
left_child=1 2 5 7 -5 -1 -4 -3
right_child=-2 3 6 4 -6 -7 -8 -9
leaf_value=0.012277959756229235 0.018725105122885274 -0.01856446049473387 -0.0090410797725809684 0.0069918902569182529 -0.014148902052618338 0.002876887286495166 -0.0009335621572652106 -0.01248111065643937
leaf_weight=170.5 96.5 92 99 71 130 153.5 57 31.5
leaf_count=39 18 62 64 28 86 62 27 21
internal_value=-8.74041e-05 -0.00239101 0.00330306 -0.0107976 -0.00666132 0.00788437 -0.00615968 -0.0172763
internal_weight=901 804.5 480 324.5 201 324 156 123.5
internal_count=407 389 192 197 114 101 91 83
is_linear=0
shrinkage=0.05


Tree=10
num_leaves=15
num_cat=0
split_feature=27 10 2 19 9 2 2 19 24 15 20 19 2 2
split_gain=14.3088 5.47551 7.43577 3.52344 2.83278 2.46327 2.05896 1.67234 0.942668 0.674099 0.626258 0.477907 1.56307 0.0184401
threshold=-1.0298445117381492 78.242467907425493 960367.79657232622 3273.1667321807568 81.792148838501035 964769.40538720263 932505.71217918617 3313.7683563384867 83.102699408247133 1.103944642131188 3191.0267958279514 3308.2310815122751 962477.7306626502 912087.59660401335
decision_type=2 2 2 2 2 2 2 2 2 2 2 2 2 2
left_child=3 7 6 4 8 -4 -3 9 -1 -2 -6 13 -13 -5
right_child=1 2 5 11 10 -7 -8 -9 -10 -11 -12 12 -14 -15
leaf_value=-0.0036296312828532984 0.0036892647907178808 0.012103029700935396 -0.010115027962352974 -0.0098443614775314929 -0.0034032847554744967 0.0045850319981575009 0.0027510978830024954 0.020184117197990417 0.007069760311841965 0.012418985137369783 -0.010919139515485196 0.0010369159393248651 -0.013784093812755915 -0.016246206036635808
leaf_weight=28.5 43.5 115 118.5 18 51.5 35.5 125 53 60.5 54.5 73.5 24.5 55.5 78.5
leaf_count=16 15 26 72 12 29 11 53 7 20 11 48 13 37 53
internal_value=-0.000252742 0.00496925 0.00182708 -0.00754173 -0.0031496 -0.00667899 0.00731588 0.0130043 0.00358413 0.00874534 -0.00796434 -0.0127441 -0.0092696 -0.015327
internal_weight=935.5 545 394 390.5 214 154 240 151 89 98 125 176.5 80 96.5
internal_count=423 195 162 228 113 83 79 33 36 26 77 115 50 65
is_linear=0
shrinkage=0.05


Tree=11
num_leaves=11
num_cat=0
split_feature=9 19 0 2 19 2 23 9 28 31
split_gain=16.4124 8.47235 6.32072 3.85036 2.59637 4.9065 2.25484 1.17861 1.17638 0.0154681
threshold=78.242467907425493 3271.356748631234 1.0000000180025095e-35 965147.0143218477 3307.7789820513772 962295.33902072103 83.755431850349069 81.306302933363554 1.5617007503149287 4.5260065227635229
decision_type=2 2 2 2 2 2 2 2 2 2
left_child=3 2 6 8 9 -6 -2 -4 -1 -3
right_child=1 4 7 -5 5 -7 -8 -9 -10 -11
leaf_value=0.0018589274554459516 0.0026002063814733849 -0.014992426248138836 0.0018163979024087128 0.021474998549717229 0.0084850301722422094 -0.0097008501209721373 0.012195950339887743 -0.0082441799832588952 0.011756045521139654 -0.0091238984689116492
leaf_weight=58.5 150.5 114 36 80 47.5 146 105 124.5 65 18
leaf_count=23 61 77 16 10 17 89 24 79 12 12
internal_value=0.000487208 -0.00296528 0.00175271 0.0129979 -0.00898417 -0.00516991 0.00662718 -0.00596225 0.00721211 -0.0143776
internal_weight=945 741.5 416 203.5 325.5 193.5 255.5 160.5 123.5 132
internal_count=420 375 180 45 195 106 85 95 35 89
is_linear=0
shrinkage=0.05


Tree=12
num_leaves=10
num_cat=0
split_feature=27 12 2 19 23 9 2 31 31
split_gain=12.2083 6.34664 3.71564 4.1047 3.70024 1.81939 2.04465 0.594168 0.0618407
threshold=1.0473529647746187 27.174533148698305 962354.67382790719 3308.1002520935303 83.568000581889862 80.867020369831565 952180.73979004112 3.4864968246284489 2.4525542568455481
decision_type=2 2 2 2 2 2 2 2 2
left_child=1 2 3 -1 5 7 -7 -2 -4
right_child=4 -3 8 -5 -6 6 -8 -9 -10
leaf_value=-0.0053376947794478574 0.013410820413719524 0.0097777820982643086 -0.0077722758262656457 0.0091278040316780072 0.019745061898431858 0.0057618395534568823 -0.0095410186605794089 0.0059894507326185703 -0.013552683230799934
leaf_weight=366.5 53 72 19.5 54.5 57.5 56 33 73 118
leaf_count=205 10 20 12 18 9 18 20 21 79
internal_value=-0.000159341 -0.00398591 -0.00579776 -0.00341896 0.00864075 0.00549334 0 0.00931097 -0.0128919
internal_weight=903 630.5 558.5 421 272.5 215 89 126 137.5
internal_count=412 334 314 223 78 69 38 31 91
is_linear=0
shrinkage=0.05


Tree=13
num_leaves=9
num_cat=0
split_feature=2 19 0 22 11 23 31 19
split_gain=12.3924 12.5907 5.7943 2.542 5.11834 1.8192 1.12214 0.719349
threshold=964954.64596157556 3273.1667321807568 0.12053668025532312 77.691101486862976 25.570158992117225 83.755431850349069 4.1745759990327658 3307.4649162254332
decision_type=2 2 2 2 2 2 2 2
left_child=1 2 5 7 -5 -1 -4 -3
right_child=-2 3 6 4 -6 -7 -8 -9
leaf_value=0.0037121208988744568 0.015300023358946375 -0.01611986500620842 -0.0087149120566597117 0.012441447046962945 -0.012847542687394154 0.011085659291094809 0.00026792573343430252 -0.0097371389904800081
leaf_weight=240.5 119 73 90 35 41.5 132 54 186
leaf_count=89 22 49 59 8 28 31 26 119
internal_value=0.000320756 -0.0017965 0.00309335 -0.00931291 -0.00119152 0.00638363 -0.00535458 -0.011665
internal_weight=971 852 516.5 335.5 76.5 372.5 144 259
internal_count=431 409 205 204 36 120 85 168
is_linear=0
shrinkage=0.05


Tree=14
num_leaves=8
num_cat=0
split_feature=11 28 2 22 2 10 26
split_gain=9.6442 7.20718 3.96206 5.2083 2.57353 1.90719 0.439201
threshold=27.824984546301739 0.76448255736287773 962244.61108415213 75.231263341670385 934255.99707606074 82.211530425360777 26.919839700504724
decision_type=2 2 2 2 2 2 2
left_child=1 2 3 -1 -3 -6 -4
right_child=-2 4 6 -5 5 -7 -8
leaf_value=-0.0048374891261936141 0.022559279561042783 0.011572082106653413 -0.011516421752888409 0.0079804668631756077 0.0058356650357967929 -0.0055679889924886853 -0.0026394508088507305
leaf_weight=311 43 107.5 152.5 104 93 57.5 18.5
leaf_count=173 6 21 102 30 29 31 10
internal_value=0 -0.00119547 -0.00426293 -0.00159042 0.00573168 0.00143012 -0.0106266
internal_weight=887 844 586 415 258 150.5 171
internal_count=402 396 315 203 81 60 112
is_linear=0
shrinkage=0.05


Tree=15
num_leaves=12
num_cat=0
split_feature=12 10 2 2 2 19 31 15 0 31 27
split_gain=10.4849 5.07619 4.693 3.95698 2.75666 3.74634 1.1413 0.877264 0.799656 0.67277 0.096691
threshold=26.72477882873731 79.979392290202313 965147.0143218477 958686.6879733383 962354.67382790719 3308.2310815122751 2.7016355123084375 0.32052235374039439 -0.35460488704253573 3.5022284786317486 -2.664899399854479
decision_type=2 2 2 2 2 2 2 2 2 2 2
left_child=1 6 3 7 5 -3 -1 -2 -5 -8 -6
right_child=2 4 -4 8 10 -7 9 -9 -10 -11 -12
leaf_value=-0.0068271877458601291 0.0007545726113021375 -0.0052479267545899599 0.018400805336686799 -0.013507747639869823 -0.0078720287497662297 0.0092195637278200595 0.011416436656613217 0.0095014860667946496 -0.00071314655542373663 0.0034061547794512342 -0.012474505598808444
leaf_weight=14.499999999999998 38 316 77.5 27 37.5 50 51.5 139.5 23 61 105.5
leaf_count=9 16 179 13 18 25 16 10 34 11 19 69
internal_value=0.000312083 -0.00333646 0.00790864 0.0041834 -0.00557021 -0.00321854 0.00552495 0.00768603 -0.00797218 0.00725211 -0.0114273
internal_weight=941 636 305 227.5 509 366 127 177.5 50 112.5 143
internal_count=419 327 92 79 289 195 38 50 29 29 94
is_linear=0
shrinkage=0.05


Tree=16
num_leaves=8
num_cat=0
split_feature=28 11 2 19 2 26 2
split_gain=6.27527 5.09609 2.81183 3.44853 1.90485 0.599246 0.284998
threshold=1.3749715783372856 27.395967139700879 962507.42520727322 3308.1002520935303 942098.48089571309 26.848860521584285 951654.20643069595
decision_type=2 2 2 2 2 2 2
left_child=1 2 3 -1 -2 -4 -6
right_child=4 -3 5 -5 6 -7 -8
leaf_value=-0.0046059669394378066 0.011995612570355016 0.010159932214116294 -0.012319463899842016 0.0073122997580637762 0.0044140141857407838 -0.002648303708497514 -0.0009775299712231286
leaf_weight=430 91 61 119.5 68.5 47 21.5 45.5
leaf_count=238 17 15 80 25 16 12 18
internal_value=-0.00124468 -0.00340674 -0.00473626 -0.00293559 0.00692963 -0.0109374 0.00174449
internal_weight=884 700.5 639.5 498.5 183.5 141 92.5
internal_count=421 370 355 263 51 92 34
is_linear=0
shrinkage=0.05


Tree=17
num_leaves=9
num_cat=0
split_feature=33 20 0 19 33 19 1 32
split_gain=9.99083 9.04874 4.64763 2.22737 6.49597 1.90327 0.550359 0.251122
threshold=3316.5469952424983 3273.1667321807568 0.35460488704253579 3307.7789820513772 3307.9378509931739 3137.9095973992421 0.74851074817110097 2.840810175771344
decision_type=2 2 2 2 2 2 2 2
left_child=1 2 5 7 -5 -1 -4 -3
right_child=-2 3 6 4 -6 -7 -8 -9
leaf_value=-0.0085878213980923532 0.013932874682581141 -0.017237789558641841 -0.0076901463668226549 0.0099449705305453551 -0.0098691303717593354 0.0062186706103003883 0.00077691133229099976 -0.010754272386151861
leaf_weight=21 124 31 90 56.5 139 389.5 22.5 104.5
leaf_count=11 22 21 60 16 93 125 10 70
internal_value=0.000785948 -0.00114523 0.00294025 -0.00759443 -0.00407477 0.00541113 -0.00596908 -0.0125031
internal_weight=978 854 523 331 195.5 410.5 112.5 135.5
internal_count=428 406 206 200 109 136 70 91
is_linear=0
shrinkage=0.05


Tree=18
num_leaves=8
num_cat=0
split_feature=2 19 0 13 32 19 10
split_gain=8.6584 11.0038 4.67065 1.99061 1.61613 0.683517 0.306859
threshold=964954.64596157556 3273.1667321807568 0.35460488704253579 -3.2096224158361886 2.6096573666520224 3307.4610286139264 81.825036303743971
decision_type=2 2 2 2 2 2 2
left_child=1 2 4 -3 -1 -5 -4
right_child=-2 3 6 5 -6 -7 -8
leaf_value=-0.0034113071547759756 0.013245546004611024 0.0014242977691792894 -0.001106240962599886 -0.014138522714200102 0.0065691732757945046 -0.0082958767400420907 -0.0075712158634181487
leaf_weight=43.5 114.5 41.5 27 82.5 376.5 193.5 81
leaf_count=24 21 19 14 56 112 125 54
internal_value=0.000461788 -0.0012907 0.00312401 -0.00862157 0.00551236 -0.0101495 -0.00604993
internal_weight=960 845.5 528 317.5 420 276 108
internal_count=425 404 204 200 136 181 68
is_linear=0
shrinkage=0.05


Tree=19
num_leaves=12
num_cat=0
split_feature=9 2 20 2 28 22 20 20 24 27 27
split_gain=7.31237 4.83425 4.21899 2.01032 2.80347 1.72303 1.48674 1.4791 0.425393 0.00167319 0.0024593
threshold=82.17842235173373 965147.0143218477 3273.1667321807568 962423.3137183293 -1.7980018628104284 82.973944975425752 3308.1002520935303 3140.4878265574775 82.774821063416695 -2.664899399854479 0.59467523630375407
decision_type=2 2 2 2 2 2 2 2 2 2 2
left_child=1 2 7 4 8 -4 -6 -1 -2 -5 -11
right_child=3 -3 5 9 6 -7 -8 -9 -10 10 -12
leaf_value=-0.0093737424997722401 -0.010349630399856693 0.015348638349735155 -0.011327407437798788 -0.006778758376693496 -0.00048025526374272283 0.0042747007558743165 0.011181549296450259 0.0058406623898102257 -0.0044768876517392543 -0.011455048666397731 -0.0075587960442558668
leaf_weight=14.999999999999998 74.5 80 67.5 24 144 22 31.5 262 67.5 73 28.5
leaf_count=8 50 11 45 16 68 8 8 82 43 49 17
internal_value=-0.000137788 0.00436234 0.00188038 -0.00468392 -0.00251463 -0.007428 0.00168712 0.00493757 -0.00769368 -0.0100072 -0.0105765
internal_weight=889.5 446.5 366.5 443 317.5 89.5 175.5 277 142 125.5 101.5
internal_count=405 154 143 251 169 53 76 90 93 82 66
is_linear=0
shrinkage=0.05


Tree=20
num_leaves=12
num_cat=0
split_feature=27 21 23 2 19 2 10 22 1 8 16
split_gain=7.3893 2.6103 2.20197 1.90353 1.82489 1.5499 1.40404 1.47495 0.474453 0.0908227 0.0206835
threshold=1.0473529647746187 86.408791722957503 82.259333755824187 962260.18877937715 3308.3169419608771 964954.64596157556 78.242467907425493 52.680040772489917 0.29696027566504685 34.41574979093155 -0.24358819606306811
decision_type=2 2 2 2 2 2 2 2 2 2 2
left_child=2 6 8 4 -4 -5 -2 -8 10 -10 -1
right_child=1 -3 3 5 -6 -7 7 -9 9 -11 -12
leaf_value=-0.010245887188991505 0.0084524905995294383 0.015476771043613552 -0.00046793243740393176 -0.0085553582264231397 0.011360103790019012 0.0047728227548025273 0.0036781559849454874 -0.0080029979266532502 -0.00054405959429960633 -0.0054353272966867275 -0.0062594338309673522
leaf_weight=98.5 98.5 62 269 113.5 35 25 101.5 34.5 22.5 19.5 24
leaf_count=66 20 11 127 75 8 7 32 20 12 13 16
internal_value=2.77846e-05 0.00647762 -0.00312547 -0.00126156 0.000942857 -0.00608027 0.00396641 0.00060565 -0.00803391 -0.00307248 -0.00961813
internal_weight=903.5 296.5 607 442.5 304 138.5 234.5 136 164.5 42 122.5
internal_count=407 83 324 217 135 82 72 52 107 25 82
is_linear=0
shrinkage=0.05


Tree=21
num_leaves=8
num_cat=0
split_feature=34 20 9 13 14 24 20
split_gain=6.30955 6.68325 3.15672 1.58247 1.56688 1.36261 0.557327
threshold=3315.9357182674189 3273.1667321807568 83.488128068152278 -3.2096224158361886 -0.83336750113785263 84.588141931394844 3307.4610286139264
decision_type=2 2 2 2 2 2 2
left_child=1 2 4 -3 -1 -4 -5
right_child=-2 3 5 6 -6 -7 -8
leaf_value=0.00011524677130762701 0.0114570688861819 0.0021566222616959184 -0.0066143251561263218 -0.011990382262528729 0.0069041446293197058 0.0065076623919109499 -0.0066787933693432866
leaf_weight=130.5 109.5 40 109.5 78.5 250.5 22 195
leaf_count=62 21 18 68 53 68 7 124
internal_value=0.000287303 -0.00121149 0.00229787 -0.00694254 0.00460461 -0.00431695 -0.00829745
internal_weight=935.5 826 512.5 313.5 381 131.5 273.5
internal_count=421 400 205 195 130 75 177
is_linear=0
shrinkage=0.05


Tree=22
num_leaves=8
num_cat=0
split_feature=12 27 22 31 31 1 22
split_gain=6.32473 2.74529 2.65234 2.12234 1.79383 1.6566 0.773651
threshold=27.824984546301739 1.1866365318082643 83.559162009440328 3.2645908777543551 2.9815151368979098 0.95297903005573359 54.03400181790817
decision_type=2 2 2 2 2 2 2
left_child=1 2 5 -4 -3 -1 -6
right_child=-2 4 3 -5 6 -7 -8
leaf_value=-0.0057703072169379959 0.017972104075280104 0.010901467713535342 0.010961979061638545 -0.003330625437124811 0.0028893834073966912 0.0023559769306791159 -0.004825644733444337
leaf_weight=440.5 42 56.5 52.5 47.5 105 71 44.5
leaf_count=264 6 10 11 24 32 32 23
internal_value=-0.00048814 -0.0014842 -0.0031684 0.00419178 0.00347359 -0.0046278 0.000526545
internal_weight=859.5 817.5 611.5 100 206 511.5 149.5
internal_count=402 396 331 35 65 296 55
is_linear=0
shrinkage=0.05


Tree=23
num_leaves=8
num_cat=0
split_feature=11 21 20 33 5 24 11
split_gain=5.71804 3.42269 3.21182 2.1671 1.84383 0.386047 0.266198
threshold=27.772622438683737 26.299205541981575 3188.2166649214728 3230.6136456266645 3182.6867745958125 81.297332181664828 25.859453746990962
decision_type=2 2 2 2 2 2 2
left_child=1 5 4 -4 -3 -1 -7
right_child=-2 2 3 -5 -6 6 -8
leaf_value=-0.0096294055535490128 0.017773646520472124 -0.0011621664201512056 -0.0093994354538405114 0.00010158613017654118 0.010275328824746197 -0.0082179773195845181 -0.0020173834145904702
leaf_weight=85 41.5 49 67.5 432.5 114 28.5 51.5
leaf_count=57 6 21 44 196 22 19 28
internal_value=9.79496e-05 -0.000822639 0.000779769 -0.00120343 0.00683435 -0.00722357 -0.00443388
internal_weight=869.5 828 663 500 163 165 80
internal_count=393 387 283 240 43 104 47
is_linear=0
shrinkage=0.05


Tree=24
num_leaves=12
num_cat=0
split_feature=9 19 11 11 19 2 0 7 23 12 29
split_gain=4.69483 4.28607 3.12895 1.83687 1.0391 1.61264 0.926569 0.771818 0.747817 0.740581 0.0948087
threshold=78.242467907425493 3273.1667321807568 26.195722467613649 27.68273330475758 3307.6398612412672 962477.7306626502 -0.88545602565320969 0.59867144388749083 83.755431850349069 26.544562440237737 -3.233548605643318
decision_type=2 2 2 2 2 2 2 2 2 2 2
left_child=3 2 9 6 10 -6 -1 -8 -4 -2 -3
right_child=1 4 8 -5 5 -7 7 -9 -10 -11 -12
leaf_value=0.0072767163727295962 -0.0047352764244584754 -0.005088063943697963 0.0030076560130495303 0.01552107488512993 0.002688194818497784 -0.0065128118082514556 -0.0069389460601589894 0.0043844453730817997 0.0087398432026494222 0.0032968068149098213 -0.010540262947628356
leaf_weight=93.5 143 19.5 138.5 48 67 150.5 25.5 31 104 33.5 90
leaf_count=15 86 13 54 7 33 91 14 10 25 12 61
internal_value=0.000340857 -0.00147379 0.00186323 0.00714923 -0.0057502 -0.00365703 0.00426837 -0.000703151 0.00553783 -0.0031629 -0.00972285
internal_weight=944 746 419 198 327 217.5 150 56.5 242.5 176.5 109.5
internal_count=421 375 177 46 198 124 39 24 79 98 74
is_linear=0
shrinkage=0.05


Tree=25
num_leaves=9
num_cat=0
split_feature=34 20 22 9 9 34 20 21
split_gain=5.28342 4.75039 2.45226 1.59026 1.14438 1.1528 0.568736 0.12986
threshold=3315.9357182674189 3273.1667321807568 29.939861863922264 83.540517741617904 85.205508412999748 3308.0805846628359 3307.5691003367588 25.690215154159727
decision_type=2 2 2 2 2 2 2 2
left_child=1 2 7 -4 6 -6 -3 -1
right_child=-2 4 3 -5 5 -7 -8 -9
leaf_value=-0.0067235134703744403 0.011108449302354263 -0.0097775031843397552 0.0052292761953459579 -0.0025271785053791428 0.0080771401485330192 -0.0060643381472869681 -0.0049180196888781967 -0.0013581494232639672
leaf_weight=64.5 98.5 112.5 326 80.5 26.5 27 161 18
leaf_count=43 19 76 100 42 8 18 99 11
internal_value=0.000285875 -0.00103838 0.00207217 0.00367616 -0.00568945 0.000888877 -0.00699151 -0.00567191
internal_weight=914.5 816 489 406.5 327 53.5 273.5 82.5
internal_count=416 397 196 142 201 26 175 54
is_linear=0
shrinkage=0.05


end of trees

feature_importances:
city_estimated_population=44
city_area_weighted_pop_density_lag20=33
city_area_weighted_rh_lag20=14
week_sin=13
city_area_weighted_rainfall_rollmean_lag1_w8=13
city_area_weighted_pop_density_lag19=11
city_area_weighted_wind_speed_10m_rollmean_lag1_w4=10
city_area_weighted_rh_lag19=9
city_area_weighted_u_component_of_wind_10m_rollmean_lag1_w4=9
city_area_weighted_rh_rollmean_lag1_w4=8
week_cos=7
city_pop_density=7
city_area_weighted_temp_c_lag12=7
city_area_weighted_temp_c_lag11=7
city_area_weighted_u_component_of_wind_10m_rollmean_lag1_w8=7
city_area_weighted_rainfall_rollmean_lag1_w4=5
city_area_weighted_u_component_of_wind_10m_lag3=4
city_area_weighted_v_component_of_wind_10m_lag6=4
city_area_weighted_rh_rollmean_lag1_w8=4
city_area_weighted_pop_density_rollmean_lag1_w4=4
city_area_weighted_pop_density_rollmean_lag1_w8=4
city_area_weighted_temp_c_rollmean_lag1_w8=3
city_area_weighted_rainfall_lag19=2
city_area_weighted_v_component_of_wind_10m_rollmean_lag1_w4=2
city_area_weighted_wind_speed_10m_rollmean_lag1_w8=2
city_area_weighted_rainfall_lag20=1
city_area_weighted_u_component_of_wind_10m_lag2=1
city_area_weighted_v_component_of_wind_10m_lag5=1
city_area_weighted_temp_c_rollmean_lag1_w4=1

parameters:
[boosting: gbdt]
[objective: regression]
[metric: rmse]
[tree_learner: serial]
[device_type: cpu]
[data_sample_strategy: bagging]
[data: ]
[valid: ]
[num_iterations: 26]
[learning_rate: 0.05]
[num_leaves: 31]
[num_threads: 0]
[seed: 0]
[deterministic: 0]
[force_col_wise: 1]
[force_row_wise: 0]
[histogram_pool_size: -1]
[max_depth: 4]
[min_data_in_leaf: 12]
[min_sum_hessian_in_leaf: 0.001]
[bagging_fraction: 0.8]
[pos_bagging_fraction: 1]
[neg_bagging_fraction: 1]
[bagging_freq: 1]
[bagging_seed: 3]
[bagging_by_query: 0]
[feature_fraction: 0.8]
[feature_fraction_bynode: 1]
[feature_fraction_seed: 2]
[extra_trees: 0]
[extra_seed: 6]
[early_stopping_round: 0]
[early_stopping_min_delta: 0]
[first_metric_only: 0]
[max_delta_step: 0]
[lambda_l1: 0.1]
[lambda_l2: 2]
[linear_lambda: 0]
[min_gain_to_split: 0]
[drop_rate: 0.1]
[max_drop: 50]
[skip_drop: 0.5]
[xgboost_dart_mode: 0]
[uniform_drop: 0]
[drop_seed: 4]
[top_rate: 0.2]
[other_rate: 0.1]
[min_data_per_group: 100]
[max_cat_threshold: 32]
[cat_l2: 10]
[cat_smooth: 10]
[max_cat_to_onehot: 4]
[top_k: 20]
[monotone_constraints: ]
[monotone_constraints_method: basic]
[monotone_penalty: 0]
[feature_contri: ]
[forcedsplits_filename: ]
[refit_decay_rate: 0.9]
[cegb_tradeoff: 1]
[cegb_penalty_split: 0]
[cegb_penalty_feature_lazy: ]
[cegb_penalty_feature_coupled: ]
[path_smooth: 0]
[interaction_constraints: ]
[verbosity: -1]
[saved_feature_importance_type: 0]
[use_quantized_grad: 0]
[num_grad_quant_bins: 4]
[quant_train_renew_leaf: 0]
[stochastic_rounding: 1]
[linear_tree: 0]
[max_bin: 255]
[max_bin_by_feature: ]
[min_data_in_bin: 3]
[bin_construct_sample_cnt: 200000]
[data_random_seed: 1]
[is_enable_sparse: 1]
[enable_bundle: 1]
[use_missing: 1]
[zero_as_missing: 0]
[feature_pre_filter: 1]
[pre_partition: 0]
[two_round: 0]
[header: 0]
[label_column: ]
[weight_column: ]
[group_column: ]
[ignore_column: ]
[categorical_feature: ]
[forcedbins_filename: ]
[precise_float_parser: 0]
[parser_config_file: ]
[objective_seed: 5]
[num_class: 1]
[is_unbalance: 0]
[scale_pos_weight: 1]
[sigmoid: 1]
[boost_from_average: 1]
[reg_sqrt: 0]
[alpha: 0.9]
[fair_c: 1]
[poisson_max_delta_step: 0.7]
[tweedie_variance_power: 1.5]
[lambdarank_truncation_level: 30]
[lambdarank_norm: 1]
[label_gain: ]
[lambdarank_position_bias_regularization: 0]
[eval_at: ]
[multi_error_top_k: 1]
[auc_mu_weights: ]
[num_machines: 1]
[local_listen_port: 12400]
[time_out: 120]
[machine_list_filename: ]
[machines: ]
[gpu_platform_id: -1]
[gpu_device_id: -1]
[gpu_use_dp: 0]
[num_gpu: 1]

end of parameters
