tree
version=v4
num_class=1
num_tree_per_iteration=1
label_index=0
max_feature_idx=56
objective=regression
feature_names=week_sin week_cos city_estimated_population city_area_m2 city_area_km2 city_pop_density n_barangays_reported city_area_weighted_rainfall_lag19 city_area_weighted_rainfall_lag20 city_area_weighted_rh_lag19 city_area_weighted_rh_lag20 city_area_weighted_temp_c_lag11 city_area_weighted_temp_c_lag10 city_area_weighted_u_component_of_wind_10m_lag2 city_area_weighted_u_component_of_wind_10m_lag1 city_area_weighted_v_component_of_wind_10m_lag5 city_area_weighted_v_component_of_wind_10m_lag4 city_area_weighted_wind_speed_10m_lag10 city_area_weighted_wind_speed_10m_lag11 city_area_weighted_pop_density_lag20 city_area_weighted_pop_density_lag19 city_area_weighted_rainfall_rollmean_lag1_w4 city_area_weighted_rainfall_rollmean_lag1_w8 city_area_weighted_rh_rollmean_lag1_w4 city_area_weighted_rh_rollmean_lag1_w8 city_area_weighted_temp_c_rollmean_lag1_w4 city_area_weighted_temp_c_rollmean_lag1_w8 city_area_weighted_u_component_of_wind_10m_rollmean_lag1_w4 city_area_weighted_u_component_of_wind_10m_rollmean_lag1_w8 city_area_weighted_v_component_of_wind_10m_rollmean_lag1_w4 city_area_weighted_v_component_of_wind_10m_rollmean_lag1_w8 city_area_weighted_wind_speed_10m_rollmean_lag1_w4 city_area_weighted_wind_speed_10m_rollmean_lag1_w8 city_area_weighted_pop_density_rollmean_lag1_w4 city_area_weighted_pop_density_rollmean_lag1_w8 city_area_weighted_flood_risk_index_rollmean_lag1_w4 city_area_weighted_flood_risk_index_rollmean_lag1_w8 city_area_weighted_percent_annual_crop_rollmean_lag1_w4 city_area_weighted_percent_annual_crop_rollmean_lag1_w8 city_area_weighted_percent_brush_shrubs_rollmean_lag1_w4 city_area_weighted_percent_brush_shrubs_rollmean_lag1_w8 city_area_weighted_percent_built_up_rollmean_lag1_w4 city_area_weighted_percent_built_up_rollmean_lag1_w8 city_area_weighted_percent_inland_water_rollmean_lag1_w4 city_area_weighted_percent_inland_water_rollmean_lag1_w8 city_area_weighted_percent_open_forest_rollmean_lag1_w4 city_area_weighted_percent_open_forest_rollmean_lag1_w8 city_area_weighted_percent_perennial_crop_rollmean_lag1_w4 city_area_weighted_percent_perennial_crop_rollmean_lag1_w8 city_area_weighted_percent_open_barren_rollmean_lag1_w4 city_area_weighted_percent_open_barren_rollmean_lag1_w8 city_area_weighted_percent_fishpond_rollmean_lag1_w4 city_area_weighted_percent_fishpond_rollmean_lag1_w8 city_area_weighted_percent_grassland_rollmean_lag1_w4 city_area_weighted_percent_grassland_rollmean_lag1_w8 city_area_weighted_percent_mangrove_forest_rollmean_lag1_w4 city_area_weighted_percent_mangrove_forest_rollmean_lag1_w8
feature_infos=[-1:1] [-1:1] [909262.48027323559:966577.31467453681] none none [3125.6331669833721:3322.6556453672079] none [0:403.77764092016611] [0:403.77764092016611] [74.166209495041301:89.224799485777211] [74.166209495041301:89.224799485777211] [24.178433964655767:28.356173140545412] [24.178433964655767:28.356173140545412] [-4.5717681780699149:5.3108736337661018] [-4.5717681780699149:5.3108736337661018] [-6.2680500182560719:5.1247667214851038] [-6.2680500182560719:5.1247667214851038] [1.39564484944224:6.8002328204854665] [1.39564484944224:6.8002328204854665] [3125.6331669833717:3317.6266489579975] [3125.6331669833717:3317.8511903405465] [0.06597045822318269:149.02606250490396] [0.34670367581884309:119.23124797939784] [75.920732847159741:87.36324422781334] [76.483294868292248:86.237507786239505] [24.524834464421016:28.067998122101869] [24.646253660584854:27.823998304699263] [-3.4486736035175789:3.6280013469861503] [-3.1133143420372855:3.131422920161175] [-4.48361272930451:3.4734894156434146] [-3.8559405516430854:3.0795858777581708] [1.7342058228275261:5.7925001460518359] [1.9506388693011207:5.3170040362056081] [3126.4705697467193:3321.9654538263985] [3128.1510842727353:3321.4310106012244] none none none none none none none none none none none none none none none none none none none none none none
tree_sizes=1204 1534 1266 1284 1446 1369 1279 1499 1632 1364 1279 1373 1289 1475 1354 1522 1271 1187 1203 1727 1292 1284 1700

Tree=0
num_leaves=13
num_cat=0
split_feature=2 19 28 22 1 2 2 2 1 19 2 9
split_gain=33.8378 33.0013 15.0138 7.74501 10.7854 4.40225 4.74991 3.6604 1.97879 0.526178 2.97004 0.273675
threshold=964892.11142829794 3273.0155582797256 -1.8712958586364954 77.742563733760008 0.12053668025532312 929389.48183021334 940508.72955335642 925727.18428954796 0.74851074817110097 3307.7122130073653 962497.18661207694 82.888354282346953
decision_type=2 2 2 2 2 2 2 2 2 2 2 2
left_child=1 2 8 9 -5 7 -7 -4 -1 -3 -11 -10
right_child=-2 3 5 4 -6 6 -8 -9 11 10 -12 -13
leaf_value=0.56964716513552527 0.59398094731141449 0.56472701222587796 0.58117326765092236 0.58830670399867946 0.5664068349618494 0.57333201142538315 0.58405048642611257 0.59093863920380119 0.57921274067395523 0.57616711469399906 0.56601681606964682 0.5748317227957227
leaf_weight=75 116 103 52 40 37 46.5 155 122 30 37.5 107.5 18
leaf_count=50 21 69 21 8 25 30 53 22 13 22 72 11
internal_value=0.57895 0.576807 0.581646 0.569394 0.577818 0.584627 0.58152 0.588117 0.57264 0.56683 0.568533 0.577606
internal_weight=939.5 823.5 498.5 325 77 375.5 201.5 174 123 248 145 48
internal_count=417 396 200 196 33 126 83 43 74 163 94 24
is_linear=0
shrinkage=1


Tree=1
num_leaves=16
num_cat=0
split_feature=28 9 19 28 5 9 5 19 5 0 1 10 31 19 21
split_gain=25.7277 14.1355 16.5095 9.49667 4.0473 3.54741 3.35467 2.92256 2.75229 2.50187 2.18431 0.773426 0.373362 0.302358 0.498722
threshold=-1.8712958586364954 78.242467907425493 3273.0155582797256 -1.3374776442519762 3317.5157534732548 84.044741544715023 3320.3781956451389 3273.0155582797256 3205.0370486839352 -0.82298386589365657 0.74851074817110097 82.271169473097771 3.1775379529430463 3308.9569756888009 36.844260577138499
decision_type=2 2 2 2 2 2 2 2 2 2 2 2 2 2 2
left_child=7 4 5 -4 9 8 -5 10 -3 -2 -1 -12 -7 -9 -15
right_child=1 2 3 6 -6 12 -8 13 -10 -11 11 -13 -14 14 -16
leaf_value=-0.0085471172204120548 0.010883841063616411 0.0098982799220085124 0.003494591672925183 -0.0117126548204864 0.016600484813962663 -0.0050154817253351205 0.00051541082697863477 -0.013532108433246611 0.0034166683457765479 0.0011067191530019045 0.0023402263925543852 -0.0047180667396472843 9.1755118706951947e-05 -0.011259948662857511 -0.0039455613110994181
leaf_weight=67.5 51 110.5 66.5 131.5 61 24 22.5 73 139.5 46 33 21 21 31.5 19.5
leaf_count=45 9 26 23 87 8 16 9 49 55 19 13 13 10 21 12
internal_value=-0.000267851 0.00275779 0.000326745 -0.00584104 0.0105487 0.0049654 -0.00990392 -0.00854779 0.00636117 0.0064239 -0.00502536 -0.000367993 -0.00260196 -0.011817 -0.0088309
internal_weight=919 673.5 515.5 220.5 158 295 154 245.5 250 97 121.5 54 45 124 51
internal_count=415 262 226 119 36 107 96 153 81 28 71 26 26 82 33
is_linear=0
shrinkage=0.03


Tree=2
num_leaves=13
num_cat=0
split_feature=9 19 2 28 2 2 19 9 21 10 30 32
split_gain=31.716 14.2535 8.08553 7.14669 6.94101 5.63978 9.39169 3.05927 2.4887 1.05202 1.02944 0.552616
threshold=78.091959911703398 3240.1651125843941 964892.11142829794 -1.8712958586364954 965082.09415371588 962440.68915376544 3308.1401159476741 83.73493127474093 67.941742878685247 82.198063680545616 1.0720363071016485 3.1414084879868085
decision_type=2 2 2 2 2 2 2 2 2 2 2 2
left_child=4 3 5 9 10 6 -3 8 -5 -2 -1 -9
right_child=1 2 -4 7 -6 -7 -8 11 -10 -11 -12 -13
leaf_value=0.0022006116948629678 -0.00047082707020517902 -0.0084763863179167457 0.0065276983345930392 0.0031509074934786469 0.01956975598562331 -0.012565810370445251 0.0051360737980306152 -0.0039180935220375877 0.010412819903277786 -0.0072057600849726065 0.0087506331572165842 0.0018990207946300505
leaf_weight=36 34.5 166 37 97 61 140.5 60.5 31.5 82.5 61.5 76 23
leaf_count=14 17 104 11 37 8 94 21 19 17 40 17 10
internal_value=5.81164e-06 -0.0027171 -0.00648541 0.00188943 0.0114918 -0.00784189 -0.004801 0.00472052 0.00659958 -0.00490562 0.00677344 -0.00137665
internal_weight=907 734 404 330 173 367 226.5 234 179.5 96 112 54.5
internal_count=409 370 230 140 39 219 125 83 54 57 31 29
is_linear=0
shrinkage=0.03


Tree=3
num_leaves=13
num_cat=0
split_feature=2 19 0 22 1 27 2 2 1 26 1 16
split_gain=31.0112 29.1242 15.3541 5.86948 10.1495 3.98396 2.40067 1.63767 0.994282 0.920777 0.460938 0.0350788
threshold=964892.11142829794 3273.0155582797256 0.35460488704253579 77.742563733760008 0.17992617227144031 1.1047980303594889 933668.58593632688 925331.20051898144 -0.91023613416931226 26.590635240433418 0.74851074817110097 -1.1403370864509752
decision_type=2 2 2 2 2 2 2 2 2 2 2 2
left_child=1 2 5 8 -5 7 -7 -1 9 -3 11 -4
right_child=-2 3 10 4 -6 6 -8 -9 -10 -11 -12 -13
leaf_value=-0.0029859536155445931 0.014985705304043487 -0.0015005133455449884 -0.0085556603455715034 0.0092404069559914731 -0.012001766071869776 0.011761326805152723 0.0046974901291377399 0.0039824368828932557 -0.01142968092129474 -0.01003949596732855 -0.0023654996670630511 -0.0045734289098647426
leaf_weight=34.5 114.5 25.5 67.5 40 37 111 83 166 211 23.5 22.5 18
leaf_count=20 20 12 45 8 25 20 28 63 141 16 12 12
internal_value=0.000475321 -0.00152754 0.00303734 -0.00832969 -0.000936352 0.00578658 0.00884855 0.00273611 -0.0104725 -0.0059465 -0.00687311 -0.00790957
internal_weight=954 839.5 502.5 337 77 394.5 194 200.5 260 49 108 85.5
internal_count=422 402 200 202 33 131 48 83 169 28 69 57
is_linear=0
shrinkage=0.03


Tree=4
num_leaves=15
num_cat=0
split_feature=9 20 0 5 5 5 19 5 5 5 28 0 1 21
split_gain=27.0163 16.5368 11.54 6.79707 6.05048 3.37784 9.39799 3.10092 3.22242 3.1609 2.92979 1.05116 0.562485 0.0633799
threshold=78.783248597626411 3273.1667321807568 0.29696027566504674 3316.2340065846461 3317.5157534732548 3308.4357977350619 3308.0037815743258 3194.820695318987 3233.0436399904925 3187.7512437020623 -0.30952877389788064 -0.91023613416931226 0.74851074817110097 10.021658190603826
decision_type=2 2 2 2 2 2 2 2 2 2 2 2 2 2
left_child=4 2 7 5 10 6 -3 9 -9 -2 -1 -12 13 -4
right_child=1 3 12 -5 -6 -7 -8 8 -10 -11 11 -13 -14 -15
leaf_value=-0.0028506325897523911 0.0026353282671907671 -0.011006620926516395 -0.009107299627977258 0.0059787168827883548 0.016107385074220052 -0.012060110925189379 0.0039648623416200278 -0.0043366816985607138 0.0047255059003403757 0.012361384637355805 0.010728169771104024 0.004471822270751 -0.0021623142422711262 -0.0057131028780911834
leaf_weight=27.5 55.5 99.5 40.5 29.5 80 143 58 48 116 73 56 58 28.5 45
leaf_count=13 23 67 27 9 11 96 22 29 40 12 9 20 15 30
internal_value=0.000401534 -0.00235854 0.00167903 -0.00733032 0.00954477 -0.00868759 -0.00547511 0.0048401 0.00201672 0.00831138 0.00561986 0.00772882 -0.00632351 -0.00756087
internal_weight=958 736.5 406.5 330 221.5 300.5 157.5 292.5 164 128.5 141.5 114 114 85.5
internal_count=423 370 176 194 53 185 89 104 69 35 42 29 72 57
is_linear=0
shrinkage=0.03


Tree=5
num_leaves=14
num_cat=0
split_feature=10 20 2 0 2 12 22 22 20 2 21 20 0
split_gain=24.9624 10.0009 10.0304 8.81086 5.06177 3.71691 5.82636 2.2191 1.98544 2.74512 1.93898 0.494976 0.486085
threshold=78.376768256563935 3273.1667321807568 964892.11142829794 0.35460488704253579 965082.09415371588 25.416652015498901 77.742563733760008 48.155622952556506 3186.8229123817773 940508.72955335642 65.721243297772489 3307.4610286139264 0.61559370248597556
decision_type=2 2 2 2 2 2 2 2 2 2 2 2 2
left_child=4 3 5 8 7 6 -3 -1 10 -10 -2 -7 -5
right_child=1 2 -4 12 -6 11 -8 -9 9 -11 -12 -13 -14
leaf_value=0.0098872173403178453 0.0013110416146187946 -0.00922929478068895 0.0075599020455690003 -0.002858087155063237 0.01614846600390769 -0.012636976125628448 0.008202143343745685 0.0014409051477909086 -0.004600001487921882 0.0041976167299385579 0.0095667597550266204 -0.0086082249475760483 -0.0079035720327775266
leaf_weight=57.5 41.5 37.5 40.5 33 72 62.5 28.5 58 43.5 103 77.5 164.5 67.5
leaf_count=13 18 24 11 19 10 42 6 22 27 36 16 106 45
internal_value=0.000263201 -0.00234033 -0.0060848 0.00106985 0.00992997 -0.00802965 -0.001594 0.00579356 0.00394407 0.00151818 0.00680651 -0.00984434 -0.00639348
internal_weight=887 699.5 333.5 366 187.5 293 66 115.5 265.5 146.5 119 227 100.5
internal_count=395 350 189 161 45 178 30 35 97 63 34 148 64
is_linear=0
shrinkage=0.03


Tree=6
num_leaves=13
num_cat=0
split_feature=9 20 0 33 2 13 2 2 2 19 2 9
split_gain=29.4249 16.5088 10.002 9.24134 5.37307 3.02384 2.9001 3.01662 2.98096 0.894244 2.19157 0.306961
threshold=78.242467907425493 3273.1667321807568 0.35460488704253579 3315.9303931532918 965082.09415371588 0.43738192770419859 929389.48183021334 940508.72955335642 926125.34723596147 3307.1492799521052 962365.39980238944 82.101453584398627
decision_type=2 2 2 2 2 2 2 2 2 2 2 2
left_child=4 2 6 9 5 -1 8 -8 -2 -3 -11 -4
right_child=1 3 11 -5 -6 -7 7 -9 -10 10 -12 -13
leaf_value=-0.00049908943687166491 0.0021355310541552462 -0.012570611561371001 -0.0027061918011078464 0.0056296449530650588 0.016172637544829269 0.0093149712123622771 -0.0042901312233608905 0.0043085194038175248 0.0116093625449515 -0.0036411987644796437 -0.010433672943833601 -0.0074112740787351215
leaf_weight=40 53.5 73.5 24 40.5 85 84.5 49.5 123.5 75 72 132 76.5
leaf_count=17 22 50 13 12 11 17 30 43 13 42 88 51
internal_value=0.000517976 -0.00235915 0.0016685 -0.00744807 0.0103631 0.00615639 0.00440929 0.00179301 0.00780416 -0.0094048 -0.00812408 -0.00642094
internal_weight=929.5 720 402 318 209.5 124.5 301.5 173 128.5 277.5 204 100.5
internal_count=409 364 172 192 45 34 108 73 35 180 130 64
is_linear=0
shrinkage=0.03


Tree=7
num_leaves=16
num_cat=0
split_feature=9 20 0 2 1 22 27 31 2 2 2 2 1 21 21
split_gain=25.6071 11.8558 8.4585 7.52869 4.54946 5.1949 2.20948 2.13191 1.71035 3.14728 2.72263 0.469594 0.450109 0.21522 0.0291533
threshold=78.242467907425493 3273.1667321807568 0.29696027566504674 965082.09415371588 -0.51639395938746235 74.071268384076348 0.78214406638395395 2.5216269829248517 932794.93961261341 940508.72955335642 925727.18428954796 964202.32050023251 0.74851074817110097 110.55016700331517 10.021658190603826
decision_type=2 2 2 2 2 2 2 2 2 2 2 2 2 2 2
left_child=3 2 8 6 5 7 -1 -3 10 -10 -2 13 14 -6 -4
right_child=1 4 12 -5 11 -7 -8 -9 9 -11 -12 -13 -14 -15 -16
leaf_value=-0.00081201820820569993 0 0 -0.0082171747931774619 0.016293780326843258 -0.01030635743169604 0.0093520041899247605 0.0076004144551610597 -0.0093192779786056956 -0.0059599902313202616 0.0042180669240260617 0.0094348039009741376 -0.0036711249321699137 -0.0021923249197716359 -0.0050149219080805781 -0.0052250757495110687
leaf_weight=46 42.5 38.5 45 80 188 25.5 64.5 52 36 94 82 18 30 18 42
leaf_count=20 20 17 30 10 126 5 15 34 24 33 17 9 16 10 28
internal_value=-0.000339457 -0.00296484 0.000727251 0.00936385 -0.00699719 -0.00206025 0.00409289 -0.0054734 0.00380465 0.00130648 0.00630386 -0.00948641 -0.00586777 -0.00992551 -0.00699001
internal_weight=902 711.5 371.5 190.5 340 116 110.5 90.5 254.5 130 124.5 224 117 206 87
internal_count=414 369 168 45 201 56 35 51 94 57 37 145 74 136 58
is_linear=0
shrinkage=0.03


Tree=8
num_leaves=17
num_cat=0
split_feature=27 33 2 24 2 2 10 24 20 0 2 24 2 0 12 1
split_gain=22.5599 9.18102 17.6225 4.91391 7.02086 2.97144 2.83417 2.67134 2.77267 2.20741 1.67836 0.717506 0.246077 0.211139 0.306065 0.0538984
threshold=-0.91955709251580164 3316.5469952424983 959617.91746067093 83.328658582567144 962254.90999848559 932794.93961261341 85.240642903832295 83.703381420448153 3188.2166649214728 -0.82298386589365657 940982.9699244271 82.015758083864384 962527.77608194284 0.91023613416931248 26.064325597087912 -0.78574730703237872
decision_type=2 2 2 2 2 2 2 2 2 2 2 2 2 2 2 2
left_child=3 2 5 11 7 9 15 -5 -9 -2 -7 -1 -6 14 -13 -4
right_child=1 -3 6 4 12 10 -8 8 -10 -11 -12 13 -14 -15 -16 -17
leaf_value=-0.0098992946909766798 0.011354236340913615 0.012610484652631326 -0.0060064554650049945 0.006904928990119086 -0.0057588528847816031 -0.0031517845812391058 0.0028952462162290297 0.0060138184607028957 -0.005315147903978551 0.0038239813005014997 0.004716757461882156 -0.00099315476503071131 -0.011621646487260167 -0.008479686024237652 -0.0058327865804113982 -0.010136293338637237
leaf_weight=104.5 120 107 24 61.5 22.5 28.5 19 28 52.5 57 113 22.5 37.5 22.5 39 71
leaf_count=70 19 18 14 17 15 17 7 7 32 19 37 13 25 15 24 48
internal_value=0.000832518 0.00480583 0.002812 -0.00463809 -0.00132816 0.00643722 -0.00720101 0.00228612 -0.00125165 0.00903258 0.00306828 -0.00810238 -0.00977656 -0.00561894 -0.00424373 -0.00930018
internal_weight=930 539.5 432.5 390.5 202 318.5 114 142 80.5 177 141.5 188.5 60 84 61.5 95
internal_count=397 179 161 218 96 92 69 56 39 38 54 122 40 52 37 62
is_linear=0
shrinkage=0.03


Tree=9
num_leaves=14
num_cat=0
split_feature=10 19 0 2 2 22 1 28 10 15 1 9 21
split_gain=20.6666 8.54372 6.85654 6.28345 5.42715 3.46629 7.31862 3.39306 1.62805 1.19692 0.535084 0.17667 0.00154886
threshold=78.376768256563935 3271.356748631234 0.35460488704253579 964892.11142829794 965082.09415371588 77.742563733760008 0.12053668025532312 -0.1683544707330179 84.016680246750184 0.32052235374039439 -0.91023613416931226 82.17842235173373 10.256170735277101
decision_type=2 2 2 2 2 2 2 2 2 2 2 2 2
left_child=4 2 8 5 7 10 -7 -1 9 -2 -3 -4 -13
right_child=1 3 11 -5 -6 6 -8 -9 -10 -11 -12 12 -14
leaf_value=-0.00340239019779598 0.0015559540966196971 -0.0048448737497571153 -0.0025513556638489601 0.0054343410707727267 0.015492114315862239 0.0088859185164465622 -0.010507245476047197 0.0077509973413985344 -0.0025011569265472261 0.0060400519449564918 -0.0095866994659256268 -0.0078618292627455327 -0.0050564130441370335
leaf_weight=32 100 37.5 21 37.5 67 32 34 85 36 131 204.5 37.5 42
leaf_count=16 41 21 12 10 9 6 23 20 20 38 137 25 28
internal_value=-0.000150849 -0.00247444 0.000696305 -0.00584895 0.0087506 -0.00726828 -0.00103146 0.00464416 0.00322301 0.00415465 -0.00892224 -0.00588981 -0.0066138
internal_weight=897 713 367.5 345.5 184 308 66 117 267 231 242 100.5 79.5
internal_count=406 361 164 197 45 187 29 36 99 79 158 65 53
is_linear=0
shrinkage=0.03


Tree=10
num_leaves=13
num_cat=0
split_feature=11 27 11 2 24 2 10 2 26 19 24 32
split_gain=19.6902 10.975 6.76788 5.76597 6.67812 3.45621 4.32621 3.0379 2.75338 2.11116 1.07548 0.0480802
threshold=26.727622419785664 1.2754724633487011 27.772622438683737 962328.75775476627 83.111413003659223 933230.64356323204 82.101453584398627 941938.35377218551 25.643543639806321 3313.2289459624712 81.4528174471901 3.1551420147777449
decision_type=2 2 2 2 2 2 2 2 2 2 2 2
left_child=1 3 5 4 10 -2 9 -3 -6 -7 -1 -8
right_child=2 7 -4 -5 8 6 11 -9 -10 -11 -12 -13
leaf_value=-0.0090635928591628646 0.0087864503986398931 0.0089276799097755873 0.017473034973802239 -0.0099986199871029535 -0.0049877798238938502 0.0020637234436686742 -0.0079606239686206889 -0.0003012057470308768 0.0036300793013225 0.011008269741254694 -0.0043577886560305767 -0.0037295082740485663
leaf_weight=86 104.5 73.5 41.5 136 42 91.5 22.5 53.5 133 32 118.5 18
leaf_count=58 21 15 6 91 27 34 15 23 48 5 70 9
internal_value=0.00021671 -0.00277207 0.00640849 -0.00472255 -0.00277356 0.0045596 0.00175671 0.00504901 0.00149491 0.00456764 -0.00643443 -0.0064853
internal_weight=952.5 642.5 310 515.5 379.5 268.5 164 127 175 123.5 204.5 40.5
internal_count=422 332 90 294 203 84 63 38 75 39 128 24
is_linear=0
shrinkage=0.03


Tree=11
num_leaves=14
num_cat=0
split_feature=10 19 0 2 2 2 28 2 9 2 19 11 11
split_gain=18.7802 12.7941 8.99182 4.34021 3.91386 2.56963 2.46626 2.37733 2.34782 1.96822 0.485283 0.147216 0.0361715
threshold=78.376768256563935 3271.356748631234 0.35460488704253579 964892.11142829794 965082.09415371588 929389.48183021334 1.1490940523256483 940508.72955335642 85.417175806813859 926125.34723596147 3307.1492799521052 25.69619331423527 26.113676521899141
decision_type=2 2 2 2 2 2 2 2 2 2 2 2 2
left_child=4 2 5 8 6 9 -1 -7 10 -2 -3 -4 -13
right_child=1 3 11 -5 -6 7 -8 -9 -10 -11 -12 12 -14
leaf_value=-8.6189096076162211e-06 0.0016032986015081404 -0.010877838677700671 -0.0071049743619035271 0.0040319001773993172 0.013739255653845296 -0.0036686473908159162 0.0083115063261985783 0.0038437029671717867 -0.00057223236340063586 0.0096776335696379355 -0.0074551909847368038 -0.0022733322637012369 -0.0053313897566869854
leaf_weight=53.5 43 87.5 66 29.5 72 52.5 73 120 38.5 88 171 24 18
leaf_count=23 18 59 44 9 10 31 15 42 18 16 111 15 12
internal_value=2.70193e-05 -0.00217329 0.00133314 -0.00659204 0.0081775 0.00398732 0.00480066 0.00150711 -0.00768726 0.00713636 -0.00871138 -0.00600793 -0.00390306
internal_weight=936.5 738 411.5 326.5 198.5 303.5 126.5 172.5 297 131 258.5 108 42
internal_count=423 375 178 197 48 107 38 73 188 34 170 71 27
is_linear=0
shrinkage=0.03


Tree=12
num_leaves=13
num_cat=0
split_feature=2 19 12 22 10 28 2 9 19 2 18 32
split_gain=19.0846 18.0023 7.20368 2.87413 1.95078 1.48403 1.56761 1.45761 0.84636 2.33884 0.688284 0.632302
threshold=964892.11142829794 3273.0155582797256 26.255440178111126 82.13429884970428 82.101453584398627 1.1490940523256483 941938.35377218551 84.044741544715023 3307.462993174508 962440.68915376544 3.3409349281380263 3.1256468762101535
decision_type=2 2 2 2 2 2 2 2 2 2 2 2
left_child=1 2 4 8 10 7 -7 -4 -3 -10 -1 -6
right_child=-2 3 5 -5 11 6 -8 -9 9 -11 -12 -13
leaf_value=0.003491618264304555 0.012456814203411338 -0.011331786749924687 0.0041983266073285334 -0.00034815315150339671 -0.00060624281668438104 0.0093884485891061048 0.0025598521626626065 -0.0029504387455030539 -0.0020761566079900901 -0.0093162458237437962 -0.0019194517847346631 -0.0064577060535200874
leaf_weight=44 102 67.5 147 52.5 24.5 98.5 50 28.5 64.5 124 36 78
leaf_count=15 17 46 50 23 13 18 18 16 38 83 20 52
internal_value=0.000348499 -0.00118634 0.00228359 -0.00688066 -0.00244448 0.00496385 0.0071937 0.00298345 -0.00818399 -0.00691817 0.00099604 -0.00515485
internal_weight=917 815 506.5 308.5 182.5 324 148.5 175.5 256 188.5 80 102.5
internal_count=409 392 202 190 100 102 36 66 167 121 35 65
is_linear=0
shrinkage=0.03


Tree=13
num_leaves=15
num_cat=0
split_feature=27 11 2 10 21 2 2 34 25 0 19 2 22 23
split_gain=13.7357 7.07344 7.36073 4.90611 3.35008 4.10288 2.75986 1.41067 1.91386 1.40748 0.654257 0.430758 0.155776 0.00738614
threshold=-0.91955709251580164 27.772622438683737 932794.93961261341 78.006817126476804 30.390476425752862 962239.62019816437 962350.23859392526 3307.6074322531645 26.078175415553513 -0.82298386589365657 3273.0155582797256 962497.18661207694 33.747576545345481 81.719815649151968
decision_type=2 2 2 2 2 2 2 2 2 2 2 2 2 2
left_child=4 2 9 -4 10 7 -5 8 -6 -2 12 -7 13 -1
right_child=1 -3 3 6 5 11 -8 -9 -10 -11 -12 -13 -14 -15
leaf_value=-0.0073232719694098381 0.0095580874510330718 0.01578904948363433 0.0067828624508718943 0.00014866197558499321 0.0012082304379902778 -0.0042659328877403596 -0.0060650298929468714 0.0066380571566129979 -0.0065411235088109971 0.0035424697157412539 -0.0098130793968836481 -0.0095737564539940083 -0.0024219475175653185 -0.0041808556811376053
leaf_weight=34.5 99 35 65 160 118 34.5 103.5 26.5 35.5 65 74.5 46.5 22.5 25.5
leaf_count=23 17 5 15 74 50 23 59 7 23 21 50 31 13 17
internal_value=-0.000103307 0.00310403 0.00213021 -0.000451817 -0.00416063 -0.0020196 -0.00229671 0.000488352 -0.00060646 0.0072814 -0.00761202 -0.00754258 -0.00536817 -0.00626247
internal_weight=945.5 527.5 492.5 328.5 418 261 263.5 180 153.5 164 157 81 82.5 60
internal_count=428 191 186 148 237 134 133 80 73 38 103 54 53 40
is_linear=0
shrinkage=0.03


Tree=14
num_leaves=14
num_cat=0
split_feature=33 19 0 22 1 2 2 0 1 1 21 14 1
split_gain=15.9931 15.3542 8.15486 3.29993 5.08116 1.77554 3.05643 1.44509 0.707922 0.56853 0.295307 0.189053 0.0587406
threshold=3316.5469952424983 3271.356748631234 0.12053668025532312 77.339680002452937 0.17992617227144031 932794.93961261341 940982.9699244271 -0.82298386589365657 0.8542199457734333 -0.91023613416931226 51.105472337424402 -1.0656130436440516 0.4647231720437684
decision_type=2 2 2 2 2 2 2 2 2 2 2 2 2
left_child=1 2 5 9 -5 7 -7 -1 11 10 -3 -4 -11
right_child=-2 3 8 4 -6 6 -8 -9 -10 12 -12 -13 -14
leaf_value=0.0095785842283469882 0.010666406917356258 -0.0016733508792790498 -0.0060174085291475055 0.0083161312881857158 -0.0081067163025339457 -0.0057221252704305302 0.0042564579316798374 0.0038101335935343647 0 -0.0093856135638344367 -0.0070677587778069243 -0.0019221030251924383 -0.0068304814258727297
leaf_weight=80 108.5 25.5 85.5 30 34 33 125.5 93 27 149 19.5 19.5 66
leaf_count=13 19 12 57 6 23 22 41 30 12 100 13 12 44
internal_value=-1.64692e-05 -0.00151922 0.00197201 -0.0065135 -0.000298873 0.00448525 0.0020961 0.00659089 -0.0042676 -0.00800639 -0.00433987 -0.00536307 -0.00869908
internal_weight=896 787.5 463.5 324 64 331.5 158.5 173 132 260 45 105 215
internal_count=404 385 187 198 29 106 63 43 81 169 25 69 144
is_linear=0
shrinkage=0.03


Tree=15
num_leaves=16
num_cat=0
split_feature=12 2 2 27 22 1 19 19 1 2 2 0 26 31 7
split_gain=13.9963 5.95707 5.72237 5.34787 3.48676 5.63143 2.98526 2.60841 2.23187 1.7916 1.50501 0.676247 0.966047 0.627935 0.236869
threshold=26.72477882873731 965082.09415371588 958501.25633626431 1.2754724633487011 75.534606953512949 -0.35460488704253562 3210.033847807525 3273.0155582797256 0.95297903005573359 935442.80915255286 963275.80105940171 -0.82298386589365657 26.751262772052794 2.3322732929668857 19.696631671437427
decision_type=2 2 2 2 2 2 2 2 2 2 2 2 2 2 2
left_child=3 2 11 4 7 -6 -7 8 -1 -5 -4 -2 -13 -9 -11
right_child=1 -3 10 9 5 6 -8 13 -10 14 -12 12 -14 -15 -16
leaf_value=-0.0045608575090714922 0.0083996031207423053 0.013046635084996259 -0.0080924127438489132 0.007530465137213469 0.0098742910440151512 0.0039059643402695652 -0.0076483176440000529 -0.003045743015457372 0.0030467306296030677 0.0014830797486883752 0.0014624168912569682 0.00099881894202394914 0.0069006448276340959 -0.0085286061335735162 -0.0019340842617675659
leaf_weight=144 60 66.5 40.5 46 37 28 58 28.5 43 40.5 20.5 53 52 169.5 30
leaf_count=90 11 11 26 10 6 9 37 16 16 13 8 22 12 113 15
internal_value=-0.000127679 0.00525982 0.0028479 -0.00266936 -0.00400187 0.000347018 -0.003815 -0.00540138 -0.00276604 0.00305994 -0.00484164 0.00575057 0.00405205 -0.00780776 0
internal_weight=917 292.5 226 624.5 508 123 86 385 187 116.5 61 165 105 198 70.5
internal_count=415 90 79 325 287 52 46 235 106 38 34 45 34 129 28
is_linear=0
shrinkage=0.03


Tree=16
num_leaves=13
num_cat=0
split_feature=33 19 28 19 2 2 20 2 1 22 9 33
split_gain=15.454 15.2234 5.78667 3.26462 8.30472 2.29972 2.80157 2.10587 1.27213 1.12698 0.28111 0.121463
threshold=3316.5469952424983 3273.0155582797256 -1.8712958586364954 3307.7122130073653 962497.18661207694 929389.48183021334 3222.3765652028364 925727.18428954796 0.61559370248597578 77.742563733760008 82.198063680545616 3314.2232314248945
decision_type=2 2 2 2 2 2 2 2 2 2 2 2
left_child=1 2 8 -3 9 7 -7 -4 -1 -5 -10 -6
right_child=-2 3 5 4 11 6 -8 -9 10 -11 -12 -13
leaf_value=-0.0058742479093816897 0.011200666503980754 -0.0096868224412468909 0.0016038465932942925 0.00038332532775752686 -0.0087961408946965174 -0.0047884358714552636 0.0035991730216196026 0.008551688017589704 0.0017162806881617189 0.0077402841874531329 -0.0023654867198604802 -0.0043036709938198327
leaf_weight=73.5 98.5 138 62 40.5 109 45 145.5 124 34.5 36.5 24 18
leaf_count=49 16 93 23 22 73 29 51 23 14 8 14 11
internal_value=6.83232e-05 -0.00123717 0.0020443 -0.00611717 -0.00360268 0.00394182 0.00155751 0.00630936 -0.00330122 0.00405433 0 -0.00828252
internal_weight=949 850.5 508.5 342 204 376.5 190.5 186 132 77 58.5 127
internal_count=426 410 203 207 114 126 80 46 77 30 28 84
is_linear=0
shrinkage=0.03


Tree=17
num_leaves=12
num_cat=0
split_feature=10 19 0 19 33 33 19 19 20 27 1
split_gain=13.3629 6.81088 5.78514 2.95167 4.32748 3.10838 2.84025 1.20817 2.94338 1.03346 0.453515
threshold=78.242467907425493 3271.356748631234 0.29696027566504674 3307.8153190844173 3308.0766290409397 3315.9303931532918 3313.8541490163193 3173.2976005926471 3185.4366870976887 0.84295884563396395 0.78574730703237883
decision_type=2 2 2 2 2 2 2 2 2 2 2
left_child=6 2 7 -3 -5 -6 9 -2 -9 -1 -4
right_child=1 3 10 4 5 -7 -8 8 -10 -11 -12
leaf_value=-0.00010812047626823186 -0.0015586291580744411 -0.0088766987927022412 -0.0058477273611541912 0.00460046903015051 -0.0074876888017544789 0.0022994819486141203 0.011617605850503251 0.0080989848426119837 0.0011617698156793565 0.005896932967493068 -0.00084721937976204426
leaf_weight=38 44 124.5 96 49.5 128.5 35.5 72 86 156 67 24
leaf_count=17 22 84 64 18 86 11 10 16 66 16 12
internal_value=-0.000302445 -0.00207429 0.000533011 -0.0052085 -0.00297907 -0.0053308 0.00705177 0.0028631 0.00369783 0.0037062 -0.00492709
internal_weight=921 744 406 338 213.5 164 177 286 242 105 120
internal_count=422 379 180 199 115 97 43 104 82 33 76
is_linear=0
shrinkage=0.03


Tree=18
num_leaves=12
num_cat=0
split_feature=27 11 2 2 19 1 2 2 0 19 9
split_gain=12.6474 6.97551 7.92252 3.0866 3.28775 4.41821 2.74096 4.05883 0.968566 0.866705 0.547608
threshold=-0.91955709251580164 27.824984546301739 932794.93961261341 962440.68915376544 3308.2871543289334 0.91023613416931248 964892.11142829794 959617.91746067093 -0.91023613416931226 3273.0155582797256 82.271169473097771
decision_type=2 2 2 2 2 2 2 2 2 2 2
left_child=3 2 8 4 5 9 7 -4 -2 -1 -7
right_child=1 -3 6 -5 -6 10 -8 -9 -10 -11 -12
leaf_value=-0.004364476111574765 0.0096716355768482337 0.014608934473991394 0.0013191921538516377 -0.008218201218000272 0.0050050338552784677 0.0034600458563739103 0.0047269975151724491 -0.0064457978018305512 0.0046708348149933467 -0.0089204648969737621 -0.0012274765319549121
leaf_weight=135 87 43 131.5 100.5 46.5 63.5 63.5 108 80 63.5 30.5
leaf_count=85 12 6 55 67 16 22 14 67 21 43 16
internal_value=9.30054e-05 0.00329297 0.00218745 -0.00362651 -0.00220745 -0.00340062 -0.000692811 -0.00218189 0.00739517 -0.0059263 0.00188271
internal_weight=952.5 513 470 439.5 339 292.5 303 239.5 167 198.5 94
internal_count=424 175 169 249 182 166 136 122 33 128 38
is_linear=0
shrinkage=0.03


Tree=19
num_leaves=18
num_cat=0
split_feature=27 11 2 2 24 2 10 26 26 2 2 1 20 11 33 2 24
split_gain=10.2873 5.27918 5.34949 5.20421 3.06698 3.92029 1.84601 1.62399 1.44551 1.39554 1.81835 1.26134 0.429191 0.287829 0.133986 0.11429 0.0757155
threshold=-0.91955709251580164 27.824984546301739 959617.91746067093 964892.11142829794 83.232776177339147 962289.24930392171 85.521670204450814 25.717317220180423 26.114766787584848 932794.93961261341 940508.72955335642 -0.40966402954315212 3273.1667321807568 25.69619331423527 3308.8809706663174 940036.78519925964 82.814150803990856
decision_type=2 2 2 2 2 2 2 2 2 2 2 2 2 2 2 2 2
left_child=4 2 9 6 12 7 -4 -6 -9 11 -11 -2 13 -1 -7 -15 -14
right_child=1 -3 3 -5 5 14 -8 8 -10 10 -12 -13 16 15 -16 -17 -18
leaf_value=-0.00615812432452252 0.0024584101143090621 0.014037706616762522 -0.0072306506873667242 0.005122604106903076 -0.0037845778991223164 -0.0037579394102096558 0.002264547610282898 0.0048510287973810651 -0.0030184659482194822 -0.0043931866204687236 0.0039441546904323979 0.0082630961966979038 -0.0082327060412902102 -0.0036555217227765488 -0.0085261998548227195 -0.00036985850663712389 -0.0048231852542376143
leaf_weight=36 55.5 35 98 60.5 36 18 20.5 100 24 27 116.5 113.5 76 22.5 40.5 24 30
leaf_count=24 18 5 64 12 22 12 8 29 14 18 37 19 51 15 27 13 19
internal_value=0.000297682 0.0030675 0.00222042 -0.00187818 -0.00326819 -0.000802773 -0.00552791 0.00160809 0.00325655 0.00458418 0.00229539 0.00644296 -0.00605605 -0.00408503 -0.00733095 -0.00216859 -0.00743049
internal_weight=933.5 526.5 491.5 179 407 218.5 118.5 160 124 312.5 143.5 169 188.5 82.5 58.5 46.5 106
internal_count=407 181 176 84 226 104 72 65 43 92 55 37 122 52 39 28 70
is_linear=0
shrinkage=0.03


Tree=20
num_leaves=13
num_cat=0
split_feature=27 2 9 23 2 19 28 2 20 19 1 2
split_gain=9.47277 3.47386 4.817 2.26473 2.43154 2.41806 1.88897 2.79011 1.47564 1.27964 0.213315 0.105216
threshold=-0.91955709251580164 932794.93961261341 79.479661459691485 82.245795195909082 962350.23859392526 3308.2046358909392 -1.2236306930112864 960744.37163792225 3178.6180886983461 3273.0155582797256 0.56806474673115548 962550.32249803911
decision_type=2 2 2 2 2 2 2 2 2 2 2 2
left_child=3 8 -3 10 5 9 -4 -8 -2 -5 -1 -6
right_child=1 2 6 4 11 -7 7 -9 -10 -11 -12 -13
leaf_value=-0.0072005703477408941 0.0031261533416856988 0.0062997081542015077 0.0049214081010397741 -0.00057661913202996411 -0.0038321664378046984 0.0058571865296583965 0.0011128805979582909 -0.0059535145723187974 0.0094262599816193459 -0.0070254368961673898 -0.0029095055428536042 -0.0083687123326694254
leaf_weight=125 73.5 98 32 127.5 18 42 90.5 106.5 72 34.5 21 40.5
leaf_count=84 23 23 9 64 12 13 39 65 10 23 13 27
internal_value=-0.000338887 0.00254131 0.000791136 -0.00368109 -0.00195727 -0.000356235 -0.0015744 -0.00269857 0.00636995 -0.00205549 -0.00667156 -0.00724485
internal_weight=881 472.5 327 408.5 262.5 204 229 197 145.5 162 146 58.5
internal_count=405 169 136 236 139 100 113 104 33 87 97 39
is_linear=0
shrinkage=0.03


Tree=21
num_leaves=13
num_cat=0
split_feature=10 12 2 20 28 22 2 33 26 25 2 24
split_gain=13.0218 6.28062 3.55686 3.60669 3.52509 2.53387 1.5949 2.07155 0.992484 0.803032 0.323936 0.178922
threshold=78.376768256563935 26.914880902268376 962440.68915376544 3308.1002520935303 1.4537583790292501 82.13429884970428 952004.96345572313 3316.5469952424983 26.722044864679969 26.028510430475585 964709.22750790161 81.652961637735515
decision_type=2 2 2 2 2 2 2 2 2 2 2 2
left_child=5 2 3 4 -2 8 11 -8 9 -1 -4 -3
right_child=1 6 10 -5 -6 -7 7 -9 -10 -11 -12 -13
leaf_value=0.0063380392560592061 -0.0040845792037756757 0.0033385126044930412 -0.0080010713462470729 0.0049855444225944392 0.0044467257518973199 0.012862675695419311 -0.004703416802897686 0.0059266631744124667 0.0071200883701169415 -6.6695144947837381e-05 -0.0026798051565885541 0.0066329076551728781
leaf_weight=24 323.5 41 120.5 57.5 48 48 39 25.5 79.5 49 18 65.5
leaf_count=5 196 13 81 20 14 6 23 6 15 19 8 14
internal_value=0.000121092 -0.00171622 -0.00323842 -0.00185279 -0.00294831 0.00686819 0.00327989 -0.00035875 0.00480048 0.00207183 -0.00740019 0.00550486
internal_weight=939 738.5 567.5 429 371.5 200.5 171 64.5 152.5 73 138.5 106.5
internal_count=420 375 319 230 210 45 56 29 39 24 89 27
is_linear=0
shrinkage=0.03


Tree=22
num_leaves=18
num_cat=0
split_feature=27 12 2 2 8 24 2 8 0 21 24 1 2 1 19 2 19
split_gain=11.4965 5.69738 4.09263 4.63272 1.62245 1.47211 1.10008 0.915961 0.850145 0.726248 0.684358 0.648916 0.498371 0.164883 0.187045 0.100956 0.378764
threshold=-0.91955709251580164 27.772622438683737 959617.91746067093 964892.11142829794 25.014385680638259 83.328658582567144 932794.93961261341 75.321724929421052 -0.95297903005573326 67.941742878685247 82.44334484137336 0.91023613416931248 962201.71322862303 0.29696027566504685 3307.5907197889851 962468.45768148464 3307.5590982649524
decision_type=2 2 2 2 2 2 2 2 2 2 2 2 2 2 2 2 2
left_child=4 2 6 7 5 13 8 -4 -2 -7 -8 15 -13 14 -1 16 -6
right_child=1 -3 3 -5 11 9 10 -9 -10 -11 -12 12 -14 -15 -16 -17 -18
leaf_value=-0.005864550146708886 0.0087284336328506459 0.012262584900187555 -0.0074703383545080817 0.0048512688922254668 -0.0060838057883580527 0.004495874532487198 0.0033245923934080222 -0.00076485850977695599 0.0036752725675875363 -0.0017129162988879464 -0.0011915423216365547 0 -0.0052419377728365356 -0.00089562588818371304 -0.001474595908820629 -0.0078912198014881307 -0.00086418223944492636
leaf_weight=43 58 51.5 74.5 55 110.5 39.5 99 27.5 84 25.5 39.5 36 30 18 18 55.5 18
leaf_count=29 8 8 50 12 73 12 33 14 24 12 21 18 20 10 10 37 11
internal_value=-6.53106e-05 0.00299519 0.0018398 -0.00199699 -0.00387485 -0.00125915 0.00400748 -0.00576966 0.00587347 0.00199214 0.00199527 -0.00533573 -0.00251688 -0.00399147 -0.00475233 -0.00627665 -0.00542308
internal_weight=883 489 437.5 157 394 144 280.5 102 142 65 138.5 250 66 79 61 184 128.5
internal_count=402 170 162 76 232 73 86 64 32 24 54 159 38 49 39 121 84
is_linear=0
shrinkage=0.03


end of trees

feature_importances:
city_estimated_population=77
city_area_weighted_pop_density_lag20=32
week_cos=25
week_sin=19
city_area_weighted_rh_lag19=15
city_area_weighted_rh_lag20=13
city_area_weighted_pop_density_lag19=12
city_area_weighted_rainfall_rollmean_lag1_w8=12
city_area_weighted_u_component_of_wind_10m_rollmean_lag1_w4=11
city_area_weighted_u_component_of_wind_10m_rollmean_lag1_w8=11
city_area_weighted_rainfall_rollmean_lag1_w4=10
city_area_weighted_rh_rollmean_lag1_w8=10
city_pop_density=9
city_area_weighted_pop_density_rollmean_lag1_w4=9
city_area_weighted_temp_c_lag11=8
city_area_weighted_temp_c_lag10=6
city_area_weighted_temp_c_rollmean_lag1_w8=6
city_area_weighted_wind_speed_10m_rollmean_lag1_w4=3
city_area_weighted_wind_speed_10m_rollmean_lag1_w8=3
city_area_weighted_rainfall_lag20=2
city_area_weighted_rh_rollmean_lag1_w4=2
city_area_weighted_temp_c_rollmean_lag1_w4=2
city_area_weighted_rainfall_lag19=1
city_area_weighted_u_component_of_wind_10m_lag2=1
city_area_weighted_u_component_of_wind_10m_lag1=1
city_area_weighted_v_component_of_wind_10m_lag5=1
city_area_weighted_v_component_of_wind_10m_lag4=1
city_area_weighted_wind_speed_10m_lag11=1
city_area_weighted_v_component_of_wind_10m_rollmean_lag1_w8=1
city_area_weighted_pop_density_rollmean_lag1_w8=1

parameters:
[boosting: gbdt]
[objective: regression]
[metric: rmse]
[tree_learner: serial]
[device_type: cpu]
[data_sample_strategy: bagging]
[data: ]
[valid: ]
[num_iterations: 23]
[learning_rate: 0.03]
[num_leaves: 63]
[num_threads: 0]
[seed: 0]
[deterministic: 0]
[force_col_wise: 1]
[force_row_wise: 0]
[histogram_pool_size: -1]
[max_depth: 5]
[min_data_in_leaf: 12]
[min_sum_hessian_in_leaf: 0.001]
[bagging_fraction: 0.8]
[pos_bagging_fraction: 1]
[neg_bagging_fraction: 1]
[bagging_freq: 1]
[bagging_seed: 3]
[bagging_by_query: 0]
[feature_fraction: 0.8]
[feature_fraction_bynode: 1]
[feature_fraction_seed: 2]
[extra_trees: 0]
[extra_seed: 6]
[early_stopping_round: 0]
[early_stopping_min_delta: 0]
[first_metric_only: 0]
[max_delta_step: 0]
[lambda_l1: 0.2]
[lambda_l2: 2]
[linear_lambda: 0]
[min_gain_to_split: 0]
[drop_rate: 0.1]
[max_drop: 50]
[skip_drop: 0.5]
[xgboost_dart_mode: 0]
[uniform_drop: 0]
[drop_seed: 4]
[top_rate: 0.2]
[other_rate: 0.1]
[min_data_per_group: 100]
[max_cat_threshold: 32]
[cat_l2: 10]
[cat_smooth: 10]
[max_cat_to_onehot: 4]
[top_k: 20]
[monotone_constraints: ]
[monotone_constraints_method: basic]
[monotone_penalty: 0]
[feature_contri: ]
[forcedsplits_filename: ]
[refit_decay_rate: 0.9]
[cegb_tradeoff: 1]
[cegb_penalty_split: 0]
[cegb_penalty_feature_lazy: ]
[cegb_penalty_feature_coupled: ]
[path_smooth: 0]
[interaction_constraints: ]
[verbosity: -1]
[saved_feature_importance_type: 0]
[use_quantized_grad: 0]
[num_grad_quant_bins: 4]
[quant_train_renew_leaf: 0]
[stochastic_rounding: 1]
[linear_tree: 0]
[max_bin: 255]
[max_bin_by_feature: ]
[min_data_in_bin: 3]
[bin_construct_sample_cnt: 200000]
[data_random_seed: 1]
[is_enable_sparse: 1]
[enable_bundle: 1]
[use_missing: 1]
[zero_as_missing: 0]
[feature_pre_filter: 1]
[pre_partition: 0]
[two_round: 0]
[header: 0]
[label_column: ]
[weight_column: ]
[group_column: ]
[ignore_column: ]
[categorical_feature: ]
[forcedbins_filename: ]
[precise_float_parser: 0]
[parser_config_file: ]
[objective_seed: 5]
[num_class: 1]
[is_unbalance: 0]
[scale_pos_weight: 1]
[sigmoid: 1]
[boost_from_average: 1]
[reg_sqrt: 0]
[alpha: 0.9]
[fair_c: 1]
[poisson_max_delta_step: 0.7]
[tweedie_variance_power: 1.5]
[lambdarank_truncation_level: 30]
[lambdarank_norm: 1]
[label_gain: ]
[lambdarank_position_bias_regularization: 0]
[eval_at: ]
[multi_error_top_k: 1]
[auc_mu_weights: ]
[num_machines: 1]
[local_listen_port: 12400]
[time_out: 120]
[machine_list_filename: ]
[machines: ]
[gpu_platform_id: -1]
[gpu_device_id: -1]
[gpu_use_dp: 0]
[num_gpu: 1]

end of parameters
