tree
version=v4
num_class=1
num_tree_per_iteration=1
label_index=0
max_feature_idx=56
objective=regression
feature_names=week_sin week_cos city_estimated_population city_area_m2 city_area_km2 city_pop_density n_barangays_reported city_area_weighted_rainfall_lag16 city_area_weighted_rainfall_lag18 city_area_weighted_rh_lag16 city_area_weighted_rh_lag17 city_area_weighted_temp_c_lag8 city_area_weighted_temp_c_lag7 city_area_weighted_u_component_of_wind_10m_lag1 city_area_weighted_u_component_of_wind_10m_lag2 city_area_weighted_v_component_of_wind_10m_lag2 city_area_weighted_v_component_of_wind_10m_lag1 city_area_weighted_wind_speed_10m_lag7 city_area_weighted_wind_speed_10m_lag8 city_area_weighted_pop_density_lag20 city_area_weighted_pop_density_lag19 city_area_weighted_rainfall_rollmean_lag1_w4 city_area_weighted_rainfall_rollmean_lag1_w8 city_area_weighted_rh_rollmean_lag1_w4 city_area_weighted_rh_rollmean_lag1_w8 city_area_weighted_temp_c_rollmean_lag1_w4 city_area_weighted_temp_c_rollmean_lag1_w8 city_area_weighted_u_component_of_wind_10m_rollmean_lag1_w4 city_area_weighted_u_component_of_wind_10m_rollmean_lag1_w8 city_area_weighted_v_component_of_wind_10m_rollmean_lag1_w4 city_area_weighted_v_component_of_wind_10m_rollmean_lag1_w8 city_area_weighted_wind_speed_10m_rollmean_lag1_w4 city_area_weighted_wind_speed_10m_rollmean_lag1_w8 city_area_weighted_pop_density_rollmean_lag1_w4 city_area_weighted_pop_density_rollmean_lag1_w8 city_area_weighted_flood_risk_index_rollmean_lag1_w4 city_area_weighted_flood_risk_index_rollmean_lag1_w8 city_area_weighted_percent_annual_crop_rollmean_lag1_w4 city_area_weighted_percent_annual_crop_rollmean_lag1_w8 city_area_weighted_percent_brush_shrubs_rollmean_lag1_w4 city_area_weighted_percent_brush_shrubs_rollmean_lag1_w8 city_area_weighted_percent_built_up_rollmean_lag1_w4 city_area_weighted_percent_built_up_rollmean_lag1_w8 city_area_weighted_percent_inland_water_rollmean_lag1_w4 city_area_weighted_percent_inland_water_rollmean_lag1_w8 city_area_weighted_percent_open_forest_rollmean_lag1_w4 city_area_weighted_percent_open_forest_rollmean_lag1_w8 city_area_weighted_percent_perennial_crop_rollmean_lag1_w4 city_area_weighted_percent_perennial_crop_rollmean_lag1_w8 city_area_weighted_percent_open_barren_rollmean_lag1_w4 city_area_weighted_percent_open_barren_rollmean_lag1_w8 city_area_weighted_percent_fishpond_rollmean_lag1_w4 city_area_weighted_percent_fishpond_rollmean_lag1_w8 city_area_weighted_percent_grassland_rollmean_lag1_w4 city_area_weighted_percent_grassland_rollmean_lag1_w8 city_area_weighted_percent_mangrove_forest_rollmean_lag1_w4 city_area_weighted_percent_mangrove_forest_rollmean_lag1_w8
feature_infos=[-1:1] [-1:1] [909262.48027323559:966336.38029473973] none none [3125.6331669833721:3321.8274219389918] none [0:403.77764092016611] [0:403.77764092016611] [74.166209495041301:89.224799485777211] [74.166209495041301:89.224799485777211] [24.178433964655767:28.356173140545412] [24.178433964655767:28.356173140545412] [-4.5717681780699149:5.3108736337661018] [-4.5717681780699149:5.3108736337661018] [-6.2680500182560719:5.1247667214851038] [-6.2680500182560719:5.1247667214851038] [1.39564484944224:6.8002328204854665] [1.39564484944224:6.8002328204854665] [3125.6331669833717:3316.9694822973588] [3125.6331669833717:3317.1858061642383] [0.06597045822318269:149.02606250490396] [0.34670367581884309:119.23124797939784] [75.920732847159741:87.36324422781334] [76.483294868292248:86.237507786239505] [24.524834464421016:28.067998122101869] [24.646253660584854:27.823998304699263] [-3.4486736035175789:3.6280013469861503] [-3.1133143420372855:3.131422920161175] [-4.48361272930451:3.4734894156434146] [-3.8559405516430854:3.0795858777581708] [1.7342058228275261:5.7925001460518359] [1.9506388693011207:5.3170040362056081] [3126.4705697467193:3321.159391602182] [3128.1510842727353:3320.6424504791912] none none none none none none none none none none none none none none none none none none none none none none
tree_sizes=899 938 1302 1206 1190 1203 1305 1102 1192 942 1226 1291 1289 938 938 931 1275 1206 1207 1204 1453 962 938 1206 1305 946 1199 1027 1325 1127 1403 931 1198 1224

Tree=0
num_leaves=9
num_cat=0
split_feature=34 19 30 21 1 2 28 19
split_gain=34.5175 38.1751 17.8084 11.1592 6.75597 4.04952 3.07253 2.72787
threshold=3315.5379384699349 3269.5549622647081 -1.1120453103708554 117.62225718921624 -0.51639395938746235 932361.4706413399 -1.8525062594344102 3307.7446136049425
decision_type=2 2 2 2 2 2 2 2
left_child=1 2 6 7 -2 -4 -1 -3
right_child=4 3 5 -5 -6 -7 -8 -9
leaf_value=0.57461917896431314 0.5933003019693468 0.57023106074325269 0.58605861326103081 0.58420937290983743 0.58255705094298771 0.58195578417958849 0.58096273645392527 0.57401022841805949
leaf_weight=124.5 77 149 190.5 33.5 35.5 202.5 39 189
leaf_count=80 10 100 47 9 11 80 16 116
internal_value=0.579626 0.57835 0.581661 0.573397 0.590011 0.583966 0.576143 0.572304
internal_weight=1040.5 928 556.5 371.5 112.5 393 163.5 338
internal_count=469 448 223 225 21 127 96 216
is_linear=0
shrinkage=1


Tree=1
num_leaves=9
num_cat=0
split_feature=34 19 30 1 21 5 28 19
split_gain=30.1461 39.6534 15.3955 5.6678 5.24659 3.85546 2.9084 2.59756
threshold=3315.5379384699349 3271.356748631234 -1.1120453103708554 -0.40966402954315212 132.11621466716673 3205.0370486839352 -1.8525062594344102 3307.7446136049425
decision_type=2 2 2 2 2 2 2 2
left_child=1 2 6 -2 7 -4 -1 -3
right_child=3 4 5 -5 -6 -7 -8 -9
leaf_value=-0.0047312985548532624 0.0127772810664398 -0.00933510225613912 0.0061843148278223504 0.0023392613613978028 0.0036887013535750542 0.0021444141583188488 0.0015351842814722123 -0.0056111620106940509
leaf_weight=123 74 141 183.5 30.5 17.5 202.5 37.5 195
leaf_count=78 10 95 46 10 5 81 15 120
internal_value=-0.000261267 -0.00144911 0.00192406 0.00982586 -0.00665566 0.0040866 -0.00325416 -0.00721436
internal_weight=1004.5 900 546.5 104.5 353.5 386 160.5 336
internal_count=460 440 220 20 220 127 93 215
is_linear=0
shrinkage=0.02


Tree=2
num_leaves=13
num_cat=0
split_feature=9 19 28 19 21 14 30 2 2 12 19 28
split_gain=28.6556 17.6078 13.6968 10.4806 9.3042 7.39527 4.02238 2.72945 2.57691 0.828124 0.560032 0.521693
threshold=78.091959911703398 3269.5549622647081 -1.8525062594344102 3308.3452066529458 103.9521766347009 -0.29326628186002318 1.7715317682183935 964892.11142829794 959058.36501128692 26.47354579697026 3307.4619735572437 1.1447874678523158
decision_type=2 2 2 2 2 2 2 2 2 2 2 2
left_child=5 2 9 10 -5 8 -4 11 -1 -2 -3 -7
right_child=1 3 6 4 -6 7 -8 -9 -10 -11 -12 -13
leaf_value=0.0042340018660464189 -0.0049573847233366809 -0.0095191750787198531 0.0018988803774608594 -0.0034798869366559002 0.0080680195395626247 0.004148669403791428 0.0068994944125778321 0.011909290990085466 -0.0051766148546467661 0.00037169495335331675 -0.0066699413068410833 0.0077500304064704378
leaf_weight=22 112.5 94.5 226.5 165 32 38.5 90.5 69 21.5 11.999999999999998 80.5 50
leaf_count=7 74 64 92 89 6 12 22 9 12 5 54 8
internal_value=0.000124794 -0.00154641 0.00115028 -0.00474404 -0.00154722 0.00685983 0.00335855 0.00885961 -0.000390291 -0.00442956 -0.00828768 0.00630081
internal_weight=1014.5 813.5 441.5 372 197 201 317 157.5 43.5 124.5 175 88.5
internal_count=454 406 193 213 95 48 114 29 19 79 118 20
is_linear=0
shrinkage=0.02


Tree=3
num_leaves=12
num_cat=0
split_feature=10 19 30 2 21 25 11 19 2 0 26
split_gain=34.1912 19.7974 11.5717 8.45385 10.2676 7.24106 3.68116 2.96836 2.13367 1.26511 1.10113
threshold=78.376768256563935 3269.5549622647081 -1.4047082756470519 964709.22750790161 117.62225718921624 26.350820902316141 27.772622438683737 3269.5549622647081 928973.7709029183 0.06026834012766185 26.590635240433418
decision_type=2 2 2 2 2 2 2 2 2 2 2
left_child=5 2 9 4 -3 7 10 -1 -4 -2 -7
right_child=1 3 8 -5 -6 6 -8 -9 -10 -11 -12
leaf_value=0.0037963111233711246 0.00085730776356326218 -0.0073556343520868508 0.0051071076458019593 0.0038540961943768172 0.0039591049949328104 0.0094670280456542969 0.014904382278670126 -0.0068465382125642571 0.0016453501973792703 -0.0049145132804366007 0.0054895521937219725
leaf_weight=23.5 16.5 316.5 122.5 35.5 34.5 56 32 16.5 178.5 108 84.5
leaf_count=7 7 206 35 11 10 8 4 10 73 70 22
internal_value=-0.000142108 -0.00201503 0.000957229 -0.00528341 -0.00622571 0.00696926 0.00873421 -0.000634456 0.00307915 -0.0041326 0.00717222
internal_weight=1024.5 812 425.5 386.5 351 212.5 172.5 40 301 124.5 140.5
internal_count=463 412 185 227 216 51 34 17 108 77 30
is_linear=0
shrinkage=0.02


Tree=4
num_leaves=12
num_cat=0
split_feature=9 19 30 5 21 5 28 5 28 0 5
split_gain=29.5759 16.0085 10.4213 9.85083 7.94819 7.7528 3.90587 3.04777 2.14553 0.918095 0.402347
threshold=78.242467907425493 3271.356748631234 -1.1120453103708554 3316.2340065846461 117.62225718921624 3316.8626787884382 -0.36495181474941268 3205.0370486839352 -1.8525062594344102 0.06026834012766185 3241.2739456165996
decision_type=2 2 2 2 2 2 2 2 2 2 2
left_child=5 2 8 4 -3 6 9 -4 -2 -1 -8
right_child=1 3 7 -5 -6 -7 10 -9 -10 -11 -12
leaf_value=-0.0045898382096063528 -0.0045279977537253328 -0.0068768283122952693 0.0053405050325581408 0.004664307336776685 0.0040290180869021657 0.012044536820540191 0.0070192066513973727 0.001107895025868175 0.0011049920971626819 0.0015005615530787287 0.0038431638907163576
leaf_weight=19.5 126 314 125.5 37.5 28 69 56 152 33 17 37.5
leaf_count=11 81 202 34 11 8 9 10 66 14 7 11
internal_value=-0.000208328 -0.00189819 0.000710293 -0.00489469 -0.00596443 0.00667332 0.00370237 0.00304769 -0.00334702 -0.00175332 0.00584724
internal_weight=1015 816 436.5 379.5 342 199 130 277.5 159 36.5 93.5
internal_count=464 416 195 221 210 48 39 100 95 18 21
is_linear=0
shrinkage=0.02


Tree=5
num_leaves=12
num_cat=0
split_feature=10 20 30 26 2 20 2 23 14 0 2
split_gain=31.8253 20.4894 11.2887 9.81242 6.85907 3.6368 3.29298 3.2279 1.82697 1.63721 0.718175
threshold=78.376768256563935 3271.356748631234 -1.1120453103708554 27.545249384843213 964892.11142829794 3307.7446136049425 932361.4706413399 82.63670868680488 -0.84653774872333365 0.29696027566504674 949916.2939246773
decision_type=2 2 2 2 2 2 2 2 2 2 2
left_child=4 2 9 5 7 -3 -4 10 -9 -2 -1
right_child=1 3 6 -5 -6 -7 -8 8 -10 -11 -12
leaf_value=0.0073864676038424169 -0.00010140560892806656 -0.0085469653081893925 0.0055997414160657809 0.0075114505238003202 0.011678199930128709 -0.004336446226651712 0.0013019914840016081 -0.005983925219738122 0.0026117259762725056 -0.0048267404794692997 0.0032885026893961955
leaf_weight=58.5 42 148.5 133.5 21 75 203.5 157 14.999999999999998 23 103.5 32.5
leaf_count=11 20 100 35 4 10 119 66 9 8 68 11
internal_value=-0.000129389 -0.00191351 0.00102654 -0.00534582 0.00689845 -0.00614715 0.0033025 0.00400191 -0.00082905 -0.00349128 0.00602159
internal_weight=1013 809 436 373 204 352 290.5 129 38 145.5 91
internal_count=461 412 189 223 49 219 101 39 17 88 22
is_linear=0
shrinkage=0.02


Tree=6
num_leaves=13
num_cat=0
split_feature=11 19 2 2 0 19 2 2 30 2 31 19
split_gain=28.5965 12.3648 10.7531 10.4364 10.253 7.39323 9.25764 4.19311 2.54404 1.7095 0.946573 0.160623
threshold=26.727622419785664 3271.356748631234 964892.11142829794 958501.25633626431 0.29696027566504674 3307.8536254841815 962414.33575027424 964533.35668022989 1.7715317682183935 932794.93961261341 2.8873176462441417 3307.4619735572437
decision_type=2 2 2 2 2 2 2 2 2 2 2 2
left_child=1 4 3 9 8 11 -7 -5 -1 -2 -6 -3
right_child=2 5 -4 7 10 6 -8 -9 -10 -11 -12 -13
leaf_value=0.0014200658007729344 0.0065601198533306948 -0.009087466648297432 0.010985973798851857 -0.0079030012502226705 -0.00043998792135686269 0.0035119522191584115 -0.0055452377509883069 0.0041404672963544723 0.0059178611786663525 0.0026623305395333725 -0.0049669569733596982 -0.0065867800737420728
leaf_weight=162.5 113.5 96 85.5 41.5 24 68.5 125.5 14.499999999999998 73.5 83 103.5 46.5
leaf_count=66 24 65 14 28 13 25 75 4 19 31 68 31
internal_value=0.000139449 -0.00216482 0.00490598 0.00278661 0.000388987 -0.00491894 -0.00233457 -0.00472316 0.00285781 0.00495647 -0.00414535 -0.00836245
internal_weight=1038 700 338 252.5 363.5 336.5 194 56 236 196.5 127.5 142.5
internal_count=463 362 101 87 166 196 100 32 85 55 81 96
is_linear=0
shrinkage=0.02


Tree=7
num_leaves=11
num_cat=0
split_feature=9 20 28 33 21 2 27 30 21 0
split_gain=31.7449 16.8237 11.2774 8.73493 8.26138 7.24688 4.15096 3.74905 1.05104 0.558533
threshold=78.242467907425493 3271.356748631234 -1.8525062594344102 3315.5326557768512 117.62225718921624 964892.11142829794 -0.91955709251580164 1.7715317682183935 58.507704208783899 0.51639395938746258
decision_type=2 2 2 2 2 2 2 2 2 2
left_child=5 2 9 4 -3 6 -1 -4 -8 -2
right_child=1 3 7 -5 -6 -7 8 -9 -10 -11
leaf_value=-0.0032781698041492043 -0.0020175570371894192 -0.0067093520356405634 0.0015442670409233387 0.004018516879758717 0.0045699714526795509 0.01134979582108514 0.0071211582222057658 0.0064446062338486144 0.002690173250436783 -0.0051372240664703511
leaf_weight=25.5 39 321.5 220 39 27 85 64 87.5 38.5 82.5
leaf_count=14 23 208 90 12 7 11 11 21 13 55
internal_value=0 -0.0017943 0.000930052 -0.00480752 -0.00581393 0.00684983 0.00374928 0.00296966 0.00553887 -0.00418893
internal_weight=1029.5 816.5 429 387.5 348.5 213 128 307.5 102.5 121.5
internal_count=465 416 189 227 215 49 38 111 24 78
is_linear=0
shrinkage=0.02


Tree=8
num_leaves=12
num_cat=0
split_feature=27 10 2 27 26 19 28 2 2 19 28
split_gain=26.3559 12.5867 8.2782 10.4632 5.91856 4.16097 3.58462 3.19519 2.68425 1.90218 1.62735
threshold=-1.2156588918902822 78.376768256563935 960179.91816793231 0.055910901038417969 27.36574502240909 3271.356748631234 -1.8712958586364954 964892.11142829794 932794.93961261341 3308.4357977350614 0.9403463886351735
decision_type=2 2 2 2 2 2 2 2 2 2 2
left_child=4 7 8 -4 5 6 -1 10 -3 -7 -2
right_child=1 2 3 -5 -6 9 -8 -9 -10 -11 -12
leaf_value=-0.004341939197020318 0.0016853135601504819 0.0057169456063668319 0.0037622140602473798 -0.0061186471562913926 0.0050132138227161616 -0.0081269031399387424 0.0012867049554011207 0.010393688409506869 0.0014055594122524045 -0.0040185178008675573 0.0068049827768602448
leaf_weight=121.5 44 99.5 67 113 27 116.5 70 72 142 86 64
leaf_count=79 17 25 22 71 6 78 28 10 59 52 12
internal_value=1.8362e-05 0.00270411 0.000799612 -0.00242905 -0.00381012 -0.00443655 -0.0022801 0.00710933 0.00321444 -0.00643429 0.00478912
internal_weight=1022.5 601.5 421.5 180 421 394 191.5 180 241.5 202.5 108
internal_count=459 216 177 93 243 237 107 39 84 130 29
is_linear=0
shrinkage=0.02


Tree=9
num_leaves=9
num_cat=0
split_feature=34 19 30 21 1 2 28 19
split_gain=27.2258 31.7983 13.0832 4.96783 4.92725 3.63749 1.74017 1.70124
threshold=3315.5379384699349 3271.356748631234 -1.1120453103708554 117.62225718921624 -0.51639395938746235 932361.4706413399 -1.8276359304319554 3307.4619735572437
decision_type=2 2 2 2 2 2 2 2
left_child=1 2 6 7 -2 -4 -1 -3
right_child=4 3 5 -5 -6 -7 -8 -9
leaf_value=-0.0040207398419105818 0.011261738615609258 -0.0086943309760675186 0.0056786874547923132 0.0026053322666096234 0.0022906352124504141 0.001785442508483196 0.0011432259747702063 -0.0053907726681563586
leaf_weight=124.5 90 101 206.5 25 35.5 185.5 31.5 223.5
leaf_count=79 12 68 50 8 11 74 13 141
internal_value=0.000127193 -0.00109554 0.00190748 -0.00579787 0.00879687 0.00385526 -0.00296436 -0.00646041
internal_weight=1023 897.5 548 349.5 125.5 392 156 324.5
internal_count=456 433 216 217 23 124 92 209
is_linear=0
shrinkage=0.02


Tree=10
num_leaves=12
num_cat=0
split_feature=9 20 11 21 2 27 2 24 28 1 19
split_gain=23.8682 17.099 9.04872 6.35068 6.10664 4.66866 3.54037 3.152 2.76335 1.0072 0.615784
threshold=78.242467907425493 3271.356748631234 26.255440178111126 117.62225718921624 964892.11142829794 -0.91955709251580164 964709.22750790161 82.681404577709159 -1.8525062594344102 -0.70581670320594803 3285.4438456871185
decision_type=2 2 2 2 2 2 2 2 2 2 2
left_child=4 2 8 6 5 10 -3 -4 -2 -7 -1
right_child=1 3 7 -5 -6 9 -8 -9 -10 -11 -12
leaf_value=-0.0008796779248449537 -0.00469820039300248 -0.0060562130657920423 0.0049867222066849615 0.0044839369143758511 0.010391854638506653 0.0024513169766165492 0.0013056049840203647 0.00047212532478751556 0.00020596215535293924 0.0065599905639294751 -0.0069026904547656032
leaf_weight=16.500000000000004 94.5 312.5 174.5 26.5 77 41.5 27.5 97.5 86.5 74 11.999999999999998
leaf_count=8 63 199 49 7 10 14 10 44 39 13 8
internal_value=6.40008e-05 -0.00150882 0.00108581 -0.0047126 0.00587607 0.0033654 -0.0054518 0.00338722 -0.00236111 0.00515116 -0.00370068
internal_weight=1040.5 819.5 453 366.5 221 144 340 272 181 115.5 28.5
internal_count=464 411 195 216 53 43 209 93 102 27 16
is_linear=0
shrinkage=0.02


Tree=11
num_leaves=13
num_cat=0
split_feature=9 19 0 19 2 2 24 28 31 14 2 19
split_gain=24.5304 15.7046 8.69261 6.34535 8.70889 5.84212 4.43958 3.39165 1.14752 0.88348 0.409563 0.0362263
threshold=78.242467907425493 3271.356748631234 0.40966402954315223 3307.7446136049425 962350.23859392526 964892.11142829794 82.681404577709159 -0.36495181474941268 3.3058023252116118 -2.0361449162012248 942902.96704291541 3307.466922337871
decision_type=2 2 2 2 2 2 2 2 2 2 2 2
left_child=5 2 6 11 -5 7 -2 9 -4 -1 -9 -3
right_child=1 3 8 4 -6 -7 -8 10 -10 -11 -12 -13
leaf_value=0.0011413741056309188 0.0048127341366354321 -0.0084178760650653189 -0.00023868350535631182 0.0032962033151552597 -0.0050270380184917552 0.010486793098935656 0.00027921256269727434 0.0065213217212557783 -0.0049616697015818093 -0.0048425754838519628 0.003434241804556969 -0.0061718229103088383
leaf_weight=20 173 102 28.5 71 162.5 77 173.5 61 84 16.5 37.5 36
leaf_count=8 48 69 15 26 98 10 79 10 56 10 11 24
internal_value=6.82495e-05 -0.00148179 0.00098871 -0.00453124 -0.00248281 0.00611759 0.00255944 0.00352301 -0.00380161 -0.00159544 0.00543518 -0.00791895
internal_weight=1042.5 830.5 459 371.5 233.5 212 346.5 135 112.5 36.5 98.5 138
internal_count=464 415 198 217 124 49 127 39 71 18 21 93
is_linear=0
shrinkage=0.02


Tree=12
num_leaves=13
num_cat=0
split_feature=27 9 2 27 30 12 2 2 30 23 28 2
split_gain=20.0646 12.693 11.0321 5.82882 5.58924 3.03223 3.43077 2.30698 1.75082 0.753 0.583112 0.247517
threshold=-0.91955709251580164 78.242467907425493 932794.93961261341 -0.61916467786213081 -2.1008834755813548 27.275863783485587 962527.77608194284 964892.11142829794 1.7715317682183935 81.681637291643213 0.9403463886351735 963582.93696584611
decision_type=2 2 2 2 2 2 2 2 2 2 2 2
left_child=4 7 8 -4 9 6 -6 10 -3 -1 -2 -11
right_child=1 2 3 -5 5 -7 -8 -9 -10 11 -12 -13
leaf_value=-0.0072517757246571201 0.002884222961607434 0.0029944533893177588 0.0059989239656262931 -0.0026115258370599807 -0.00073904664132117047 0.0044481696797840633 -0.0065056851994423634 0.0099663228921010993 0.0085040499314017921 -0.0039471066403137123 0.0063031047673757406 -0.0070276276535458041
leaf_weight=76 40.5 45 34.5 245 200.5 32 51 69 56 105 59 16.5
leaf_count=51 13 15 9 131 97 8 33 9 8 69 10 11
internal_value=-3.98962e-05 0.00256775 0.000529961 -0.00151523 -0.00301907 -0.00119938 -0.00194797 0.00711236 0.00614854 -0.00559235 0.0049948 -0.00446231
internal_weight=1030 549 380.5 279.5 481 283.5 251.5 168.5 101 197.5 99.5 121.5
internal_count=464 195 163 140 269 138 130 32 23 131 23 80
is_linear=0
shrinkage=0.02


Tree=13
num_leaves=9
num_cat=0
split_feature=34 19 0 21 28 2 19 31
split_gain=24.3185 24.5281 10.1829 7.15477 3.92202 3.48321 2.43702 0.949348
threshold=3315.5379384699349 3271.356748631234 0.40966402954315223 117.62225718921624 0.89181334611001606 928973.7709029183 3307.6968763485652 3.3058023252116118
decision_type=2 2 2 2 2 2 2 2
left_child=1 2 5 6 -2 -1 -3 -4
right_child=4 3 7 -5 -6 -7 -8 -9
leaf_value=0.0048503324165769792 0.010549196290188148 -0.0077217610840781582 -0.00057224032967148923 0.0036328012049198157 0.0022507666980519014 0.0012857041497851358 -0.0042334231060202144 -0.0046683225893137739
leaf_weight=217 90 149 33 34.5 32.5 227 199.5 84
leaf_count=57 12 100 18 10 10 93 122 56
internal_value=8.82139e-05 -0.00100218 0.00165813 -0.00489535 0.00841756 0.00304283 -0.00575727 -0.00355176
internal_weight=1066.5 944 561 383 122.5 444 348.5 117
internal_count=478 456 224 232 22 150 222 74
is_linear=0
shrinkage=0.02


Tree=14
num_leaves=9
num_cat=0
split_feature=34 19 0 21 32 23 19 31
split_gain=23.8804 20.5916 10.5285 7.52655 2.9368 2.84365 1.81945 0.968419
threshold=3315.5379384699349 3271.356748631234 0.40966402954315223 117.62225718921624 2.6773509626875689 82.250959970475648 3307.6968763485652 3.3058023252116118
decision_type=2 2 2 2 2 2 2 2
left_child=1 2 5 6 -2 -1 -3 -4
right_child=4 3 7 -5 -6 -7 -8 -9
leaf_value=0.0047799992462800398 0.011872591068433677 -0.0075209369925318152 -0.0005259315860598828 0.0041619165876637335 0.0052683461022189279 0.0014682015896532532 -0.0043290353118184402 -0.004678157248982677
leaf_weight=184.5 56 133 31.5 33 62 244.5 186.5 93
leaf_count=49 7 89 17 9 13 97 115 62
internal_value=0.000123053 -0.000981843 0.00142129 -0.00475096 0.00852899 0.00290884 -0.00569291 -0.00366223
internal_weight=1024 906 553.5 352.5 118 429 319.5 124.5
internal_count=458 438 225 213 20 146 204 79
is_linear=0
shrinkage=0.02


Tree=15
num_leaves=9
num_cat=0
split_feature=34 19 30 21 2 0 19 0
split_gain=19.356 26.7021 9.85732 4.07354 3.01643 2.80521 1.59757 1.44496
threshold=3315.5379384699349 3271.356748631234 -1.1120453103708554 117.62225718921624 932361.4706413399 -0.82298386589365657 3307.4619735572437 0.70581670320594825
decision_type=2 2 2 2 2 2 2 2
left_child=1 2 7 6 -4 -2 -3 -1
right_child=5 3 4 -5 -6 -7 -8 -9
leaf_value=-0.00071039966058663348 0.0023637741045309944 -0.0078800573608886568 0.0049889979989506629 0.00243904794836944 0.0015239222345994571 0.0096467008190954523 -0.0047637613244930236 -0.0046547278869483203
leaf_weight=81 31 104 215 25 195 82 238 70.5
leaf_count=42 9 70 53 8 78 11 150 47
internal_value=-3.40264e-05 -0.000991195 0.00174746 -0.00517675 0.0033574 0.00772334 -0.0057475 -0.00258659
internal_weight=1041.5 928.5 561.5 367 410 113 342 151.5
internal_count=468 448 220 228 131 20 220 89
is_linear=0
shrinkage=0.02


Tree=16
num_leaves=13
num_cat=0
split_feature=9 19 2 2 2 19 33 27 22 28 2 26
split_gain=21.8692 11.7413 7.70842 5.62026 4.89739 7.18158 5.61414 3.0095 2.16369 0.849758 0.542814 0.31737
threshold=78.242467907425493 3186.8229123817773 925331.20051898144 964892.11142829794 962350.23859392526 3308.3452066529458 3315.5326557768512 0.055910901038417969 43.069454938676529 1.6693607172334557 959058.36501128692 26.521971397660568
decision_type=2 2 2 2 2 2 2 2 2 2 2 2
left_child=3 2 8 7 5 -3 -6 10 -2 -4 -1 -9
right_child=1 4 9 -5 6 -7 -8 11 -10 -11 -12 -13
leaf_value=0.00055379425949520541 -0.0039737150863752716 -0.0025209138302208002 0.0047814030486977464 0.0096195195231134484 -0.0066825369834342657 0.0051606912869693981 0.0017671131152030709 0.006106245029319838 0.0028770051555200055 0.0088767415471823815 -0.0039475729703903192 0.0032977779835373878
leaf_weight=21 54 368.5 64.5 85 179 54.5 37 50 26 40 18.5 40.5
leaf_count=9 35 205 16 11 120 15 13 9 8 5 10 11
internal_value=-8.45577e-06 -0.00149499 0.0029276 0.005647 -0.00277893 -0.00151175 -0.00522374 0.00295428 -0.00171072 0.0064713 -0.00157295 0.00494542
internal_weight=1038.5 823.5 184.5 215 639 423 216 130 80 104.5 39.5 90.5
internal_count=467 417 64 50 353 220 133 39 43 21 19 20
is_linear=0
shrinkage=0.02


Tree=17
num_leaves=12
num_cat=0
split_feature=9 19 19 30 19 27 33 30 1 23 28
split_gain=17.4826 9.91516 5.3406 4.75558 4.29607 3.25084 3.00918 1.83673 0.796216 0.584798 0.566709
threshold=78.242467907425493 3186.8229123817773 3171.9860559761964 -2.1008834755813548 3313.0778330333601 -0.91955709251580164 3315.5326557768512 1.0062932380518541 -0.70581670320594803 81.295972559720511 1.6693607172334557
decision_type=2 2 2 2 2 2 2 2 2 2 2
left_child=4 2 7 9 5 -1 -5 -2 -7 -3 -4
right_child=1 3 10 6 -6 8 -8 -9 -10 -11 -12
leaf_value=-0.0033839452884815357 -0.0036122650651618689 -0.0068984240720521154 0.0044339817567666372 -0.0019724289879082318 0.0088526656733956301 0.0019596389688551425 0.0033805568214225513 0.0028226035898382012 0.0058028376398016083 -0.0042549295706666391 0.0080081715654971002
leaf_weight=25.5 48 65.5 73.5 423.5 77 38.5 45 26 63 114 32
leaf_count=14 31 44 19 221 10 13 14 8 11 75 4
internal_value=-7.05247e-05 -0.00136681 0.00277147 -0.00251998 0.00514957 0.00281169 -0.00144486 -0.00131372 0.00441426 -0.00527977 0.00563385
internal_weight=1031.5 827.5 179.5 648 204 127 468.5 74 101.5 179.5 105.5
internal_count=464 416 62 354 48 38 235 39 24 119 23
is_linear=0
shrinkage=0.02


Tree=18
num_leaves=12
num_cat=0
split_feature=9 19 30 19 2 11 27 20 27 9 19
split_gain=18.8442 10.8669 7.15719 5.34643 7.8427 5.07919 3.14837 2.43987 0.592852 0.180175 0.111555
threshold=78.783248597626411 3271.356748631234 -1.8972065787203369 3307.7446136049425 962414.33575027424 27.772622438683737 -1.169857343279999 3185.4366870976887 1.0875024565451603 82.198063680545616 3307.466922337871
decision_type=2 2 2 2 2 2 2 2 2 2 2
left_child=5 2 9 10 -5 6 -1 -4 -8 -2 -3
right_child=1 3 7 4 -6 -7 8 -9 -10 -11 -12
leaf_value=-0.0028060591287083097 -0.0013129761338233948 -0.0075000162113280523 0.0041517255961055479 0.0030789200167870151 -0.0045921580288617583 0.011169323690821615 0.0027592493102081821 0.00065660870568654787 0.005523349429859499 -0.0042379161643106384 -0.0052462418843538337
leaf_weight=25.5 13.499999999999998 103.5 140.5 78.5 158 43 57 188 103 87 37.5
leaf_count=14 8 70 41 31 95 6 18 83 19 58 25
internal_value=0 -0.0014369 0.000736869 -0.00390565 -0.00203418 0.00505164 0.00354461 0.00216961 0.0045858 -0.00388971 -0.00697618
internal_weight=1035 806.5 429 377.5 236.5 228.5 185.5 328.5 160 100.5 141
internal_count=468 411 190 221 126 57 51 124 37 66 95
is_linear=0
shrinkage=0.02


Tree=19
num_leaves=12
num_cat=0
split_feature=10 20 30 2 11 27 24 2 28 0 12
split_gain=18.5975 12.1361 7.25474 6.35422 4.30131 3.04745 2.31558 2.17819 1.76753 1.3627 0.362623
threshold=78.376768256563935 3271.356748631234 -1.1120453103708554 964709.22750790161 27.772622438683737 0.373207983232067 82.879335745536522 962527.77608194284 -1.8525062594344102 -0.1799261722714405 26.921732521403793
decision_type=2 2 2 2 2 2 2 2 2 2 2
left_child=4 2 8 7 5 9 -4 -3 -2 -1 -7
right_child=1 3 6 -5 -6 10 -8 -9 -10 -11 -12
leaf_value=-0.0044594247546933955 -0.0039173961600059998 -0.0034608824897639366 0.0039827956471186841 0.0037111154007911686 0.011903412036041713 0.0061347279770610228 5.9195202358519838e-05 -0.0068462139645667922 0.00088166856322260121 0.0025730209146504817 0.0035222166882620922
leaf_weight=19.5 112.5 180.5 191.5 36 32 94.5 89 144.5 40.5 21.5 43.5
leaf_count=11 74 107 55 10 4 16 40 97 17 8 12
internal_value=-4.01974e-06 -0.00140927 0.000842491 -0.00411106 0.00525049 0.00396103 0.0027519 -0.00499672 -0.00263788 -0.000763963 0.00537228
internal_weight=1005.5 794.5 433.5 361 211 179 280.5 325 153 41 138
internal_count=451 400 186 214 51 47 95 204 91 19 28
is_linear=0
shrinkage=0.02


Tree=20
num_leaves=15
num_cat=0
split_feature=13 9 19 22 20 0 19 2 2 2 20 28 20 19
split_gain=17.0103 8.83508 8.95031 3.31513 3.22951 3.47755 3.11774 3.65832 1.31012 1.25401 0.76449 0.3962 0.382083 0.01521
threshold=-0.78317885113315944 78.242467907425493 3195.2987235629539 45.60741754336572 3271.356748631234 0.12053668025532312 3308.2597980528817 962414.33575027424 964892.11142829794 926928.22324167949 3235.2190280239406 -1.8276359304319554 3231.9612096630303 3307.4619735572437
decision_type=2 2 2 2 2 2 2 2 2 2 2 2 2 2
left_child=4 8 9 -4 5 10 13 -8 12 -3 -1 -7 -2 -6
right_child=1 2 3 -5 6 11 7 -9 -10 -11 -12 -13 -14 -15
leaf_value=3.8504347059642895e-05 0.0053976817766496956 0.0027283534125615194 0.0012452307458203208 -0.0031329514698697886 -0.0073103290921033813 -0.0039330193183686529 0.00282194436332093 -0.0045684779793562658 0.0083174651971100067 0.007326449529392513 0.0035617728502977467 -0.00041849906825357019 0.0023298142057198747 -0.0053655637197005451
leaf_weight=62.5 59 45 118 162 84.5 105 38 81.5 69 62 40.5 16.5 31 37.5
leaf_count=28 11 14 47 93 57 69 16 51 9 10 12 9 10 25
internal_value=-0.000152617 0.00223804 0.000593734 -0.00128395 -0.00295616 -0.00120505 -0.00455828 -0.00219601 0.0061848 0.00547556 0.00147425 -0.00348292 0.00441835 -0.00680118
internal_weight=1012 546 387 280 466 224.5 241.5 119.5 159 107 103 121.5 90 122
internal_count=461 194 164 140 267 118 149 67 30 24 40 78 21 82
is_linear=0
shrinkage=0.02


Tree=21
num_leaves=9
num_cat=0
split_feature=34 20 28 22 10 11 20 16
split_gain=16.8132 17.2055 6.32122 4.64531 3.29457 3.24483 2.09409 0.473657
threshold=3315.5379384699349 3271.356748631234 -2.1450810588732323 95.509731716513343 83.375898348474706 27.772622438683737 3307.7446136049425 0.090630345917756594
decision_type=2 2 2 2 2 2 2 2
left_child=1 2 7 6 -4 -2 -3 -1
right_child=5 3 4 -5 -6 -7 -8 -9
leaf_value=-0.0038242612080870283 0.0041201537046868068 -0.0068253297032421206 0.0031329290008341726 0.0031398882714528888 -0.0013959580327233961 0.011192062705454199 -0.0035250717947755629 0.00024356992929070083
leaf_weight=82.5 63.5 138 372.5 30 76 48 197.5 11.999999999999998
leaf_count=55 14 93 117 9 40 6 118 6
internal_value=1.24129e-05 -0.000889162 0.00136562 -0.00423628 0.00235895 0.00729042 -0.00491283 -0.00329114
internal_weight=1020 908.5 543 365.5 448.5 111.5 335.5 94.5
internal_count=458 438 218 220 157 20 211 61
is_linear=0
shrinkage=0.02


Tree=22
num_leaves=9
num_cat=0
split_feature=2 20 30 21 2 28 19 28
split_gain=17.3851 19.3511 9.08664 5.00943 2.68219 2.4575 1.51746 1.30884
threshold=964709.22750790161 3271.356748631234 -1.1120453103708554 117.62225718921624 932361.4706413399 0.63463475625060273 3307.4619735572437 -1.8276359304319554
decision_type=2 2 2 2 2 2 2 2
left_child=1 2 7 6 -4 -2 -3 -1
right_child=5 3 4 -5 -6 -7 -8 -9
leaf_value=-0.0032408692017476654 0.0091564042568206792 -0.0070548640180092591 0.0046995543302483346 0.0036376164484832247 0.0014240551338063005 0.0026984273913502692 -0.0040214588329959226 0.0010513608538442187
leaf_weight=132 85 102.5 217.5 28 191.5 36 234 34.5
leaf_count=84 12 69 51 8 76 9 146 14
internal_value=0.000219302 -0.000701234 0.00157927 -0.00429904 0.0031816 0.00730792 -0.00497858 -0.00233814
internal_weight=1061 940 575.5 364.5 409 121 336.5 166.5
internal_count=469 448 225 223 127 21 215 98
is_linear=0
shrinkage=0.02


Tree=23
num_leaves=12
num_cat=0
split_feature=27 5 5 5 26 23 5 1 30 22 19
split_gain=12.5181 5.85146 8.36556 7.05324 3.11597 2.88655 3.22709 2.47232 1.46939 0.517882 0.256238
threshold=-0.91955709251580164 3206.5271189583218 3316.8626787884382 3308.1248696192069 27.280954324090406 82.250959970475648 3308.8126675878307 -0.51639395938746235 1.7715317682183935 45.60741754336572 3271.356748631234
decision_type=2 2 2 2 2 2 2 2 2 2 2
left_child=4 8 3 -3 5 10 -7 -4 9 -2 -1
right_child=1 2 7 -5 -6 6 -8 -9 -10 -11 -12
leaf_value=-0.0040566291090721887 0.00022265604786250902 0.00060061019402560755 0.0083450337783150044 -0.0067598831636064196 0.0038992477355391853 -0.00077488381203649368 -0.0062915161882128026 0.0014808735340028196 0.0068951013239821951 0.0039259662229654399 -0.0062712598249411123
leaf_weight=58.5 21.5 220 56 66.5 26.5 230.5 51 35.5 85 63 77
leaf_count=39 9 94 7 45 7 119 34 11 12 16 52
internal_value=-6.83358e-05 0.0019504 0.000553346 -0.00112721 -0.00256312 -0.00299109 -0.00180946 0.00577023 0.00502206 0.00302728 -0.00538461
internal_weight=991 547.5 378 286.5 443.5 417 281.5 91.5 169.5 84.5 135.5
internal_count=445 194 157 139 251 244 153 18 37 25 91
is_linear=0
shrinkage=0.02


Tree=24
num_leaves=13
num_cat=0
split_feature=10 19 0 19 2 11 27 24 12 2 19 1
split_gain=16.5067 8.68916 6.27439 5.30957 7.90066 3.34399 2.65681 2.36056 0.596117 0.464888 0.349505 0.311286
threshold=78.376768256563935 3269.5549622647081 0.40966402954315223 3308.3452066529458 962328.75775476627 27.772622438683737 1.0000000180025095e-35 82.879335745536522 26.952811945230561 954669.54912594671 3307.466922337871 -0.35460488704253562
decision_type=2 2 2 2 2 2 2 2 2 2 2 2
left_child=5 2 7 10 -5 6 9 -2 -8 -1 -3 -4
right_child=1 3 11 4 -6 -7 8 -9 -10 -11 -12 -13
leaf_value=0.0016504545096428164 0.0034968857277340327 -0.0066842050351802774 -0.0015857196782174193 0.0052958186994331467 -0.0033759970751787542 0.011085161749996355 0.0060486147242467762 4.274068716773414e-05 0.0027309744793015561 -0.0028857991698951948 -0.0044733071140569923 -0.0042590528409928085
leaf_weight=13.999999999999998 202 104 30 55 162 32 102 131.5 35.5 19.5 73 70.5
leaf_count=5 61 70 18 14 93 4 16 60 11 11 49 47
internal_value=0.000128719 -0.00112418 0.000823648 -0.0032698 -0.00114765 0.00521961 0.00402352 0.00214717 0.00524516 -0.000943421 -0.00582882 -0.00351571
internal_weight=1031 828 434 394 217 203 171 333.5 137.5 33.5 177 100.5
internal_count=459 412 186 226 107 47 43 121 27 16 119 65
is_linear=0
shrinkage=0.02


Tree=25
num_leaves=9
num_cat=0
split_feature=34 20 15 21 1 2 28 20
split_gain=15.9272 15.6071 6.84673 5.83085 3.25372 2.27192 2.15168 1.26149
threshold=3315.5379384699349 3271.356748631234 -0.26136232071612125 117.62225718921624 -0.51639395938746235 931930.23322438437 -1.8525062594344102 3307.7446136049425
decision_type=2 2 2 2 2 2 2 2
left_child=1 2 6 7 -2 -4 -1 -3
right_child=4 3 5 -5 -6 -7 -8 -9
leaf_value=-0.0030100912080729394 0.0087173705596090018 -0.0062688762126909409 0.0049162661143648092 0.0037830992562430249 0.0014411092018960295 0.0013222636847995976 0.00069926666200396579 -0.0036710741434544708
leaf_weight=121.5 90 143 166 33.5 35.5 127 125 192
leaf_count=76 12 96 36 9 11 52 52 119
internal_value=7.99661e-05 -0.000844635 0.00131904 -0.00401026 0.00671622 0.00337992 -0.00112816 -0.00480893
internal_weight=1033.5 908 539.5 368.5 125.5 293 246.5 335
internal_count=463 440 216 224 23 88 128 215
is_linear=0
shrinkage=0.02


Tree=26
num_leaves=12
num_cat=0
split_feature=9 19 30 19 2 2 27 2 28 1 19
split_gain=15.65 8.55853 5.12396 4.34169 6.4869 4.01123 2.46683 1.77741 1.3206 0.727669 0.0655519
threshold=78.242467907425493 3271.356748631234 -1.1120453103708554 3307.7446136049425 962414.33575027424 964892.11142829794 -0.91955709251580164 932361.4706413399 -1.8525062594344102 -0.70581670320594803 3307.4619735572437
decision_type=2 2 2 2 2 2 2 2 2 2 2
left_child=5 2 8 10 -5 6 -1 -4 -2 -8 -3
right_child=1 3 7 4 -6 -7 9 -9 -10 -11 -12
leaf_value=-0.0029027465935106628 -0.0032073296784627726 -0.006710397478359849 0.0040312105478264217 0.0029657542791638736 -0.003991924204214169 0.008121020785645942 0.0015856422178967054 0.0008187113609282471 0.0010738377936681111 0.005089258106042307 -0.0047976478480157396
leaf_weight=25.5 121.5 99 125.5 77 167 85 41.5 157 36 69 40.5
leaf_count=14 79 67 33 31 100 11 14 67 15 12 27
internal_value=2.37501e-05 -0.00124391 0.000655712 -0.00342266 -0.00178341 0.0047329 0.00253528 0.00226665 -0.0022153 0.00383014 -0.00622621
internal_weight=1044.5 823.5 440 383.5 244 221 136 282.5 157.5 110.5 139.5
internal_count=470 419 194 225 131 51 40 100 94 26 94
is_linear=0
shrinkage=0.02


Tree=27
num_leaves=10
num_cat=0
split_feature=2 20 27 1 10 24 2 9 20
split_gain=15.1298 15.1241 6.56081 2.90454 2.31945 3.05783 2.09668 1.13603 0.857977
threshold=964709.22750790161 3271.356748631234 -1.5898215148974815 -0.51639395938746235 85.521670204450814 83.534811218319263 932361.4706413399 81.792148838501035 3307.4619735572437
decision_type=2 2 2 2 2 2 2 2 2
left_child=1 2 7 -2 8 -6 -4 -1 -3
right_child=3 4 6 -5 5 -7 -8 -9 -10
leaf_value=0.00025788298404465118 0.0082565539715782049 -0.0064916489412707671 0.004081488912712674 0.0014049393382124804 -0.005312637721167671 0.0048023924593831981 0.0011280641101336884 -0.0034349014589528516 -0.0040069315338578928
leaf_weight=46.5 93 91.5 187 35.5 21 24 204.5 106.5 206.5
leaf_count=22 13 62 46 11 14 6 84 69 131
internal_value=4.23976e-05 -0.000887613 0.0011816 0.00641713 -0.00416905 1.99282e-05 0.00255405 -0.00230803 -0.00480523
internal_weight=1016 887.5 544.5 128.5 343 45 391.5 153 298
internal_count=458 434 221 24 213 20 130 91 193
is_linear=0
shrinkage=0.02


Tree=28
num_leaves=13
num_cat=0
split_feature=9 20 30 2 19 2 27 24 28 1 14 19
split_gain=13.238 8.95252 5.56676 3.93844 3.16615 5.25115 2.70166 2.47507 1.07639 0.732948 0.533239 0.0502959
threshold=78.242467907425493 3271.356748631234 -1.1120453103708554 964892.11142829794 3307.7446136049425 962414.33575027424 -0.91955709251580164 82.868790427280643 -1.8525062594344102 -0.70581670320594803 -1.9011180188205847 3307.4619735572437
decision_type=2 2 2 2 2 2 2 2 2 2 2 2
left_child=3 2 8 6 11 -6 10 -4 -2 -8 -1 -3
right_child=1 4 7 -5 5 -7 9 -9 -10 -11 -12 -13
leaf_value=-0.0003661842909124162 -0.0030771438736941605 -0.0063127614162007319 0.0036468260696559556 0.0080596629738048375 0.0027763572632162658 -0.0038478847639180904 0.001506982647402342 -0.00019872082118412959 0.00090314099300598753 0.0049736228115511254 -0.0059062277078628534 -0.0045947928639749683
leaf_weight=16.500000000000004 124.5 90 202.5 77 66 162.5 41.5 98 33 74 11.999999999999998 46.5
leaf_count=8 80 61 59 10 28 97 14 44 14 13 8 31
internal_value=0.000103748 -0.0010627 0.000795687 0.00443446 -0.00339377 -0.00192021 0.00241913 0.00239132 -0.00222995 0.00378042 -0.00294418 -0.00579832
internal_weight=1044 823 458 221 365 228.5 144 300.5 157.5 115.5 28.5 136.5
internal_count=467 414 197 53 217 125 43 103 94 27 16 92
is_linear=0
shrinkage=0.02


Tree=29
num_leaves=11
num_cat=0
split_feature=11 11 2 28 29 22 32 2 19 2
split_gain=15.464 5.98821 5.35115 4.48262 2.91731 3.14425 2.84343 1.76906 1.72408 0.829206
threshold=26.727622419785664 27.772622438683737 962468.45768148464 -1.8525062594344102 1.1737994378542287 42.748790740216641 2.7047533392832741 965483.70817638771 3308.9173889538356 933668.58593632688
decision_type=2 2 2 2 2 2 2 2 2 2
left_child=2 4 3 8 5 -2 -5 -4 -1 -6
right_child=1 -3 7 6 9 -7 -8 -9 -10 -11
leaf_value=-0.0038756142966154383 0.0029282749584979484 0.009525215296184315 -0.0059046582119218231 -0.0030492799231274566 0.0055606253595280467 -0.0033394620787065765 0.0016655073413477006 0.0013041332767855735 0.0014931618822569197 0.0025584160343377509
leaf_weight=188 61.5 49.5 143.5 64.5 65 63.5 224.5 13.999999999999998 26 104
leaf_count=122 19 7 96 39 11 36 85 4 13 32
internal_value=-0.000251894 0.00317941 -0.00204256 -0.00102322 0.00206129 -0.000241768 0.000596049 -0.00524504 -0.0032082 0.0037636
internal_weight=1004 343.5 660.5 503 294 125 289 157.5 214 169
internal_count=464 105 359 259 98 55 124 100 135 43
is_linear=0
shrinkage=0.02


Tree=30
num_leaves=14
num_cat=0
split_feature=27 10 5 5 30 31 5 26 5 21 26 23 24
split_gain=11.0847 6.38851 5.46522 3.39799 1.97955 1.9688 1.94997 1.74998 2.40521 1.46264 1.44108 0.468689 0.337853
threshold=-1.2156588918902822 78.376768256563935 3308.1248696192069 3316.8626787884382 -2.0153340138581846 2.6994356676547961 3316.8626787884382 26.131019986650944 3312.0139985045084 55.003335379943216 27.36574502240909 81.595280362444186 84.646736677866684
decision_type=2 2 2 2 2 2 2 2 2 2 2 2 2
left_child=4 6 5 -4 11 -3 9 8 -6 -2 -9 -1 -13
right_child=1 2 3 -5 7 -7 -8 10 -10 -11 -12 12 -14
leaf_value=-0.0053197875289540545 0.0045631291520211005 -0.00064576960669309607 -0.0060485467175914812 0.0020622619816969183 0.0021418984960653114 0.0026989236312311561 0.0078916902832362953 -0.0037004572429052253 -0.0062051015478191964 -0.00032337473710971091 0.0027553476964822039 -0.0024631629431277366 -0.0049774768687244775
leaf_weight=74.5 91.5 104 71.5 27.5 82 208 56 101.5 14.999999999999998 32 14.499999999999998 99 33
leaf_count=50 20 50 48 9 31 68 8 65 10 13 4 64 22
internal_value=-0.00010213 0.00166025 0.000275291 -0.00377849 -0.00258473 0.00157989 0.00479177 -0.00120558 0.000755983 0.0032923 -0.00285159 -0.00397872 -0.00315559
internal_weight=1010 590.5 411 99 419.5 312 179.5 213 97 123.5 116 206.5 132
internal_count=462 216 175 57 246 118 41 110 41 33 69 136 86
is_linear=0
shrinkage=0.02


Tree=31
num_leaves=9
num_cat=0
split_feature=34 20 30 22 0 2 19 28
split_gain=11.0628 13.4387 5.806 3.42754 2.26042 1.73567 1.53658 1.15877
threshold=3315.5379384699349 3271.356748631234 -1.1120453103708554 95.509731716513343 -0.66312265824079508 932361.4706413399 3307.6968763485652 -1.8525062594344102
decision_type=2 2 2 2 2 2 2 2
left_child=1 2 7 6 -2 -4 -3 -1
right_child=4 3 5 -5 -6 -7 -8 -9
leaf_value=-0.002869688867406179 0.0021288216121402789 -0.0058309274565243553 0.0038145067743370242 0.0024310754312985186 0.0083633231834129053 0.0011745870578430239 -0.003023923316679002 0.0011315773395697275
leaf_weight=123 39 139.5 208 33 66 199 203 36
leaf_count=79 10 94 51 11 9 79 122 14
internal_value=1.70442e-05 -0.000671134 0.0012719 -0.00359862 0.00612903 0.00253768 -0.00419347 -0.00194917
internal_weight=1046.5 941.5 566 375.5 105 407 342.5 159
internal_count=469 450 223 227 19 130 216 93
is_linear=0
shrinkage=0.02


Tree=32
num_leaves=12
num_cat=0
split_feature=9 2 30 33 34 2 27 14 2 23 11
split_gain=10.4286 5.46353 5.85766 5.11206 2.79672 2.38704 2.17359 0.753523 0.46884 0.303012 0.0864396
threshold=78.242467907425493 962328.75775476627 -2.130675029876739 3315.5326557768512 3307.8020730731464 964892.11142829794 0.055910901038417969 -2.0361449162012248 962580.78647250577 81.343408453654874 26.98793688474489
decision_type=2 2 2 2 2 2 2 2 2 2 2
left_child=5 2 9 8 -4 6 7 -1 -3 -2 -8
right_child=1 3 4 -5 -6 -7 10 -9 -10 -11 -12
leaf_value=0.0012306884638098783 -0.0052523649069342281 -0.0029984296570683641 0.00048887981407906025 0.0026561107699007514 0.0058681169369641474 0.0067992842182232321 0.0047509973870897759 -0.0039821701261732317 -0.0057461426097696481 -0.0029310561945765385 0.0029379913144641457
leaf_weight=20 49 41.5 449.5 40 41 77 50 21 136 70.5 39
leaf_count=8 33 28 194 13 9 10 9 12 91 46 10
internal_value=2.03384e-05 -0.000983352 -7.19658e-06 -0.00369314 0.000959105 0.00402048 0.00230058 -0.00143857 -0.0051454 -0.00395273 0.0040405
internal_weight=1034.5 827.5 610 217.5 490.5 207 130 41 177.5 119.5 89
internal_count=463 414 282 132 203 49 39 20 119 79 19
is_linear=0
shrinkage=0.02


Tree=33
num_leaves=12
num_cat=0
split_feature=10 19 5 9 5 5 23 18 30 30 17
split_gain=10.2517 6.23946 5.82619 4.19452 3.36716 1.7357 1.45646 0.638389 0.584282 0.572507 0.121813
threshold=78.376768256563935 3186.8229123817773 3180.8701596458072 77.72816304999634 3308.5312533742422 3316.8626787884382 82.575387565645613 2.3707586663642002 1.0062932380518541 1.7715317682183935 2.2307419989195387
decision_type=2 2 2 2 2 2 2 2 2 2 2
left_child=5 2 8 -3 -5 6 10 -8 -2 -4 -1
right_child=1 3 9 4 -6 -7 7 -9 -10 -11 -12
leaf_value=0.0051338192559360124 -0.0032255109998363036 0.004421074540149875 0.0038688669715608872 -0.0012210039675532077 -0.0044806782043647041 0.0066777359936513059 0.001480500858213942 -0.0034228953375960844 0.0011666249959699569 0.007134131420089538 0.0030298863884348137
leaf_weight=43 52.5 39.5 75.5 438.5 179.5 72 28 14.999999999999998 13.999999999999998 40 37.5
leaf_count=8 34 10 19 232 112 10 9 9 4 5 10
internal_value=9.79498e-05 -0.000862195 0.00239714 -0.00177084 -0.00217957 0.00420625 0.00268654 -0.000242764 -0.0022661 0.00509375 0.00425147
internal_weight=1035 839.5 182 657.5 618 195.5 123.5 43 66.5 115.5 80.5
internal_count=462 416 62 354 344 46 36 18 38 24 18
is_linear=0
shrinkage=0.02


end of trees

feature_importances:
city_estimated_population=58
city_area_weighted_pop_density_lag20=51
city_area_weighted_u_component_of_wind_10m_rollmean_lag1_w8=26
city_area_weighted_v_component_of_wind_10m_rollmean_lag1_w8=25
city_area_weighted_pop_density_lag19=18
city_area_weighted_u_component_of_wind_10m_rollmean_lag1_w4=18
city_pop_density=16
city_area_weighted_rh_lag16=16
city_area_weighted_rainfall_rollmean_lag1_w4=15
week_sin=14
week_cos=11
city_area_weighted_temp_c_lag8=10
city_area_weighted_pop_density_rollmean_lag1_w8=10
city_area_weighted_rh_lag17=9
city_area_weighted_rh_rollmean_lag1_w4=8
city_area_weighted_rh_rollmean_lag1_w8=7
city_area_weighted_temp_c_rollmean_lag1_w8=7
city_area_weighted_rainfall_rollmean_lag1_w8=6
city_area_weighted_u_component_of_wind_10m_lag2=5
city_area_weighted_wind_speed_10m_rollmean_lag1_w4=5
city_area_weighted_temp_c_lag7=4
city_area_weighted_pop_density_rollmean_lag1_w4=4
city_area_weighted_wind_speed_10m_rollmean_lag1_w8=2
city_area_weighted_u_component_of_wind_10m_lag1=1
city_area_weighted_v_component_of_wind_10m_lag2=1
city_area_weighted_v_component_of_wind_10m_lag1=1
city_area_weighted_wind_speed_10m_lag7=1
city_area_weighted_wind_speed_10m_lag8=1
city_area_weighted_temp_c_rollmean_lag1_w4=1
city_area_weighted_v_component_of_wind_10m_rollmean_lag1_w4=1

parameters:
[boosting: gbdt]
[objective: regression]
[metric: rmse]
[tree_learner: serial]
[device_type: cpu]
[data_sample_strategy: bagging]
[data: ]
[valid: ]
[num_iterations: 34]
[learning_rate: 0.02]
[num_leaves: 31]
[num_threads: 0]
[seed: 0]
[deterministic: 0]
[force_col_wise: 1]
[force_row_wise: 0]
[histogram_pool_size: -1]
[max_depth: 4]
[min_data_in_leaf: 8]
[min_sum_hessian_in_leaf: 0.001]
[bagging_fraction: 0.9]
[pos_bagging_fraction: 1]
[neg_bagging_fraction: 1]
[bagging_freq: 1]
[bagging_seed: 3]
[bagging_by_query: 0]
[feature_fraction: 0.8]
[feature_fraction_bynode: 1]
[feature_fraction_seed: 2]
[extra_trees: 0]
[extra_seed: 6]
[early_stopping_round: 0]
[early_stopping_min_delta: 0]
[first_metric_only: 0]
[max_delta_step: 0]
[lambda_l1: 0.1]
[lambda_l2: 1.5]
[linear_lambda: 0]
[min_gain_to_split: 0]
[drop_rate: 0.1]
[max_drop: 50]
[skip_drop: 0.5]
[xgboost_dart_mode: 0]
[uniform_drop: 0]
[drop_seed: 4]
[top_rate: 0.2]
[other_rate: 0.1]
[min_data_per_group: 100]
[max_cat_threshold: 32]
[cat_l2: 10]
[cat_smooth: 10]
[max_cat_to_onehot: 4]
[top_k: 20]
[monotone_constraints: ]
[monotone_constraints_method: basic]
[monotone_penalty: 0]
[feature_contri: ]
[forcedsplits_filename: ]
[refit_decay_rate: 0.9]
[cegb_tradeoff: 1]
[cegb_penalty_split: 0]
[cegb_penalty_feature_lazy: ]
[cegb_penalty_feature_coupled: ]
[path_smooth: 0]
[interaction_constraints: ]
[verbosity: -1]
[saved_feature_importance_type: 0]
[use_quantized_grad: 0]
[num_grad_quant_bins: 4]
[quant_train_renew_leaf: 0]
[stochastic_rounding: 1]
[linear_tree: 0]
[max_bin: 255]
[max_bin_by_feature: ]
[min_data_in_bin: 3]
[bin_construct_sample_cnt: 200000]
[data_random_seed: 1]
[is_enable_sparse: 1]
[enable_bundle: 1]
[use_missing: 1]
[zero_as_missing: 0]
[feature_pre_filter: 1]
[pre_partition: 0]
[two_round: 0]
[header: 0]
[label_column: ]
[weight_column: ]
[group_column: ]
[ignore_column: ]
[categorical_feature: ]
[forcedbins_filename: ]
[precise_float_parser: 0]
[parser_config_file: ]
[objective_seed: 5]
[num_class: 1]
[is_unbalance: 0]
[scale_pos_weight: 1]
[sigmoid: 1]
[boost_from_average: 1]
[reg_sqrt: 0]
[alpha: 0.9]
[fair_c: 1]
[poisson_max_delta_step: 0.7]
[tweedie_variance_power: 1.5]
[lambdarank_truncation_level: 30]
[lambdarank_norm: 1]
[label_gain: ]
[lambdarank_position_bias_regularization: 0]
[eval_at: ]
[multi_error_top_k: 1]
[auc_mu_weights: ]
[num_machines: 1]
[local_listen_port: 12400]
[time_out: 120]
[machine_list_filename: ]
[machines: ]
[gpu_platform_id: -1]
[gpu_device_id: -1]
[gpu_use_dp: 0]
[num_gpu: 1]

end of parameters
