tree
version=v4
num_class=1
num_tree_per_iteration=1
label_index=0
max_feature_idx=56
objective=regression
feature_names=week_sin week_cos city_estimated_population city_area_m2 city_area_km2 city_pop_density n_barangays_reported city_area_weighted_rainfall_lag15 city_area_weighted_rainfall_lag17 city_area_weighted_rh_lag15 city_area_weighted_rh_lag16 city_area_weighted_temp_c_lag7 city_area_weighted_temp_c_lag6 city_area_weighted_u_component_of_wind_10m_lag1 city_area_weighted_u_component_of_wind_10m_lag2 city_area_weighted_v_component_of_wind_10m_lag1 city_area_weighted_v_component_of_wind_10m_lag3 city_area_weighted_wind_speed_10m_lag6 city_area_weighted_wind_speed_10m_lag7 city_area_weighted_pop_density_lag20 city_area_weighted_pop_density_lag19 city_area_weighted_rainfall_rollmean_lag1_w4 city_area_weighted_rainfall_rollmean_lag1_w8 city_area_weighted_rh_rollmean_lag1_w4 city_area_weighted_rh_rollmean_lag1_w8 city_area_weighted_temp_c_rollmean_lag1_w4 city_area_weighted_temp_c_rollmean_lag1_w8 city_area_weighted_u_component_of_wind_10m_rollmean_lag1_w4 city_area_weighted_u_component_of_wind_10m_rollmean_lag1_w8 city_area_weighted_v_component_of_wind_10m_rollmean_lag1_w4 city_area_weighted_v_component_of_wind_10m_rollmean_lag1_w8 city_area_weighted_wind_speed_10m_rollmean_lag1_w4 city_area_weighted_wind_speed_10m_rollmean_lag1_w8 city_area_weighted_pop_density_rollmean_lag1_w4 city_area_weighted_pop_density_rollmean_lag1_w8 city_area_weighted_flood_risk_index_rollmean_lag1_w4 city_area_weighted_flood_risk_index_rollmean_lag1_w8 city_area_weighted_percent_annual_crop_rollmean_lag1_w4 city_area_weighted_percent_annual_crop_rollmean_lag1_w8 city_area_weighted_percent_brush_shrubs_rollmean_lag1_w4 city_area_weighted_percent_brush_shrubs_rollmean_lag1_w8 city_area_weighted_percent_built_up_rollmean_lag1_w4 city_area_weighted_percent_built_up_rollmean_lag1_w8 city_area_weighted_percent_inland_water_rollmean_lag1_w4 city_area_weighted_percent_inland_water_rollmean_lag1_w8 city_area_weighted_percent_open_forest_rollmean_lag1_w4 city_area_weighted_percent_open_forest_rollmean_lag1_w8 city_area_weighted_percent_perennial_crop_rollmean_lag1_w4 city_area_weighted_percent_perennial_crop_rollmean_lag1_w8 city_area_weighted_percent_open_barren_rollmean_lag1_w4 city_area_weighted_percent_open_barren_rollmean_lag1_w8 city_area_weighted_percent_fishpond_rollmean_lag1_w4 city_area_weighted_percent_fishpond_rollmean_lag1_w8 city_area_weighted_percent_grassland_rollmean_lag1_w4 city_area_weighted_percent_grassland_rollmean_lag1_w8 city_area_weighted_percent_mangrove_forest_rollmean_lag1_w4 city_area_weighted_percent_mangrove_forest_rollmean_lag1_w8
feature_infos=[-1:1] [-1:1] [909262.48027323559:966257.7929149057] none none [3125.6331669833721:3321.5572740705325] none [0:403.77764092016611] [0:403.77764092016611] [74.166209495041301:89.224799485777211] [74.166209495041301:89.224799485777211] [24.178433964655767:28.356173140545412] [24.178433964655767:28.356173140545412] [-4.5717681780699149:5.3108736337661018] [-4.5717681780699149:4.5737076280135769] [-6.2680500182560719:5.1247667214851038] [-6.2680500182560719:5.1247667214851038] [1.39564484944224:6.8002328204854665] [1.39564484944224:6.8002328204854665] [3125.6331669833717:3316.7558752795157] [3125.6331669833717:3316.9694822973588] [0.06597045822318269:149.02606250490396] [0.34670367581884309:119.23124797939784] [75.920732847159741:87.36324422781334] [76.483294868292248:86.237507786239505] [24.524834464421016:28.067998122101869] [24.646253660584854:27.823998304699263] [-3.4486736035175789:3.6280013469861503] [-3.1133143420372855:3.131422920161175] [-4.48361272930451:3.4734894156434146] [-3.8559405516430854:3.0795858777581708] [1.7342058228275261:5.7925001460518359] [1.9506388693011207:5.3170040362056081] [3126.4705697467193:3320.8965673760504] [3128.1510842727353:3320.3854106128747] none none none none none none none none none none none none none none none none none none none none none none
tree_sizes=1131 1196 1359 1375 1202 1198 1538 1263 1441 1105 1108 1113 1557 1289 1546 1173 1207 1203 1289 1286 1366 1542 1286 1119 1097

Tree=0
num_leaves=12
num_cat=0
split_feature=2 19 30 21 2 2 28 30 19 2 26
split_gain=31.9351 35.0654 15.8138 9.759 4.29737 4.86179 2.66047 2.46066 2.37513 6.84689 0.00413694
threshold=964649.82884617511 3269.5549622647081 -1.2409859049652527 118.53987638285277 932217.47705382493 940351.15984073735 -1.8712958586364954 1.7715317682183935 3307.7789820513772 962431.79967667698 25.63397184913967
decision_type=2 2 2 2 2 2 2 2 2 2 2
left_child=1 2 6 8 7 -6 10 -4 -3 -10 -1
right_child=-2 3 4 -5 5 -7 -8 -9 9 -11 -12
leaf_value=0.57085609260232861 0.59550833137297199 0.56625571447698497 0.58692840429123716 0.58652125225225205 0.57438438550796578 0.58594708554484987 0.58173562714413429 0.59447306033614022 0.58133128059936601 0.56812204794778098 0.5739150735212537
leaf_weight=49.5 114 131.5 108.5 31.5 39 157 33 72 49 115 45
leaf_count=33 21 88 34 9 26 51 13 10 22 77 30
internal_value=0.580757 0.578709 0.583662 0.571083 0.586754 0.58358 0.574616 0.590094 0.569386 0.57207 0.572089
internal_weight=945 831 504 327 376.5 196 127.5 180.5 295.5 164 94.5
internal_count=414 393 197 196 121 77 76 44 187 99 63
is_linear=0
shrinkage=1


Tree=1
num_leaves=12
num_cat=0
split_feature=9 19 30 34 15 19 5 24 5 28 24
split_gain=21.8812 21.243 10.08 5.79499 4.08413 3.10252 7.67906 2.19308 2.30796 1.29731 1.22843
threshold=78.242467907425493 3269.5549622647081 -1.6368727999688646 3314.9610538162083 0.72834520299901795 3307.7283380284671 3308.6988752452285 82.621698969070152 3203.0622190745612 -1.8712958586364954 81.350089196678326
decision_type=2 2 2 2 2 2 2 2 2 2 2
left_child=4 2 9 5 -1 -3 -7 10 -9 -2 -4
right_child=1 3 7 -5 -6 6 -8 8 -10 -11 -12
leaf_value=0.0023096170961355959 -0.0077864679148567191 -0.013669487478623862 0.0041994594014979703 0.0027002020965640741 0.01246208634833309 0.0013614230544828786 -0.011934514630171986 0.0054170788457147947 -0.0025217326181080505 0.00043424645984588663 0.0098038404945669511
leaf_weight=57.5 87 129 90.5 34 105 59.5 106 63.5 63.5 19.5 70.5
leaf_count=21 58 87 34 12 20 27 71 22 35 8 15
internal_value=-0.000893088 -0.0031386 0.00154152 -0.00875248 0.00897791 -0.0101042 -0.0071594 0.00446508 0.00142361 -0.00624571 0.00678054
internal_weight=885.5 723 394.5 328.5 162.5 294.5 165.5 288 127 106.5 161
internal_count=410 369 172 197 41 185 98 106 57 66 49
is_linear=0
shrinkage=0.03


Tree=2
num_leaves=14
num_cat=0
split_feature=9 19 30 2 21 2 24 28 28 19 2 25 32
split_gain=25.2055 15.6011 11.8726 10.3499 8.23322 7.21424 3.22393 2.97344 2.07965 1.91538 1.86815 1.84494 0.336596
threshold=77.72816304999634 3269.5549622647081 -1.1120453103708554 964649.82884617511 118.53987638285277 964830.36563587619 82.910588385470916 -0.11289896394122136 -1.8525062594344102 3307.7283380284671 933961.79279496009 26.197595878118239 3.7544282831695521
decision_type=2 2 2 2 2 2 2 2 2 2 2 2 2
left_child=5 2 8 4 9 7 10 -1 12 -3 -4 -8 -2
right_child=1 3 6 -5 -6 -7 11 -9 -10 -11 -12 -13 -14
leaf_value=0.00054128270234380445 -0.0029557522392791246 -0.013107174767023425 0.010847498622439477 0.0077572850410508208 0.0078333119338049612 0.01968822893662886 0.0046390743540956616 0.010099799825655703 0.0019845441290600729 -0.0076583541664210228 0.0045911382249157343 -0.0040527872726684663 -0.0081581574654163314
leaf_weight=50.5 21 116 90 37.5 23.5 53 45 73.5 25.5 163 99.5 39 84
leaf_count=21 12 78 19 10 6 7 15 14 10 99 36 24 56
internal_value=0.000420938 -0.00199903 0.0019725 -0.00671963 -0.00857315 0.0105352 0.00552393 0.00632502 -0.00539629 -0.0100223 0.00767609 0.000533398 -0.00724845
internal_weight=921 744 404 340 302.5 177 273.5 124 130.5 279 189.5 84 105
internal_count=407 365 172 193 183 42 94 35 78 177 55 39 68
is_linear=0
shrinkage=0.03


Tree=3
num_leaves=14
num_cat=0
split_feature=10 19 2 30 21 2 27 26 19 30 2 32 11
split_gain=24.948 15.859 11.818 9.89709 5.76591 4.54486 4.35003 3.23203 1.83717 1.24277 1.08274 1.04769 0.104161
threshold=78.091959911703398 3269.5549622647081 964649.82884617511 -1.4047082756470519 118.53987638285277 964830.36563587619 -0.09477148728711525 26.713654045783944 3307.7789820513772 1.9823782035412085 931786.98273031309 3.6519979128723024 25.735634442209189
decision_type=2 2 2 2 2 2 2 2 2 2 2 2 2
left_child=5 3 4 11 8 6 -1 10 -3 -9 -5 -2 -13
right_child=1 2 -4 7 -6 -7 -8 9 -10 -11 -12 12 -14
leaf_value=-0.0025085301659476585 -0.00073624168831156573 -0.012692178746287742 0.0080604056793977235 0.005076970873967461 0.0050166437634650398 0.016582200169563292 0.010163957807665262 0.0054921252637037208 -0.0075503285234527926 0.012434058431084409 0.00024602402853114263 -0.0087545623689327598 -0.0048548881885458212
leaf_weight=33.5 30 131.5 40.5 67 23.5 64 76 64.5 166 47.5 113.5 51 28.5
leaf_count=16 15 88 11 22 7 9 16 20 101 8 53 34 19
internal_value=3.79181e-05 -0.00229465 -0.00684008 0.00179162 -0.00877689 0.0102459 0.00625772 0.00467721 -0.00991272 0.00865537 0.00210809 -0.0058083 -0.00758363
internal_weight=937 763.5 361.5 402 321 173.5 109.5 292.5 297.5 112 180.5 109.5 79.5
internal_count=419 378 207 171 196 41 32 103 189 28 75 68 53
is_linear=0
shrinkage=0.03


Tree=4
num_leaves=12
num_cat=0
split_feature=5 19 30 21 5 5 5 28 19 5 0
split_gain=30.1616 25.8048 12.8135 8.02217 2.72407 4.00955 2.87511 1.71656 1.55175 5.02644 0.129472
threshold=3316.0298208503896 3269.5549622647081 -1.2409859049652527 118.53987638285277 3192.9170119188252 3232.5019865839581 3180.4180847561879 -1.8276359304319554 3307.7789820513772 3308.4052397333539 0.29696027566504674
decision_type=2 2 2 2 2 2 2 2 2 2 2
left_child=1 2 7 8 6 -6 -4 10 -3 -10 -1
right_child=-2 3 4 -5 5 -7 -8 -9 9 -11 -12
leaf_value=-0.0036645865925416651 0.014931082326255271 -0.012448910519425718 0.0028326614872207791 0.0056169007255959863 -0.0047183626401931678 0.0052634234746682992 0.011244013623656511 0.0014436976887963035 0.00048594020641579925 -0.011034221646032833 -0.0075487271932607189
leaf_weight=22.5 108 133.5 61.5 31.5 45 152.5 105 25.5 47 112 88.5
leaf_count=14 19 90 24 9 28 50 19 10 23 75 59
internal_value=0.00016784 -0.00179017 0.00247001 -0.00836427 0.00541098 0.00293452 0.00824323 -0.00529416 -0.00991823 -0.00762789 -0.00689329
internal_weight=932.5 824.5 500.5 324 364 197.5 166.5 136.5 292.5 159 111
internal_count=420 401 204 197 121 78 43 83 188 98 73
is_linear=0
shrinkage=0.03


Tree=5
num_leaves=12
num_cat=0
split_feature=2 20 30 21 2 2 2 20 2 26 13
split_gain=28.8777 22.5343 11.6885 8.04959 3.03195 3.58948 3.00277 1.4653 2.26184 1.04547 0.340952
threshold=964649.82884617511 3271.356748631234 -1.2409859049652527 118.53987638285277 928835.69071090664 940351.15984073735 926392.00140437984 3307.4619735572437 962406.11340854643 25.816005455906801 -1.9556880036642597
decision_type=2 2 2 2 2 2 2 2 2 2 2
left_child=1 2 9 7 6 -6 -4 -3 -9 -1 -11
right_child=-2 3 4 -5 5 -7 -8 8 -10 10 -12
leaf_value=-0.0080824250478140069 0.014054936811580496 -0.013151866730405479 0.0030472122303077153 0.0065169254170089463 -0.0048286818462413743 0.0048659833911196748 0.011747388826262566 -0.0034399687302904534 -0.010537873185053465 -0.0043041655954989518 0.00043207597048306948
leaf_weight=69 116 88.5 64.5 28.5 43.5 135.5 91 69.5 118 25.5 22.5
leaf_count=46 21 60 24 7 27 46 15 39 79 16 10
internal_value=0.000244149 -0.00189854 0.00234373 -0.00818264 0.00520212 0.00244955 0.00826125 -0.00975808 -0.00800265 -0.00572799 -0.00203557
internal_weight=872 756 451.5 304.5 334.5 179 155.5 276 187.5 117 48
internal_count=390 369 184 185 112 73 39 178 118 72 26
is_linear=0
shrinkage=0.03


Tree=6
num_leaves=16
num_cat=0
split_feature=9 19 30 2 19 2 34 13 24 25 15 24 32 9 11
split_gain=26.019 15.8931 8.1963 6.37228 3.4982 4.59766 3.90767 3.40453 2.34163 1.95495 1.64862 1.27933 0.694192 0.419107 0.0539918
threshold=78.376768256563935 3269.5549622647081 -1.6368727999688646 964830.36563587619 3307.7789820513772 962431.79967667698 3314.9610538162083 0.92979341094235401 82.910588385470916 26.197595878118239 0.32052235374039439 83.449025581328684 3.7669872092207881 77.241751145063304 25.735634442209189
decision_type=2 2 2 2 2 2 2 2 2 2 2 2 2 2 2
left_child=3 2 12 7 -3 11 -7 13 10 -10 -4 -6 -2 -1 -14
right_child=1 4 8 -5 5 6 -8 -9 9 -11 -12 -13 14 -15 -16
leaf_value=-0.0032895671170333333 -0.00089158129001205627 -0.011772263143910094 0.00062361736290426136 0.016051184304152862 -0.0019716751906089483 -0.010528092579229882 0.0016965149540454148 0.0094006443988818387 0.0038136790796356682 -0.0047066826867621118 0.0078217805408453203 0.0068329706572824054 -0.0080586885827779765 0.0017801486065513209 -0.0048513497514160045
leaf_weight=27 25.5 126 39.5 77 30 112 28 63 57 39 129 25 48 26.5 36
leaf_count=14 13 85 17 10 17 75 10 12 20 25 35 7 32 10 23
internal_value=-0.000251068 -0.00296987 0.00122011 0.00941392 -0.00784755 -0.00518736 -0.00805146 0.00477957 0.00408468 0.000265644 0.00619668 0.0020245 -0.00559466 -0.000696634 -0.00689867
internal_weight=888.5 695 374 193.5 321 195 140 116.5 264.5 96 168.5 55 109.5 53.5 84
internal_count=405 359 165 46 194 109 85 36 97 45 52 24 68 24 55
is_linear=0
shrinkage=0.03


Tree=7
num_leaves=13
num_cat=0
split_feature=10 20 28 21 2 30 2 23 2 33 2 30
split_gain=19.9151 12.7673 8.08187 6.45267 4.09562 4.36667 2.64321 2.64296 2.60282 2.9203 2.33699 0.998675
threshold=78.376768256563935 3269.5549622647081 -1.8525062594344102 103.32092352217218 964830.36563587619 0.9060783039782706 964649.82884617511 84.639209777556744 928835.69071090664 3181.5503503310169 939879.97999360645 -1.6667553571796212
decision_type=2 2 2 2 2 2 2 2 2 2 2 2
left_child=4 2 11 6 5 -1 7 -3 9 -4 -10 -2
right_child=1 3 8 -5 -6 -7 -8 -9 10 -11 -12 -13
leaf_value=-0.0031484304116449397 -0.0073560662944415567 -0.0096441487764692031 0.00093758189285194488 0.0040708475658234123 0.014341467010008321 0.0092469873198618487 0.0010350290265466486 0 -0.0036358055875829929 0.010802918489277362 0.0039326161674391007 -9.463319039115537e-05
leaf_weight=37.5 76.5 257.5 43.5 45 72 70 26 29.5 51 78 115 24
leaf_count=19 51 168 19 15 10 14 9 13 30 14 40 13
internal_value=-7.78032e-05 -0.00224713 0.00150872 -0.00632014 0.00883024 0.00488968 -0.00784946 -0.00867669 0.00407707 0.00739185 0.00155606 -0.00571621
internal_weight=925.5 746 388 358 179.5 107.5 313 287 287.5 121.5 166 100.5
internal_count=415 372 167 205 43 33 190 181 103 33 70 64
is_linear=0
shrinkage=0.03


Tree=8
num_leaves=15
num_cat=0
split_feature=11 19 22 2 2 2 19 19 20 19 2 22 2 11
split_gain=14.029 7.82412 6.92105 5.7922 6.56236 3.49031 7.17887 3.89229 2.62973 1.86165 0.998415 0.85632 0.108382 0.031567
threshold=26.727622419785664 3185.4366870976887 45.48663720651296 964830.36563587619 958316.09573369485 962343.07723132789 3308.5972366477213 3271.356748631234 3314.0683003094973 3311.9510452378699 932650.20179399312 44.269436929437795 962546.38938965206 26.288160221769775
decision_type=2 2 2 2 2 2 2 2 2 2 2 2 2 2
left_child=1 2 13 4 10 6 7 -3 12 -6 -2 -12 -7 -1
right_child=3 5 -4 -5 9 8 -8 -9 -10 -11 11 -13 -14 -15
leaf_value=-0.0061544733708724375 0.0085588510604447682 -0.0021550500757690216 0.0090663176031806798 0.013733763761105744 -0.010698576016859576 -0.0066371256553102286 0.008148058291566505 -0.0096701432504332982 0.0014353306671468224 0.00074099994557244434 0.0056267237115165463 -0.00039573349906848023 -0.011012122235085702 -0.0027941194631159309
leaf_weight=30 71 183 77 55.5 31 26.5 42.5 95.5 18.5 19 55.5 30.5 99 18
leaf_count=20 15 98 16 9 21 18 10 63 6 7 16 15 66 11
internal_value=-0.000467886 -0.00303966 0.00355444 0.00526908 0.00286115 -0.00483275 -0.00303076 -0.004804 -0.00871204 -0.00637485 0.00588347 0.00346222 -0.010254 -0.00517651
internal_weight=852.5 590 125 262.5 207 465 321 278.5 144 50 157 86 125.5 48
internal_count=391 308 47 83 74 261 171 161 90 28 46 31 84 31
is_linear=0
shrinkage=0.03


Tree=9
num_leaves=11
num_cat=0
split_feature=9 19 26 2 2 2 19 14 22 20
split_gain=18.6354 12.6037 6.84035 6.11682 5.08663 4.18281 4.83765 3.3504 1.61984 0.514258
threshold=78.091959911703398 3185.4366870976887 26.889372311775972 925199.68964952091 964830.36563587619 962321.64036368462 3308.4052397333535 0.92044930670145841 43.069454938676529 3314.0683003094973
decision_type=2 2 2 2 2 2 2 2 2 2
left_child=4 3 5 8 7 6 -3 -1 -2 -7
right_child=1 2 -4 -5 -6 9 -8 -9 -10 -11
leaf_value=-0.0015946483351290223 -0.0058921901285648353 -0.0046400577523416338 0.0049252249357935336 0.0095786825937884176 0.014989543938300976 -0.0098629870782743698 0.0069097925910394488 0.0087980265190232207 0.0043741466621073271 -0.0033863081250339743
leaf_weight=46 39 295 63 103 69 150.5 34.5 64 18.5 18
leaf_count=21 26 170 20 20 9 101 9 12 6 9
internal_value=4.94785e-05 -0.00209776 -0.00422306 0.00525447 0.00866511 -0.00540744 -0.00337825 0.00444756 -0.00245227 -0.00925414
internal_weight=900.5 721.5 561 160.5 179 498 329.5 110 57.5 168.5
internal_count=403 361 309 52 42 289 179 33 32 110
is_linear=0
shrinkage=0.03


Tree=10
num_leaves=11
num_cat=0
split_feature=9 19 2 26 2 2 19 34 2 13
split_gain=20.6083 12.9326 5.76088 5.40717 5.22088 4.70882 5.56323 1.12307 1.12084 0.9339
threshold=78.376768256563935 3185.4366870976887 925199.68964952091 26.994738409454488 964830.36563587619 962546.38938965206 3308.4052397333535 3313.9198569895111 942741.55593720172 1.0000000180025095e-35
decision_type=2 2 2 2 2 2 2 2 2 2
left_child=4 2 9 5 8 6 -3 -7 -1 -2
right_child=1 3 -4 -5 -6 7 -8 -9 -10 -11
leaf_value=0.0078959438261324462 -0.004970494479884075 -0.0045101549693652319 0.0092471902655954109 0.0063205678882923997 0.015592917207125068 -0.010338674996272626 0.0046853422547553803 -0.0016808143526315688 0.0019516035566309918 0.0028410525554563941
leaf_weight=66.5 37.5 335.5 117 42 72 122.5 69.5 18 57.5 18.5
leaf_count=15 25 195 23 11 9 82 25 8 21 7
internal_value=0.000579384 -0.00165446 0.00549899 -0.00378262 0.00920641 -0.0045917 -0.00290215 -0.00931075 0.00526185 -0.00227746
internal_weight=956.5 760.5 173 587.5 196 545.5 405 140.5 124 56
internal_count=421 376 55 321 45 310 220 90 36 32
is_linear=0
shrinkage=0.03


Tree=11
num_leaves=11
num_cat=0
split_feature=9 19 34 26 2 25 19 2 28 19
split_gain=20.4806 11.0031 7.73659 6.18347 4.50931 2.85441 1.58769 2.26157 1.44965 0.914135
threshold=77.72816304999634 3269.5549622647081 3314.9610538162083 25.816005455906801 964830.36563587619 26.933588213964459 3307.4649162254332 962487.65254911466 -0.11289896394122136 3220.8065263401609
decision_type=2 2 2 2 2 2 2 2 2 2
left_child=4 3 6 -2 8 9 -3 -8 -1 -5
right_child=1 2 -4 5 -6 -7 7 -9 -10 -11
leaf_value=0.0004723165721604319 -0.0069243652077948118 -0.011611147171199911 0.0055311484320498087 -0.00060075798207444363 0.01457151609743145 0.0075631851882703846 -0.002420686594505287 -0.0092335629319842839 0.0075903277968764303 0.0031012267847892955
leaf_weight=47.5 75 99 39 143 69 75.5 77 116.5 60.5 98.5
leaf_count=19 50 67 11 71 9 19 44 78 12 38
internal_value=-0.00045371 -0.00270135 -0.00670873 0.000689173 0.00862767 0.00254141 -0.00838756 -0.00660569 0.00457977 0.000897591
internal_weight=900.5 723.5 331.5 392 177 317 292.5 193.5 108 241.5
internal_count=418 378 200 178 40 128 189 122 31 109
is_linear=0
shrinkage=0.03


Tree=12
num_leaves=16
num_cat=0
split_feature=9 2 19 19 22 16 1 23 19 30 2 19 9 19 10
split_gain=15.8161 8.80466 10.4761 4.52075 2.84787 2.47861 2.45494 3.35544 2.3218 1.83531 0.580496 0.218285 0.212277 0.111989 0.0547733
threshold=82.198063680545616 964649.82884617511 3269.5549622647081 3188.2166649214728 80.230369488298194 0.19477036848292148 1.0000000180025095e-35 84.462443977807439 3245.1827397585994 -1.0638361026349885 928835.69071090664 3309.2366120091319 84.41125817118153 3307.4728161884077 82.198063680545616
decision_type=2 2 2 2 2 2 2 2 2 2 2 2 2 2 2
left_child=1 2 9 5 13 -2 7 8 -5 -1 -11 14 -13 -4 -8
right_child=3 -3 4 6 -6 -7 11 -9 -10 10 -12 12 -14 -15 -16
leaf_value=-0.00099421674602634294 -0.0034853186162550056 0.012245122324426967 -0.011469219801326593 0.00033020072601931661 0.0031062703302928377 0.0073557274410890978 -0.0055501196250623578 0.0069367944655510088 -0.0070733357522208074 0.0070000941928827533 0.0038509003565061926 -0.0073572855333869265 -0.0022409179727005406 -0.0070696634203195573 -0.0095165347039699536
leaf_weight=43.5 31.5 88 34 55 19 41 22.5 24 111 130.5 127 24 19.5 41.5 103
leaf_count=21 19 13 23 26 6 10 14 7 70 31 45 16 10 28 69
internal_value=3.56142e-05 0.00376089 0.00180591 -0.00412285 -0.00678954 0.00259783 -0.00550358 -0.00306307 -0.00460991 0.00455129 0.00551167 -0.00814435 -0.00539493 -0.00937319 -0.0089507
internal_weight=915 483.5 395.5 431.5 94.5 72.5 359 190 166 301 257.5 169 43.5 75.5 125.5
internal_count=408 167 154 241 57 29 212 103 96 97 76 109 26 51 83
is_linear=0
shrinkage=0.03


Tree=13
num_leaves=13
num_cat=0
split_feature=10 19 2 28 21 2 13 10 29 7 19 12
split_gain=18.5234 7.89471 7.22889 5.60525 4.41058 3.36523 3.10373 2.18467 1.63087 1.41026 1.29102 0.080067
threshold=78.376768256563935 3269.5549622647081 964649.82884617511 -1.8525062594344102 118.53987638285277 964830.36563587619 -0.85977347944507965 83.726969031987281 -0.85245756898987912 64.669602508282352 3307.7789820513772 25.763669001710905
decision_type=2 2 2 2 2 2 2 2 2 2 2 2
left_child=5 3 4 8 10 6 -1 9 11 -5 -3 -2
right_child=1 2 -4 7 -6 -7 -8 -9 -10 -11 -12 -13
leaf_value=-0.0029211583669369037 -0.0070228376242199115 -0.0098248020071369496 0.006100837009831479 0.003082515945829859 0.0042089039103593677 0.013222330426297536 0.0078155484222509758 -0.0026762695951863774 0.0033398349008909082 0.0083720324333099762 -0.0055478136459631584 -0.0040722990289878318
leaf_weight=30.5 54 132 45.5 171.5 30 80 92 41 18.5 66 166 40.5
leaf_count=15 36 89 12 62 9 11 20 23 7 15 101 26
internal_value=0.000403325 -0.00173003 -0.00484176 0.00123291 -0.00640567 0.0084301 0.00509015 0.00352597 -0.00432943 0.00463513 -0.00751519 -0.0059311
internal_weight=967.5 765 373.5 391.5 328 202.5 122.5 278.5 113 237.5 298 94.5
internal_count=426 380 211 169 199 46 35 100 69 77 190 62
is_linear=0
shrinkage=0.03


Tree=14
num_leaves=16
num_cat=0
split_feature=10 19 26 19 2 26 2 28 19 2 28 8 19 11 32
split_gain=18.519 6.52342 5.3886 4.92903 6.9942 4.222 2.87325 2.2734 1.71375 1.70303 1.08147 0.370633 0.267785 0.0533841 0.0346836
threshold=78.376768256563935 3271.356748631234 26.264504391618718 3308.3169419608771 962343.07723132789 26.957113607908639 964830.36563587619 -0.10234034039193367 3181.3230656771179 939879.97999360645 -1.8525062594344102 34.11717142804536 3307.5160416274525 25.64735919512319 2.6948055309889463
decision_type=2 2 2 2 2 2 2 2 2 2 2 2 2 2 2
left_child=6 2 10 12 -5 -6 7 -1 -4 -10 13 -12 -3 -2 -14
right_child=1 3 8 4 5 -7 -8 -9 9 -11 11 -13 14 -15 -16
leaf_value=-0.00036179930742743404 -0.006531367190448301 -0.010460727597804777 0.0068867501791010904 0.007348539777100086 -0.007661356025279082 0.0065259547472000115 0.012835335312820061 0.0082929292977661703 -0.0042292806130152056 0.0033834318565873151 0.0016000824150157302 -0.0031484929213267082 -0.0037472291763871904 -0.0038535114442600923 -0.0076065818019535238
leaf_weight=41 54 92 88.5 52 114 20.5 80 72 33 102.5 34.5 22.5 18 40.5 32.5
leaf_count=18 36 62 22 13 72 5 11 14 21 37 13 14 12 27 22
internal_value=0.000275046 -0.00197766 0.000711335 -0.00505058 -0.00176691 -0.00539109 0.0084647 0.00514886 0.00366723 0.00145123 -0.00361085 -0.000215849 -0.0092227 -0.00554954 -0.00654041
internal_weight=897.5 704.5 375.5 329 186.5 134.5 193 113 224 135.5 151.5 57 142.5 94.5 50.5
internal_count=399 356 170 186 90 77 43 32 80 58 90 27 96 63 34
is_linear=0
shrinkage=0.03


Tree=15
num_leaves=12
num_cat=0
split_feature=2 19 30 21 0 9 2 26 19 2 19
split_gain=11.5414 13.3243 6.81229 5.14432 1.40536 1.37682 1.04838 0.936974 0.66721 0.235763 0.0178235
threshold=964649.82884617511 3269.5549622647081 -1.2409859049652527 118.53987638285277 0.98182534576205316 84.044741544715023 928835.69071090664 25.816005455906801 3307.4610286139264 939879.97999360645 3193.8671685398399
decision_type=2 2 2 2 2 2 2 2 2 2 2
left_child=1 2 7 4 8 6 -4 10 -3 -9 -1
right_child=-2 3 5 -5 -6 -7 -8 9 -10 -11 -12
leaf_value=-0.0043677331872406557 0.0098115046085770607 -0.010113941252766968 0.0065321816422457797 0.0056574144219048318 0 -0.0018138007923262194 0.0029921758924880307 -0.0024886344911432576 -0.0064027433577638392 0.0012648646831512451 -0.0075115098251572147
leaf_weight=28.5 95 81.5 151.5 30 23.5 30 179.5 36 193 21 37.5
leaf_count=19 18 55 38 8 10 16 67 21 124 9 25
internal_value=2.33461e-05 -0.00113574 0.00201714 -0.00579038 -0.00699288 0.00409842 0.00465997 -0.00401117 -0.0075915 -0.00100807 -0.0064106
internal_weight=907 812 484 328 298 361 331 123 274.5 57 66
internal_count=410 392 195 197 189 121 105 74 179 30 44
is_linear=0
shrinkage=0.03


Tree=16
num_leaves=12
num_cat=0
split_feature=2 19 30 22 24 9 19 33 23 28 26
split_gain=14.5435 14.0713 6.85328 3.93469 2.06696 1.46954 1.45315 3.94824 1.23617 0.889555 0.203891
threshold=964649.82884617511 3269.5549622647081 -1.1120453103708554 96.136474973277785 82.932459474675952 82.54586017104846 3307.7789820513772 3308.920007616925 79.875478096422441 -1.8525062594344102 25.643543639806321
decision_type=2 2 2 2 2 2 2 2 2 2 2
left_child=1 2 9 6 8 -6 -3 -8 -4 10 -1
right_child=-2 3 4 -5 5 -7 7 -9 -10 -11 -12
leaf_value=-0.0066013546809554104 0.010374659819766806 -0.0095464575161188277 -0.0016564117714762687 0.0037153025865554806 0.0026011820079496241 -0.0053468200864976844 0.00055404408074861023 -0.0085475468458362687 0.0060953976876267912 0.00071464522375628864 -0.0033051339574861078
leaf_weight=54 103.5 133.5 18 31.5 72.5 27 66.5 112 231.5 27 51
leaf_count=36 18 90 10 10 27 18 34 75 62 11 32
internal_value=-0.000107817 -0.00145287 0.00184835 -0.00607685 0.00405378 0.000322466 -0.00710195 -0.00515495 0.00550357 -0.00391137 -0.00514811
internal_weight=928 824.5 481 343.5 349 99.5 312 178.5 249.5 132 105
internal_count=423 405 196 209 117 45 199 109 72 79 68
is_linear=0
shrinkage=0.03


Tree=17
num_leaves=12
num_cat=0
split_feature=30 19 33 33 19 30 19 30 23 32 28
split_gain=9.40531 6.0752 8.03709 6.40981 3.83823 2.42683 1.87912 1.32008 0.41126 0.250419 0.0813295
threshold=-2.1008834755813548 3185.4366870976887 3315.5326557768512 3308.4372386556674 3308.5972366477213 1.5153532741246034 3171.9860559761964 0.99526048201424522 81.829250466182685 3.9629543366216438 -2.4580188828965368
decision_type=2 2 2 2 2 2 2 2 2 2 2
left_child=8 5 3 4 -3 6 7 -2 -1 -10 -11
right_child=1 2 -4 -5 -6 -7 -8 -9 9 10 -12
leaf_value=-0.0085247883010994303 -0.0046363624104431697 -0.001087652273664221 0.0077155946483884342 -0.0085451704272583359 0.0085511301372732437 0.0099713596995872778 0.0063610582222279749 0.0038057935692015145 -0.0013990196346649495 -0.0035894367275620571 -0.006787468448742149
leaf_weight=64 33 322 93.5 98.5 40 77 74 29.5 21 31.5 46.5
leaf_count=43 21 157 19 66 8 11 17 9 12 21 31
internal_value=5.50495e-05 0.00145495 -0.000196407 -0.00184225 2.0553e-06 0.00572987 0.00318448 -0.000564189 -0.00643789 -0.00488729 -0.00569298
internal_weight=930.5 767.5 554 460.5 362 213.5 136.5 62.5 163 99 78
internal_count=415 308 250 231 165 58 47 30 107 64 52
is_linear=0
shrinkage=0.03


Tree=18
num_leaves=13
num_cat=0
split_feature=9 19 30 19 23 2 14 25 2 28 10 19
split_gain=12.7898 7.06728 4.62199 4.12253 4.38942 3.04873 2.19542 1.6598 1.47858 1.18813 0.722708 0.150569
threshold=78.242467907425493 3269.5549622647081 -1.1414895136680674 3308.1593877497721 84.428668068906873 964830.36563587619 1.0000000180025095e-35 26.933588213964459 962517.21973064984 -1.8712958586364954 82.793829310935806 3307.4610286139264
decision_type=2 2 2 2 2 2 2 2 2 2 2 2
left_child=5 2 9 11 8 6 -1 10 -5 -2 -4 -3
right_child=1 3 7 4 -6 -7 -8 -9 -10 -11 -12 -13
leaf_value=-0.0019230770705267785 -0.0052781307053887958 -0.0094596121333306669 0.0028070135611809629 0.00091132778900710843 0.0070182308726012711 0.011930408208303048 0.0067425705444812776 0.0070057595248677234 -0.0057514012405159584 0.0010963353880814144 -0.0012588432601122097 -0.0064759961831158605
leaf_weight=38 97.5 96 135 37.5 38 69 73 74 116.5 33 51.5 70.5
leaf_count=18 65 65 50 19 11 9 15 17 67 13 26 47
internal_value=-0.000118829 -0.00185298 0.000923278 -0.0048859 -0.00181863 0.00701005 0.00374132 0.00323676 -0.00409964 -0.0036287 0.001651 -0.00832375
internal_weight=929.5 749.5 391 358.5 192 180 111 260.5 154 130.5 186.5 166.5
internal_count=422 380 171 209 97 42 33 93 86 78 76 112
is_linear=0
shrinkage=0.03


Tree=19
num_leaves=13
num_cat=0
split_feature=9 20 26 2 28 20 2 27 2 24 10 0
split_gain=11.3877 9.90352 5.88837 3.41633 2.77496 2.60352 3.29129 2.25383 1.99117 1.14714 0.800648 0.051187
threshold=78.242467907425493 3271.356748631234 26.713654045783944 964830.36563587619 -1.8712958586364954 3307.7971730231934 962360.28009250679 0.17834973679652366 964476.27698393806 81.297332181664828 82.54586017104846 0.61559370248597556
decision_type=2 2 2 2 2 2 2 2 2 2 2 2
left_child=3 2 4 7 11 -3 -7 -1 -8 -4 -6 -2
right_child=1 5 9 -5 10 6 8 -9 -10 -11 -12 -13
leaf_value=-0.0016550806293661672 -0.0031970050105400664 -0.0088387043865914561 0.002782266326519576 0.012826028552548639 0.0028678997241788442 0.0034445958371189505 -0.0072539165404306941 0.0066781322668833902 0.00092125542721022732 0.0087755743464721092 -0.001300583179442937 -0.0056508064841961159
leaf_weight=42.5 37.5 129.5 53 56 106 47.5 116.5 81 32.5 82 63.5 66
leaf_count=20 25 87 17 7 40 19 78 17 11 15 32 44
internal_value=9.98027e-06 -0.00164322 0.00145898 0.0067468 -0.00106179 -0.00552923 -0.00325087 0.00378194 -0.00544242 0.00654141 0.00127431 -0.00489608
internal_weight=913.5 734 408 179.5 273 326 196.5 123.5 149 135 169.5 103.5
internal_count=412 368 173 44 141 195 108 37 89 32 72 69
is_linear=0
shrinkage=0.03


Tree=20
num_leaves=14
num_cat=0
split_feature=10 19 25 11 2 28 21 10 28 7 19 11 16
split_gain=12.0615 6.70857 3.91596 3.42781 3.40039 1.87704 1.81494 1.46194 1.29885 0.847718 0.835141 0.449887 0.0348944
threshold=78.242467907425493 3269.5549622647081 27.627634647619988 26.255440178111126 964830.36563587619 -0.10234034039193367 125.21595455851863 84.30339849502532 -1.8525062594344102 58.12463546743998 3307.4969512747366 26.074648311244111 -1.6672370575740307
decision_type=2 2 2 2 2 2 2 2 2 2 2 2 2
left_child=4 3 6 8 5 -1 10 9 12 -5 -3 -10 -2
right_child=1 2 -4 7 -6 -7 -8 -9 11 -11 -12 -13 -14
leaf_value=-0.00087723460900955466 -0.0049704551441778601 -0.0086772813653280285 0.0071238238557201359 0.0028319446323651146 0.011826123038659224 0.0067039016817103739 0.0028601735101214474 -0.0029696636485810183 0.0018150844223422109 0.0074276207618415354 -0.0049873805886663089 -0.002777061022388247 -0.0021525076970458031
leaf_weight=50 69 96.5 21 97 72 64 19 22.5 67.5 68 201.5 24 18
leaf_count=22 46 65 4 35 10 13 6 13 26 16 122 13 12
internal_value=6.47239e-06 -0.00178499 -0.00482274 0.00101503 0.00676582 0.00336932 -0.00567267 0.00383926 -0.00192802 0.00482812 -0.00625215 0.000512778 -0.00451632
internal_weight=890 704 338 366 186 114 317 187.5 178.5 165 298 91.5 87
internal_count=403 358 197 161 45 35 193 64 97 51 187 39 58
is_linear=0
shrinkage=0.03


Tree=21
num_leaves=16
num_cat=0
split_feature=10 20 32 2 20 2 26 28 2 2 16 24 2 26 20
split_gain=11.0164 8.31363 4.20026 3.48609 2.26621 3.47163 1.67554 1.58774 1.5093 1.8981 1.09891 0.899657 0.782609 0.134403 0.0181858
threshold=78.455321557902195 3271.356748631234 3.5457017381489329 964830.36563587619 3307.6968763485652 962458.85146405257 26.861251384942296 -0.10234034039193367 928835.69071090664 939879.97999360645 -0.68624224331670469 83.449025581328684 926392.00140437984 25.589255431891939 3307.466922337871
decision_type=2 2 2 2 2 2 2 2 2 2 2 2 2 2 2
left_child=3 2 8 7 14 11 -7 -1 12 -10 13 -6 -2 -4 -3
right_child=1 4 10 -5 5 6 -8 -9 9 -11 -12 -13 -14 -15 -16
leaf_value=-0.00094773859092008278 0.0029728182393770949 -0.0090693801555404054 -0.0059269868391752245 0.011270838379085839 -0.00097095130855189774 -0.0073683093621170724 0.00057822216600179671 0.0058735764837690762 -0.0034637611840574187 0.0040706593737051613 0.0012649068023207822 0.005832122020316975 0.0083822757154703147 -0.0029847975137829779 -0.0060124620230574358
leaf_weight=51.5 50 91.5 48 75 31.5 114 28 68 45 80 37.5 33 64 48 36
leaf_count=22 17 62 32 10 19 75 10 16 27 25 16 9 11 31 24
internal_value=-2.74096e-05 -0.00177707 0.00129022 0.0062509 -0.0052031 -0.00316441 -0.00577345 0.00291725 0.00367143 0.00129919 -0.00291974 0.00249019 0.00615359 -0.00460805 -0.00835877
internal_weight=901 706.5 372.5 194.5 334 206.5 142 119.5 239 125 133.5 64.5 114 96 127.5
internal_count=406 358 159 48 199 113 85 38 80 52 79 28 28 63 86
is_linear=0
shrinkage=0.03


Tree=22
num_leaves=13
num_cat=0
split_feature=9 19 2 2 19 19 2 2 13 30 2 18
split_gain=7.79556 6.70841 3.69351 2.10669 4.95739 2.53012 2.02113 1.87957 1.83402 1.11967 0.136991 0.000425343
threshold=78.242467907425493 3186.8229123817773 925199.68964952091 962343.07723132789 3308.4052397333535 3271.356748631234 964830.36563587619 964476.27698393806 1.0171971499761849 1.0839467063517672 962711.4541536828 3.909477008931475
decision_type=2 2 2 2 2 2 2 2 2 2 2 2
left_child=6 2 9 4 5 -3 8 10 -1 11 -5 -2
right_child=1 3 -4 7 -6 -7 -8 -9 -10 -11 -12 -13
leaf_value=-0.0010155664803208533 -0.0050751588867860844 -0.0013107293002898011 0.0068724731398284973 -0.0047429490052163592 0.0068103072655082931 -0.0071230241582421455 0.0098111871679623913 0.00035127665164570016 0.0065401721950304713 0.0033666216945648191 -0.0079523753516184976 -0.0024989156709160913
leaf_weight=53.5 30 203 107 39 48.5 102.5 61 34 57 23 115 19.5
leaf_count=23 19 105 23 26 12 69 8 12 11 7 77 12
internal_value=-0.000242049 -0.00161748 0.00336713 -0.00328562 -0.00187959 -0.003314 0.00546173 -0.00585391 0.00287561 -0.00177136 -0.00724929 -0.00431324
internal_weight=893 721.5 179.5 542 354 305.5 171.5 188 110.5 72.5 154 49.5
internal_count=404 362 61 301 186 174 42 115 34 38 103 31
is_linear=0
shrinkage=0.03


Tree=23
num_leaves=11
num_cat=0
split_feature=5 19 30 21 23 24 19 5 32 19
split_gain=9.18309 9.63076 4.87207 3.22913 0.956482 1.27587 0.639178 1.49166 0.20399 0.100573
threshold=3316.0298208503896 3269.5549622647081 -1.4047082756470519 118.53987638285277 79.875478096422441 82.910588385470916 3307.4610286139264 3308.3169419608771 3.7544282831695521 3272.1098829397647
decision_type=2 2 2 2 2 2 2 2 2 2
left_child=1 2 8 6 -4 -6 9 -8 -1 -3
right_child=-2 3 4 -5 5 -7 7 -9 -10 -11
leaf_value=-0.0010368728370082623 0.008283726743426742 -0.0056482916446668752 -0.0018163268042021782 0.0037576030777461493 0.0051360867692510012 0.0011250114800626194 -0.0011200743121142587 -0.0068100905628918212 -0.0047795568832196293 -0.0094675581246614453
leaf_weight=22.5 106.5 33 27 31.5 220 113.5 66.5 127 78 58
leaf_count=12 19 22 14 9 59 47 38 85 52 39
internal_value=0.000100962 -0.0010313 0.00172291 -0.00505374 0.00335856 0.00380373 -0.0060697 -0.00491676 -0.00403676 -0.00829832
internal_weight=883.5 777 461 316 360.5 333.5 284.5 193.5 100.5 91
internal_count=396 377 184 193 120 106 184 123 64 61
is_linear=0
shrinkage=0.03


Tree=24
num_leaves=11
num_cat=0
split_feature=11 12 9 2 19 2 2 0 26 22
split_gain=11.7975 5.74818 2.89658 3.04884 4.12355 1.84522 2.39819 0.765983 0.611413 0.261699
threshold=27.772622438683737 26.72477882873731 78.242467907425493 962487.65254911466 3308.4052397333535 951304.50922833837 964649.82884617511 -0.66312265824079508 27.155254969635031 46.768777574767647
decision_type=2 2 2 2 2 2 2 2 2 2
left_child=1 2 -1 4 -4 7 9 -3 -9 -7
right_child=-2 5 3 -5 -6 6 -8 8 -10 -11
leaf_value=0.0031304774067893223 0.01381955022407028 0.0070572413108120225 -0.003170229002340234 -0.0073780063758661718 0.0052688538998548612 -0.0018070113693292324 0.0050597723629930381 0.0010263633004466248 0.0058415403798222536 -0.0066711572428218655
leaf_weight=72 51 71 345.5 119.5 59 24 36.5 71 38 28.5
leaf_count=18 7 13 198 79 19 13 8 27 9 19
internal_value=7.35541e-05 -0.000759993 -0.0024064 -0.00318761 -0.00190469 0.00285651 -0.000611553 0.00459211 0.00283411 -0.00470555
internal_weight=916 865 596 524 404.5 269 89 180 109 52.5
internal_count=410 403 314 296 217 89 40 49 36 32
is_linear=0
shrinkage=0.03


end of trees

feature_importances:
city_estimated_population=65
city_area_weighted_pop_density_lag20=54
city_area_weighted_v_component_of_wind_10m_rollmean_lag1_w8=20
city_area_weighted_u_component_of_wind_10m_rollmean_lag1_w8=17
city_area_weighted_rh_lag15=15
city_area_weighted_temp_c_rollmean_lag1_w8=14
city_area_weighted_rh_lag16=11
city_area_weighted_pop_density_lag19=10
city_area_weighted_rainfall_rollmean_lag1_w4=10
city_pop_density=9
city_area_weighted_rh_rollmean_lag1_w8=9
city_area_weighted_temp_c_lag7=8
city_area_weighted_wind_speed_10m_rollmean_lag1_w8=7
city_area_weighted_rainfall_rollmean_lag1_w8=6
city_area_weighted_rh_rollmean_lag1_w4=6
city_area_weighted_u_component_of_wind_10m_lag1=5
city_area_weighted_temp_c_rollmean_lag1_w4=5
week_sin=4
city_area_weighted_pop_density_rollmean_lag1_w4=4
city_area_weighted_pop_density_rollmean_lag1_w8=4
city_area_weighted_v_component_of_wind_10m_lag3=3
city_area_weighted_rainfall_lag15=2
city_area_weighted_temp_c_lag6=2
city_area_weighted_u_component_of_wind_10m_lag2=2
city_area_weighted_v_component_of_wind_10m_lag1=2
city_area_weighted_u_component_of_wind_10m_rollmean_lag1_w4=2
week_cos=1
city_area_weighted_rainfall_lag17=1
city_area_weighted_wind_speed_10m_lag7=1
city_area_weighted_v_component_of_wind_10m_rollmean_lag1_w4=1

parameters:
[boosting: gbdt]
[objective: regression]
[metric: rmse]
[tree_learner: serial]
[device_type: cpu]
[data_sample_strategy: bagging]
[data: ]
[valid: ]
[num_iterations: 25]
[learning_rate: 0.03]
[num_leaves: 63]
[num_threads: 0]
[seed: 0]
[deterministic: 0]
[force_col_wise: 1]
[force_row_wise: 0]
[histogram_pool_size: -1]
[max_depth: 5]
[min_data_in_leaf: 12]
[min_sum_hessian_in_leaf: 0.001]
[bagging_fraction: 0.8]
[pos_bagging_fraction: 1]
[neg_bagging_fraction: 1]
[bagging_freq: 1]
[bagging_seed: 3]
[bagging_by_query: 0]
[feature_fraction: 0.8]
[feature_fraction_bynode: 1]
[feature_fraction_seed: 2]
[extra_trees: 0]
[extra_seed: 6]
[early_stopping_round: 0]
[early_stopping_min_delta: 0]
[first_metric_only: 0]
[max_delta_step: 0]
[lambda_l1: 0.2]
[lambda_l2: 2]
[linear_lambda: 0]
[min_gain_to_split: 0]
[drop_rate: 0.1]
[max_drop: 50]
[skip_drop: 0.5]
[xgboost_dart_mode: 0]
[uniform_drop: 0]
[drop_seed: 4]
[top_rate: 0.2]
[other_rate: 0.1]
[min_data_per_group: 100]
[max_cat_threshold: 32]
[cat_l2: 10]
[cat_smooth: 10]
[max_cat_to_onehot: 4]
[top_k: 20]
[monotone_constraints: ]
[monotone_constraints_method: basic]
[monotone_penalty: 0]
[feature_contri: ]
[forcedsplits_filename: ]
[refit_decay_rate: 0.9]
[cegb_tradeoff: 1]
[cegb_penalty_split: 0]
[cegb_penalty_feature_lazy: ]
[cegb_penalty_feature_coupled: ]
[path_smooth: 0]
[interaction_constraints: ]
[verbosity: -1]
[saved_feature_importance_type: 0]
[use_quantized_grad: 0]
[num_grad_quant_bins: 4]
[quant_train_renew_leaf: 0]
[stochastic_rounding: 1]
[linear_tree: 0]
[max_bin: 255]
[max_bin_by_feature: ]
[min_data_in_bin: 3]
[bin_construct_sample_cnt: 200000]
[data_random_seed: 1]
[is_enable_sparse: 1]
[enable_bundle: 1]
[use_missing: 1]
[zero_as_missing: 0]
[feature_pre_filter: 1]
[pre_partition: 0]
[two_round: 0]
[header: 0]
[label_column: ]
[weight_column: ]
[group_column: ]
[ignore_column: ]
[categorical_feature: ]
[forcedbins_filename: ]
[precise_float_parser: 0]
[parser_config_file: ]
[objective_seed: 5]
[num_class: 1]
[is_unbalance: 0]
[scale_pos_weight: 1]
[sigmoid: 1]
[boost_from_average: 1]
[reg_sqrt: 0]
[alpha: 0.9]
[fair_c: 1]
[poisson_max_delta_step: 0.7]
[tweedie_variance_power: 1.5]
[lambdarank_truncation_level: 30]
[lambdarank_norm: 1]
[label_gain: ]
[lambdarank_position_bias_regularization: 0]
[eval_at: ]
[multi_error_top_k: 1]
[auc_mu_weights: ]
[num_machines: 1]
[local_listen_port: 12400]
[time_out: 120]
[machine_list_filename: ]
[machines: ]
[gpu_platform_id: -1]
[gpu_device_id: -1]
[gpu_use_dp: 0]
[num_gpu: 1]

end of parameters
