tree
version=v4
num_class=1
num_tree_per_iteration=1
label_index=0
max_feature_idx=56
objective=regression
feature_names=week_sin week_cos city_estimated_population city_area_m2 city_area_km2 city_pop_density n_barangays_reported city_area_weighted_rainfall_lag20 city_area_weighted_rainfall_lag14 city_area_weighted_rh_lag14 city_area_weighted_rh_lag15 city_area_weighted_temp_c_lag6 city_area_weighted_temp_c_lag5 city_area_weighted_u_component_of_wind_10m_lag1 city_area_weighted_u_component_of_wind_10m_lag2 city_area_weighted_v_component_of_wind_10m_lag2 city_area_weighted_v_component_of_wind_10m_lag1 city_area_weighted_wind_speed_10m_lag5 city_area_weighted_wind_speed_10m_lag6 city_area_weighted_pop_density_lag20 city_area_weighted_pop_density_lag19 city_area_weighted_rainfall_rollmean_lag1_w4 city_area_weighted_rainfall_rollmean_lag1_w8 city_area_weighted_rh_rollmean_lag1_w4 city_area_weighted_rh_rollmean_lag1_w8 city_area_weighted_temp_c_rollmean_lag1_w4 city_area_weighted_temp_c_rollmean_lag1_w8 city_area_weighted_u_component_of_wind_10m_rollmean_lag1_w4 city_area_weighted_u_component_of_wind_10m_rollmean_lag1_w8 city_area_weighted_v_component_of_wind_10m_rollmean_lag1_w4 city_area_weighted_v_component_of_wind_10m_rollmean_lag1_w8 city_area_weighted_wind_speed_10m_rollmean_lag1_w4 city_area_weighted_wind_speed_10m_rollmean_lag1_w8 city_area_weighted_pop_density_rollmean_lag1_w4 city_area_weighted_pop_density_rollmean_lag1_w8 city_area_weighted_flood_risk_index_rollmean_lag1_w4 city_area_weighted_flood_risk_index_rollmean_lag1_w8 city_area_weighted_percent_annual_crop_rollmean_lag1_w4 city_area_weighted_percent_annual_crop_rollmean_lag1_w8 city_area_weighted_percent_brush_shrubs_rollmean_lag1_w4 city_area_weighted_percent_brush_shrubs_rollmean_lag1_w8 city_area_weighted_percent_built_up_rollmean_lag1_w4 city_area_weighted_percent_built_up_rollmean_lag1_w8 city_area_weighted_percent_inland_water_rollmean_lag1_w4 city_area_weighted_percent_inland_water_rollmean_lag1_w8 city_area_weighted_percent_open_forest_rollmean_lag1_w4 city_area_weighted_percent_open_forest_rollmean_lag1_w8 city_area_weighted_percent_perennial_crop_rollmean_lag1_w4 city_area_weighted_percent_perennial_crop_rollmean_lag1_w8 city_area_weighted_percent_open_barren_rollmean_lag1_w4 city_area_weighted_percent_open_barren_rollmean_lag1_w8 city_area_weighted_percent_fishpond_rollmean_lag1_w4 city_area_weighted_percent_fishpond_rollmean_lag1_w8 city_area_weighted_percent_grassland_rollmean_lag1_w4 city_area_weighted_percent_grassland_rollmean_lag1_w8 city_area_weighted_percent_mangrove_forest_rollmean_lag1_w4 city_area_weighted_percent_mangrove_forest_rollmean_lag1_w8
feature_infos=[-1:1] [-1:1] [909262.48027323559:966180.06138856919] none none [3125.6331669833721:3321.2900682393138] none [0:403.77764092016611] [0:403.77764092016611] [74.166209495041301:89.224799485777211] [74.166209495041301:89.224799485777211] [24.178433964655767:28.356173140545412] [24.178433964655767:28.356173140545412] [-4.5717681780699149:4.5737076280135769] [-4.5717681780699149:4.5737076280135769] [-6.2680500182560719:5.1247667214851038] [-6.2680500182560719:5.1247667214851038] [1.39564484944224:6.8002328204854665] [1.39564484944224:6.8002328204854665] [3125.6331669833717:3316.5449740813001] [3125.6331669833717:3316.7558752795157] [0.06597045822318269:149.02606250490396] [0.34670367581884309:119.23124797939784] [75.920732847159741:87.36324422781334] [76.483294868292248:86.237507786239505] [24.524834464421016:28.067998122101869] [24.646253660584854:27.823998304699263] [-3.4486736035175789:3.6280013469861503] [-3.1133143420372855:3.131422920161175] [-4.48361272930451:3.4734894156434146] [-3.8559405516430854:3.0795858777581708] [1.7342058228275261:5.7925001460518359] [1.9506388693011207:5.3170040362056081] [3126.4705697467193:3320.6366538472894] [3128.1510842727353:3320.1312568991611] none none none none none none none none none none none none none none none none none none none none none none
tree_sizes=1244 1110 1217 1042 1207 1032 1183 1025 1284 1106 1387 1332 1212 1041 1025 1033 1196 940 1402 1302 1031 1206 1313 1009 1207 1118 1028 1218 1036 1139 1340 1031

Tree=0
num_leaves=13
num_cat=0
split_feature=9 19 30 19 2 2 13 24 2 28 26 19
split_gain=32.0942 19.7767 14.5366 12.0221 9.18899 8.09055 4.90956 4.06466 3.27127 1.92658 0.765974 0.512029
threshold=78.242467907425493 3269.5549622647081 -1.4047082756470519 3308.4052397333535 964769.40538720263 962354.67382790719 1.0000000180025095e-35 82.681404577709159 958686.6879733383 -1.8525062594344102 26.702580872417148 3307.4610286139264
decision_type=2 2 2 2 2 2 2 2 2 2 2 2
left_child=4 2 9 11 6 -5 8 -4 -1 -2 -8 -3
right_child=1 3 7 5 -6 -7 10 -9 -10 -11 -12 -13
leaf_value=0.58331922905660927 0.57522465408094758 0.57084289790498077 0.58587121082833993 0.58557308879545933 0.59375081742901703 0.5766915246619605 0.58864199097897119 0.58114956710523857 0.57194311485031191 0.58188498028419022 0.58438366093133975 0.57360786750656512
leaf_weight=24.5 109.5 100.5 202 54.5 69 151.5 58 115.5 14.999999999999998 19.5 32.5 83.5
leaf_count=9 73 68 60 15 9 85 10 54 10 8 10 56
internal_value=0.58072 0.578999 0.581869 0.575716 0.587906 0.579068 0.584677 0.58417 0.578882 0.576248 0.587218 0.572019
internal_weight=1035.5 836.5 446.5 390 199 206 130 317.5 39.5 129 90.5 184
internal_count=467 419 195 224 48 100 39 114 19 81 20 124
is_linear=0
shrinkage=1


Tree=1
num_leaves=11
num_cat=0
split_feature=9 19 30 5 34 13 24 21 28 24
split_gain=39.2768 26.0597 12.5492 9.22911 7.03528 4.77659 3.89025 3.00704 1.84492 1.29332
threshold=78.242467907425493 3267.7613587176597 -1.4047082756470519 3316.4408709165004 3314.7739931947485 -0.85977347944507965 82.910588385470916 118.53987638285277 -1.8525062594344102 82.122245112903826
decision_type=2 2 2 2 2 2 2 2 2 2
left_child=3 2 8 5 7 -1 -4 -3 -2 -7
right_child=1 4 6 -5 -6 9 -8 -9 -10 -11
leaf_value=-0.0028803815305233006 -0.0053621974791881544 -0.0074775110711669847 0.0046877621453500391 0.012991884261939176 0.002418682588657863 0.0030625340051949022 -0.00017573251559379252 0.00039805012525514122 0.001392205672386365 0.0079873420545297068
leaf_weight=28.5 102 312.5 219 77 34 38.5 92.5 20 18 63
leaf_count=15 68 202 68 10 12 13 45 8 7 10
internal_value=-0.000183892 -0.00220166 0.00112539 0.00754502 -0.00611282 0.00419219 0.00324324 -0.00699814 -0.0043279 0.00621053
internal_weight=1005 798 431.5 207 366.5 130 311.5 332.5 120 101.5
internal_count=458 410 188 48 222 38 113 210 75 23
is_linear=0
shrinkage=0.02


Tree=2
num_leaves=12
num_cat=0
split_feature=10 19 30 2 2 19 14 24 28 2 24
split_gain=30.6703 19.5503 13.7541 10.1088 7.25691 5.09476 4.5377 4.08592 1.57554 1.18149 1.15626
threshold=78.376768256563935 3269.5549622647081 -1.4047082756470519 964591.20627265063 964769.40538720263 3308.2310815122751 -0.85755493948904971 82.681404577709159 -1.8525062594344102 959244.61074296036 82.161725159164959
decision_type=2 2 2 2 2 2 2 2 2 2 2
left_child=4 2 8 5 6 -3 9 -4 -2 -1 -8
right_child=1 3 7 -5 -6 -7 10 -9 -10 -11 -12
leaf_value=0.00062673037273939267 -0.0052753188089585635 -0.0084902356289500418 0.0052385473800659697 0.0047032746680271929 0.012021960261727676 -0.0034442584667187066 0.0032130335783481265 0.00051016602971974538 0.00076844952787671775 -0.0069122861071869183 0.0076352783163932906
leaf_weight=20 105 170.5 198 37.5 72 159.5 43 117.5 19.5 11.999999999999998 71.5
leaf_count=8 70 114 56 11 10 86 15 54 8 8 13
internal_value=0.000232434 -0.0015665 0.0012732 -0.00496319 0.00685513 -0.006084 0.00420618 0.00349464 -0.00431495 -0.00232362 0.00605479
internal_weight=1026 807.5 440 367.5 218.5 330 146.5 315.5 124.5 32 114.5
internal_count=453 399 188 211 54 200 44 110 78 16 28
is_linear=0
shrinkage=0.02


Tree=3
num_leaves=10
num_cat=0
split_feature=7 26 2 29 2 19 2 18 2
split_gain=33.5919 8.36185 11.6408 8.20778 6.90063 18.1608 2.31472 2.29384 0.404495
threshold=8.3448225446294781 27.295659280002706 962335.65221887466 -2.2400403413466283 964769.40538720263 3258.9155854210903 929528.54266158096 3.2079336398972056 962626.05838013522
decision_type=2 2 2 2 2 2 2 2 2
left_child=4 2 3 -2 5 6 -1 -7 -4
right_child=1 -3 8 -5 -6 7 -8 -9 -10
leaf_value=0.0071314759875865698 -0.0067018704724493361 0.010804037734440395 -0.0054249222370117535 -0.00018801391321168247 0.009768222090330991 -0.0088427061316478667 0.0028061042229963256 -0.0012240057773245819 -0.0084694850860111207
leaf_weight=163 97 15.999999999999998 39 364.5 81 40 77.5 27.5 123
leaf_count=34 64 3 26 169 13 27 28 14 82
internal_value=-1.72981e-05 -0.00283625 -0.00321457 -0.00157872 0.00460492 0.00319981 0.00577194 -0.00586186 -0.00780526
internal_weight=1028.5 639.5 623.5 461.5 389 308 240.5 67.5 162
internal_count=460 344 341 233 116 103 62 41 108
is_linear=0
shrinkage=0.02


Tree=4
num_leaves=12
num_cat=0
split_feature=9 19 30 19 33 5 13 24 28 24 19
split_gain=31.9285 19.2607 12.9373 8.2845 9.98594 7.42914 4.22934 3.35582 1.69295 1.43933 0.461626
threshold=78.242467907425493 3269.5549622647081 -1.4047082756470519 3308.4052397333535 3308.233207547773 3316.4408709165004 -0.85977347944507965 82.910588385470916 -1.8525062594344102 82.122245112903826 3307.4610286139264
decision_type=2 2 2 2 2 2 2 2 2 2 2
left_child=5 2 8 10 -5 6 -1 -4 -2 -8 -3
right_child=1 3 7 4 -6 -7 9 -9 -10 -11 -12
leaf_value=-0.0028367859085400905 -0.0051859749496767395 -0.0092863327026367192 0.0046300719576245417 0.005018464838692901 -0.0050505869997743988 0.011699625798851062 0.0024035100087523463 8.3540406423745708e-05 0.0010388196983507701 0.0074747864299350309 -0.0066877048965762647
leaf_weight=28.5 112.5 103.5 208 53 140.5 77 38.5 95.5 19.5 66 83.5
leaf_count=15 75 70 63 14 84 10 13 45 8 11 56
internal_value=-0.000134768 -0.00192842 0.000939857 -0.00520732 -0.00226501 0.00678962 0.00383335 0.00321345 -0.00425008 0.00568574 -0.00819904
internal_weight=1026 816 435.5 380.5 193.5 210 133 303.5 132 104.5 187
internal_count=464 415 191 224 98 49 39 108 83 24 126
is_linear=0
shrinkage=0.02


Tree=5
num_leaves=10
num_cat=0
split_feature=7 26 2 10 20 2 2 2 31
split_gain=29.7079 15.2959 9.46115 8.21289 7.98098 3.95927 13.6134 0.764574 0.34192
threshold=8.3448225446294781 27.295659280002706 962354.67382790719 83.300769738570722 3308.6988752452285 964769.40538720263 951130.05767330003 947022.21611837717 4.8977816146685571
decision_type=2 2 2 2 2 2 2 2 2
left_child=3 2 4 5 -2 6 -1 -5 -4
right_child=1 -3 8 7 -6 -7 -8 -9 -10
leaf_value=0.0064852188196685388 -0.0027721056501148833 0.011162560119003547 -0.0079717699901484858 -0.00086526825129985808 0.0060072193139273193 0.0093114945151589138 -0.0047920605766552469 -0.0059527277363671206 -0.0034285753656316687
leaf_weight=207 411.5 29 139.5 28.5 44.5 81 52.5 21 11.999999999999998
leaf_count=46 227 5 93 15 10 13 30 13 8
internal_value=0 -0.00266206 -0.00335115 0.0043364 -0.00189409 0.00544326 0.0041816 -0.0031744 -0.00766213
internal_weight=1026.5 636.5 607.5 390 456 340.5 259.5 49.5 151.5
internal_count=460 343 338 117 237 89 76 28 101
is_linear=0
shrinkage=0.02


Tree=6
num_leaves=12
num_cat=0
split_feature=9 19 30 2 19 33 13 24 32 1 19
split_gain=32.3027 19.5049 11.6105 7.25659 7.08029 9.14851 4.34921 4.27987 1.31831 1.14866 0.349702
threshold=78.242467907425493 3269.5549622647081 -1.4047082756470519 964769.40538720263 3308.2310815122751 3308.233207547773 -0.85977347944507965 82.910588385470916 3.6226773922101305 -0.85421994577343285 3307.4610286139264
decision_type=2 2 2 2 2 2 2 2 2 2 2
left_child=3 2 8 6 10 -6 -1 -4 -2 -8 -3
right_child=1 4 7 -5 5 -7 9 -9 -10 -11 -12
leaf_value=-0.0029281695942083995 0 -0.0090999005671164295 0.0046608327628202637 0.011375016455016386 0.0047440133835505516 -0.0050463428463976261 0.0027004264973104005 -0.00042543594021546212 -0.0050895853901458026 0.0072690499412070078 -0.0066034238142402548
leaf_weight=28.5 25.5 99 217.5 85 50 146 38.5 93.5 99 68 74.5
leaf_count=15 12 67 65 11 14 88 13 47 66 11 50
internal_value=5.62588e-05 -0.00179983 0.00106375 0.00682307 -0.00517094 -0.00252161 0.00384887 0.00313058 -0.0040591 0.00569644 -0.00810514
internal_weight=1025 805 435.5 220 369.5 196 135 311 124.5 106.5 173.5
internal_count=459 409 190 50 219 102 39 112 78 24 117
is_linear=0
shrinkage=0.02


Tree=7
num_leaves=10
num_cat=0
split_feature=2 20 30 1 20 33 2 28 20
split_gain=28.7222 30.9732 13.3518 5.9675 4.66442 12.0825 4.28781 1.6505 0.0812763
threshold=964591.20627265063 3269.5549622647081 -1.4047082756470519 -0.88545602565320969 3307.7789820513772 3308.5652377469519 928697.85537539248 -1.8525062594344102 3307.4610286139264
decision_type=2 2 2 2 2 2 2 2 2
left_child=1 2 7 -2 8 -6 -4 -1 -3
right_child=3 4 6 -5 5 -7 -8 -9 -10
leaf_value=-0.0049051287654140185 0.013171041328488415 -0.0090422070318901988 0.0055359452957130344 0.0040781235160498785 0.0024856867383999432 -0.0073552087179097258 0.0014219448208636683 0.00078787203483721786 -0.0067948436110910736
leaf_weight=105 64 106.5 206 56.5 77 136 204 24 48
leaf_count=70 8 72 52 15 30 91 84 10 32
internal_value=-8.29078e-05 -0.00130893 0.00174026 0.00902651 -0.00577539 -0.00379587 0.00350648 -0.00383376 -0.00842887
internal_weight=1027 906.5 539 120.5 367.5 213 410 129 154.5
internal_count=464 441 216 23 225 121 136 80 104
is_linear=0
shrinkage=0.02


Tree=8
num_leaves=13
num_cat=0
split_feature=10 26 19 28 2 2 26 19 27 0 2 22
split_gain=25.9405 16.8294 6.82425 6.14061 6.0153 5.34498 5.34111 4.36362 3.05703 1.65466 1.6264 0.0247367
threshold=78.242467907425493 26.707794146739129 3269.5549622647081 -1.8525062594344102 964769.40538720263 941141.56092325097 27.249117132485736 3308.2310815122751 0.23917965089442589 -0.35460488704253573 958686.6879733383 59.851031902060242
decision_type=2 2 2 2 2 2 2 2 2 2 2 2
left_child=4 2 3 -2 8 9 -7 -4 10 -3 -1 -10
right_child=1 5 7 -5 -6 6 -8 -9 11 -11 -12 -13
leaf_value=0.0022757448817750342 -0.00466892342524224 0.0089503663573602243 -0.007724038707014041 0.0012239400111752879 0.010680475343224461 -0.0029958311393346688 0.0077937048503330776 -0.0028521453701330973 0.0050419814948794205 0.0039414069081005988 -0.0050211924905371342 0.007262171884519714
leaf_weight=36.5 114 48 153 180.5 80 71.5 23 149 38 71.5 16.5 33.5
leaf_count=13 76 7 103 75 11 39 4 80 10 21 10 6
internal_value=8.63653e-05 -0.00151983 -0.00324601 -0.00106251 0.00642665 0.00327154 -0.000268228 -0.00535292 0.00358279 0.00605592 -3.49204e-05 0.00623746
internal_weight=1015 810.5 596.5 294.5 204.5 214 94.5 302 124.5 119.5 53 71.5
internal_count=455 405 334 151 50 71 43 183 39 28 23 16
is_linear=0
shrinkage=0.02


Tree=9
num_leaves=11
num_cat=0
split_feature=9 19 30 34 2 19 14 24 28 7
split_gain=25.653 15.3683 10.6871 9.82782 6.31548 3.6265 3.41773 3.06224 1.31335 0.844671
threshold=78.242467907425493 3269.5549622647081 -1.4047082756470519 3314.7739931947485 964769.40538720263 3308.2310815122751 -0.85755493948904971 82.910588385470916 -1.8525062594344102 1.8188527514214077
decision_type=2 2 2 2 2 2 2 2 2 2
left_child=4 2 8 5 6 -3 -1 -4 -2 -8
right_child=1 3 7 -5 -6 -7 9 -9 -10 -11
leaf_value=-0.0021716075353324414 -0.0048478416907038668 -0.007663689913770309 0.0043200551785310785 0.0041884435081731789 0.010822782674412819 -0.0033930389524620269 0.0067577380970234181 2.715156495873698e-05 0.0010494509376585484 0.0028456714550654095
leaf_weight=30.5 102 172 216.5 45 77 159 64 97 16.5 42
leaf_count=15 68 116 65 14 10 88 11 46 7 14
internal_value=0.000129648 -0.00149955 0.0010694 -0.00444893 0.00627217 -0.00564281 0.00360092 0.00300459 -0.00400718 0.00528761
internal_weight=1021.5 808 432 376 213.5 331 136.5 313.5 118.5 106
internal_count=454 404 186 218 50 204 40 111 75 25
is_linear=0
shrinkage=0.02


Tree=10
num_leaves=14
num_cat=0
split_feature=7 2 32 10 24 2 2 12 19 19 27 2 2
split_gain=23.2825 8.41947 7.41874 6.697 4.84833 3.57558 9.9735 1.51425 1.09538 1.06052 0.630852 0.477632 0.172673
threshold=8.3448225446294781 962449.84019096359 3.7872199971658236 83.300769738570722 84.145042965273532 932939.92576212331 964591.20627265063 27.095717308643518 3309.2366120091319 3175.9429618147383 1.9727846463117216 947022.21611837717 962626.05838013522
decision_type=2 2 2 2 2 2 2 2 2 2 2 2 2
left_child=3 2 4 5 -2 9 -7 12 -4 -1 11 -5 -3
right_child=1 7 8 10 -6 6 -8 -9 -10 -11 -12 -13 -14
leaf_value=0.0049836309985805518 -0.0010840181405814189 -0.0047857675680092401 -0.0054942616128891295 -0.0018203866247619902 0.0045326477232389148 -0.0011610499207393916 0.0082332690977281135 -0.00013964632472821645 0 0.0088446282756571865 0.00048950587908426924 -0.0066422284505306154 -0.0080223695050488722
leaf_weight=66.5 263.5 19.5 146.5 19.5 78.5 107 76 12.499999999999998 16.5 72 13.499999999999998 18 109.5
leaf_count=16 131 13 96 11 22 50 13 6 9 9 5 12 73
internal_value=-0.000387152 -0.00268171 -0.00145866 0.00358466 0.000213528 0.00465347 0.00276479 -0.0069716 -0.00494929 0.00707834 -0.00305541 -0.0043526 -0.00760907
internal_weight=1019 646.5 505 372.5 342 321.5 183 141.5 163 138.5 51 37.5 129
internal_count=466 350 258 116 153 88 63 92 105 25 28 23 86
is_linear=0
shrinkage=0.02


Tree=11
num_leaves=13
num_cat=0
split_feature=7 32 2 2 2 34 2 0 25 2 28 23
split_gain=22.6635 6.71946 6.05708 14.4557 5.99561 7.34776 4.28393 2.9353 2.30508 1.64656 1.17679 0.556285
threshold=8.3448225446294781 3.7872199971658236 964769.40538720263 954849.32328886644 962354.67382790719 3314.7739931947485 962260.18877937715 -0.66312265824079508 26.106495671999614 963103.11760088603 2.4741880256293052 80.820469304780346
decision_type=2 2 2 2 2 2 2 2 2 2 2 2
left_child=2 4 3 8 6 -6 -2 -4 -1 -5 11 -3
right_child=1 10 7 9 5 -7 -8 -9 -10 -11 -12 -13
leaf_value=-0.0025786200183810608 -0.00026632894606491405 -0.0072646103816032407 0.0029295960994867184 -0.0078452826677536478 -0.0073757256269454952 0.0083257232853876702 0.0073586701026329623 0.010687806413373874 0.0052336902268640094 0.00011803979533059256 0.00039408679381012921 -0.0046636493453353425
leaf_weight=14.999999999999998 312 61 31 47.5 82.5 12.499999999999998 31 64 217 12.499999999999998 13.499999999999998 135
leaf_count=9 146 41 8 32 55 4 5 8 55 5 6 88
internal_value=7.86272e-05 -0.00220655 0.00390093 0.00244037 -0.000785752 -0.00519172 0.000446045 0.00826179 0.0047067 -0.00619132 -0.00514083 -0.00553228
internal_weight=1034.5 647.5 387 292 438 95 343 95 232 60 209.5 196
internal_count=462 345 117 101 210 59 151 16 64 37 135 129
is_linear=0
shrinkage=0.02


Tree=12
num_leaves=12
num_cat=0
split_feature=9 19 30 2 34 2 14 8 28 14 7
split_gain=24.9108 16.9245 8.85636 7.02892 5.99184 4.02706 3.19954 2.96364 1.3066 1.02591 0.580979
threshold=78.242467907425493 3269.5549622647081 -1.4047082756470519 964769.40538720263 3314.7739931947485 928697.85537539248 -0.82244269644203327 111.33152244170647 -1.8525062594344102 -1.7823095595093339 1.8188527514214077
decision_type=2 2 2 2 2 2 2 2 2 2 2
left_child=3 2 8 6 7 -4 9 -3 -2 -1 -8
right_child=1 4 5 -5 -6 -7 10 -9 -10 -11 -12
leaf_value=0.00045330991024194767 -0.0044948642415304973 -0.0063644372771439681 0.0052932414817640364 0.01064395750080881 0.0032973315831440605 0.00071224692265335003 0.0063184873970276714 -0.0009651113536098216 0.001182546955270645 -0.0065697223080529114 0.0029705247180536395
leaf_weight=20 100.5 289.5 139 80 32 173 53 49 18 11.999999999999998 46.5
leaf_count=8 67 189 37 10 11 76 9 23 7 8 15
internal_value=-7.12796e-05 -0.00168693 0.00100595 0.00600695 -0.00481271 0.00277508 0.00308269 -0.00559644 -0.0036118 -0.00229687 0.00484102
internal_weight=1012.5 801 430.5 211.5 370.5 312 131.5 338.5 118.5 32 99.5
internal_count=460 410 187 50 223 113 40 212 74 16 24
is_linear=0
shrinkage=0.02


Tree=13
num_leaves=10
num_cat=0
split_feature=2 19 28 19 33 0 7 12 19
split_gain=23.6068 27.06 11.45 4.70304 10.9788 4.45138 3.4341 1.8327 0.158428
threshold=964591.20627265063 3269.5549622647081 -1.8525062594344102 3307.8345478183951 3308.5652377469519 -0.66312265824079508 1.2128352628057983 26.869479562863837 3307.4610286139264
decision_type=2 2 2 2 2 2 2 2 2
left_child=1 2 7 8 -5 -2 -4 -1 -3
right_child=5 3 6 4 -6 -7 -8 -9 -10
leaf_value=-0.004225676666849699 0.0014587552621960641 -0.0082206209335492289 0.0060318789037851596 0.0028418895940803273 -0.0066554984523086091 0.010407255255986774 0.0021385559659795601 0.0028182336831574927 -0.0060939880887667334
leaf_weight=115.5 30.5 114 133 77.5 125.5 93 296 15.499999999999998 58.5
leaf_count=77 10 77 28 30 84 13 112 5 39
internal_value=9.17677e-05 -0.000995567 0.00178631 -0.00514021 -0.00302562 0.00825733 0.00336703 -0.00335467 -0.00756966
internal_weight=1059 935.5 560 375.5 203 123.5 429 131 172.5
internal_count=475 452 222 230 114 23 140 82 116
is_linear=0
shrinkage=0.02


Tree=14
num_leaves=10
num_cat=0
split_feature=2 19 26 1 20 2 19 26 19
split_gain=20.3923 24.4035 9.31439 4.08735 3.43064 8.65245 3.26043 0.370005 0.0448724
threshold=964591.20627265063 3269.5549622647081 25.934841742745295 -0.88545602565320969 3307.7789820513772 962559.0192111783 3184.057978129124 25.589255431891939 3307.4610286139264
decision_type=2 2 2 2 2 2 2 2 2
left_child=1 2 7 -2 8 -6 -4 -1 -3
right_child=3 4 6 -5 5 -7 -8 -9 -10
leaf_value=-0.0052059843906185092 0.01170944426163383 -0.0079546129862467438 0.0045292951937132911 0.0041092667173045546 0.0017773464134894312 -0.0067251648606740282 0.0011569429965081646 -0.0023105919031302137 -0.0059519893353985201
leaf_weight=55.5 56 103.5 222.5 63 78.5 118 242 36 45
leaf_count=37 7 70 62 15 34 79 101 23 30
internal_value=7.41643e-05 -0.000955769 0.00163388 0.00780366 -0.00512402 -0.00333065 0.002786 -0.00414396 -0.00742668
internal_weight=1020 901 556 119 345 196.5 464.5 91.5 148.5
internal_count=458 436 223 22 213 113 163 60 100
is_linear=0
shrinkage=0.02


Tree=15
num_leaves=10
num_cat=0
split_feature=2 19 30 24 1 1 24 26 19
split_gain=22.4005 22.9681 10.8836 5.14911 8.70736 4.43806 3.26171 0.88544 0.853533
threshold=964591.20627265063 3269.5549622647081 -1.4047082756470519 84.145042965273532 0.29696027566504685 -0.88545602565320969 82.910588385470916 25.643543639806321 3307.4969512747366
decision_type=2 2 2 2 2 2 2 2 2
left_child=1 2 7 8 -5 -2 -4 -1 -3
right_child=5 3 6 4 -6 -7 -8 -9 -10
leaf_value=-0.005075090083208951 0.011610530358234434 -0.0078464895789585407 0.0042656249260324955 0.006191421457083829 -0.0059879913131395965 0.0039180589814980828 0.00021797010920069238 -0.001659294103704407 -0.0052591484505291044
leaf_weight=64.5 64 93 303 40 52.5 61.5 109.5 64.5 188.5
leaf_count=43 8 63 86 8 35 15 50 38 121
internal_value=7.36658e-05 -0.00101476 0.00161438 -0.00481795 -0.000685187 0.00794746 0.00320067 -0.00342122 -0.00615806
internal_weight=1041 915.5 541.5 374 92.5 125.5 412.5 129 281.5
internal_count=467 444 217 227 43 23 136 81 184
is_linear=0
shrinkage=0.02


Tree=16
num_leaves=12
num_cat=0
split_feature=11 19 2 2 22 2 20 2 2 1 1
split_gain=18.2823 8.94123 7.67175 10.704 6.42896 3.31231 6.41945 4.04892 1.1668 1.06199 0.0352297
threshold=26.727622419785664 3185.4366870976887 964591.20627265063 958131.20600088511 38.830152535659458 962449.84019096359 3308.4052397333535 965346.59866060421 932505.71217918617 -0.1799261722714405 0.8542199457734333
decision_type=2 2 2 2 2 2 2 2 2 2 2
left_child=1 4 3 8 10 6 -3 -7 -2 -6 -1
right_child=2 5 -4 -5 9 7 -8 -9 -10 -11 -12
leaf_value=-0.0044473152265214087 0.0053405059705850331 -0.0031061344121375845 0.0089870504120061565 -0.0066470880995114006 0.0073303243085878697 -0.0067435893964418129 0.0038300678971714863 0.0023066943325894943 0.0022503847531633934 0.0029415839759927048 -0.0022621217094587558
leaf_weight=27 113 331.5 84.5 45 53 135 62 22 97 46 14.999999999999998
leaf_count=18 25 191 14 30 8 90 20 6 35 16 10
internal_value=1.6151e-05 -0.00184743 0.00380923 0.00204312 0.00261863 -0.00299896 -0.00199781 -0.00545295 0.0039487 0.00538535 -0.00381778
internal_weight=1031 691.5 339.5 255 141 550.5 393.5 157 210 99 42
internal_count=463 359 104 90 52 307 211 96 60 24 28
is_linear=0
shrinkage=0.02


Tree=17
num_leaves=9
num_cat=0
split_feature=33 20 30 21 1 33 19 28
split_gain=18.2685 21.9567 10.2184 4.04096 3.866 3.24699 1.80763 1.06568
threshold=3315.3377543638294 3269.5549622647081 -1.2409859049652527 118.53987638285277 -0.88545602565320969 3191.2628624134913 3307.6817795632392 -1.8525062594344102
decision_type=2 2 2 2 2 2 2 2
left_child=1 2 7 6 -2 -4 -3 -1
right_child=4 3 5 -5 -6 -7 -8 -9
leaf_value=-0.0039793095152337848 0.011833904497551196 -0.0073456408208416356 0.0049147840418154376 0.0023881453552416394 0.0039555365667383897 0.0013376955428805808 -0.0042070119836193198 0.00043587209663733292
leaf_weight=117 48 138 190.5 26.5 57 223 188 25.5
leaf_count=77 6 93 48 9 13 90 116 11
internal_value=-0.000143575 -0.00106253 0.00141017 -0.00495785 0.0076918 0.00300229 -0.0055693 -0.00317903
internal_weight=1013.5 908.5 556 352.5 105 413.5 326 142.5
internal_count=463 444 226 218 19 138 209 88
is_linear=0
shrinkage=0.02


Tree=18
num_leaves=14
num_cat=0
split_feature=7 10 32 2 25 2 11 2 0 30 2 19 21
split_gain=17.922 5.98593 5.58246 4.9119 7.25399 3.92101 3.52757 4.87955 0.705227 0.454176 0.32819 0.20265 0.181863
threshold=8.3448225446294781 83.300769738570722 3.7872199971658236 962354.67382790719 27.400157125213962 962260.18877937715 27.772622438683737 932939.92576212331 0.40966402954315223 1.9823782035412085 933376.3754701016 3240.1651125843941 52.811492276713679
decision_type=2 2 2 2 2 2 2 2 2 2 2 2 2
left_child=1 6 3 5 -5 -2 7 -1 12 10 -3 -10 -4
right_child=2 9 8 4 -6 -7 -8 -9 11 -11 -12 -13 -14
leaf_value=0.0061552226308045112 -0.00028050845704423504 -0.0014551619703953081 -0.00063036915209765238 -0.0066519822240527207 0.0079756512395106269 0.0070159813220684345 0.010543397590295591 0.0012122210908449016 -0.003914988461881876 0.00025328126872579254 -0.0053932274083296466 -0.0061136619136379087 -0.0034072547838505775
leaf_weight=155.5 310.5 18 16.5 90 14.499999999999998 31 32 167 42 13.499999999999998 22.5 103 34.5
leaf_count=29 145 10 9 60 3 5 4 62 28 5 15 68 23
internal_value=7.61278e-05 0.0033459 -0.00200425 -0.000756526 -0.0045193 0.000403792 0.00429167 0.00361923 -0.00480601 -0.00277503 -0.00380507 -0.00553706 -0.00259063
internal_weight=1050.5 408.5 642 446 104.5 341.5 354.5 322.5 196 54 40.5 145 51
internal_count=466 125 341 213 63 150 95 91 128 30 25 96 32
is_linear=0
shrinkage=0.02


Tree=19
num_leaves=13
num_cat=0
split_feature=7 20 12 10 28 2 2 21 2 29 2 26
split_gain=18.4012 5.16506 5.91725 5.0679 4.95495 3.34614 7.77038 3.27425 0.988209 0.790682 0.242647 0.1967
threshold=8.3448225446294781 3269.5549622647081 27.867797068233738 82.793829310935806 -1.8525062594344102 964769.40538720263 950608.28933943307 118.53987638285277 925462.95317175926 1.5385491850981319 933376.3754701016 25.669577619695964
decision_type=2 2 2 2 2 2 2 2 2 2 2 2
left_child=3 4 7 5 11 6 -1 -3 -6 10 -5 -2
right_child=1 2 -4 9 8 -7 -8 -9 -10 -11 -12 -13
leaf_value=0.0051465380392379913 -0.0047095633159603993 -0.0050914557938822446 0.0086290361470189592 -0.0013294750675559041 -0.0025849685725711641 0.0081024793956264753 -0.0037866994594082689 0.0021090217104979925 0.0019743185097629086 0.0010703639861728462 -0.0049084372467464877 -0.0026244812429496891
leaf_weight=182 55.5 283 12.999999999999998 16.5 19.5 78 48 26.5 186.5 23 21 48
leaf_count=40 37 180 2 9 12 12 28 9 69 8 14 32
internal_value=-5.27607e-05 -0.00212441 -0.00388996 0.00348905 -0.00026839 0.00452696 0.00326111 -0.00446131 0.00151753 -0.0017443 -0.00349668 -0.00381292
internal_weight=1000.5 632 322.5 368.5 309.5 308 230 309.5 206 60.5 37.5 103.5
internal_count=452 341 191 111 150 80 68 189 81 31 23 69
is_linear=0
shrinkage=0.02


Tree=20
num_leaves=10
num_cat=0
split_feature=2 20 27 24 1 2 1 32 19
split_gain=18.9005 19.3729 7.24223 4.56184 8.0717 4.32015 3.95019 2.4328 0.593448
threshold=964591.20627265063 3269.5549622647081 -1.083580731970726 84.145042965273532 0.29696027566504685 932505.71217918617 -0.88545602565320969 3.6133672524237865 3307.4969512747366
decision_type=2 2 2 2 2 2 2 2 2
left_child=1 2 7 8 -5 -4 -2 -1 -3
right_child=6 3 5 4 -6 -7 -8 -9 -10
leaf_value=0.00071557438388617346 0.010703668492440959 -0.0073507557009043316 0.0055481653321220216 0.0059559953902141166 -0.0057010283749382778 0.00094369979427277699 0.0034564204906808245 -0.0036486082299390715 -0.0050709793741571842
leaf_weight=97.5 64 87.5 164.5 40 54 164 61.5 103.5 182.5
leaf_count=41 8 59 36 8 36 68 15 68 119
internal_value=2.86622e-05 -0.000993961 0.00144429 -0.00453765 -0.000704013 0.00327024 0.00725075 -0.00153216 -0.00585369
internal_weight=1019 893.5 529.5 364 94 328.5 125.5 201 270
internal_count=458 435 213 222 44 104 23 109 178
is_linear=0
shrinkage=0.02


Tree=21
num_leaves=12
num_cat=0
split_feature=9 20 26 20 33 2 26 13 26 20 26
split_gain=16.5263 11.1539 6.54622 5.55321 6.59472 3.79303 3.1726 2.68617 0.866611 0.433639 0.114658
threshold=78.242467907425493 3269.5549622647081 25.934841742745295 3308.4052397333535 3308.233207547773 964769.40538720263 26.713654045783944 -0.85977347944507965 26.702580872417148 3307.4610286139264 25.643543639806321
decision_type=2 2 2 2 2 2 2 2 2 2 2
left_child=5 2 10 9 -5 7 -4 -1 -9 -3 -2
right_child=1 3 6 4 -6 -7 -8 8 -10 -11 -12
leaf_value=-0.0027525294224421183 -0.004494415373083145 -0.0071202841077532084 0.00063380842648818215 0.0049722786462306975 -0.0034355974025236055 0.008552013694860373 0.0045688264409936693 0.0058691899185180666 0.0020747516776124641 -0.0048184625147418541 -0.0022859738112116852
leaf_weight=25.5 61.5 103.5 209 48.5 145 77 135.5 61 46.5 86.5 22.5
leaf_count=14 41 70 93 12 84 10 35 10 15 58 15
internal_value=5.51109e-05 -0.00123789 0.000975196 -0.00371001 -0.0012959 0.00503748 0.00220042 0.0029152 0.00429736 -0.00612874 -0.00397674
internal_weight=1022 812 428.5 383.5 193.5 210 344.5 133 107.5 190 84
internal_count=457 408 184 224 96 49 128 39 25 128 56
is_linear=0
shrinkage=0.02


Tree=22
num_leaves=13
num_cat=0
split_feature=9 19 30 2 20 2 13 19 2 28 26 19
split_gain=18.5848 12.308 6.13791 3.85174 3.11651 3.72337 2.85395 2.7737 1.17353 1.06087 0.727564 0.0691205
threshold=78.242467907425493 3269.5549622647081 -1.4047082756470519 964769.40538720263 3307.7789820513772 962559.0192111783 -0.85977347944507965 3184.057978129124 958686.6879733383 -1.8525062594344102 26.702580872417148 3305.857297158293
decision_type=2 2 2 2 2 2 2 2 2 2 2 2
left_child=3 2 9 6 11 -6 8 -4 -1 -2 -8 -3
right_child=1 4 7 -5 5 -7 10 -9 -10 -11 -12 -13
leaf_value=0.0011118208716313042 -0.0037591816285225351 -0.0070821123630572585 0.004253444637332046 0.0085914915746943959 0.0010044212490080996 -0.0045122792348641942 0.0057831655149106617 0.00045845379305712745 -0.0064536414861679084 0.0013131113910140135 0.0022084293290116322 -0.0052528267635239502
leaf_weight=16.500000000000004 108 96 141 77 71.5 147 66 171.5 13.499999999999998 18 42 52.5
leaf_count=7 72 65 39 10 34 89 11 75 9 7 13 35
internal_value=-0.000175572 -0.00157312 0.000685008 0.00502573 -0.00426841 -0.00270341 0.00295081 0.00218926 -0.00237434 -0.00301196 0.00446055 -0.00650772
internal_weight=1020.5 805.5 438.5 215 367 218.5 138 312.5 30 126 108 148.5
internal_count=466 416 193 50 223 123 40 114 16 79 24 100
is_linear=0
shrinkage=0.02


Tree=23
num_leaves=10
num_cat=0
split_feature=5 19 27 24 1 5 1 32 19
split_gain=12.3575 15.4804 8.50528 4.36032 6.69824 2.85659 2.52781 1.28692 0.608625
threshold=3315.8283029563631 3269.5549622647081 -1.3939060927333509 84.145042965273532 0.29696027566504685 3205.5328858536527 -0.70581670320594803 3.5124657159789829 3307.4969512747366
decision_type=2 2 2 2 2 2 2 2 2
left_child=1 2 7 8 -5 -4 -2 -1 -3
right_child=6 3 5 4 -6 -7 -8 -9 -10
leaf_value=0 0.0086230407014806221 -0.0068874946153441143 0.0047433759709621997 0.0057122911430266968 -0.005107030281833575 0.0011713354806689655 0.0015923291385173796 -0.003705660802962845 -0.0045899053817223864
leaf_weight=55.5 69 84.5 186.5 40 49.5 177 31 108 179.5
leaf_count=25 10 57 43 8 33 73 9 72 116
internal_value=-8.74944e-05 -0.00084988 0.00131864 -0.00408027 -0.000235148 0.00302147 0.00651897 -0.0024481 -0.0053676
internal_weight=980.5 880.5 527 353.5 89.5 363.5 100 163.5 264
internal_count=446 427 213 214 41 116 19 97 173
is_linear=0
shrinkage=0.02


Tree=24
num_leaves=12
num_cat=0
split_feature=7 10 9 11 2 2 19 11 22 29 2
split_gain=15.2729 4.93172 4.14665 2.76248 3.4027 2.54539 3.95638 2.35025 2.78519 0.390195 0.271623
threshold=8.3448225446294781 83.300769738570722 82.198063680545616 27.772622438683737 932939.92576212331 962592.30245371582 3308.6988752452285 27.530197955860853 92.679182696334138 2.0946357877558333 933376.3754701016
decision_type=2 2 2 2 2 2 2 2 2 2 2
left_child=1 3 7 4 -1 6 -4 8 -2 10 -3
right_child=2 9 5 -5 -6 -7 -8 -9 -10 -11 -12
leaf_value=0.0058805256911026414 -0.0013118039033336876 -0.0011110493739446006 -0.0032656642136165786 0.0096102726779766934 0.0015066035262080368 -0.0062400324811712343 0.0028980412506968761 0.0066564948616958256 0.0052367376645406092 0.00025255329112211863 -0.0048980133713533488
leaf_weight=127.5 190.5 14.999999999999998 260 32 165.5 84 48 19 28.5 13.499999999999998 22.5
leaf_count=22 97 8 158 4 59 56 19 4 6 5 15
internal_value=0 0.00318421 -0.00190079 0.0040923 0.00343698 -0.00316148 -0.00228923 0.000174087 -0.000420699 -0.00251612 -0.0035355
internal_weight=1006 376 630 325 293 392 308 238 219 51 37.5
internal_count=453 113 340 85 81 233 177 107 103 28 23
is_linear=0
shrinkage=0.02


Tree=25
num_leaves=11
num_cat=0
split_feature=9 2 20 30 21 25 30 1 2 2
split_gain=16.908 9.56169 8.85378 4.10441 3.3469 2.30539 2.19028 1.928 1.47329 1.2003
threshold=82.198063680545616 964591.20627265063 3269.5549622647081 2.0989954843742988 118.53987638285277 26.835679124222906 -1.0117186276971386 -0.91023613416931226 962698.31711141078 948544.93737960549
decision_type=2 2 2 2 2 2 2 2 2 2
left_child=1 2 6 5 -4 8 -1 -3 -2 -7
right_child=3 7 4 -5 -6 9 -8 -9 -10 -11
leaf_value=-0.0015379685720517521 -0.003017312996465688 0.010261344461855683 -0.0053273160050044191 0.0036067697181330102 0.0046056331247091289 0.002947001956190382 0.0033555246633993094 0.0047799636982689218 -0.0060005358198627094 -0.0030884731858968734
leaf_weight=40.5 300.5 56 91 37 14.499999999999998 33.5 283 59 90 19.5
leaf_count=23 182 7 59 12 3 10 83 11 59 11
internal_value=6.53517e-05 0.00247879 0.00108935 -0.00266209 -0.00389801 -0.00319998 0.00273247 0.00756408 -0.0037303 0.000665819
internal_weight=1024.5 544 429 480.5 105.5 443.5 323.5 115 390.5 53
internal_count=460 186 168 274 62 262 106 18 241 21
is_linear=0
shrinkage=0.02


Tree=26
num_leaves=10
num_cat=0
split_feature=2 19 30 1 20 2 2 28 19
split_gain=14.9262 18.4713 7.4599 3.05569 2.96711 7.63537 2.42475 0.966299 0.063744
threshold=964591.20627265063 3269.5549622647081 -1.4047082756470519 -0.88545602565320969 3307.7789820513772 962559.0192111783 928697.85537539248 -1.8525062594344102 3305.857297158293
decision_type=2 2 2 2 2 2 2 2 2
left_child=1 2 7 -2 8 -6 -4 -1 -3
right_child=3 4 6 -5 5 -7 -8 -9 -10
leaf_value=-0.0034356657075630104 0.009731339724009273 -0.0067907806139637303 0.004288817271391551 0.0032914039800322156 0.0020413275805875918 -0.0056943462090900685 0.0013128398226811583 0.00089738922200950926 -0.0050416071746084423
leaf_weight=105 64 102 223.5 60 84.5 124 222 24 52.5
leaf_count=70 8 69 55 14 36 83 88 10 35
internal_value=0.00022863 -0.000635559 0.00159269 0.00670776 -0.00415961 -0.00255755 0.00281969 -0.00261314 -0.00626341
internal_weight=1061.5 937.5 574.5 124 363 208.5 445.5 129 154.5
internal_count=468 446 223 22 223 119 143 80 104
is_linear=0
shrinkage=0.02


Tree=27
num_leaves=12
num_cat=0
split_feature=10 26 2 20 26 27 7 26 21 7 2
split_gain=14.5854 8.64607 5.06054 4.07587 3.69482 2.90798 1.12424 1.42622 0.968318 0.79498 0.313757
threshold=78.376768256563935 26.805691239103361 962354.67382790719 3308.4052397333535 27.43059834889343 -0.86091022668562589 1.9593875654641042 27.295659280002706 53.922430588064834 1.8188527514214077 962698.31711141078
decision_type=2 2 2 2 2 2 2 2 2 2 2
left_child=4 2 3 -2 5 8 -3 -8 -1 -7 -4
right_child=1 6 10 -5 -6 9 7 -9 -10 -11 -12
leaf_value=0.00073569779247045514 -0.0017166174057866967 0.0053221154353342761 -0.0032566516223239408 0.0046890217440909354 0.010765913151983005 0.0053801179095422577 1.3369754189625381e-05 0.0056587528434454224 -0.0061799954838222936 0.0020767530548957088 -0.0058139080310354429
leaf_weight=18.500000000000004 449 59 36 42 32 119 62.5 24 11.999999999999998 45 121
leaf_count=8 242 13 24 11 4 20 27 4 8 15 80
internal_value=0.000104029 -0.00117302 -0.00216427 -0.00115201 0.00456498 0.00345999 0.00320505 0.0016722 -0.00208487 0.00451283 -0.00527652
internal_weight=1020 793.5 648 491 226.5 194.5 145.5 86.5 30.5 164 157
internal_count=456 401 357 253 55 51 44 31 16 35 104
is_linear=0
shrinkage=0.02


Tree=28
num_leaves=10
num_cat=0
split_feature=2 20 30 24 1 0 24 28 19
split_gain=13.5152 15.4462 6.93822 3.60756 6.25825 2.9511 2.40643 1.00861 0.517972
threshold=964591.20627265063 3269.5549622647081 -1.4047082756470519 84.145042965273532 0.29696027566504685 -0.66312265824079508 82.910588385470916 -1.8525062594344102 3307.4969512747366
decision_type=2 2 2 2 2 2 2 2 2
left_child=1 2 7 8 -5 -2 -4 -1 -3
right_child=5 3 6 4 -6 -7 -8 -9 -10
leaf_value=-0.0034439013907644482 0.0011721325784045107 -0.0064983558169117673 0.0035246678698883467 0.0056425622035930689 -0.0048478585997143312 0.0084127421350536219 0.00018130434000492094 0.0010721058923130234 -0.0044222071424527961
leaf_weight=111 32.5 93 294.5 37 54 82 123.5 22.5 179.5
leaf_count=74 10 63 84 7 36 11 55 9 117
internal_value=-1.33451e-05 -0.000829324 0.00127714 -0.00402283 -0.000538568 0.00641652 0.0025458 -0.00266451 -0.00516976
internal_weight=1029.5 915 551.5 363.5 91 114.5 418 133.5 272.5
internal_count=466 445 222 223 43 21 139 83 180
is_linear=0
shrinkage=0.02


Tree=29
num_leaves=11
num_cat=0
split_feature=9 19 26 12 28 20 2 14 0 7
split_gain=13.3863 9.14617 4.57982 4.02531 2.95005 2.61837 2.42675 2.15157 0.887258 0.409293
threshold=78.242467907425493 3269.5549622647081 26.713654045783944 27.867797068233738 -1.8525062594344102 3307.7789820513772 964769.40538720263 -0.85755493948904971 -0.61559370248597534 1.8188527514214077
decision_type=2 2 2 2 2 2 2 2 2 2
left_child=6 2 4 5 -2 -3 7 -1 -4 -9
right_child=1 3 8 -5 -6 -7 -8 9 -10 -11
leaf_value=-0.0026710104644298554 -0.0032358871378669152 -0.0058337296523745096 0.0063434628200801932 0.0069017792076900095 0.00090001767965463501 -0.0023958660576323216 0.0074086425482821298 0.0050020467761818692 0.0026450544670670335 0.0023013095765685044
leaf_weight=22.5 105 156 42.5 12.999999999999998 193.5 218.5 72 64 82 46.5
leaf_count=12 70 105 8 2 80 124 9 11 25 15
internal_value=-8.6965e-05 -0.00124504 0.000784113 -0.00345971 -0.000557062 -0.00385081 0.00445776 0.00278061 0.00398392 0.00392944
internal_weight=1015.5 810.5 423 387.5 298.5 374.5 205 133 124.5 110.5
internal_count=461 414 183 231 150 229 47 38 33 26
is_linear=0
shrinkage=0.02


Tree=30
num_leaves=13
num_cat=0
split_feature=7 10 29 5 26 24 5 5 0 29 13 19
split_gain=12.9741 4.04611 3.85067 3.5193 3.42455 3.2291 2.17018 7.29029 0.589582 0.31427 0.23126 0.175338
threshold=8.3448225446294781 83.300769738570722 -1.978958868625905 3308.5631296895162 26.957113607908639 84.145042965273532 3316.4408709165004 3267.7613587176597 0.06026834012766185 2.0946357877558333 -1.8800095547056699 3210.033847807525
decision_type=2 2 2 2 2 2 2 2 2 2 2 2
left_child=1 6 8 5 -5 -4 7 -1 -2 10 -3 -10
right_child=2 9 3 4 -6 -7 -8 -9 11 -11 -12 -13
leaf_value=0.0044301602280670364 -0.00075380321405827994 -0.00088499263928017841 -0.00064672770664665866 -0.0052855616629123685 0.0053746697327920366 0.004136245237479747 0.006398092132295881 -0.0034605744473636155 -0.0025690550354738086 0.00023477592269579569 -0.0043273707651624495 -0.0046768003499259546
leaf_weight=212 22.5 14.999999999999998 273 88.5 12.499999999999998 69.5 86 58.5 30 13.499999999999998 24 148.5
leaf_count=47 12 8 134 59 4 19 13 34 20 5 16 98
internal_value=7.93972e-05 0.00286141 -0.00168552 -0.000634401 -0.00388737 0.000331822 0.0036258 0.00270664 -0.00397302 -0.00224868 -0.00313458 -0.00435803
internal_weight=1053.5 409 644.5 443.5 101 342.5 356.5 270.5 201 52.5 39 178.5
internal_count=469 123 346 216 63 153 94 81 130 29 24 118
is_linear=0
shrinkage=0.02


Tree=31
num_leaves=10
num_cat=0
split_feature=34 19 30 24 1 0 2 28 19
split_gain=11.735 14.5978 6.73541 3.32774 5.81031 3.11789 2.22194 0.903156 0.626226
threshold=3315.3430160727598 3269.5549622647081 -1.4047082756470519 84.145042965273532 0.4647231720437684 -0.66312265824079508 928697.85537539248 -1.8525062594344102 3307.4969512747366
decision_type=2 2 2 2 2 2 2 2 2
left_child=1 2 7 8 -5 -2 -4 -1 -3
right_child=5 3 6 4 -6 -7 -8 -9 -10
leaf_value=-0.0032900532698127583 0.00093599017387306367 -0.0062700262001191059 0.0041813736474857876 0.0052752002721809478 -0.0046154365834889114 0.0080861694743867545 0.0012649767625899542 0.00089645468838074616 -0.0040160989623712869
leaf_weight=105 35.5 85.5 206.5 40 54 85 219 24 188.5
leaf_count=70 11 58 49 8 36 11 87 10 121
internal_value=0.000202413 -0.000565655 0.00148044 -0.0036476 -0.000368963 0.00603349 0.00269474 -0.00249449 -0.00475699
internal_weight=1043 922.5 554.5 368 94 120.5 425.5 129 274
internal_count=461 439 216 223 44 22 136 80 179
is_linear=0
shrinkage=0.02


end of trees

feature_importances:
city_estimated_population=70
city_area_weighted_pop_density_lag20=45
city_area_weighted_temp_c_rollmean_lag1_w8=19
city_area_weighted_pop_density_lag19=18
city_area_weighted_rh_rollmean_lag1_w8=18
city_area_weighted_u_component_of_wind_10m_rollmean_lag1_w8=17
city_area_weighted_v_component_of_wind_10m_rollmean_lag1_w8=17
week_cos=16
city_area_weighted_rainfall_lag20=14
city_area_weighted_rh_lag14=11
city_area_weighted_rh_lag15=9
week_sin=8
city_pop_density=7
city_area_weighted_u_component_of_wind_10m_lag1=7
city_area_weighted_pop_density_rollmean_lag1_w4=7
city_area_weighted_rainfall_rollmean_lag1_w4=6
city_area_weighted_wind_speed_10m_rollmean_lag1_w8=6
city_area_weighted_u_component_of_wind_10m_lag2=5
city_area_weighted_u_component_of_wind_10m_rollmean_lag1_w4=5
city_area_weighted_v_component_of_wind_10m_rollmean_lag1_w4=5
city_area_weighted_pop_density_rollmean_lag1_w8=5
city_area_weighted_temp_c_lag6=4
city_area_weighted_temp_c_lag5=4
city_area_weighted_rainfall_rollmean_lag1_w8=3
city_area_weighted_temp_c_rollmean_lag1_w4=3
city_area_weighted_rainfall_lag14=1
city_area_weighted_wind_speed_10m_lag6=1
city_area_weighted_rh_rollmean_lag1_w4=1
city_area_weighted_wind_speed_10m_rollmean_lag1_w4=1

parameters:
[boosting: gbdt]
[objective: regression]
[metric: rmse]
[tree_learner: serial]
[device_type: cpu]
[data_sample_strategy: bagging]
[data: ]
[valid: ]
[num_iterations: 32]
[learning_rate: 0.02]
[num_leaves: 31]
[num_threads: 0]
[seed: 0]
[deterministic: 0]
[force_col_wise: 1]
[force_row_wise: 0]
[histogram_pool_size: -1]
[max_depth: 4]
[min_data_in_leaf: 8]
[min_sum_hessian_in_leaf: 0.001]
[bagging_fraction: 0.9]
[pos_bagging_fraction: 1]
[neg_bagging_fraction: 1]
[bagging_freq: 1]
[bagging_seed: 3]
[bagging_by_query: 0]
[feature_fraction: 0.8]
[feature_fraction_bynode: 1]
[feature_fraction_seed: 2]
[extra_trees: 0]
[extra_seed: 6]
[early_stopping_round: 0]
[early_stopping_min_delta: 0]
[first_metric_only: 0]
[max_delta_step: 0]
[lambda_l1: 0.1]
[lambda_l2: 1.5]
[linear_lambda: 0]
[min_gain_to_split: 0]
[drop_rate: 0.1]
[max_drop: 50]
[skip_drop: 0.5]
[xgboost_dart_mode: 0]
[uniform_drop: 0]
[drop_seed: 4]
[top_rate: 0.2]
[other_rate: 0.1]
[min_data_per_group: 100]
[max_cat_threshold: 32]
[cat_l2: 10]
[cat_smooth: 10]
[max_cat_to_onehot: 4]
[top_k: 20]
[monotone_constraints: ]
[monotone_constraints_method: basic]
[monotone_penalty: 0]
[feature_contri: ]
[forcedsplits_filename: ]
[refit_decay_rate: 0.9]
[cegb_tradeoff: 1]
[cegb_penalty_split: 0]
[cegb_penalty_feature_lazy: ]
[cegb_penalty_feature_coupled: ]
[path_smooth: 0]
[interaction_constraints: ]
[verbosity: -1]
[saved_feature_importance_type: 0]
[use_quantized_grad: 0]
[num_grad_quant_bins: 4]
[quant_train_renew_leaf: 0]
[stochastic_rounding: 1]
[linear_tree: 0]
[max_bin: 255]
[max_bin_by_feature: ]
[min_data_in_bin: 3]
[bin_construct_sample_cnt: 200000]
[data_random_seed: 1]
[is_enable_sparse: 1]
[enable_bundle: 1]
[use_missing: 1]
[zero_as_missing: 0]
[feature_pre_filter: 1]
[pre_partition: 0]
[two_round: 0]
[header: 0]
[label_column: ]
[weight_column: ]
[group_column: ]
[ignore_column: ]
[categorical_feature: ]
[forcedbins_filename: ]
[precise_float_parser: 0]
[parser_config_file: ]
[objective_seed: 5]
[num_class: 1]
[is_unbalance: 0]
[scale_pos_weight: 1]
[sigmoid: 1]
[boost_from_average: 1]
[reg_sqrt: 0]
[alpha: 0.9]
[fair_c: 1]
[poisson_max_delta_step: 0.7]
[tweedie_variance_power: 1.5]
[lambdarank_truncation_level: 30]
[lambdarank_norm: 1]
[label_gain: ]
[lambdarank_position_bias_regularization: 0]
[eval_at: ]
[multi_error_top_k: 1]
[auc_mu_weights: ]
[num_machines: 1]
[local_listen_port: 12400]
[time_out: 120]
[machine_list_filename: ]
[machines: ]
[gpu_platform_id: -1]
[gpu_device_id: -1]
[gpu_use_dp: 0]
[num_gpu: 1]

end of parameters
