tree
version=v4
num_class=1
num_tree_per_iteration=1
label_index=0
max_feature_idx=75
objective=regression
feature_names=week_sin week_cos city_estimated_population city_area_m2 city_area_km2 city_pop_density n_barangays_reported city_dengue_cases_lag1 city_dengue_cases_lag2 city_dengue_cases_lag3 city_incidence_10000_lag1 city_incidence_10000_lag2 city_incidence_10000_lag3 target_log_incidence_city_lag1 target_log_incidence_city_lag2 target_log_incidence_city_lag3 city_area_weighted_rainfall_lag20 city_area_weighted_rainfall_lag7 city_area_weighted_rainfall_lag6 city_area_weighted_rh_lag20 city_area_weighted_rh_lag19 city_area_weighted_rh_lag18 city_area_weighted_temp_c_lag15 city_area_weighted_temp_c_lag16 city_area_weighted_temp_c_lag14 city_area_weighted_u_component_of_wind_10m_lag6 city_area_weighted_u_component_of_wind_10m_lag5 city_area_weighted_u_component_of_wind_10m_lag4 city_area_weighted_v_component_of_wind_10m_lag9 city_area_weighted_v_component_of_wind_10m_lag8 city_area_weighted_v_component_of_wind_10m_lag11 city_area_weighted_wind_speed_10m_lag15 city_area_weighted_wind_speed_10m_lag14 city_area_weighted_wind_speed_10m_lag13 city_area_weighted_pop_density_lag20 city_area_weighted_pop_density_lag19 city_area_weighted_pop_density_lag18 city_pop_density_lag20 city_pop_density_lag19 city_pop_density_lag18 city_area_weighted_rainfall_rollmean_lag1_w4 city_area_weighted_rainfall_rollmean_lag1_w8 city_area_weighted_rh_rollmean_lag1_w4 city_area_weighted_rh_rollmean_lag1_w8 city_area_weighted_temp_c_rollmean_lag1_w4 city_area_weighted_temp_c_rollmean_lag1_w8 city_area_weighted_u_component_of_wind_10m_rollmean_lag1_w4 city_area_weighted_u_component_of_wind_10m_rollmean_lag1_w8 city_area_weighted_v_component_of_wind_10m_rollmean_lag1_w4 city_area_weighted_v_component_of_wind_10m_rollmean_lag1_w8 city_area_weighted_wind_speed_10m_rollmean_lag1_w4 city_area_weighted_wind_speed_10m_rollmean_lag1_w8 city_area_weighted_pop_density_rollmean_lag1_w4 city_area_weighted_pop_density_rollmean_lag1_w8 city_area_weighted_flood_risk_index_rollmean_lag1_w4 city_area_weighted_flood_risk_index_rollmean_lag1_w8 city_area_weighted_percent_annual_crop_rollmean_lag1_w4 city_area_weighted_percent_annual_crop_rollmean_lag1_w8 city_area_weighted_percent_brush_shrubs_rollmean_lag1_w4 city_area_weighted_percent_brush_shrubs_rollmean_lag1_w8 city_area_weighted_percent_built_up_rollmean_lag1_w4 city_area_weighted_percent_built_up_rollmean_lag1_w8 city_area_weighted_percent_inland_water_rollmean_lag1_w4 city_area_weighted_percent_inland_water_rollmean_lag1_w8 city_area_weighted_percent_open_forest_rollmean_lag1_w4 city_area_weighted_percent_open_forest_rollmean_lag1_w8 city_area_weighted_percent_perennial_crop_rollmean_lag1_w4 city_area_weighted_percent_perennial_crop_rollmean_lag1_w8 city_area_weighted_percent_open_barren_rollmean_lag1_w4 city_area_weighted_percent_open_barren_rollmean_lag1_w8 city_area_weighted_percent_fishpond_rollmean_lag1_w4 city_area_weighted_percent_fishpond_rollmean_lag1_w8 city_area_weighted_percent_grassland_rollmean_lag1_w4 city_area_weighted_percent_grassland_rollmean_lag1_w8 city_area_weighted_percent_mangrove_forest_rollmean_lag1_w4 city_area_weighted_percent_mangrove_forest_rollmean_lag1_w8
feature_infos=[-1:1] [-1:1] [909262.48027323559:966910.7698846315] [290905052.4156:290905052.4156] [290.90505241559998:290.90505241559998] [3125.6331669833721:3323.8019135647719] [80:80] [0:341] [0:341] [0:341] [0:3.5315247657326996] [0:3.5315247657326996] [0:3.5315247657326996] [0:1.5110584757372441] [0:1.5110584757372441] [0:1.5110584757372441] [0:403.77764092016611] [0:403.77764092016611] [0:403.77764092016611] [74.166209495041301:89.224799485777211] [74.166209495041301:89.224799485777211] [74.166209495041301:89.224799485777211] [24.178433964655767:28.356173140545412] [24.178433964655767:28.356173140545412] [24.178433964655767:28.356173140545412] [-4.5717681780699149:5.3108736337661018] [-4.5717681780699149:5.3108736337661018] [-4.5717681780699149:5.3108736337661018] [-6.2680500182560719:5.1247667214851038] [-6.2680500182560719:5.1247667214851038] [-6.2680500182560719:5.1247667214851038] [1.39564484944224:6.8002328204854665] [1.39564484944224:6.8002328204854665] [1.39564484944224:6.8002328204854665] [3125.6331669833717:3318.541430856721] [3125.6331669833717:3318.7770881894412] [3125.6331669833717:3319.0155534938963] [3125.6331669833721:3318.541430856721] [3125.6331669833721:3318.7770881894412] [3125.6331669833721:3319.0155534938963] [0.06597045822318269:149.02606250490396] [0.34670367581884309:119.23124797939784] [75.920732847159741:87.36324422781334] [76.483294868292248:86.237507786239505] [24.524834464421016:28.067998122101869] [24.646253660584854:27.823998304699263] [-3.4486736035175789:3.6280013469861503] [-3.1133143420372855:3.131422920161175] [-4.48361272930451:3.4734894156434146] [-3.8559405516430854:3.0795858777581708] [1.7342058228275261:5.7925001460518359] [1.9506388693011207:5.3170040362056081] [3126.4705697467193:3323.0817212886418] [3128.1510842727353:3322.5235875575204] [0.39206069116144171:0.39206069116144171] [0.39206069116144171:0.39206069116144171] [8.8038756226411614:8.8038756226411614] [8.8038756226411614:8.8038756226411614] [25.626315570017983:25.626315570017983] [25.626315570017983:25.626315570017983] [21.033173411121368:21.033173411121368] [21.033173411121368:21.033173411121368] [1.2929350729991871:1.2929350729991871] [1.2929350729991871:1.2929350729991871] [3.9987213824765591:3.9987213824765591] [3.9987213824765591:3.9987213824765591] [38.056785261807292:38.056785261807292] [38.056785261807292:38.056785261807292] [0.095033994494272564:0.095033994494272564] [0.095033994494272564:0.095033994494272564] [0.13200358533077799:0.13200358533077799] [0.13200358533077799:0.13200358533077799] [0.92089829914606036:0.92089829914606036] [0.92089829914606036:0.92089829914606036] [0.040257799965338029:0.040257799965338029] [0.040257799965338029:0.040257799965338029]
tree_sizes=1390 1459 1460 1443 1443 1464 1469 1464 1448 1448 1457 1455 1461 1453 1447 1460 1452 1452 1464 1465 1482 1458 1475 1450 1467 1468 1472 1466 1468 1461 1468 1467 1464 1473 1459 1483 1495 1474 1474 1465 1463 1474 1473 1467 1499 1465 1479 1485 1483 1482 1467 1496 1491 1503 1479 1494 1513 1496 1478 1472 1476 1479 1475 1483 1498 1493 1501 1486 1481 1492 1478 1490 1492 1483 1493 1487 1502 1496 1499 1534 1506 1488 1493 1517 1508 1498 1514 1492 1496 1520 1512 1528 1526 1507 1505 1502 1487 1522 1524 1497 1514 1533 1505 1488 1549 1520 1512 1504 1520 1540 1527 1514 1520 1501 1531 1515 1520 1526 1515 1504 1517 1510 1514 1510 1517 1521 1528 1512 1581 1522 1523 1516 1511 1518 1526 1525 1537 1522 1515 1528 1539 1516 1541 1515 1562 1514 1554 1521 1534 1539 1528 1529 1513 1508 1498 1521 1533 1519 1540 1530 1521 1536 1518 1548 1512 1547 1520 1571 1505 1519 1509 1549 1529 1538 1532 1527 1565 1503 1531 1586 1525 1543 1554 1542 1532 1544 1532 1551 1519 1558 1526 1535 1536 1538 1531 1608 1530 1555 1518 1540 1550 1549 1542 1520 1509 1522 1563 1557 1565 1570 1539 1550 1538 1563 1522 1547 1520 1524 1544 1537 1560 1530 1524 1565 1553 1548 1575 1547 1545 1525 1524 1548 1525 1549 1519 1540 1580 1596 1565 1576 1531 1556 1599 1551 1525 1532 1596 1553 1524 1541 1540 1552 1581 1539 1589 1544 1570 1556 1553 1557 1559 1541 1580 1545 1590 1558 1597 1617 1565 1599 1569 1615 1542 1528 1558 1524 1532 1583 1563 1579 1563 1572 1558 1529 1539 1523 1531 1533 1571 1583 1550 1547 1551 1560 1539 1566 1539 1554 1526 1580 1590 1560 1557 1540 1540 1558 1568 1547 1533 1597 1558 1526 1560 1563 1549 1555 1560 1574 1564 1553 1525 1570 1525 1552 1583 1549 1544 1548 1600 1588 1607 1551 1539 1557 1547 1556 1563 1562 1586 1537 1578 1554 1624 1556 1550 1580 1589 1514 1535 1630 1589 1536 1560 1599 1598 1557 1569 1585 1570 1543 1562 1559 1535 1545 1536 1546 1549 1595 1590 1561 1543 1560 1546 1570 1563 1538 1526 1552 1574 1596 1529 1612 1577 1605 1558 1547 1529 1574 1518 1543 1540 1527 1567 1554 1530 1542 1551 1578 1552 1541

Tree=0
num_leaves=15
num_cat=0
split_feature=8 8 14 14 19 51 8 21 32 8 43 41 50 14
split_gain=102.287 13.3046 5.52144 4.06258 3.25902 1.79789 1.36392 1.22255 1.02917 1.00653 0.588974 0.516391 0.369021 0.301483
threshold=53.500000000000007 142.00000000000003 0.2350435699135032 1.1975936025964313 82.179170112174774 3.3909612051170659 87.500000000000014 80.094428376670166 2.121005316266102 10.500000000000002 82.883048308843598 43.797638998080366 3.2105840624546507 0.30257767974823174
decision_type=2 2 2 2 2 2 2 2 2 2 2 2 2 2
left_child=2 4 9 5 8 -3 12 -4 -2 -1 -10 -12 -6 -9
right_child=1 3 7 -5 6 -7 -8 13 10 -11 11 -13 -14 -15
leaf_value=0.56380803890276754 0.58955828717230596 0.59361425226710385 0.5793160611918261 0.60103343463106995 0.57922519644592607 0.58609938532915606 0.58310122805901299 0.57020854072492855 0.58270732178312423 0.56745831357973486 0.58332168072842161 0.58817790228312161 0.57404228958061942 0.57300585259764558
leaf_weight=120.5 69.5 101 22.5 56 24 40 68 61.5 56 156 29 61.5 25.5 79.5
leaf_count=81 15 14 11 7 11 12 23 41 23 104 11 16 17 52
internal_value=0.579146 0.588016 0.568452 0.594197 0.584364 0.591482 0.580344 0.572822 0.586552 0.565868 0.585125 0.586622 0.576555 0.571786
internal_weight=970.5 530.5 440 197 333.5 141 117.5 163.5 216 276.5 146.5 90.5 49.5 141
internal_count=438 149 289 33 116 26 51 104 65 185 50 27 28 93
is_linear=0
shrinkage=1


Tree=1
num_leaves=15
num_cat=0
split_feature=7 10 10 7 10 51 7 24 10 42 19 30 46 23
split_gain=100.488 13.525 4.50655 4.35823 1.16592 1.00461 0.966599 0.857197 0.459365 0.384284 0.368676 0.281253 0.205331 0.187922
threshold=53.500000000000007 1.2568637353722096 0.26496431707154194 188.00000000000003 0.86531815431937775 3.3909612051170659 10.500000000000002 26.879992757603006 0.42719313518296731 83.187708577257368 80.986265799541059 0.31821260486108166 -0.73408206970042522 26.819897550322239
decision_type=2 2 2 2 2 2 2 2 2 2 2 2 2 2
left_child=2 4 6 5 7 9 -1 13 -4 -3 -6 -7 -10 -2
right_child=1 3 8 -5 10 11 -8 -9 12 -11 -12 -13 -14 -15
leaf_value=-0.015264801819150039 -0.0027618499634166557 0.01038912004134694 -0.0083477359505800108 0.018982708652814231 0.0066484874664145769 0.0099620114108349422 -0.011640581709790312 0.0045644270309380119 -0.0064611251519194673 0.013533561404158428 0.0034783930155327138 0.0067742713920350339 -0.0031078744431336717 0.0011154863983392717
leaf_weight=123 45 61 97.5 72 51.5 47 143.5 28 42 82 92 53 27 14.999999999999998
leaf_count=83 28 11 65 9 16 10 96 10 28 12 33 15 16 5
internal_value=-9.90522e-05 0.00845408 -0.0108942 0.0125 0.00294887 0.0105792 -0.0133133 0.000230148 -0.00702213 0.0121922 0.00461609 0.00827251 -0.00514898 -0.00179252
internal_weight=979.5 546.5 433 315 231.5 243 266.5 88 166.5 143 143.5 100 69 60
internal_count=437 149 288 57 92 48 179 43 109 23 49 25 44 33
is_linear=0
shrinkage=0.03


Tree=2
num_leaves=15
num_cat=0
split_feature=10 7 7 7 7 7 20 7 10 50 19 1 42 27
split_gain=99.5685 13.1954 5.73901 3.56538 1.90209 1.1748 0.72956 0.692699 0.590346 0.423406 0.352367 0.235799 0.209008 0.175085
threshold=0.65988665720717121 142.00000000000003 28.500000000000004 205.00000000000003 114.50000000000001 10.500000000000002 78.006817126476804 42.500000000000007 0.86531815431937775 3.6089156281379711 81.99238715822294 -0.12053668025532321 82.244732277291163 0.40881339778348857
decision_type=2 2 2 2 2 2 2 2 2 2 2 2 2 2
left_child=2 4 5 9 6 -1 -2 -4 13 -3 -6 -9 -10 -8
right_child=1 3 7 -5 10 -7 8 11 12 -11 -12 -13 -14 -15
leaf_value=-0.014841195435463628 0.0068883485055488084 0.013259662590347804 -0.007557879297528416 0.020609126016497611 0.0091867896873657016 -0.010998791495739426 -0.0024064439824885791 -0.002249036204468991 0.0012264591539722113 0.0098772156481840168 0.0056245156612835436 -0.0053501145430510082 0.0041626212736722871 0.0016359876096248627
leaf_weight=118.5 34.5 104 96 64 73 181 27 42 31.5 49 38 46.5 71 14.999999999999998
leaf_count=80 10 16 64 8 16 121 16 25 13 10 11 30 25 6
internal_value=-0.000222529 0.00906851 -0.00995508 0.0146635 0.00488193 -0.0125191 0.00296868 -0.00579293 0.00203284 0.0121764 0.00796727 -0.00387842 0.00326029 -0.000962718
internal_weight=991 507 484 217 290 299.5 179 184.5 144.5 153 111 88.5 102.5 42
internal_count=451 131 320 34 97 201 70 119 60 26 27 55 38 22
is_linear=0
shrinkage=0.03


Tree=3
num_leaves=15
num_cat=0
split_feature=13 7 13 13 7 7 13 42 1 32 9 17 7 16
split_gain=94.0566 10.6996 7.13768 3.6176 1.65005 0.977496 0.923665 0.595252 0.467362 0.361818 0.262631 0.253946 0.216969 0.215454
threshold=0.57225874713757297 142.00000000000003 0.2619225237126746 1.1975936025964313 112.00000000000001 10.500000000000002 0.37788177795013417 83.232326922881811 -1.7225262015363449e-16 3.3265898062048991 99.500000000000014 23.579945320360064 87.500000000000014 44.296855058175751
decision_type=2 2 2 2 2 2 2 2 2 2 2 2 2 2
left_child=2 4 5 7 9 -1 -4 -3 11 10 -2 -8 -11 -6
right_child=1 3 6 -5 13 -7 8 -9 -10 12 -12 -13 -14 -15
leaf_value=-0.014316287888535138 0.007301318592258862 0.0094608295413683031 -0.0069607480346010279 0.020946312035833085 0.0086142203462595979 -0.010782858996670225 0.0010693945122572284 0.013400301048249909 -0.0050250424907514538 0.00023671045222065668 0.0033510827476328068 -0.0029906837112809478 0.0032743143657186871 0.0059382813605102329
leaf_weight=116 28 53 97.5 56 101 179.5 27 99 49.5 33 33 28.5 59 37
leaf_count=78 8 11 65 7 22 120 13 15 32 15 12 18 21 11
internal_value=2.69133e-05 0.0092321 -0.00919676 0.0144281 0.00551811 -0.0121699 -0.00485814 0.0120267 -0.00290572 0.00337267 0.00516431 -0.00101551 0.00218474 0.00789676
internal_weight=997 499 498 208 291 295.5 202.5 152 105 153 61 55.5 92 138
internal_count=448 122 326 33 89 198 128 26 63 56 20 31 36 33
is_linear=0
shrinkage=0.03


Tree=4
num_leaves=15
num_cat=0
split_feature=7 7 10 10 7 7 19 10 10 27 19 17 42 7
split_gain=91.8825 13.2624 3.48759 2.949 2.42814 0.752197 0.736622 0.699199 0.470382 0.38062 0.307604 0.304454 0.284132 0.229743
threshold=53.500000000000007 142.00000000000003 0.20752440863215593 0.92152301893344901 205.00000000000003 31.500000000000004 79.590735380949226 1.2568637353722096 0.093476585272473808 1.8937501307488096 81.99238715822294 19.363758809072596 83.568000581889862 42.500000000000007
decision_type=2 2 2 2 2 2 2 2 2 2 2 2 2 2
left_child=2 3 8 6 12 -4 -2 11 -1 -8 -9 -5 -3 -7
right_child=1 4 5 7 -6 13 9 10 -10 -11 -12 -13 -14 -15
leaf_value=-0.014006958596314055 0.0047742991724849804 0.010448680544892947 -0.009155543652697674 0.0070716337308491745 0.018513032098611194 -0.0067517168256567743 -0.0018989878859032281 0.0093963253881250101 -0.011259672851629659 0.003022524857612249 0.0062171746095021569 0.003734519968167046 0.013070256787461119 -0.0039309069377680616
leaf_weight=118.5 28 72 103 36.5 72 61.5 66 70 106.5 18 45 75.5 77 45
leaf_count=80 10 13 69 10 9 41 37 14 71 7 12 26 11 28
internal_value=0.000239186 0.00827141 -0.0101131 0.00454377 0.0139894 -0.00732765 0.000560291 0.00650919 -0.0127066 -0.000844378 0.00815231 0.00482206 0.0118035 -0.00555983
internal_weight=994.5 560 434.5 339 221 209.5 112 227 225 84 115 112 149 106.5
internal_count=438 149 289 116 33 138 54 62 151 44 26 36 24 69
is_linear=0
shrinkage=0.03


Tree=5
num_leaves=15
num_cat=0
split_feature=7 10 7 10 10 10 24 51 10 21 27 8 9 20
split_gain=82.3052 11.7557 4.15297 3.43246 0.865493 0.723222 0.826155 0.653314 0.359883 0.347287 0.253049 0.215107 0.199179 0.19135
threshold=53.500000000000007 1.2568637353722096 188.00000000000003 0.26496431707154194 0.093476585272473808 0.92152301893344901 26.879992757603006 3.4914001209695535 0.45919165576252169 82.147513644432578 1.8937501307488096 132.50000000000003 104.50000000000001 84.228559284399282
decision_type=2 2 2 2 2 2 2 2 2 2 2 2 2 2
left_child=3 5 7 4 -1 6 10 9 -5 -3 13 -9 -7 -2
right_child=1 2 -4 8 -6 12 -8 11 -10 -11 -12 -13 -14 -15
leaf_value=-0.013664814297076874 -0.00082957061298657205 0.0084955167710781092 0.017430169055988261 -0.0071426115930080412 -0.010290959578769694 0.0055791821945266624 0.0045490549279140757 0.0086418648476296288 -0.0041286153307951547 0.011515229852921371 0.0023757634138349784 0.0055838589128610252 0.0029474435917831755 -0.0045745760405605492
leaf_weight=113 48 50 77 118.5 173.5 48.5 35.5 47 51 109 16.5 37 55.5 16.5
leaf_count=76 25 11 10 79 116 14 13 10 32 15 7 11 21 11
internal_value=-0.000232985 0.00768621 0.0113588 -0.00961966 -0.0116217 0.0023563 0.000732976 0.00943501 -0.00623575 0.0105656 -0.000939504 0.00729489 0.00417474 -0.0017876
internal_weight=996.5 540.5 320 456 286.5 220.5 116.5 243 169.5 159 81 84 104 64.5
internal_count=451 148 57 303 192 91 56 47 111 26 43 21 35 36
is_linear=0
shrinkage=0.03


Tree=6
num_leaves=15
num_cat=0
split_feature=7 10 10 7 10 20 7 20 26 26 50 7 41 49
split_gain=74.0446 10.5646 3.04042 2.33472 1.9627 0.785527 0.543575 0.471021 0.3399 0.33556 0.317295 0.282637 0.263903 0.221739
threshold=53.500000000000007 1.4845030248503333 0.18687919788489671 188.00000000000003 0.92152301893344901 81.104441710871143 28.500000000000004 84.166394176866206 1.2313639985128264 0.43738192770419859 3.9336167206341037 10.500000000000002 47.826497209057891 0.71543284696665976
decision_type=2 2 2 2 2 2 2 2 2 2 2 2 2 2
left_child=2 4 11 10 5 -2 -4 8 9 -6 -3 -1 13 -7
right_child=1 3 6 -5 7 12 -8 -9 -10 -11 -12 -13 -14 -15
leaf_value=-0.013059327873316677 0.0036421882521949314 0.0108110579313376 -0.0087851172383061511 0.016294862480906697 0.0058789268549341352 -0.0014117603631396041 -0.0059050687598254607 0.0021930351074446329 0.0044085496613247835 0.0093649743611995979 0.0079145072959363461 -0.010648831129074096 -0.0035718773128954988 0.0030945250336080789
leaf_weight=115.5 47.5 117 98.5 77 68.5 28.5 147 33 66 39 48 70.5 28.5 14.999999999999998
leaf_count=78 17 19 66 10 20 16 98 12 21 7 11 47 18 6
internal_value=0.000115741 0.00723267 -0.00925255 0.0119814 0.00370756 0.0006476 -0.00706061 0.00547833 0.0061032 0.00714363 0.00996843 -0.0121457 -0.001328 0.000142131
internal_weight=999.5 568 431.5 242 326 119.5 245.5 206.5 173.5 107.5 165 186 72 43.5
internal_count=446 157 289 40 117 57 164 60 48 27 30 125 40 22
is_linear=0
shrinkage=0.03


Tree=7
num_leaves=15
num_cat=0
split_feature=7 10 10 10 10 19 7 21 19 41 42 10 1 25
split_gain=68.6589 10.0485 3.01841 2.57612 2.05094 0.832179 0.654524 0.566434 0.350362 0.319525 0.296639 0.293447 0.190622 0.174157
threshold=53.500000000000007 1.4845030248503333 0.26496431707154194 2.3121443831778543 0.92152301893344901 79.78250940457464 10.500000000000002 81.921904798863721 80.71114647982219 47.826497209057891 82.367986516492323 0.45919165576252169 -0.40966402954315212 -1.5283317613951624
decision_type=2 2 2 2 2 2 2 2 2 2 2 2 2 2
left_child=2 4 6 7 5 -2 -1 -3 10 13 -6 -4 -10 -7
right_child=1 3 11 -5 8 9 -8 -9 12 -11 -12 -13 -14 -15
leaf_value=-0.012765248407961421 0.0048223667556665977 0.0066849406769401145 -0.0067891047828781753 0.017331357172557287 0.0047632651614981725 -0.0024299585480581629 -0.0097803660749168509 0.010841574574058706 0.0059756947060426073 -0.0036634632262090841 0.008380323276742473 -0.0040228620587114353 0.003322796637550095 0.001268582484871149
leaf_weight=120.5 26.5 38 114 56 37 16.5 146.5 132 36 31.5 45.5 49.5 75.5 37.5
leaf_count=81 9 10 76 7 12 10 98 19 10 21 10 31 25 15
internal_value=-0.000254588 0.00695317 -0.00916173 0.0117508 0.00340985 0.000177421 -0.0111275 0.00991244 0.00527599 -0.00126224 0.00675813 -0.00595162 0.00417934 0.000138473
internal_weight=962.5 532 430.5 226 306 112 267 170 194 85.5 82.5 163.5 111.5 54
internal_count=434 148 286 36 112 55 179 29 57 46 22 107 35 25
is_linear=0
shrinkage=0.03


Tree=8
num_leaves=15
num_cat=0
split_feature=7 10 10 10 10 7 40 24 16 10 24 8 24 31
split_gain=69.5211 11.2409 2.81947 2.69644 1.62572 0.649818 0.648663 0.631387 0.423774 0.30882 0.27204 0.225703 0.222377 0.181201
threshold=53.500000000000007 1.4845030248503333 2.3121443831778543 0.18687919788489671 0.92152301893344901 28.500000000000004 81.921287194783233 26.879992757603006 21.250204471494254 0.093476585272473808 26.39985718677887 65.000000000000014 26.566253862809194 2.8634425953371183
decision_type=2 2 2 2 2 2 2 2 2 2 2 2 2 2
left_child=3 4 6 9 7 -5 10 11 12 -1 -3 -2 -6 -10
right_child=1 2 -4 5 8 -7 -8 -9 13 -11 -12 -13 -14 -15
leaf_value=-0.012628580674029994 -0.0028081900101493704 0.0098178417342049736 0.017275380268692971 -0.0084895915112781929 0.0081259043400104224 -0.0054760516339835402 0.012177668338020642 0.003828518207411508 0.0051228278392070042 -0.01017325286431746 0.006820005290210247 0.0003759177157874493 0.0052254322427706642 0.0023816825108868736
leaf_weight=104.5 33 63 64 116.5 39 144 72 37 37 82.5 48 51 61 52.5
leaf_count=70 21 10 8 78 8 95 10 14 11 55 12 23 18 19
internal_value=1.00827e-05 0.00707929 0.0118555 -0.0087968 0.00327988 -0.00682376 0.00995998 0.000563279 0.00501448 -0.0115453 0.00852148 -0.000874982 0.00635662 0.00351489
internal_weight=1005 557.5 247 447.5 310.5 260.5 183 121 189.5 187 111 84 100 89.5
internal_count=452 154 40 298 114 173 32 58 56 125 22 44 26 30
is_linear=0
shrinkage=0.03


Tree=9
num_leaves=15
num_cat=0
split_feature=7 10 7 10 42 10 24 7 22 7 18 32 42 51
split_gain=64.6291 9.90847 2.47051 2.36566 0.95614 0.637019 0.543535 0.453038 0.422155 0.312894 0.286592 0.240738 0.191208 0.191094
threshold=53.500000000000007 1.2568637353722096 205.00000000000003 0.19738280066257413 83.030323275715617 0.86531815431937775 26.914880902268376 28.500000000000004 26.637612648376347 10.500000000000002 20.504260267447485 3.3574842822139348 82.545669011136468 2.556107939719968
decision_type=2 2 2 2 2 2 2 2 2 2 2 2 2 2
left_child=3 5 4 9 12 6 -2 -5 -6 -1 -7 -12 -3 -9
right_child=1 2 -4 7 8 10 -8 13 -10 -11 11 -13 -14 -15
leaf_value=-0.011913476505397279 -0.0012582767848937733 0.0056672867440751614 0.015420854575932025 -0.0080716997260198552 0.0086161840741988266 0.00087460515597327182 0.0039047485336661334 -0.0027273612256561003 0.011867331600770716 -0.0096013909386050318 0.0055593146602897076 0.0026915936592385309 0.0081518976151943208 -0.0058550119529374766
leaf_weight=121.5 69 63 64 95.5 64 33 25 21 82 93 51 54.5 50 108
leaf_count=82 38 17 8 64 12 14 9 13 11 62 15 19 9 72
internal_value=-5.51814e-05 0.00674348 0.0101428 -0.00865804 0.00883857 0.00202097 0.000114868 -0.0065054 0.0104422 -0.010911 0.00331465 0.00407789 0.00676667 -0.00534586
internal_weight=994.5 555.5 323 439 259 232.5 94 224.5 146 214.5 138.5 105.5 113 129
internal_count=445 152 57 293 49 95 47 149 23 144 48 34 26 85
is_linear=0
shrinkage=0.03


Tree=10
num_leaves=15
num_cat=0
split_feature=7 7 10 7 10 7 50 24 51 10 9 19 21 22
split_gain=55.3583 6.78157 2.77292 1.89695 0.757283 0.629217 0.506995 0.453763 0.349679 0.315697 0.281885 0.227873 0.200762 0.178964
threshold=53.500000000000007 115.50000000000001 0.26496431707154194 188.00000000000003 0.86531815431937775 10.500000000000002 3.47752963439715 26.879992757603006 4.3715231355551776 0.42719313518296731 104.50000000000001 82.050905102617406 82.634743023798379 26.264192816485572
decision_type=2 2 2 2 2 2 2 2 2 2 2 2 2 2
left_child=2 4 5 6 7 -1 12 -2 10 -4 -6 -8 -3 -11
right_child=1 3 9 -5 8 -7 11 -9 -10 13 -12 -13 -14 -15
leaf_value=-0.011684829927980899 -0.00099465171409183714 0.007759916814890775 -0.0063608609512448315 0.013402275542418161 0.0057999630965465728 -0.0087809474238606747 0.0071998674130958054 0.0038320270973317169 0.00099894921210679139 -0.0048628548445070491 0.0027357948889895792 0.0041369966603815554 0.010205731827821305 -0.0018423158820304606
leaf_weight=120 69 55 100.5 72 64.5 152.5 69 23.5 33 51 46.5 32 67 27
leaf_count=81 37 11 67 9 18 102 15 8 13 34 17 10 10 16
internal_value=-0.000425315 0.00613437 -0.00815585 0.00916854 0.00234968 -0.0100597 0.00780159 0.000231586 0.00371026 -0.00524938 0.00451633 0.00622945 0.00910311 -0.00381728
internal_weight=982.5 531.5 451 295 236.5 272.5 223 92.5 144 178.5 111 101 122 78
internal_count=448 148 300 55 93 183 46 45 48 117 35 25 21 50
is_linear=0
shrinkage=0.03


Tree=11
num_leaves=15
num_cat=0
split_feature=7 10 10 7 7 10 24 10 8 51 12 19 1 21
split_gain=52.843 6.36894 2.24984 2.18558 0.526464 0.512317 0.385928 0.293499 0.290349 0.254027 0.226762 0.175868 0.130752 0.106056
threshold=53.500000000000007 1.7524344842667652 0.26496431707154194 95.000000000000014 10.500000000000002 1.2568637353722096 26.879992757603006 0.45919165576252169 87.500000000000014 3.4042020833076045 1.2756459816891388 81.99238715822294 1.0000000180025095e-35 82.17842235173373
decision_type=2 2 2 2 2 2 2 2 2 2 2 2 2 2
left_child=2 3 4 6 -1 10 8 -4 13 -7 -5 -11 -9 -2
right_child=1 -3 7 5 -6 9 -8 12 -10 11 -12 -13 -14 -15
leaf_value=-0.01129977952211331 -0.00028343641716572972 0.012079914331436157 -0.0060944507613375385 0.0051471852407205939 -0.0086519348938018086 0.0080044288047262137 0.0035504711866378783 -0.0012416763355334599 0.0019042005157098175 0.0067686365493412667 0.0023146413293267999 0.0042368499570807749 -0.0045425878630744087 -0.0029812821219949159
leaf_weight=117 27 120 111 64.5 160 74 35 18 36 58 42 43 27 25.5
leaf_count=79 14 16 74 18 107 14 13 10 13 13 16 13 18 17
internal_value=-0.00038918 0.00600959 -0.0081475 0.00421097 -0.00977034 0.0056707 0.000883743 -0.00526592 -0.000170896 0.0066691 0.00403013 0.00569075 -0.00322222 -0.00159382
internal_weight=958 525 433 405 277 281.5 123.5 156 88.5 175 106.5 101 45 52.5
internal_count=435 147 288 131 186 74 57 102 44 40 34 26 28 31
is_linear=0
shrinkage=0.03


Tree=12
num_leaves=15
num_cat=0
split_feature=10 7 7 7 10 7 7 24 28 20 16 32 10 9
split_gain=53.7066 6.78915 3.37643 1.72865 0.945222 0.634019 0.606887 0.519421 0.414533 0.408279 0.303991 0.276015 0.236169 0.162838
threshold=0.65988665720717121 142.00000000000003 28.500000000000004 205.00000000000003 1.0762363096517544 10.500000000000002 42.500000000000007 26.914880902268376 1.103944642131188 82.729979455239672 23.589544422066933 3.4795703851050992 0.8989971966446918 115.50000000000001
decision_type=2 2 2 2 2 2 2 2 2 2 2 2 2 2
left_child=2 4 5 8 9 -1 -4 -8 -3 11 13 -2 -11 -6
right_child=1 3 6 -5 10 -7 7 -9 -10 12 -12 -13 -14 -15
leaf_value=-0.010853008267320231 0.00533654524193656 0.0075038224423632904 -0.0055950928340523925 0.014771488197147846 0.0076226336238059134 -0.0080650801016795975 -0.0031746599104168802 0.0029415209447183916 0.010532395312419304 -0.0030591368605382739 0.0035307628729637584 0.0016577347243825595 0.0011495100846514105 0.00510221132816574
leaf_weight=121.5 31 85 88.5 64 44 185.5 64.5 15.499999999999998 78 18 58 45 36 48.5
leaf_count=82 10 16 59 8 9 124 42 6 12 12 18 17 13 13
internal_value=-5.12079e-05 0.00673638 -0.00729558 0.0105935 0.00361492 -0.00916845 -0.00388331 -0.00198965 0.00895308 0.00174115 0.00523347 0.0031583 -0.000253372 0.00630111
internal_weight=983 507.5 475.5 227 280.5 307 168.5 80 163 130 150.5 76 54 92.5
internal_count=441 128 313 36 92 206 107 48 28 52 40 27 25 22
is_linear=0
shrinkage=0.03


Tree=13
num_leaves=15
num_cat=0
split_feature=7 10 10 2 10 20 7 10 7 20 18 16 16 7
split_gain=49.5159 8.57327 2.22686 2.00594 1.06551 0.500944 0.432463 0.372239 0.30043 0.269697 0.284585 0.26616 0.181596 0.169585
threshold=53.500000000000007 1.4845030248503333 0.20752440863215593 965346.59866060421 0.92152301893344901 82.198063680545616 42.500000000000007 1.7524344842667652 10.500000000000002 84.166394176866206 20.504260267447485 19.363758809072596 21.250204471494254 28.500000000000004
decision_type=2 2 2 2 2 2 2 2 2 2 2 2 2 2
left_child=2 4 8 7 5 11 13 -3 -1 10 -6 -2 -12 -4
right_child=1 3 6 -5 9 -7 -8 -9 -10 -11 12 -13 -14 -15
leaf_value=-0.010686399161288168 0.0038733962731989655 0.0070010277944452621 -0.0070454816458856359 0.014375956853230794 0.0024586363255486381 -0.0017750063238610677 -0.0029792413453438452 0.0097846113348549063 -0.0084405913247781635 0.0015445495904846623 0.0061308281180950308 7.0899995043873781e-05 0.0038420855225278776 -0.005184392293793012
leaf_weight=113 37 85 85 72 45.5 51 52.5 88 102 33 78 30 52 91.5
leaf_count=76 13 18 57 9 16 30 33 12 68 12 19 13 16 61
internal_value=8.74437e-05 0.00592642 -0.00742827 0.0101682 0.00274349 0.000465401 -0.00536964 0.00841695 -0.00962095 0.00403276 0.00450063 0.00217079 0.00521533 -0.00608067
internal_weight=1015.5 571.5 444 245 326.5 118 229 173 215 208.5 175.5 67 130 176.5
internal_count=453 158 295 39 119 56 151 30 144 63 51 26 35 118
is_linear=0
shrinkage=0.03


Tree=14
num_leaves=15
num_cat=0
split_feature=10 7 10 10 7 42 20 7 51 19 50 31 51 21
split_gain=51.4208 4.81897 4.63748 2.36271 1.15804 0.625793 0.597794 0.536428 0.422714 0.339987 0.347255 0.196751 0.186986 0.147008
threshold=0.8871444186577232 233.50000000000003 0.29942632616094073 1.3193316155782036 53.500000000000007 82.780923237556948 81.387730194986219 10.500000000000002 3.1717636105852698 80.754434768057379 3.7109136662282034 4.250824751768981 2.7823543097691639 80.71114647982219
decision_type=2 2 2 2 2 2 2 2 2 2 2 2 2 2
left_child=2 3 7 9 12 -5 -6 -1 -7 10 -2 -8 -4 -11
right_child=1 -3 4 5 6 8 11 -9 -10 13 -12 -13 -14 -15
leaf_value=-0.01030743100220644 0.0069172931064006892 0.015611064944948468 -0.0026078475233887064 0.00567784033782248 0.0029204955121830984 0.010439842516376125 -0.0038595194830314109 -0.0076747791943024592 0.0076019339775666595 0.00070293961837887759 0.0029530940431396701 0.00025691397657448594 -0.0051760169951866062 0.003212986531268273
leaf_weight=118.5 43 56 33 70 34 93 28.5 169 96 30 37 16.5 112.5 70
leaf_count=80 10 7 21 17 12 12 19 113 17 12 13 9 75 22
internal_value=0.000428774 0.00732336 -0.00623689 0.00626616 -0.00300589 0.00810093 -8.17769e-05 -0.00875989 0.00899837 0.00362614 0.00508385 -0.00235016 -0.00459355 0.00245997
internal_weight=1007 495 512 439 224.5 259 79 287.5 189 180 80 45 145.5 100
internal_count=439 110 329 103 136 46 40 193 29 57 23 28 96 34
is_linear=0
shrinkage=0.03


Tree=15
num_leaves=15
num_cat=0
split_feature=10 7 7 10 7 11 40 48 12 19 30 8 51 35
split_gain=44.919 5.59113 2.92082 1.36482 1.02121 0.65427 0.624092 0.451714 0.423724 0.277623 0.215011 0.208541 0.151253 0.118437
threshold=0.65988665720717121 142.00000000000003 31.500000000000004 2.3121443831778543 112.00000000000001 0.15578791250329369 84.194346529832686 -0.096218964998452575 0.85401691699895343 81.99238715822294 0.58014550144962829 110.50000000000001 2.9096161543731998 3216.1431349333639
decision_type=2 2 2 2 2 2 2 2 2 2 2 2 2 2
left_child=2 4 5 6 7 -1 -3 11 12 -6 -9 -2 -4 -7
right_child=1 3 8 -5 9 13 -8 10 -10 -11 -12 -13 -14 -15
leaf_value=-0.0095959753550101667 -0.00029848629122842911 0.0066388093387142995 -0.0023817844499416391 0.013765879869461059 0.0065303067297461511 -0.005382856217523416 0.01032738837328824 0.0051407799669713882 0.00073518439434295472 0.0035602783922885741 0.0021277650004873673 0.0030000559507828688 -0.0045612216903828081 -0.0073297622106998344
leaf_weight=160.5 69 89 43.5 56 83 36 77 40.5 21.5 43 45 23 84 128.5
leaf_count=108 32 18 28 7 18 24 10 12 10 13 17 8 55 86
internal_value=5.76901e-05 0.00609784 -0.00663872 0.009716 0.00345128 -0.00823327 0.00834978 0.00198511 -0.0031607 0.00551673 0.00355498 0.000526149 -0.00381765 -0.00690369
internal_weight=999.5 525.5 474 222 303.5 325 166 177.5 149 126 85.5 92 127.5 164.5
internal_count=446 135 311 35 100 218 28 69 93 31 29 40 83 110
is_linear=0
shrinkage=0.03


Tree=16
num_leaves=15
num_cat=0
split_feature=10 7 7 21 7 7 41 19 47 7 16 19 31 42
split_gain=45.3001 5.61071 2.60766 1.66982 1.21145 0.455854 0.420998 0.328342 0.315225 0.285266 0.251557 0.168554 0.158402 0.126788
threshold=0.65988665720717121 142.00000000000003 28.500000000000004 80.094428376670166 114.50000000000001 10.500000000000002 76.032937290243481 82.729979455239672 0.41559469606420629 42.500000000000007 28.149650470335313 80.986265799541059 3.3574842822139348 82.399445309935473
decision_type=2 2 2 2 2 2 2 2 2 2 2 2 2 2
left_child=2 4 5 -3 6 -1 8 -6 12 -4 -5 -10 -2 -7
right_child=1 3 9 10 7 13 -8 -9 11 -11 -12 -13 -14 -15
leaf_value=-0.0096696978139679465 0.0018392120508684052 0.013621823480769769 -0.0048484871016135286 0.006706927060275464 0.0065843537889738023 -0.0079638926881664199 0.0053411613460981619 0.0030660691251978276 0.004044771229291891 -0.0024782916204214604 0.0090622207587891888 0.0011229326694526455 -0.00097505656743629117 -0.0063613560605867234
leaf_weight=120.5 27 67 94.5 74 94 106 26.5 32 38.5 88.5 91 33 54 76.5
leaf_count=81 9 10 63 14 19 71 8 10 13 55 12 13 27 51
internal_value=0.000106042 0.00611175 -0.00652989 0.00962775 0.00343728 -0.00823767 0.00185099 0.00569082 0.0012445 -0.00370225 0.00800591 0.00269623 -3.6967e-05 -0.00729214
internal_weight=1023 537 486 232 305 303 179 126 152.5 183 165 71.5 81 182.5
internal_count=456 135 321 36 99 203 70 29 62 118 26 26 36 122
is_linear=0
shrinkage=0.03


Tree=17
num_leaves=15
num_cat=0
split_feature=10 10 7 7 40 7 7 16 10 23 51 51 51 19
split_gain=42.1351 4.82157 2.3307 1.76295 0.682681 0.452541 0.445143 0.425126 0.282739 0.278173 0.245329 0.213143 0.1658 0.151334
threshold=0.65988665720717121 1.2568637353722096 28.500000000000004 205.00000000000003 84.194346529832686 50.500000000000007 10.500000000000002 20.71998807163143 0.91181317203622558 26.049363642882522 3.4042020833076045 3.331898999049435 3.467737479655995 81.99238715822294
decision_type=2 2 2 2 2 2 2 2 2 2 2 2 2 2
left_child=2 7 6 4 10 11 -1 12 -9 -7 -3 -4 -2 -12
right_child=1 3 5 -5 -6 9 -8 8 -10 -11 13 -13 -14 -15
leaf_value=-0.0093557776564901513 0.005108912383453755 0.0071068909522649408 -0.002959709341662961 0.012287381986776988 0.0095968885784563796 0.0015892433487745218 -0.0069679191646316975 -0.0012017385063406367 0.0020435760067555849 -0.0031826897847155727 0.0060511525706811384 -0.0054120747491717336 0.0023854525387287137 0.0036259985407814384
leaf_weight=110 39.5 111 55.5 72 69 21.5 194.5 39 63.5 22.5 55 75 41 40
leaf_count=74 11 19 35 9 9 11 130 21 22 15 12 50 15 12
internal_value=0.000202272 0.00603038 -0.00624636 0.00810834 0.00701419 -0.00348201 -0.00783053 0.00209019 0.000808773 -0.00085095 0.00614912 -0.00436911 0.00372181 0.00503004
internal_weight=1009 530 479 347 275 174.5 304.5 183 102.5 44 206 130.5 80.5 95
internal_count=445 130 315 61 52 111 204 69 43 26 43 85 26 24
is_linear=0
shrinkage=0.03


Tree=18
num_leaves=15
num_cat=0
split_feature=10 7 10 2 7 9 32 21 41 29 30 51 34 46
split_gain=36.6811 4.35595 2.79477 1.87843 0.512905 0.465023 0.33792 0.296569 0.308182 0.207985 0.205275 0.108305 0.104218 0.0979465
threshold=0.65988665720717121 115.50000000000001 0.31979691426058071 965346.59866060421 15.500000000000002 82.500000000000014 3.3574842822139348 83.842960847881159 53.74689147523474 -0.061980465633554714 0.62886771794633523 2.5644336449392218 3214.6042051990466 1.1047980303594889
decision_type=2 2 2 2 2 2 2 2 2 2 2 2 2 2
left_child=2 6 4 7 -1 11 10 8 -3 -8 -2 -4 -6 -13
right_child=1 3 5 -5 12 -7 9 -9 -10 -11 -12 13 -14 -15
leaf_value=-0.008786764494397423 0.0049584616410850296 0.0043085073874546929 -0.0017736117132008075 0.011918342426419258 -0.0041833647588888807 0.0016600980307604817 0.00013805605407634917 0.0084445169142314362 0.0069567734563704764 0.0026959482853365418 0.0020284479930996894 -0.004138355768450043 -0.0066300104361427716 -0.0016470169038935139
leaf_weight=165 50.5 65 30 80 18 18.5 66 56 101 50.5 37.5 102 121 16.5
leaf_count=111 14 17 19 10 12 8 28 7 19 17 15 68 81 10
internal_value=8.35203e-05 0.00568761 -0.00594296 0.00797698 -0.00765575 -0.00282506 0.00230673 0.00655667 0.0059198 0.00124684 0.00370988 -0.00338381 -0.00631318 -0.00379146
internal_weight=977.5 506.5 471 302 304 167 204.5 222 166 116.5 88 148.5 139 118.5
internal_count=436 127 309 53 204 105 74 43 36 45 29 97 93 78
is_linear=0
shrinkage=0.03


Tree=19
num_leaves=15
num_cat=0
split_feature=7 10 2 7 20 10 10 7 24 1 29 41 35 30
split_gain=34.1447 4.97954 1.87614 1.23171 0.586983 0.493527 0.479344 0.263256 0.246822 0.256478 0.246759 0.167347 0.102824 0.0919597
threshold=51.500000000000007 1.2568637353722096 965346.59866060421 15.500000000000002 78.242467907425493 1.7524344842667652 0.77226874275984059 28.500000000000004 26.432378704652127 -0.51639395938746235 1.0505611121043763 48.290301710836822 3216.1431349333639 -0.51289339831279801
decision_type=2 2 2 2 2 2 2 2 2 2 2 2 2 2
left_child=3 4 5 -1 -2 8 11 12 -3 -10 13 -6 -5 -8
right_child=1 2 -4 7 6 -7 10 -9 9 -11 -12 -13 -14 -15
leaf_value=-0.0084640479700082739 0.0049414641542147985 0.0067151021018420172 0.012480475200074059 -0.0042223771015803017 0.00033090342301875356 0.0083780831813812257 0.001632964337510722 -0.0042217887895689759 0.0057838773027974735 0.0024997770570610697 0.0035095437605153113 -0.0030691192867724516 -0.0064331174580084171 -0.00041736996777000883
leaf_weight=165.5 39.5 73 56 22.5 24 75 52.5 132 49 38 51 28.5 119.5 31.5
leaf_count=111 12 14 7 15 12 10 19 88 10 12 17 19 80 13
internal_value=-0.000270225 0.00494806 0.00754593 -0.00642056 0.00161775 0.00637004 0.000917557 -0.00518627 0.00542877 0.00434944 0.00186348 -0.00151482 -0.00608282 0.000864089
internal_weight=957.5 518 291 439.5 227 235 187.5 274 160 87 135 52.5 142 84
internal_count=439 145 53 294 92 46 80 183 36 22 49 31 95 32
is_linear=0
shrinkage=0.03


Tree=20
num_leaves=15
num_cat=0
split_feature=7 7 21 13 16 13 28 16 43 51 11 23 7 41
split_gain=33.9972 5.10806 1.63615 1.45331 0.979495 0.425248 0.368849 0.362316 0.320148 0.464266 0.310282 0.181781 0.168493 0.157882
threshold=53.500000000000007 142.00000000000003 78.618638013662192 0.18857231491060739 20.71998807163143 0.64805165595641101 -1.3160504110448938 28.149650470335313 83.16666990547786 2.8738304572263247 0.35334279999013013 25.763669001710905 10.500000000000002 47.826497209057891
decision_type=2 2 2 2 2 2 2 2 2 2 2 2 2 2
left_child=3 4 -3 12 6 13 -2 -4 9 -8 -5 -7 -1 -6
right_child=1 2 7 10 5 11 8 -9 -10 -11 -12 -13 -14 -15
leaf_value=-0.0086078239517447391 -0.00029533105529844759 0.012637370196171104 0.0054773829432276933 -0.0054328726769815525 3.8689620047807689e-05 0.0043123165231484639 -0.00037153252042256869 0.0083602492958307264 0.0069949145041979278 0.0046580332564190021 -0.003199080432326916 0.0013775181358164929 -0.0069111579945010521 -0.0032893795634691531
leaf_weight=121.5 14.999999999999998 64 77 124 37.5 26 19.5 80 39 108 102 70.5 93 19.5
leaf_count=82 7 9 15 83 17 7 10 10 8 28 66 25 62 13
internal_value=0.000121964 0.00505415 0.00859443 -0.00610345 0.00271862 0.000954679 0.00421044 0.00694636 0.00461636 0.00388881 -0.0044247 0.00216824 -0.00787221 -0.00109986
internal_weight=996.5 556 221 440.5 335 153.5 181.5 157 166.5 127.5 226 96.5 214.5 57
internal_count=442 149 34 293 115 62 53 25 46 38 149 32 144 30
is_linear=0
shrinkage=0.03


Tree=21
num_leaves=15
num_cat=0
split_feature=7 7 8 7 16 19 7 17 20 7 7 41 42 1
split_gain=29.8168 4.94793 1.32261 1.31873 0.646296 0.419461 0.291072 0.278252 0.243013 0.205795 0.197066 0.195645 0.16521 0.129893
threshold=53.500000000000007 155.00000000000003 24.500000000000004 95.000000000000014 14.494897197117455 79.590735380949226 14.500000000000002 12.841413572594183 83.744268036595813 71.500000000000014 42.500000000000007 42.518947102101812 82.948870806664004 -0.12053668025532321
decision_type=2 2 2 2 2 2 2 2 2 2 2 2 2 2
left_child=2 3 6 5 -3 -2 -1 -5 11 -7 -4 -9 -13 -12
right_child=1 4 10 7 -6 9 -8 8 -10 -11 13 12 -14 -15
leaf_value=-0.0080463247095231595 0.0034599003711572058 0.011598674314001859 -0.0044783022904359704 0.0065194811853202615 0.0076320414561213863 -0.0021172404161619919 -0.0060416835105937452 0.0026561786234378815 0.001453895444671313 0.00059928805101662865 -0.00021690740560491878 0.0036692103655899268 0.0058570136760289849 -0.0033606590298206908
leaf_weight=150.5 32.5 59 123 37 99 40.5 115 54.5 36 66 18 59.5 65 34.5
leaf_count=101 11 8 82 7 14 25 77 17 13 28 10 17 13 23
internal_value=-3.32845e-05 0.00463295 -0.00584228 0.0028225 0.00911325 0.00047663 -0.00717802 0.00411646 0.00370291 -0.000433758 -0.00382153 0.00415523 0.00481144 -0.0022828
internal_weight=990 549 441 391 158 139 265.5 252 215 106.5 175.5 179 124.5 52.5
internal_count=446 153 293 131 22 64 178 67 60 53 115 47 30 33
is_linear=0
shrinkage=0.03


Tree=22
num_leaves=15
num_cat=0
split_feature=7 7 7 11 41 20 10 10 42 48 11 18 2 8
split_gain=29.8485 4.07083 2.46021 1.44734 0.609818 0.544307 0.362063 0.251465 0.169039 0.257416 0.156671 0.131623 0.122535 0.081907
threshold=53.500000000000007 233.50000000000003 112.00000000000001 0.26496431707154194 88.804301360694623 79.411265714684575 0.77226874275984059 0.12711434721294632 82.780923237556948 0.80575823582413764 0.41508082580377609 68.704044208015134 944531.24892679125 43.500000000000007
decision_type=2 2 2 2 2 2 2 2 2 2 2 2 2 2
left_child=3 2 5 7 8 -2 11 -1 -4 -10 -5 -7 -8 -12
right_child=1 -3 4 10 -6 6 12 -9 9 -11 13 -13 -14 -15
leaf_value=-0.0080011791704244131 0.0041532517812278083 0.013189092129468918 0.0040937511226598255 -0.0043498409937681821 0.0085617898298161361 -0.00049206133388603722 0.0028143979517996987 -0.0061439552824748191 0.004415633955872373 0.0068054598004653535 -0.0013170750616561797 -0.0038369059264659884 0.00070699426884713928 -0.003298361822962761
leaf_weight=129.5 51.5 48 94 87 56 36 44 133 76 87 31.5 14.999999999999998 57 46.5
leaf_count=87 16 6 23 58 8 19 15 89 17 13 19 10 23 31
internal_value=0.000303601 0.00483219 0.00405555 -0.00567625 0.00572504 0.00148775 0.000584634 -0.00706019 0.00510691 0.00569119 -0.00347453 -0.00147584 0.00162507 -0.00249823
internal_weight=992 564.5 516.5 427.5 313 203.5 152 262.5 257 163 165 51 101 78
internal_count=434 150 144 284 61 83 67 176 53 30 108 29 38 50
is_linear=0
shrinkage=0.03


Tree=23
num_leaves=15
num_cat=0
split_feature=7 7 11 13 22 20 16 13 16 11 51 1 20 24
split_gain=28.5597 4.36602 1.063 1.0476 0.745528 0.482391 0.350044 0.271599 0.270279 0.180718 0.173359 0.14857 0.177753 0.269808
threshold=51.500000000000007 166.00000000000003 0.26496431707154194 0.76718760670343855 26.811263948159908 82.17842235173373 21.250204471494254 0.089362148123491872 12.581471606681808 1.086195304283667 3.3160679423738091 -0.61559370248597534 81.792148838501035 26.566253862809194
decision_type=2 2 2 2 2 2 2 2 2 2 2 2 2 2
left_child=2 3 7 5 -3 6 8 -1 -2 -7 -4 -5 13 -13
right_child=1 4 10 11 -6 9 -8 -9 -10 -11 -12 12 -14 -15
leaf_value=-0.0079219097892443344 0.0025004790348437012 0.0065776021713795868 -0.0023981148514308427 0.0058199529922925508 0.01079759126686188 -0.00093024251625892966 0.00061047467270067756 -0.0060238119493881605 0.0063535002619028091 0.0020837188605219124 -0.0044867704049102028 0.00464517307835956 0.0050343250966555361 0.001199380365701822
leaf_weight=117 39.5 69 57 52 83 70.5 42 161.5 28 24 96 43 74 39
leaf_count=79 15 9 36 10 11 36 17 108 6 9 64 10 16 13
internal_value=9.17659e-05 0.00453632 -0.00571757 0.00293308 0.00888194 0.00140556 0.00276079 -0.00682122 0.00409877 -0.000164792 -0.00370864 0.00443123 0.00396832 0.00300632
internal_weight=995.5 564 431.5 412 152 204 109.5 278.5 67.5 94.5 153 208 156 82
internal_count=439 152 287 132 20 83 38 187 21 45 100 49 39 23
is_linear=0
shrinkage=0.03


Tree=24
num_leaves=15
num_cat=0
split_feature=10 10 8 41 10 28 19 19 32 43 10 21 10 12
split_gain=22.4193 3.08235 1.07583 1.00794 0.342888 0.307008 0.349153 0.262517 0.251257 0.190806 0.159036 0.127239 0.114995 0.120752
threshold=0.53953296803229955 1.2568637353722096 24.500000000000004 86.33586020549329 0.86531815431937775 1.0505611121043763 81.935406173405894 79.78250940457464 3.3574842822139348 83.294364899320215 0.093476585272473808 83.035838168446375 0.34186686474788164 0.26913497238616396
decision_type=2 2 2 2 2 2 2 2 2 2 2 2 2 2
left_child=2 4 10 5 7 -3 -7 -2 9 -6 -1 -9 -4 -14
right_child=1 3 12 -5 8 6 -8 11 -10 -11 -12 -13 13 -15
leaf_value=-0.0075714364551728768 0.0026523969680070877 0.0036154386392805013 -0.004491750627445678 0.0092534006852656604 0.0022377930865767077 0.0071720463390413085 0.0038140014389699151 9.4077930815758239e-05 0.00085741274502305757 0.005281623035669326 -0.0060778276740935198 -0.0024118877188302576 -0.00056556093760512093 -0.0034002592548727987
leaf_weight=108.5 25 89 72 64 48.5 76 44 46.5 63 30 157 30 16.5 75
leaf_count=73 9 21 48 9 17 12 11 22 24 8 105 19 10 50
internal_value=-0.000441553 0.00377172 -0.00550927 0.00595928 0.0013141 0.00495055 0.00594076 -1.64737e-05 0.00226854 0.00340104 -0.00668821 -0.000888654 -0.00359485 -0.00288908
internal_weight=945 516 429 273 243 209 120 101.5 141.5 78.5 265.5 76.5 163.5 91.5
internal_count=438 152 286 53 99 44 23 50 49 25 178 41 108 60
is_linear=0
shrinkage=0.03


Tree=25
num_leaves=15
num_cat=0
split_feature=13 22 11 7 7 13 24 11 1 26 32 43 7 26
split_gain=23.9442 2.90323 2.30607 1.2895 0.400987 0.399457 0.375285 0.235707 0.18209 0.321256 0.177839 0.177831 0.0980033 0.0796209
threshold=0.62342706180830187 27.772622438683737 0.34186686474788164 114.50000000000001 14.500000000000002 1.0124431103327016 26.879992757603006 0.59012054423617655 0.5163939593874618 1.2313639985128264 3.3574842822139348 83.22484262751594 57.500000000000007 -2.8511837589361142
decision_type=2 2 2 2 2 2 2 2 2 2 2 2 2 2
left_child=2 3 4 10 -1 8 7 13 9 -5 11 -2 -9 -4
right_child=1 -3 6 5 -6 -7 -8 12 -10 -11 -12 -13 -14 -15
leaf_value=-0.0071961923931774339 0.0014960726648569106 0.012550348164730295 -0.0045532766611952524 0.0064818941996647762 -0.0050175257219127346 0.006731859920024872 0.0014031331674619154 -0.002405395954847336 0.0027978476743365441 0.0033011112668934989 0.00055516610118119347 0.0046558075930391036 0.00019397818847842837 -0.0027096336649696305
leaf_weight=142.5 37.5 43 28.5 65 163 125 27.5 21 43 51 57 28 34.5 81
leaf_count=96 14 6 19 10 109 17 12 14 13 13 22 8 16 54
internal_value=0.000117622 0.00513736 -0.00441325 0.00435321 -0.00603376 0.00546292 -0.00184147 -0.00238224 0.00446533 0.00508345 0.00178049 0.0028468 -0.000789569 -0.00318949
internal_weight=947.5 449.5 498 406.5 305.5 284 192.5 165 159 116 122.5 65.5 55.5 109.5
internal_count=423 103 320 97 205 53 115 103 36 23 44 22 30 73
is_linear=0
shrinkage=0.03


Tree=26
num_leaves=15
num_cat=0
split_feature=7 13 13 7 24 42 48 7 7 33 30 22 34 28
split_gain=22.6687 3.08867 1.10201 0.89359 0.444012 0.346598 0.333892 0.307785 0.252683 0.161109 0.152998 0.123566 0.12136 0.101643
threshold=53.500000000000007 0.81395273727786843 0.18857231491060739 188.00000000000003 26.914880902268376 83.030323275715617 0.80575823582413764 87.500000000000014 31.500000000000004 3.4795703851050992 0.44905083916669336 26.785930305843603 3210.033847807525 -2.3153805489698605
decision_type=2 2 2 2 2 2 2 2 2 2 2 2 2 2
left_child=2 4 -1 5 7 -3 -7 9 12 -2 -6 -10 -4 -11
right_child=1 3 8 -5 10 6 -8 -9 11 13 -12 -13 -14 -15
leaf_value=-0.0066900394444769995 -0.0025339647902077752 0.0034793108710369398 -0.0028790739923715588 0.0085863279945710119 0.0051979347670243845 0.004263586726571832 0.0071916767917101889 0.001900816055120162 -0.0030563678512407931 -0.0017562136460434307 0.002275194159708917 -0.00012850066460669041 -0.0051651497410761344 0.0010371538205072282
leaf_weight=211.5 28.5 86 27 85 27 63 79 79.5 96 16.5 40 14.999999999999998 92.5 40.5
leaf_count=142 18 21 18 11 7 14 11 26 64 10 15 8 62 17
internal_value=-7.77208e-05 0.00401667 -0.00512623 0.00596104 0.00139343 0.00498232 0.00589259 0.000557116 -0.00369132 -0.00069229 0.00345302 -0.00266071 -0.00464863 0.000228547
internal_weight=987 545 442 313 232 228 142 165 230.5 85.5 67 111 119.5 57
internal_count=444 150 294 57 93 46 25 71 152 45 22 72 80 27
is_linear=0
shrinkage=0.03


Tree=27
num_leaves=15
num_cat=0
split_feature=10 7 10 20 10 20 40 16 7 19 9 28 51 43
split_gain=24.1251 3.26604 1.19474 0.89073 0.536207 0.413951 0.312632 0.254247 0.216145 0.208323 0.199741 0.145441 0.144286 0.133872
threshold=0.65988665720717121 142.00000000000003 0.23886946294010888 78.618638013662192 1.1629720479082777 82.793829310935806 81.921287194783233 23.589544422066933 42.500000000000007 81.99238715822294 9.5000000000000018 1.2599287321214316 2.7823543097691639 82.957022940025993
decision_type=2 2 2 2 2 2 2 2 2 2 2 2 2 2
left_child=2 4 10 -3 5 7 -5 -2 12 13 -1 -10 -4 -6
right_child=1 3 8 6 9 -7 -8 -9 11 -11 -12 -13 -14 -15
leaf_value=-0.0072021166742711829 0.003766093479394913 0.010476284812567597 -0.0017230972647666932 0.004998584610747767 0.0036742250295355916 -0.00057797575090080496 0.007569395765662193 0.00077921725038824412 -0.0025622791934090303 0.0023318589190603235 -0.0054358485002930345 0.00069709992222487921 -0.0042496435586990931 0.0059651625427332789
leaf_weight=103.5 62.5 59 24 91 48 60 80 43.5 69 48 130 14.999999999999998 133.5 44
leaf_count=70 19 8 16 16 12 28 10 17 45 13 87 8 89 8
internal_value=0.000234203 0.00459679 -0.00468864 0.00729793 0.00256653 0.00141324 0.0062013 0.00254035 -0.0032092 0.00393399 -0.00621876 -0.00198025 -0.00386465 0.00476989
internal_weight=1011 536 475 230 306 166 171 106 241.5 140 233.5 84 157.5 92
internal_count=446 131 315 34 97 64 26 36 158 33 157 53 105 20
is_linear=0
shrinkage=0.03


Tree=28
num_leaves=15
num_cat=0
split_feature=7 22 10 10 10 7 10 22 20 8 20 17 50 51
split_gain=21.2129 2.79566 1.8117 1.19689 0.437131 0.357 0.301295 0.244269 0.198712 0.140441 0.133813 0.114068 0.186792 0.109672
threshold=75.500000000000014 27.772622438683737 0.29942632616094073 1.2568637353722096 1.7524344842667652 50.500000000000007 0.093476585272473808 25.943618950313084 81.792148838501035 119.50000000000001 83.567927654871568 19.363758809072596 3.1174892282095157 2.556107939719968
decision_type=2 2 2 2 2 2 2 2 2 2 2 2 2 2
left_child=2 3 6 10 8 13 -1 -7 9 -5 11 -2 -13 -4
right_child=1 -3 5 4 -6 7 -8 -9 -10 -11 -12 12 -14 -15
leaf_value=-0.0069010797858238219 0.0036117027203241983 0.011215602089377011 -0.00097354915279608491 0.0042008181475102898 0.0064994896278468836 0.0015752592786658006 -0.0049342953670589674 -0.0017667565197759382 0.0051633253351256649 0.0017446892217267305 0.00037136127722674401 0.0034489765900831957 0.00053881985957131664 -0.0034059135758547814
leaf_weight=112.5 40.5 51 19.5 44 109 30.5 186 55.5 74 40 43.5 32.5 51 115.5
leaf_count=76 12 7 12 10 14 15 124 32 14 12 17 10 20 77
internal_value=6.23107e-05 0.00457085 -0.00415116 0.00379092 0.00503803 -0.0020922 -0.00567555 -0.000581507 0.00402981 0.00303123 0.00180298 0.00230521 0.00167152 -0.00305457
internal_weight=1005 485.5 519.5 434.5 267 221 298.5 86 158 84 167.5 124 83.5 135
internal_count=452 116 336 109 50 136 200 47 36 22 59 42 30 89
is_linear=0
shrinkage=0.03


Tree=29
num_leaves=15
num_cat=0
split_feature=13 13 13 13 22 33 9 31 9 17 30 13 22 25
split_gain=18.7825 3.21347 0.884709 0.675434 0.548958 0.31456 0.227194 0.202599 0.204062 0.196303 0.139167 0.127773 0.17452 0.12469
threshold=0.43147894702996775 1.0124431103327016 0.2350435699135032 0.68975632041185042 26.819897550322239 2.0048145821658152 9.5000000000000018 3.2468920313162246 119.50000000000001 71.537246373655307 1.0452269475773248 0.35570899726455818 26.292666467282867 -1.7030877222139047
decision_type=2 2 2 2 2 2 2 2 2 2 2 2 2 2
left_child=2 3 6 5 -3 -2 -1 8 -5 -9 -10 -4 -13 -7
right_child=1 4 11 7 -6 13 -8 9 10 -11 -12 12 -14 -15
leaf_value=-0.0068060144048240319 0.003663856749827007 0.0054965457929806276 -0.0035314017686654221 0.004815737471142981 0.0091623814421963965 -0.0016824709173095852 -0.0049930626467004956 0.0010178881992987537 0.0014374022802190953 0.0041859777214435434 0.0038847696817209637 -0.0029196358944422432 0.00042986770027450148 0.00060389814866257125
leaf_weight=99.5 26.5 66 99 94 83 28.5 166 54.5 38 26 46.5 42 21 87
leaf_count=67 9 9 66 19 11 17 111 19 12 6 11 28 12 38
internal_value=0.000110415 0.0037767 -0.00460644 0.00237889 0.00753859 0.000716063 -0.00567249 0.00329055 0.00385402 0.00204112 0.00278418 -0.0028593 -0.00180313 3.97292e-05
internal_weight=977.5 550 427.5 401 149 142 265.5 259 178.5 80.5 84.5 162 63 115.5
internal_count=435 151 284 131 20 64 178 67 42 25 23 106 40 55
is_linear=0
shrinkage=0.03


Tree=30
num_leaves=15
num_cat=0
split_feature=10 22 10 10 51 24 10 28 45 43 24 8 27 26
split_gain=18.0497 2.042 1.47564 0.936833 0.319751 0.314635 0.241166 0.18701 0.159453 0.131909 0.11241 0.10057 0.085755 0.0855107
threshold=0.77226874275984059 27.68273330475758 0.31979691426058071 1.2568637353722096 3.4914001209695535 26.879992757603006 0.093476585272473808 1.6571487044542994 26.701526800900577 83.538211156267423 26.566253862809194 108.50000000000001 -0.072454772102222717 -3.2301721707256297
decision_type=2 2 2 2 2 2 2 2 2 2 2 2 2 2
left_child=2 3 6 8 7 13 -1 -5 9 11 -6 12 -2 -4
right_child=1 -3 5 4 10 -7 -8 -9 -10 -11 -12 -13 -14 -15
leaf_value=-0.0064204546523420778 -0.0012247443922302301 0.010673894695937634 -0.0042962641440905062 0.004537346666492522 0.0042437097777922941 0.00089636974647396895 -0.0046578459120283156 0.0064637173012078528 0.0035995128512382505 0.003221374229927148 0.0020857008371136286 0.0019476671104735517 0.0010695387099100195 -0.0021694999807147998
leaf_weight=109.5 25.5 40 19.5 100 45 30.5 193 83 37.5 28 42 47 34.5 133.5
leaf_count=74 13 6 13 17 10 14 129 11 11 8 12 16 12 86
internal_value=7.23427e-05 0.00418266 -0.00400837 0.00359588 0.00469922 -0.00188592 -0.00529588 0.00541106 0.00186892 0.0013882 0.00320191 0.00090849 9.44684e-05 -0.00244056
internal_weight=968.5 482.5 486 442.5 270 183.5 302.5 183 172.5 135 87 107 60 153
internal_count=432 116 316 110 50 113 203 28 60 49 22 41 25 99
is_linear=0
shrinkage=0.03


Tree=31
num_leaves=15
num_cat=0
split_feature=10 22 7 10 22 16 10 32 1 42 49 19 34 19
split_gain=17.5351 2.27067 1.82047 0.473 0.364633 0.276663 0.270572 0.228384 0.280034 0.154507 0.178938 0.17366 0.150059 0.14599
threshold=0.86531815431937775 27.772622438683737 31.500000000000004 1.7524344842667652 27.035502523544135 58.036118650294874 0.093476585272473808 4.074670277617642 0.61559370248597578 82.761107575325255 2.2835498491953925 79.411265714684575 3186.8229123817773 84.688148477251545
decision_type=2 2 2 2 2 2 2 2 2 2 2 2 2 2
left_child=2 3 6 5 7 9 -1 13 -9 10 11 -2 -11 -4
right_child=1 -3 4 -5 -6 -7 -8 8 -10 12 -12 -13 -14 -15
leaf_value=-0.0062467215657234188 0.0035640201365782151 0.010321836804642395 -0.0032735634653935906 0.0053631319017103402 0.0017589001662351869 0.00098584901577639344 -0.0044468011711788482 -0.0019657129103628295 0.0024617411373183129 0.0052635658590689943 0.0041122341035357253 0.00050107901980137005 0.0031850235979922494 -0.00070674464051776072
leaf_weight=115 27 51 91.5 101 27.5 51.5 217 36 20 57.5 44 43.5 68.5 25.5
leaf_count=77 7 7 61 14 10 18 145 24 7 11 10 16 17 16
internal_value=-3.62405e-05 0.00436634 -0.00370712 0.00359349 -0.00144995 0.00298138 -0.00507027 -0.00196002 -0.000384479 0.0034087 0.00261104 0.00167412 0.00413356 -0.00271413
internal_weight=976.5 444 532.5 393 200.5 292 332 173 56 240.5 114.5 70.5 126 117
internal_count=440 100 340 93 118 79 222 108 31 61 33 23 28 77
is_linear=0
shrinkage=0.03


Tree=32
num_leaves=15
num_cat=0
split_feature=10 22 10 10 20 10 11 44 48 10 9 29 43 42
split_gain=16.0062 2.68597 1.32595 0.65095 0.407356 0.302634 0.167254 0.219019 0.341583 0.132519 0.125423 0.124036 0.116989 0.114117
threshold=0.53953296803229955 27.772622438683737 1.2568637353722096 0.20752440863215593 78.242467907425493 0.77226874275984059 1.9591160430789591 26.604402966668548 0.80575823582413764 0.42719313518296731 9.5000000000000018 2.0738621548899192 83.294364899320215 82.028665449636293
decision_type=2 2 2 2 2 2 2 2 2 2 2 2 2 2
left_child=3 2 4 10 -2 -6 7 8 -4 13 -1 12 -7 -5
right_child=1 -3 6 9 5 11 -8 -9 -10 -11 -12 -13 -14 -15
leaf_value=-0.006186786151450613 0.0037382711063731798 0.010012181589708609 0.0026649404472361008 -0.00472083344398176 -0.0014825811128442487 -0.00010731684693763423 0.0055462689511477942 0.0017330299768792954 0.0053637825281304466 -0.0018635494923096543 -0.0047151600888797208 0.0024536290945428789 0.0022295878123153338 -0.0030124094613647244
leaf_weight=103.5 44 51 72 51 49.5 64.5 64 38 102 57 105 49.5 27.5 113.5
leaf_count=70 13 7 18 34 30 26 8 10 16 37 70 16 9 76
internal_value=0.000113956 0.00344726 0.00279206 -0.0042426 0.00113593 0.000536432 0.00420217 0.0037964 0.00424702 -0.00311013 -0.00544568 0.00124273 0.000591214 -0.00354207
internal_weight=992 562 511 430 235 191 276 212 174 221.5 208.5 141.5 92 164.5
internal_count=440 153 146 287 94 81 52 44 34 147 140 51 35 110
is_linear=0
shrinkage=0.03


Tree=33
num_leaves=15
num_cat=0
split_feature=10 8 22 11 10 51 16 16 51 20 26 11 41 29
split_gain=14.9752 2.74566 1.01636 0.665888 0.441546 0.298937 0.239873 0.190148 0.165649 0.165433 0.147193 0.130861 0.115308 0.0951777
threshold=0.53953296803229955 142.00000000000003 27.508899531464625 0.26496431707154194 0.92152301893344901 3.3742481462537 19.363758809072596 5.5637239264688398 2.8044770541880943 83.567927654871568 2.1171815649330781 0.15578791250329369 45.738710969662222 1.103944642131188
decision_type=2 2 2 2 2 2 2 2 2 2 2 2 2 2
left_child=3 4 5 11 6 -3 7 -2 -5 10 13 -1 -8 -6
right_child=1 2 -4 8 9 -7 12 -9 -10 -11 -12 -13 -14 -15
leaf_value=-0.0056323139589457283 -0.00023780629477080175 0.0056021432150708565 0.0093041686867845457 -0.0003422633928130381 0.0027268082446466053 0.0028200404866124094 1.5516812979642833e-05 0.0032994586911241886 -0.0030426608777918813 0.00075547373543183012 0.0014026437323577333 -0.0043109999389498166 -0.0024567655464144129 0.0044090926323247992
leaf_weight=157.5 25.5 101 58 24 88.5 53 42 29.5 138 45 50.5 118 28.5 46
leaf_count=106 14 14 8 15 25 12 20 9 92 16 16 79 18 9
internal_value=1.89642e-06 0.00321726 0.00591944 -0.00416889 0.00160584 0.00464467 0.000174533 0.00165945 -0.0026426 0.00238683 0.00278364 -0.00506638 -0.000983916 0.00330216
internal_weight=1005 567.5 212 437.5 355.5 154 125.5 55 162 230 185 275.5 70.5 134.5
internal_count=453 161 34 292 127 26 61 23 107 66 50 185 38 34
is_linear=0
shrinkage=0.03


Tree=34
num_leaves=15
num_cat=0
split_feature=7 22 10 11 30 25 43 47 33 7 11 51 33 7
split_gain=15.1164 2.5186 1.43574 0.618112 0.252416 0.248136 0.243036 0.16568 0.236068 0.157066 0.134599 0.115821 0.114004 0.111068
threshold=53.500000000000007 27.772622438683737 1.2568637353722096 0.25753228971836378 2.12672235640329 -1.7485628982740302 83.538211156267423 1.4537583790292501 3.3396899982247352 85.500000000000014 0.15578791250329369 3.4914001209695535 3.1777202248781422 42.500000000000007
decision_type=2 2 2 2 2 2 2 2 2 2 2 2 2 2
left_child=3 2 5 10 11 9 7 8 -7 -2 -1 12 -4 -5
right_child=1 -3 4 13 -6 6 -8 -9 -10 -11 -12 -13 -14 -15
leaf_value=-0.005514219019463972 -0.0021563551261236792 0.010017625615000724 0.0051025999315194226 -0.003118408796639749 0.005616610995654402 -0.0012722663526181822 0.004129117316887026 0.0026111973427674347 0.0016330506408909209 0.00099323839782492103 -0.004070029938989814 0.0027875444627826723 0.0033100010379080156 -0.0014673455056446768
leaf_weight=152 28.5 48 67 130.5 87 40.5 30.5 51 66.5 28.5 94 79 61 51
leaf_count=102 18 6 10 87 12 21 8 16 24 10 63 20 12 32
internal_value=0.000309352 0.00343238 0.00284648 -0.00398253 0.0042607 0.00115288 0.00167735 0.00120406 0.000533375 -0.000581558 -0.00496237 0.00369082 0.00424831 -0.00265447
internal_weight=1015 587.5 539.5 427.5 294 245.5 188.5 158 107 57 246 207 128 181.5
internal_count=441 157 151 284 54 97 69 61 45 28 165 42 22 119
is_linear=0
shrinkage=0.03


Tree=35
num_leaves=15
num_cat=0
split_feature=10 10 41 10 19 41 34 24 28 10 51 8 12 1
split_gain=12.3068 1.84948 0.750147 0.637025 0.220297 0.334688 0.188253 0.183647 0.215539 0.13227 0.093668 0.0920102 0.0897248 0.0838939
threshold=0.53953296803229955 1.2568637353722096 86.33586020549329 0.18687919788489671 80.754434768057379 50.033162014216352 3191.0267958279514 26.39985718677887 3.0538784103069898 0.7864956712684027 2.9096161543731998 42.500000000000007 0.062314796213759314 -0.51639395938746235
decision_type=2 2 2 2 2 2 2 2 2 2 2 2 2 2
left_child=3 4 7 12 5 -2 11 -3 -9 13 -8 -5 -1 -6
right_child=1 2 -4 6 9 -7 10 8 -10 -11 -12 -13 -14 -15
leaf_value=-0.0058611941267462334 0.00021294478883557931 0.0043205170477413346 0.0068185870153829459 -0.0020522144095351299 0.0002727140433021954 0.0041625481741885614 -0.0020010817336539428 0.0018713874148016563 0.0045226597040891646 0.00072850210508748658 -0.0035503534317249431 0.00087824955582618705 -0.00456345033201135 -0.0022262319878331924
leaf_weight=85 41 121 80 27 21 36.5 45 89 40 100.5 160 14.999999999999998 110 28.5
leaf_count=57 17 21 11 18 12 10 30 23 6 38 107 8 74 17
internal_value=-0.00010869 0.0028554 0.00429009 -0.00384734 0.000774319 0.00207308 -0.00283539 0.00348097 0.00269349 0.000103292 -0.00321027 -0.00100562 -0.00512913 -0.00116607
internal_weight=999.5 557.5 330 442 227.5 77.5 247 250 129 150 205 42 195 49.5
internal_count=449 155 61 294 94 27 163 50 29 67 137 26 131 29
is_linear=0
shrinkage=0.03


Tree=36
num_leaves=15
num_cat=0
split_feature=10 10 22 11 20 21 42 11 51 10 51 33 40 21
split_gain=11.9956 1.84443 0.692736 0.486605 0.308918 0.22371 0.130681 0.126704 0.121811 0.108297 0.106997 0.0834091 0.0826242 0.0798413
threshold=0.53953296803229955 1.2568637353722096 27.68273330475758 0.25753228971836378 78.242467907425493 81.921904798863721 83.152161514342751 0.9420480105969733 2.7823543097691639 0.063991478976915039 3.6999012551896455 3.4060806826666643 31.433899769456925 83.148325258298755
decision_type=2 2 2 2 2 2 2 2 2 2 2 2 2 2
left_child=3 4 5 9 -2 -3 -7 10 13 -1 11 -6 -11 -5
right_child=1 2 -4 8 7 6 -8 -9 -10 12 -12 -13 -14 -15
leaf_value=-0.0055174811052683308 0.0033197499274075786 0.0025016206256239797 0.0076629011283786781 0.00038429091374079388 -0.0010718201659619807 0.0032351330911310817 0.0050474550659241882 0.0012047641250837061 -0.0029982811269046888 -0.0049985242051922753 -0.0021124054782558233 0.0010808149378539788 -0.0036186879425076767 -0.0025792443789541724
leaf_weight=90.5 39.5 74 53 18 27 52 115 87.5 133.5 69 24 40.5 90 14.999999999999998
leaf_count=61 12 19 8 11 15 10 16 32 89 46 14 18 60 10
internal_value=-6.6056e-05 0.00300609 0.00455761 -0.00385085 0.000918458 0.00387471 0.00448314 0.000388564 -0.00259485 -0.00468903 -0.000391955 0.000219761 -0.00421748 -0.000962771
internal_weight=928.5 512.5 294 416 218.5 241 167 179 166.5 249.5 91.5 67.5 159 33
internal_count=421 144 53 277 91 45 26 79 110 167 47 33 106 21
is_linear=0
shrinkage=0.03


Tree=37
num_leaves=15
num_cat=0
split_feature=7 10 7 14 44 20 51 24 24 22 8 12 2 34
split_gain=11.4428 1.87367 0.667388 0.58218 0.314926 0.224978 0.224977 0.156439 0.155737 0.137622 0.128357 0.117054 0.102222 0.117748
threshold=53.500000000000007 1.2568637353722096 205.00000000000003 0.23156775760723583 26.604402966668548 82.17842235173373 2.895148323777653 26.914880902268376 26.414421684079979 26.545809932246218 104.50000000000001 0.062314796213759314 962397.44803591457 3307.6533126194636
decision_type=2 2 2 2 2 2 2 2 2 2 2 2 2 2
left_child=3 5 4 11 6 7 -3 9 -8 -2 -7 -1 13 -5
right_child=1 2 -4 12 -6 10 8 -9 -10 -11 -12 -13 -14 -15
leaf_value=-0.0054503331026610202 -0.00075084060652270198 0.0055117693563570842 0.0072825063126427782 -0.0023277308764426334 0.0015066385240892746 -0.00076936980672014338 0.004297200656895127 0.0028245143877423328 0.002276005821687908 0.0019824560736971244 0.001516666715964675 -0.0041013226177050799 -0.0044480619703729943 0.0004666533060371876
leaf_weight=85 31.5 74 56 142.5 49 84 84 57.5 58 35 30 181.5 18 14.999999999999998
leaf_count=57 15 10 7 93 12 42 15 18 14 12 11 122 12 10
internal_value=-4.08877e-05 0.00281128 0.00430682 -0.00364804 0.003678 0.000794189 0.00417057 0.00167858 0.00347164 0.000687737 -0.000167781 -0.00453159 -0.00230636 -0.0020616
internal_weight=1001 559 321 442 265 238 216 124 142 66.5 114 266.5 175.5 157.5
internal_count=450 156 58 294 51 98 39 45 29 27 53 179 115 103
is_linear=0
shrinkage=0.03


Tree=38
num_leaves=15
num_cat=0
split_feature=7 10 7 10 16 16 22 42 48 9 9 21 51 7
split_gain=11.5193 1.56392 0.713891 0.530386 0.235722 0.209507 0.170873 0.160374 0.257884 0.157187 0.111682 0.104675 0.131738 0.0667524
threshold=53.500000000000007 1.2568637353722096 188.00000000000003 0.26496431707154194 20.71998807163143 9.2036273774108235 26.888393001617334 83.030323275715617 0.80575823582413764 67.500000000000014 6.5000000000000009 82.25003322973798 3.4112622135414439 42.500000000000007
decision_type=2 2 2 2 2 2 2 2 2 2 2 2 2 2
left_child=3 4 7 10 5 6 -2 -3 -9 -6 -1 12 -5 -13
right_child=1 2 -4 11 9 -7 -8 8 -10 -11 -12 13 -14 -15
leaf_value=-0.0052993628818814344 -0.00067146493172913328 0.0026697837757185482 0.0067352382615208624 0.00027826321409328987 -0.0017503554315159194 0.0035040807658258603 0.0028326770160780395 0.0026630805561254764 0.0052973857333388514 0.00076837001123079439 -0.0039720146761834619 -0.0031722045918258857 -0.0028531959280371664 -0.0015403660573065281
leaf_weight=82 30 117 80 28.5 28.5 51 21.5 58 79 102.5 187.5 79.5 21 31.5
leaf_count=55 15 26 10 17 17 15 7 13 11 40 126 53 14 21
internal_value=0.000140829 0.00294709 0.00426388 -0.00356279 0.00106355 0.00214114 0.000791429 0.0034855 0.00418213 0.000220403 -0.00437588 -0.0021975 -0.00105023 -0.00270912
internal_weight=997.5 567.5 334 430 233.5 102.5 51.5 254 137 131 269.5 160.5 49.5 111
internal_count=440 154 60 286 94 37 22 50 24 57 181 105 31 74
is_linear=0
shrinkage=0.03


Tree=39
num_leaves=15
num_cat=0
split_feature=7 7 13 11 19 34 42 13 43 51 21 13 1 1
split_gain=10.9035 1.93722 0.70793 0.546356 0.445862 0.197524 0.179319 0.160291 0.140312 0.120239 0.111389 0.107361 0.0848723 0.0685314
threshold=53.500000000000007 233.50000000000003 0.84127754615036532 0.26496431707154194 80.754434768057379 3186.8229123817773 81.929133845633871 0.57225874713757297 82.825543449045199 2.8044770541880943 81.921904798863721 0.040830072216693464 -0.51639395938746235 -0.1799261722714405
decision_type=2 2 2 2 2 2 2 2 2 2 2 2 2 2
left_child=3 2 4 11 6 10 -2 12 -7 -5 -4 -1 -6 -9
right_child=1 -3 5 9 7 8 -8 13 -10 -11 -12 -13 -14 -15
leaf_value=-0.0053676057656606036 0.00082491055395064966 0.0080676672501223418 0.0028955992692431738 -0.00033032969985571171 8.6468400965843874e-05 0.003237995210549106 0.0034907503362665783 0.0020307647044008428 0.00100479582301341 -0.0025137638770239916 0.0047585508024150678 -0.00399304170329212 -0.0024564558841908969 0.00030146974562243978
leaf_weight=67.5 33.5 56 43 27 21 69 70.5 27.5 40 142.5 88 211 27 82.5
leaf_count=46 12 7 10 17 12 13 18 9 10 95 11 141 17 31
internal_value=-2.32287e-05 0.00277528 0.0021849 -0.00350887 0.00110665 0.00336199 0.00263204 0.000102587 0.00241847 -0.00216596 0.00414705 -0.00432619 -0.00134393 0.000733793
internal_weight=1006 558 502 448 262 240 104 158 109 169.5 131 278.5 48 110
internal_count=449 150 143 299 99 44 30 69 23 112 21 187 29 40
is_linear=0
shrinkage=0.03


Tree=40
num_leaves=15
num_cat=0
split_feature=10 10 11 10 24 30 10 17 30 9 7 17 42 28
split_gain=9.47708 1.28655 1.13168 0.415431 0.370015 0.228745 0.197013 0.132462 0.120816 0.111731 0.140111 0.0906444 0.0924901 0.0886159
threshold=0.86531815431937775 2.5731807598378054 0.35334279999013013 1.3193316155782036 26.914880902268376 2.0342817029516844 0.16618535207269947 19.363758809072596 2.5066013106365674 112.00000000000001 181.50000000000003 71.537246373655307 83.187708577257368 -3.1215309465450929
decision_type=2 2 2 2 2 2 2 2 2 2 2 2 2 2
left_child=2 3 6 7 8 9 -1 -2 13 -5 -11 12 -9 -4
right_child=1 -3 4 5 -6 -7 -8 11 -10 10 -12 -13 -14 -15
leaf_value=-0.0045472650702244469 0.0028553127079874604 0.0082831116914749148 -0.0037942669292291 0.0037746096046810799 0.0019536622909500315 0.0048259114574741675 -0.0031149400226782296 0.0010187331587076186 0.00088454104621301993 0.0011508123987975219 0.003417395979166031 0.0018813636800540344 -0.0013504841526349386 -0.0015206660922720198
leaf_weight=168 45.5 40 18 66 34 74 178 43.5 16.5 54 45 52.5 22.5 108
leaf_count=113 13 5 12 12 13 10 119 16 6 16 6 16 10 70
internal_value=-7.6436e-05 0.00315149 -0.00281322 0.00264215 -0.00085841 0.00344004 -0.0038104 0.00147937 -0.00152936 0.00281849 0.00218108 0.00095106 0.000211045 -0.00184547
internal_weight=965.5 443 522.5 403 176.5 239 346 164 142.5 165 99 118.5 66 126
internal_count=437 104 333 99 101 44 232 55 88 34 22 42 26 82
is_linear=0
shrinkage=0.03


Tree=41
num_leaves=15
num_cat=0
split_feature=7 7 7 10 24 19 43 21 11 12 51 50 43 47
split_gain=9.10611 1.18816 0.949978 0.31287 0.262577 0.207161 0.171012 0.134767 0.121415 0.115632 0.152626 0.0879323 0.102372 0.0791499
threshold=75.500000000000014 28.500000000000004 188.00000000000003 1.4845030248503333 26.879992757603006 82.507630560832339 83.16666990547786 82.386718737084337 0.15578791250329369 0.53407796299780697 3.6999012551896455 3.1174892282095157 81.413204704805054 -2.4045482833104459
decision_type=2 2 2 2 2 2 2 2 2 2 2 2 2 2
left_child=1 8 3 5 9 6 11 -5 -1 13 -11 -2 -13 -3
right_child=2 4 -4 7 -6 -7 -8 -9 -10 10 -12 12 -14 -15
leaf_value=-0.0044290205234696406 0.0027998567057006497 -0.0008860930505519112 0.0060488296821713441 0.0024077437974272232 0.0012300761193037033 0.000594433338240825 0.0038242264401237916 0.0041949079010863699 -0.0032255898800264129 0.00053325139669080574 -0.0024928944483399392 0.0023239663615822791 -7.2221031068297822e-05 -0.0025919424238450384
leaf_weight=161 42.5 36 80 62 40 84.5 53 98 142 45 22.5 30 34.5 76.5
leaf_count=108 11 24 10 14 17 30 12 14 95 24 15 9 12 51
internal_value=9.85038e-05 -0.00264662 0.00306176 0.00247099 -0.000968517 0.00179605 0.00243066 0.00350238 -0.00386504 -0.00145709 -0.000475464 0.00174039 0.00104228 -0.00204607
internal_weight=1007.5 523 484.5 404.5 220 244.5 160 160 303 180 67.5 107 64.5 112.5
internal_count=446 334 112 102 131 74 44 28 203 114 39 32 21 75
is_linear=0
shrinkage=0.03


Tree=42
num_leaves=15
num_cat=0
split_feature=7 10 11 20 7 18 16 26 9 30 35 43 11 26
split_gain=7.86054 1.0199 0.450673 0.233727 0.233579 0.138245 0.197186 0.156609 0.110756 0.265835 0.10041 0.0961217 0.0777989 0.129996
threshold=53.500000000000007 1.3193316155782036 0.26496431707154194 84.228559284399282 181.50000000000003 20.504260267447485 21.250204471494254 0.43738192770419859 112.00000000000001 1.1460966203637513 3274.3779489957456 83.101591516617603 0.35334279999013013 -2.8511837589361142
decision_type=2 2 2 2 2 2 2 2 2 2 2 2 2 2
left_child=2 3 10 5 8 -2 -7 -8 -3 -10 -1 -5 -4 -14
right_child=1 4 12 11 -6 6 7 -9 9 -11 -12 -13 13 -15
leaf_value=-0.0026371087630589801 0.00022636766208613171 0.0037343678599142511 -0.0026522754457719783 -0.0028715851327235043 0.0049356937002051956 0.0027830093200400209 -0.00099977189302444453 0.0019540961461939981 0.00061253498348220168 0.0037030273269523274 -0.0040700052960721007 5.6401130400205917e-06 -0.003227682175005183 -0.00076602486208221824
leaf_weight=54 70.5 92 70.5 16.5 77 85.5 30 35 46 55 238 28.5 25.5 79.5
leaf_count=36 30 17 47 10 10 24 15 11 14 9 160 12 17 51
internal_value=-0.000239876 0.00223981 -0.0030829 0.000921376 0.00353872 0.00132265 0.0018362 0.000590772 0.00298137 0.00229548 -0.00380502 -0.00104934 -0.00188143 -0.00136386
internal_weight=1003.5 536 467.5 266 270 221 150.5 65 193 101 292 45 175.5 105
internal_count=463 152 311 102 50 80 50 26 40 23 196 22 115 68
is_linear=0
shrinkage=0.03


Tree=43
num_leaves=15
num_cat=0
split_feature=10 22 10 7 35 48 18 18 40 24 43 1 26 10
split_gain=7.74918 1.27627 1.03645 0.432489 0.222531 0.211698 0.168757 0.18231 0.154121 0.178401 0.142502 0.10877 0.0924745 0.086524
threshold=0.86531815431937775 27.772622438683737 0.42719313518296731 142.00000000000003 3274.3779489957456 1.9363357680130997 20.504260267447485 41.655899575380083 39.989711596371315 26.456044957348279 83.810458747307067 -0.29696027566504651 -1.8591098719267001 0.041675081356246493
decision_type=2 2 2 2 2 2 2 2 2 2 2 2 2 2
left_child=2 3 4 6 12 10 -2 -8 -5 -10 -4 -9 -1 -6
right_child=1 -3 5 8 13 -7 7 11 9 -11 -12 -13 -14 -15
leaf_value=-0.0029025456794472626 0.00025913568853866306 0.0080479953289031986 -0.00121275048855838 0.0020982382932677865 -0.0047421438585628162 0.0023340849093226499 0.0031940296516843034 0.0025700257718563077 0.0055151830613613126 0.0032322039498492725 0.0017154549730612949 0.00042253621216049462 -0.0011126833087925251 -0.0034786968802744374
leaf_weight=64.5 64 40 124.5 50 66 21.5 73 33 48 86 17 59.5 43.5 187
leaf_count=43 23 5 74 9 45 8 18 9 6 14 9 20 29 125
internal_value=5.9821e-05 0.00293105 -0.00242511 0.00243606 -0.00332164 -0.000439521 0.00156732 0.00207321 0.00351962 0.00404999 -0.000860952 0.00118867 -0.00218163 -0.00380829
internal_weight=977.5 453.5 524 413.5 361 163 229.5 165.5 184 134 141.5 92.5 108 253
internal_count=437 104 333 99 242 91 70 47 29 20 83 29 72 170
is_linear=0
shrinkage=0.03


Tree=44
num_leaves=15
num_cat=0
split_feature=10 22 7 48 41 46 10 43 17 30 31 10 53 18
split_gain=8.48149 1.46263 0.812184 0.327074 0.23984 0.223146 0.222789 0.191724 0.147278 0.152975 0.134828 0.124472 0.108921 0.0797369
threshold=0.86531815431937775 27.772622438683737 42.500000000000007 -2.4134693505925862 49.461740039029273 1.6667328084240369 0.18687919788489671 84.129712844324914 12.841413572594183 2.4517273884266673 3.3409349281380263 1.4845030248503333 3309.1630668108296 24.12556100886145
decision_type=2 2 2 2 2 2 2 2 2 2 2 2 2 2
left_child=2 3 6 -2 8 7 -1 -4 -5 11 -6 13 -8 -10
right_child=1 -3 5 4 10 -7 12 -9 9 -11 -12 -13 -14 -15
leaf_value=-0.0039759788435697555 0.00028074586994672587 0.0079725335538387305 -0.0014374809891887707 0.0035612064014588084 0.0041388672208255636 0.0029040076775896932 -0.0021740559898675059 0.002158318517068701 -0.001497616246342659 0.002905680392916333 0.0025186848592037626 0.0022056476822173276 -0.0039557993721652338 0.00081127557810395953
leaf_weight=187.5 54.5 48 96 42 118 15.499999999999998 156 15.499999999999998 21 49 76 37 38.5 37.5
leaf_count=126 19 6 57 8 21 5 104 8 9 11 16 7 26 14
internal_value=0.000155081 0.00300273 -0.00254711 0.00245434 0.00276567 -0.000468757 -0.00323808 -0.000937616 0.00199748 0.00154298 0.00350416 0.000843789 -0.00252674 -1.75574e-05
internal_weight=992 483 509 435 380.5 127 382 111.5 186.5 144.5 194 95.5 194.5 58.5
internal_count=437 111 326 105 86 70 256 65 49 41 37 30 130 23
is_linear=0
shrinkage=0.03


Tree=45
num_leaves=15
num_cat=0
split_feature=7 7 7 10 30 24 43 26 11 17 51 47 30 30
split_gain=6.95546 1.006 0.450183 0.407473 0.225492 0.135725 0.13212 0.133346 0.110819 0.108882 0.099399 0.103727 0.0966124 0.112646
threshold=53.500000000000007 233.50000000000003 114.50000000000001 0.26496431707154194 2.5455043005583371 26.39985718677887 83.538211156267423 -2.020420213456505 0.15578791250329369 77.027312247690375 3.331898999049435 -2.512017395390663 0.49715838739399537 1.927061848582478
decision_type=2 2 2 2 2 2 2 2 2 2 2 2 2 2
left_child=3 2 6 8 5 -4 7 -2 -1 -7 -5 -12 -9 -14
right_child=1 -3 4 10 -6 9 -8 12 -10 -11 11 -13 13 -15
leaf_value=-0.0040787051601139023 -0.0015100301780244883 0.0068011461496353147 0.0031029732355681975 -0.000801534348891841 0.0046152414878209425 0.00096448752822470842 0.0023868501263602476 0.0016888829234487084 -0.0028697507892358155 0.0028363478705720154 -0.0012583461187243687 -0.0031242876433027096 -0.0016544237335522967 0.00080841144575522492
leaf_weight=156.5 25.5 40 101 67.5 45 80 41 67 121 43 49.5 58.5 22.5 65
leaf_count=105 14 5 19 43 6 20 14 24 81 8 33 39 13 24
internal_value=-0.000106443 0.00222658 0.00185314 -0.00283603 0.00267735 0.00228805 0.000849921 0.000499842 -0.00355156 0.00161888 -0.00170463 -0.00226906 0.000831569 0.000175111
internal_weight=983 530 490 453 269 224 221 180 277.5 123 175.5 108 154.5 87.5
internal_count=448 147 142 301 53 47 89 75 186 28 115 72 61 37
is_linear=0
shrinkage=0.03


Tree=46
num_leaves=15
num_cat=0
split_feature=7 22 10 10 24 10 34 1 51 17 22 2 23 27
split_gain=6.99137 1.18805 0.76797 0.398544 0.208429 0.208174 0.149069 0.162114 0.104495 0.0925027 0.0736974 0.0730756 0.0629347 0.0586025
threshold=75.500000000000014 27.772622438683737 0.45919165576252169 1.7524344842667652 26.879992757603006 0.18687919788489671 3186.8229123817773 -0.40966402954315212 2.9096161543731998 19.363758809072596 25.835883552576004 962449.84019096359 26.727622419785664 1.0286029435761168
decision_type=2 2 2 2 2 2 2 2 2 2 2 2 2 2
left_child=2 3 5 6 10 -1 13 -8 -7 -9 -4 -10 -11 -2
right_child=1 -3 4 -5 -6 8 7 9 11 12 -12 -13 -14 -15
leaf_value=-0.0037091369956033303 0.0034016127183156852 0.0070367066211560192 9.0966270601546226e-05 0.0040060216679292564 0.0016758415826103267 -0.00086821431022447845 0.002396360324530662 0.0017198601121910743 -0.0023200023213134596 0.00062308049536101222 -0.0016591044783680921 -0.0038267069038104371 -0.0011081416674834838 0.0018567739770962641
leaf_weight=192 51 51 33 85 34 36 79 54 133.5 73 63 37 25.5 39
leaf_count=129 11 7 19 11 13 24 19 16 89 25 39 25 10 10
internal_value=5.50804e-06 0.00272064 -0.00234487 0.00217914 -0.000342639 -0.00299804 0.00169614 0.00129336 -0.00233687 0.000721965 -0.00105752 -0.00264697 0.000174896 0.00273218
internal_weight=986 457.5 528.5 406.5 130 398.5 321.5 231.5 206.5 152.5 96 170.5 98.5 90
internal_count=447 109 338 102 71 267 91 70 138 51 58 114 35 21
is_linear=0
shrinkage=0.03


Tree=47
num_leaves=15
num_cat=0
split_feature=10 22 11 10 24 11 16 17 31 17 21 10 31 1
split_gain=6.52747 1.15902 0.722165 0.313856 0.214093 0.212699 0.203215 0.154178 0.124346 0.225251 0.111717 0.102404 0.0878872 0.075079
threshold=0.86531815431937775 27.772622438683737 0.4643666726368112 1.7524344842667652 26.914880902268376 0.15578791250329369 30.590168565045868 20.181781339728406 2.2991646225503706 72.842355213573995 83.035838168446375 1.4845030248503333 3.6644855202575535 -0.85421994577343285
decision_type=2 2 2 2 2 2 2 2 2 2 2 2 2 2
left_child=2 3 5 6 10 -1 7 -2 -9 11 12 -10 -4 -7
right_child=1 -3 4 -5 -6 13 -8 8 9 -11 -12 -13 -14 -15
leaf_value=-0.0036906328343694447 0.0035991367390927143 0.0073143154833205911 -0.0010016048381969863 0.0035422368525365074 0.0017577080176426813 -0.0012222101417137311 0.00044603119662829806 0.002727312347356309 -0.0013040977397135326 0.0025591618592306128 -0.0021024916472379114 0.0011449747011065482 0.0013219238941868147 -0.0025533735181262709
leaf_weight=163.5 51 43 42 109 32.5 48 87.5 70.5 31.5 53 48 30 22.5 185.5
leaf_count=110 11 6 25 15 12 31 31 17 12 12 31 8 11 124
internal_value=5.16273e-05 0.002617 -0.00219899 0.00214999 -0.000387022 -0.00286079 0.00168088 0.00213872 0.00173611 0.00112581 -0.00100661 -0.000109428 -0.000191072 -0.00227973
internal_weight=1017.5 475.5 542 432.5 145 397 323.5 236 185 114.5 112.5 61.5 64.5 233.5
internal_count=456 112 344 106 79 265 91 60 49 32 67 20 36 155
is_linear=0
shrinkage=0.03


Tree=48
num_leaves=15
num_cat=0
split_feature=10 10 11 41 18 24 32 42 31 10 18 32 51 34
split_gain=6.21173 0.825093 0.739395 0.267961 0.160053 0.150942 0.133839 0.115808 0.120277 0.102344 0.093774 0.104466 0.0924676 0.0870245
threshold=0.86531815431937775 2.5731807598378054 0.28782483917861729 88.804301360694623 17.663470557197684 26.914880902268376 4.3296148206896161 82.948870806664004 2.9854523576729552 0.063991478976915039 5.2909010590906345 3.2079336398972056 3.335732964737804 3186.8229123817773
decision_type=2 2 2 2 2 2 2 2 2 2 2 2 2 2
left_child=2 3 9 4 12 10 7 8 -6 -1 -4 -12 -2 -9
right_child=1 -3 5 -5 6 -7 -8 13 -10 -11 11 -13 -14 -15
leaf_value=-0.0039975364897400136 0.0019833707626049336 0.0066826150417327885 -0.0027231112166884396 0.0041304619091429877 0.0023862690619567287 0.00083141834898428472 0.00062380883365687791 0.0038995592272840439 0.00040200086587385549 -0.0027783970319988889 -0.0018708362594939941 -0.00031456986829065357 -7.2123305127024654e-05 0.0023440723569054184
leaf_weight=90 32.5 40 31.5 56 107 38.5 41 64 37 199 64.5 97.5 50 65.5
leaf_count=61 6 5 21 8 23 17 15 11 11 133 43 58 18 17
internal_value=0.000138625 0.00255244 -0.00214546 0.00218775 0.00191371 -0.000884086 0.00222222 0.00246184 0.00187642 -0.00315806 -0.00122541 -0.000934194 0.000737617 0.00311281
internal_weight=1014 493 521 453 397 232 314.5 273.5 144 289 193.5 162 82.5 129.5
internal_count=447 114 333 109 101 139 77 62 34 194 122 101 24 28
is_linear=0
shrinkage=0.03


Tree=49
num_leaves=15
num_cat=0
split_feature=10 7 10 7 20 46 44 48 22 19 31 18 26 2
split_gain=6.07909 0.640939 0.401944 0.260754 0.208692 0.180629 0.167637 0.168598 0.144797 0.0949875 0.0806205 0.0757884 0.0710808 0.072849
threshold=0.65988665720717121 112.00000000000001 0.20752440863215593 205.00000000000003 78.618638013662192 -1.966558299107535 26.604402966668548 0.89478854457256241 26.819897550322239 85.372125229739353 3.5757899083967373 50.518488844589122 -2.8511837589361142 962397.44803591457
decision_type=2 2 2 2 2 2 2 2 2 2 2 2 2 2
left_child=2 5 -1 6 -4 10 7 8 -3 12 -2 -7 -6 -14
right_child=1 3 4 -5 9 11 -8 -9 -10 -11 -12 -13 13 -15
leaf_value=-0.0033895696556680266 0.000489658009918297 0.0014729109832551329 0.0010112540212897014 0.0047641034424304963 -0.0031113300811160694 0.0019771539142272275 0.0010864860936999322 0.0038763936885765622 0.0035571126779541371 -0.00022850157123886877 -0.0018958939348950104 0.00039824692133281911 -0.0014655235834149529 -0.0030549931018189953
leaf_weight=211.5 25.5 80 24.5 64 49.5 78.5 51 105 48 27 25.5 42 121.5 33
leaf_count=142 10 20 13 8 33 26 12 16 8 17 13 16 80 22
internal_value=6.16406e-05 0.00229448 -0.00242222 0.00303422 -0.00162145 0.000793434 0.00264439 0.00298539 0.00225449 -0.00190068 -0.000703118 0.00142683 -0.00212199 -0.00180502
internal_weight=986.5 519.5 467 348 255.5 171.5 284 233 128 231 51 120.5 204 154.5
internal_count=436 129 307 64 165 65 56 44 28 152 23 42 135 102
is_linear=0
shrinkage=0.03


Tree=50
num_leaves=15
num_cat=0
split_feature=10 24 8 51 24 40 9 11 25 47 20 16 27 33
split_gain=5.85094 0.926177 0.821489 0.223694 0.190499 0.165357 0.12457 0.117237 0.108704 0.146716 0.131552 0.105287 0.0842573 0.122361
threshold=0.92152301893344901 27.772622438683737 38.500000000000007 4.0302201805296756 26.914880902268376 84.194346529832686 233.50000000000003 0.15578791250329369 -1.6444824927439772 1.5617007503149287 81.004680039026411 91.360143124957418 0.90664358572384163 4.4863887765163968
decision_type=2 2 2 2 2 2 2 2 2 2 2 2 2 2
left_child=2 3 7 5 11 6 8 -1 -2 10 -10 12 13 -4
right_child=1 -3 4 -5 -6 -7 -8 -9 9 -11 -12 -13 -14 -15
leaf_value=-0.003373294822203944 0.0031494324942523575 0.0067709782918294265 -0.0021616781667734568 0.0005741964049276806 0.001454293504357338 0.0039484545051074417 0.0037674468755722044 -0.0022912232262248065 -0.00074226584285497655 0.0026170701986178756 0.0015749470866760428 0.00062111877714810155 0.00032532628778426443 0.0006819275140085004
leaf_weight=159 53 45 78 62 41.5 61 40 208 31.5 75 73.5 34.5 24 16.5
leaf_count=106 9 6 50 19 16 8 5 139 12 17 19 19 12 9
internal_value=0.000106461 0.00269257 -0.00192466 0.00222912 -0.000348429 0.00253632 0.00222079 -0.00276002 0.00195527 0.00160365 0.000879783 -0.000837403 -0.00126204 -0.00166518
internal_weight=1002.5 441 561.5 396 194.5 334 273 367 233 180 105 153 118.5 94.5
internal_count=446 95 351 89 106 70 62 245 57 48 31 90 71 59
is_linear=0
shrinkage=0.03


Tree=51
num_leaves=15
num_cat=0
split_feature=10 7 7 40 48 26 32 28 10 25 9 9 26 26
split_gain=5.6397 0.784742 0.506985 0.326218 0.140659 0.111628 0.105116 0.161333 0.100119 0.0920959 0.145193 0.0900842 0.0757472 0.128597
threshold=0.86531815431937775 233.50000000000003 28.500000000000004 84.194346529832686 1.9363357680130997 3.419748636041319 4.074670277617642 -0.7771524809368543 0.093476585272473808 1.8390624308673997 101.50000000000001 140.50000000000003 0.58952979448464504 -1.2908357255186926
decision_type=2 2 2 2 2 2 2 2 2 2 2 2 2 2
left_child=2 3 8 5 6 9 12 -8 -1 10 -2 -12 13 -4
right_child=1 -3 4 -5 -6 -7 7 -9 -10 -11 11 -13 -14 -15
leaf_value=-0.0035747481345847882 0.002447136169277042 0.0058280177414417262 -0.0020220271079820027 0.0036508520634763023 0.0013632584623126094 -1.3440677567439921e-06 -0.001063060736549752 0.0025181233804793127 -0.0024160941434282113 0.0025898903005179903 -0.0001578835252672434 0.001461514783333297 -0.0029142518164146512 3.5949698247914685e-05
leaf_weight=105.5 83 56 73.5 91 21.5 34 42 15.499999999999998 184.5 94.5 50 81 31.5 43.5
leaf_count=71 19 7 49 14 9 11 26 6 123 20 18 20 21 25
internal_value=0.000177586 0.002486 -0.00200593 0.00205427 -0.000945766 0.00163007 -0.00118676 -9.76981e-05 -0.0028376 0.00180987 0.00146542 0.000843424 -0.00160845 -0.00125688
internal_weight=1007 489.5 517.5 433.5 227.5 342.5 206 57.5 290 308.5 214 131 148.5 117
internal_count=439 109 330 102 136 88 127 32 194 77 57 38 95 74
is_linear=0
shrinkage=0.03


Tree=52
num_leaves=15
num_cat=0
split_feature=13 22 7 51 46 25 35 28 42 31 48 21 1 9
split_gain=5.20384 1.01674 0.575333 0.180873 0.171515 0.166732 0.142812 0.138741 0.123511 0.107151 0.0922384 0.106125 0.108977 0.0878624
threshold=0.64132588124793433 27.772622438683737 28.500000000000004 3.467737479655995 1.2754724633487011 1.6202177159859028 3185.4366870976887 0.4607990936553365 84.929026884831458 2.9983503986290723 1.3074641324120673 82.222296164946627 0.29696027566504685 114.50000000000001
decision_type=2 2 2 2 2 2 2 2 2 2 2 2 2 2
left_child=2 3 -1 5 8 6 -2 -8 10 13 11 12 -4 -5
right_child=1 -3 4 9 -6 -7 7 -9 -10 -11 -12 -13 -14 -15
leaf_value=-0.0028608147781553589 0.00270774628814143 0.0064531085267662998 0.001278232105952852 0.0025863102031871673 0.001001940739336296 0.0032713006809353827 0.0021037378686627273 -0.00044336019227137928 0.0013335063248392073 9.2896435775661043e-06 -0.0034057834429236556 -0.0017875808819995394 -0.0013599231874658947 0.00088551241376503241
leaf_weight=308.5 67 48 25.5 48 36.5 104 38 39 15.499999999999998 56 19.5 105 31.5 63.5
leaf_count=207 12 6 14 12 17 17 9 11 8 19 13 69 17 20
internal_value=-1.46643e-05 0.00231915 -0.00201047 0.00184158 -0.000886986 0.00235599 0.00169493 0.000813649 -0.00123696 0.00107996 -0.00145648 -0.00122184 -0.000179696 0.00161769
internal_weight=1005.5 463.5 542 415.5 233.5 248 144 77 197 167.5 181.5 162 57 111.5
internal_count=451 106 345 100 138 49 32 20 121 51 113 100 31 32
is_linear=0
shrinkage=0.03


Tree=53
num_leaves=15
num_cat=0
split_feature=10 22 11 10 30 33 11 20 24 28 50 40 40 26
split_gain=4.70558 0.855118 0.526242 0.189789 0.206448 0.129741 0.126948 0.11187 0.0888027 0.0869074 0.0811351 0.0777308 0.107016 0.117392
threshold=0.8989971966446918 27.772622438683737 0.35334279999013013 1.1629720479082777 2.9982985721232951 2.0773786675875177 0.15578791250329369 82.729979455239672 26.39985718677887 1.6571487044542994 2.3391792761796895 29.060915728880499 35.782789239521456 0.82619730710347805
decision_type=2 2 2 2 2 2 2 2 2 2 2 2 2 2
left_child=2 3 6 7 8 -4 -1 -2 -5 -10 -8 -7 -13 -14
right_child=1 -3 5 4 -6 11 10 -9 9 -11 -12 12 13 -15
leaf_value=-0.0031852492682990573 0.0015590290103474971 0.0062913775513338491 0.00097472264613905873 0.0025569238341916858 0.0040482975705526765 -0.0022571500953610826 -0.0005516064751550163 -0.00035290186603864035 0.00077601731152887024 0.0022043742580960196 -0.0022950011074677674 0.00086790502559216237 -0.00070662232634627765 -0.00358398374915123
leaf_weight=157.5 71 43 37 111 48 34.5 28.5 45 82 72 153 31.5 85.5 14.999999999999998
leaf_count=106 23 6 18 21 7 23 18 17 20 14 102 15 52 10
internal_value=6.76671e-05 0.0022581 -0.00183811 0.00185384 0.00223797 -0.000632157 -0.00256204 0.000817332 0.00191006 0.00144382 -0.00202124 -0.000989241 -0.000657856 -0.00113608
internal_weight=1014.5 472 542.5 429 313 203.5 339 116 265 154 181.5 166.5 132 100.5
internal_count=452 108 344 102 62 118 226 40 55 34 120 100 77 62
is_linear=0
shrinkage=0.03


Tree=54
num_leaves=15
num_cat=0
split_feature=7 10 51 36 28 20 17 15 22 1 18 23 31 20
split_gain=4.49516 0.779234 0.231399 0.217846 0.199697 0.194388 0.149331 0.0980715 0.0846751 0.0716233 0.0667478 0.0660592 0.0848968 0.0740887
threshold=53.500000000000007 1.1629720479082777 3.196479652595599 3210.033847807525 1.4842471599031242 78.783248597626411 54.291318968618079 0.060450297175550456 25.684782682608358 -0.95297903005573326 74.053788519813622 25.750683201932912 4.3324662367677105 84.267622207325516
decision_type=2 2 2 2 2 2 2 2 2 2 2 2 2 2
left_child=3 5 6 8 -4 -2 -3 -5 -1 -9 -10 -7 13 -13
right_child=1 2 4 7 -6 11 -8 9 10 -11 -12 12 -14 -15
leaf_value=-0.0020923910651355982 0.0021385252882133829 0.0023239816191406655 0.0011739302426576614 -0.0033626961280056769 0.0031548135232510443 0.0011534430207684636 0.004255469454692142 -0.00072231495533795918 -0.00093499530370657637 -0.0023961130832581465 0.001166343498401917 0.00038833597499244617 -0.0023206174233928322 -0.0013308377754652784
leaf_weight=37.5 44 56 109 94 79 30 101 25.5 45 235.5 19.5 79.5 18 31.5
leaf_count=25 14 9 26 63 14 12 14 17 30 158 11 33 11 16
internal_value=1.63381e-05 0.00184856 0.00271633 -0.00218073 0.00200632 0.000373786 0.00356653 -0.00253182 -0.000958782 -0.00223258 -0.000299707 -0.000114569 -0.000409456 -9.95377e-05
internal_weight=1005 548 345 457 188 203 157 355 102 261 64.5 159 129 111
internal_count=453 149 63 304 40 86 23 238 66 175 41 72 60 49
is_linear=0
shrinkage=0.03


Tree=55
num_leaves=15
num_cat=0
split_feature=10 22 8 10 40 24 24 50 24 50 8 29 19 31
split_gain=4.46213 0.808151 0.326453 0.265295 0.178201 0.148405 0.109102 0.0997997 0.0931049 0.0797108 0.082139 0.0693252 0.0655215 0.0563219
threshold=0.77226874275984059 27.772622438683737 27.500000000000004 1.3193316155782036 36.24739964913158 27.102276154114197 26.414421684079979 3.0474002461044649 26.586428928618751 4.3112172342150812 62.500000000000007 2.2248587821551578 82.17186053535373 2.0828621422678499
decision_type=2 2 2 2 2 2 2 2 2 2 2 2 2 2
left_child=2 3 -1 7 -5 9 -6 -2 12 10 13 -10 -9 -4
right_child=1 -3 5 4 6 -7 -8 8 11 -11 -12 -13 -14 -15
leaf_value=-0.0026559558577480286 0.0017492044241504466 0.0059814217686653135 -0.0029343514237552878 0.0010161893328290378 0.0037110868740726161 0.0017374912264846985 0.0021979493028758202 0.0018615406807512046 -0.0016076114587485789 -0.0029313764255493877 0.00048410012386739247 0.00050379656797105619 -2.0833885983416906e-05 -0.0011332807894442465
leaf_weight=289 70.5 43 18 67 74 15.499999999999998 102 40 28.5 24 25.5 27.5 28.5 118.5
leaf_count=194 21 6 12 14 11 7 18 12 12 16 13 9 11 78
internal_value=3.66508e-06 0.0020568 -0.00200971 0.00167151 0.00233291 -0.00108283 0.00283415 0.000847304 0.000336589 -0.00131785 -0.00107881 -0.000570759 0.00107836 -0.00137078
internal_weight=971.5 481 490.5 438 243 201.5 176 195 124.5 186 162 56 68.5 136.5
internal_count=434 114 320 108 43 126 29 65 44 119 103 21 23 90
is_linear=0
shrinkage=0.03


Tree=56
num_leaves=15
num_cat=0
split_feature=13 7 13 13 16 42 24 49 19 42 2 28 28 34
split_gain=3.76684 0.434507 0.411706 0.130914 0.13078 0.122752 0.117111 0.116436 0.10601 0.0788661 0.0724164 0.0712228 0.0602315 0.0499329
threshold=0.60922917165311563 42.500000000000007 1.0124431103327016 0.11966055289956204 58.036118650294874 82.367986516492323 26.879992757603006 2.2835498491953925 79.059715772826664 81.929133845633871 962230.19470062782 1.103944642131188 -3.0734007017662317 3195.2987235629539
decision_type=2 2 2 2 2 2 2 2 2 2 2 2 2 2
left_child=1 3 4 -1 5 7 10 -2 -7 -5 -3 12 -11 -14
right_child=2 6 -4 9 -6 8 -8 -9 -10 11 -12 -13 13 -15
leaf_value=-0.0030192933247724014 -0.00012897958996099069 -0.0011681583611167629 0.0032664685619816385 -0.0025682470737205397 -9.2211329481667937e-06 0.0012596490840579187 0.0012252198115867727 0.0018756719939410683 0.0028788587276985548 -0.0025272641725399914 0.0010978904962539672 -0.0030518322581933304 0.00061232453042810609 -0.0011762970428736436
leaf_weight=140 54.5 82.5 146 93 54 64.5 34 50 83.5 25.5 14.999999999999998 22 16.5 94.5
leaf_count=94 19 52 19 62 20 16 13 13 17 17 9 15 11 63
internal_value=-4.88414e-05 -0.00178286 0.00195534 -0.00228401 0.00133079 0.00161737 -0.000290853 0.000830184 0.00217319 -0.00187471 -0.000819535 -0.00146777 -0.00121247 -0.000910421
internal_weight=975.5 523 452.5 391.5 306.5 252.5 131.5 104.5 148 251.5 97.5 158.5 136.5 111
internal_count=440 336 104 262 85 65 74 32 33 168 61 106 91 74
is_linear=0
shrinkage=0.03


Tree=57
num_leaves=15
num_cat=0
split_feature=7 22 11 34 20 21 48 21 29 47 42 42 38 19
split_gain=3.49397 0.726673 0.353782 0.245817 0.217302 0.171614 0.144514 0.128558 0.0879332 0.101949 0.0814389 0.0754745 0.0650991 0.0552965
threshold=75.500000000000014 27.772622438683737 0.26496431707154194 3186.8229123817773 78.455321557902195 76.306328411598997 2.7474726011240125 82.634743023798379 0.44411508109272735 -0.91816500541321189 83.187708577257368 82.153600170795741 3274.3779489957456 85.372125229739353
decision_type=2 2 2 2 2 2 2 2 2 2 2 2 2 2
left_child=2 3 12 7 -4 -5 10 -2 9 13 11 -7 -1 -6
right_child=1 -3 4 5 8 6 -8 -9 -10 -11 -12 -13 -14 -15
leaf_value=-0.0015185388221538492 0.0015737264212220907 0.0052122156847925743 0.0014547580096029465 0.0034943841184888564 -0.001486681324454981 -0.00018520385625639133 0.0023030037014949612 0.0033308416224540546 -0.0023639587020443287 0.00083936497349949434 -0.00064850747999217772 0.0011843528535853071 -0.0026919781639373431 0.00030585155259662617
leaf_weight=52.5 80 51 31 21 111 56 41 70.5 48 25.5 54 102.5 224.5 18
leaf_count=35 19 7 13 4 73 21 8 10 32 14 18 28 151 12
internal_value=-2.04778e-05 0.00182848 -0.00174448 0.00142243 -0.000884304 0.000888199 0.000672302 0.00239683 -0.00124238 -0.000893932 0.000357672 0.000700472 -0.00246958 -0.00123656
internal_weight=986.5 476 510.5 425 233.5 274.5 253.5 150.5 202.5 154.5 212.5 158.5 277 129
internal_count=445 115 330 108 144 79 75 29 131 99 67 49 186 85
is_linear=0
shrinkage=0.03


Tree=58
num_leaves=15
num_cat=0
split_feature=7 7 10 11 46 44 27 48 1 7 11 12 7 1
split_gain=3.51658 0.722707 0.263126 0.171704 0.14105 0.114504 0.109772 0.107113 0.111447 0.0887838 0.087966 0.0803956 0.0689545 0.0914975
threshold=50.500000000000007 205.00000000000003 1.1629720479082777 0.41508082580377609 -2.0544416042855516 26.604402966668548 -1.2426384166997566 0.80575823582413764 0.8542199457734333 12.500000000000002 0.69390766006961191 0.5364774733593104 99.500000000000014 0.29696027566504685
decision_type=2 2 2 2 2 2 2 2 2 2 2 2 2 2
left_child=3 2 4 9 -2 7 -6 8 -4 -1 -8 -5 13 -12
right_child=1 -3 5 11 6 -7 10 -9 -10 -11 12 -13 -14 -15
leaf_value=-0.002823909030484266 -0.00090324082917400759 0.0044731530050436648 0.00059476021645685369 7.8308545053005225e-06 0.002634515133168962 0.00067061749050172711 -0.00080445325975729662 0.0027787401460868826 0.0025414643902331589 -0.001844890613134044 0.0025033193504488149 -0.0021884695041392527 -0.00033581490025800815 0.00030335802850978713
leaf_weight=133.5 52.5 72 59 52.5 27 59 33 118 48 222 37 21 25.5 31.5
leaf_count=90 26 9 15 33 10 14 19 18 10 148 11 14 10 12
internal_value=0.000106184 0.00166646 0.00125447 -0.00193964 0.000439613 0.00184697 0.000897404 0.00215543 0.00146805 -0.00221254 0.000528097 -0.000619684 0.000995908 0.00149166
internal_weight=991.5 562.5 490.5 429 206.5 284 154 225 107 355.5 127 73.5 94 68.5
internal_count=439 154 145 285 88 57 62 43 25 238 52 47 33 23
is_linear=0
shrinkage=0.03


Tree=59
num_leaves=15
num_cat=0
split_feature=10 22 11 7 30 33 1 44 11 12 12 26 23 40
split_gain=3.28611 0.682738 0.228398 0.210183 0.14244 0.120385 0.117352 0.104522 0.0890083 0.0886699 0.0738919 0.075276 0.0693811 0.0638615
threshold=0.65988665720717121 27.772622438683737 0.35334279999013013 114.50000000000001 2.5455043005583371 2.0828621422678499 -0.29696027566504651 26.604402966668548 0.15578791250329369 1.238889847126893 0.38574503097868335 -2.8511837589361142 26.403444163569926 41.322291190005252
decision_type=2 2 2 2 2 2 2 2 2 2 2 2 2 2
left_child=2 3 8 6 7 -4 13 9 -1 -5 -7 -12 -11 -2
right_child=1 -3 5 4 -6 10 -8 -9 -10 12 11 -13 -14 -15
leaf_value=-0.0026904293705674463 0.0026889131499348946 0.0049363386893973632 0.0011407618788787377 0.0026747402905353476 0.0032471967637538908 6.0421541671861302e-06 -2.2585678490854444e-05 0.00036547780036926268 -0.0017440236585864815 0.00070348178717627452 -0.0033870734274387359 -0.0011121616797754542 0.0022368254241618242 0.00072439540725420493
leaf_weight=160.5 26.5 51 26 70 50 33 126 57 202 67 18 48 44 34
leaf_count=108 8 7 14 12 7 22 51 13 135 15 12 32 8 12
internal_value=-7.72751e-06 0.001638 -0.00178174 0.00128349 0.00179159 -0.000675935 0.000498873 0.00148579 -0.00216305 0.00183859 -0.00115305 -0.00173259 0.00131129 0.00158489
internal_weight=1013 525.5 487.5 474.5 288 125 186.5 238 362.5 181 99 66 111 60.5
internal_count=456 133 323 126 55 80 71 48 243 35 66 44 23 20
is_linear=0
shrinkage=0.03


Tree=60
num_leaves=15
num_cat=0
split_feature=7 7 10 35 25 28 40 22 28 42 41 48 10 48
split_gain=3.05891 0.735261 0.265677 0.155463 0.105712 0.116343 0.115694 0.0966967 0.0834712 0.0803666 0.0567233 0.0567027 0.0560606 0.0500759
threshold=50.500000000000007 188.00000000000003 1.3193316155782036 3245.1827397585994 -1.7485628982740302 0.43720032466879671 67.721216759523514 26.785930305843603 1.3163997089581407 83.187708577257368 64.575578863995332 1.1377280327520773 0.093476585272473808 0.11587244286443131
decision_type=2 2 2 2 2 2 2 2 2 2 2 2 2 2
left_child=3 2 4 7 10 6 13 -1 -7 -4 -2 -10 -5 -6
right_child=1 -3 9 12 5 8 -8 -9 11 -11 -12 -13 -14 -15
leaf_value=-0.001260091101406021 -0.0016384626328945159 0.0039394310675561423 0.0012140162561887075 -0.0027468258020068919 4.9611299857497214e-05 -0.0012374763156880032 0.0031180217944913441 0.0011950768225572326 -0.000311363987963308 0.0024616343955410859 0.00039444115545068465 0.0013991019310983452 -0.0018911607022556308 0.0015709981349883257
leaf_weight=115.5 30 96 84 105 37.5 33 27 16.5 33 104 21 37 200.5 40.5
leaf_count=77 17 12 19 71 15 16 7 9 15 17 9 12 134 13
internal_value=5.32518e-05 0.00155733 0.00104574 -0.00181352 0.000422613 0.000722728 0.00142545 -0.000953195 6.35963e-06 0.00190419 -0.000801385 0.000592739 -0.00218525 0.000839562
internal_weight=980.5 543 447 437.5 259 208 105 132 103 188 51 70 305.5 78
internal_count=443 152 140 291 104 78 35 86 43 36 26 27 205 28
is_linear=0
shrinkage=0.03


Tree=61
num_leaves=15
num_cat=0
split_feature=7 22 10 30 10 20 1 22 31 18 12 33 34 2
split_gain=3.0873 0.751287 0.248248 0.132013 0.128152 0.124189 0.0927754 0.0925655 0.0975396 0.0874483 0.103116 0.0797105 0.0667577 0.0622512
threshold=53.500000000000007 27.772622438683737 1.1537006759321813 2.5455043005583371 0.19738280066257413 84.228559284399282 -0.95297903005573326 25.955825741540554 4.3324662367677105 72.089303854499462 1.2756459816891388 2.7526750446829058 3236.8597955993246 962449.84019096359
decision_type=2 2 2 2 2 2 2 2 2 2 2 2 2 2
left_child=4 2 5 9 -1 7 -6 -2 12 10 -4 -12 -9 -8
right_child=1 -3 3 -5 6 -7 13 8 -10 -11 11 -13 -14 -15
leaf_value=-0.0023321978783763819 0.002259660972503282 0.0051347342133522033 0.0026310990899678709 0.0030092032739924171 0.00034252838108740332 -0.0011760203823447228 -0.00131049978658403 0.0017535422839127575 -0.0015579166206029743 0.00053933965593156677 0.0017978128880262376 0.00016545002215674945 0.00021325411161760219 -0.0027552448366103431
leaf_weight=207.5 29.5 48 76 59 27 37.5 181.5 38.5 19.5 71 75 42 74 31.5
leaf_count=139 11 6 14 10 17 19 121 13 10 16 13 11 30 21
internal_value=7.88158e-05 0.00154302 0.00121275 0.00172627 -0.00178621 0.000379256 -0.00131416 0.000740389 0.000400855 0.00143955 0.00177072 0.00121184 0.000740375 -0.00152416
internal_weight=1017.5 570 522 323 447.5 199 240 161.5 132 264 193 117 112.5 213
internal_count=451 153 147 64 298 83 159 64 53 54 38 24 43 142
is_linear=0
shrinkage=0.03


Tree=62
num_leaves=15
num_cat=0
split_feature=10 24 10 18 48 7 24 18 24 22 23 9 7 51
split_gain=2.65581 0.41214 0.354973 0.155672 0.140473 0.123735 0.121149 0.117181 0.123191 0.113134 0.117547 0.107273 0.0861424 0.0752301
threshold=0.8989971966446918 27.739736922099777 0.45919165576252169 18.611555399537668 1.9363357680130997 188.00000000000003 26.010223497700945 44.296855058175751 26.326781652922296 25.881975854561833 27.035502523544135 49.500000000000007 4.5000000000000009 3.0175264948703822
decision_type=2 2 2 2 2 2 2 2 2 2 2 2 2 2
left_child=2 3 12 6 9 7 -2 -5 -9 -4 11 -11 -1 -14
right_child=1 -3 4 5 -6 -7 -8 8 -10 10 -12 -13 13 -15
