tree
version=v4
num_class=1
num_tree_per_iteration=1
label_index=0
max_feature_idx=86
objective=regression
feature_names=week_sin week_cos city_estimated_population city_area_m2 city_area_km2 city_pop_density n_barangays_reported city_dengue_cases_lag1 city_dengue_cases_lag2 city_dengue_cases_lag3 city_dengue_cases_lag4 city_incidence_10000_lag1 city_incidence_10000_lag2 city_incidence_10000_lag3 city_incidence_10000_lag4 target_log_incidence_city_lag1 target_log_incidence_city_lag2 target_log_incidence_city_lag3 target_log_incidence_city_lag4 city_area_weighted_rainfall_lag20 city_area_weighted_rainfall_lag19 city_area_weighted_rainfall_lag18 city_area_weighted_rainfall_lag5 city_area_weighted_rh_lag20 city_area_weighted_rh_lag19 city_area_weighted_rh_lag18 city_area_weighted_rh_lag17 city_area_weighted_temp_c_lag13 city_area_weighted_temp_c_lag14 city_area_weighted_temp_c_lag12 city_area_weighted_temp_c_lag11 city_area_weighted_u_component_of_wind_10m_lag4 city_area_weighted_u_component_of_wind_10m_lag3 city_area_weighted_u_component_of_wind_10m_lag2 city_area_weighted_u_component_of_wind_10m_lag5 city_area_weighted_v_component_of_wind_10m_lag7 city_area_weighted_v_component_of_wind_10m_lag6 city_area_weighted_v_component_of_wind_10m_lag9 city_area_weighted_v_component_of_wind_10m_lag8 city_area_weighted_wind_speed_10m_lag13 city_area_weighted_wind_speed_10m_lag12 city_area_weighted_wind_speed_10m_lag11 city_area_weighted_wind_speed_10m_lag10 city_area_weighted_pop_density_lag20 city_area_weighted_pop_density_lag19 city_area_weighted_pop_density_lag18 city_area_weighted_pop_density_lag17 city_pop_density_lag20 city_pop_density_lag19 city_pop_density_lag18 city_pop_density_lag17 city_area_weighted_rainfall_rollmean_lag1_w4 city_area_weighted_rainfall_rollmean_lag1_w8 city_area_weighted_rh_rollmean_lag1_w4 city_area_weighted_rh_rollmean_lag1_w8 city_area_weighted_temp_c_rollmean_lag1_w4 city_area_weighted_temp_c_rollmean_lag1_w8 city_area_weighted_u_component_of_wind_10m_rollmean_lag1_w4 city_area_weighted_u_component_of_wind_10m_rollmean_lag1_w8 city_area_weighted_v_component_of_wind_10m_rollmean_lag1_w4 city_area_weighted_v_component_of_wind_10m_rollmean_lag1_w8 city_area_weighted_wind_speed_10m_rollmean_lag1_w4 city_area_weighted_wind_speed_10m_rollmean_lag1_w8 city_area_weighted_pop_density_rollmean_lag1_w4 city_area_weighted_pop_density_rollmean_lag1_w8 city_area_weighted_flood_risk_index_rollmean_lag1_w4 city_area_weighted_flood_risk_index_rollmean_lag1_w8 city_area_weighted_percent_annual_crop_rollmean_lag1_w4 city_area_weighted_percent_annual_crop_rollmean_lag1_w8 city_area_weighted_percent_brush_shrubs_rollmean_lag1_w4 city_area_weighted_percent_brush_shrubs_rollmean_lag1_w8 city_area_weighted_percent_built_up_rollmean_lag1_w4 city_area_weighted_percent_built_up_rollmean_lag1_w8 city_area_weighted_percent_inland_water_rollmean_lag1_w4 city_area_weighted_percent_inland_water_rollmean_lag1_w8 city_area_weighted_percent_open_forest_rollmean_lag1_w4 city_area_weighted_percent_open_forest_rollmean_lag1_w8 city_area_weighted_percent_perennial_crop_rollmean_lag1_w4 city_area_weighted_percent_perennial_crop_rollmean_lag1_w8 city_area_weighted_percent_open_barren_rollmean_lag1_w4 city_area_weighted_percent_open_barren_rollmean_lag1_w8 city_area_weighted_percent_fishpond_rollmean_lag1_w4 city_area_weighted_percent_fishpond_rollmean_lag1_w8 city_area_weighted_percent_grassland_rollmean_lag1_w4 city_area_weighted_percent_grassland_rollmean_lag1_w8 city_area_weighted_percent_mangrove_forest_rollmean_lag1_w4 city_area_weighted_percent_mangrove_forest_rollmean_lag1_w8
feature_infos=[-1:1] [-1:1] [909262.48027323559:966742.2853774617] [290905052.4156:290905052.4156] [290.90505241559998:290.90505241559998] [3125.6331669833721:3323.2227400311026] [80:80] [0:341] [0:341] [0:341] [0:341] [0:3.5315247657326996] [0:3.5315247657326996] [0:3.5315247657326996] [0:3.5315247657326996] [0:1.5110584757372441] [0:1.5110584757372441] [0:1.5110584757372441] [0:1.5110584757372441] [0:403.77764092016611] [0:403.77764092016611] [0:403.77764092016611] [0:403.77764092016611] [74.166209495041301:89.224799485777211] [74.166209495041301:89.224799485777211] [74.166209495041301:89.224799485777211] [74.166209495041301:89.224799485777211] [24.178433964655767:28.356173140545412] [24.178433964655767:28.356173140545412] [24.178433964655767:28.356173140545412] [24.178433964655767:28.356173140545412] [-4.5717681780699149:5.3108736337661018] [-4.5717681780699149:5.3108736337661018] [-4.5717681780699149:5.3108736337661018] [-4.5717681780699149:5.3108736337661018] [-6.2680500182560719:5.1247667214851038] [-6.2680500182560719:5.1247667214851038] [-6.2680500182560719:5.1247667214851038] [-6.2680500182560719:5.1247667214851038] [1.39564484944224:6.8002328204854665] [1.39564484944224:6.8002328204854665] [1.39564484944224:6.8002328204854665] [1.39564484944224:6.8002328204854665] [3125.6331669833717:3318.0784934845619] [3125.6331669833717:3318.3085698195596] [3125.6331669833717:3318.541430856721] [3125.6331669833717:3318.7770881894412] [3125.6331669833721:3318.0784934845619] [3125.6331669833721:3318.3085698195596] [3125.6331669833721:3318.541430856721] [3125.6331669833721:3318.7770881894412] [0.06597045822318269:149.02606250490396] [0.34670367581884309:119.23124797939784] [75.920732847159741:87.36324422781334] [76.483294868292248:86.237507786239505] [24.524834464421016:28.067998122101869] [24.646253660584854:27.823998304699263] [-3.4486736035175789:3.6280013469861503] [-3.1133143420372855:3.131422920161175] [-4.48361272930451:3.4734894156434146] [-3.8559405516430854:3.0795858777581708] [1.7342058228275261:5.7925001460518359] [1.9506388693011207:5.3170040362056081] [3126.4705697467193:3322.5176135254787] [3128.1510842727353:3321.9713762714046] [0.39206069116144171:0.39206069116144171] [0.39206069116144171:0.39206069116144171] [8.8038756226411614:8.8038756226411614] [8.8038756226411614:8.8038756226411614] [25.626315570017983:25.626315570017983] [25.626315570017983:25.626315570017983] [21.033173411121368:21.033173411121368] [21.033173411121368:21.033173411121368] [1.2929350729991871:1.2929350729991871] [1.2929350729991871:1.2929350729991871] [3.9987213824765591:3.9987213824765591] [3.9987213824765591:3.9987213824765591] [38.056785261807292:38.056785261807292] [38.056785261807292:38.056785261807292] [0.095033994494272564:0.095033994494272564] [0.095033994494272564:0.095033994494272564] [0.13200358533077799:0.13200358533077799] [0.13200358533077799:0.13200358533077799] [0.92089829914606036:0.92089829914606036] [0.92089829914606036:0.92089829914606036] [0.040257799965338029:0.040257799965338029] [0.040257799965338029:0.040257799965338029]
tree_sizes=1539 1633 1805 1641 1726 1730 1812 1641 1820 1729 1890 1812 1653 1737 1753 1749 1654 1738 1659 1831 1672 1838 1748 1920 1921 1575 1747 1669 1840 1665 1662 1654 1586 1849 1674 1672 1570 1836 1839 1759 1763 1678 1765 1677 1759 1762 1668 1949 1774 1864 1745 2037 1860 2036 1852 1587 1766 1782 1597 1859 1877 1859 1774 1781 1954 1678 1695 1978 1777 1603 1960 1610 1960 1790 1792 1589 1788 1870 1867 1884 1875 1771 1888 1877 1867 1971 2146 1898 1975 1797 1795 1881 1782 1867 1589 1985 1794 1897 1790 1520 1985 1802 1791 1778 1874 1881 1986 1874 1799 1892 1990 1877 2398 1783 1608 1902 1908 1981 1992 2002 1875 1903 1800 1989 1803 1907 1794 1907 1971 1618 1989 1884 1830 1782 1802 1718 1888 1818 1799 1795 1799 1806 1918 1984 1704 1694 2000 1987 1713 1801 1906 1969 1800 1916 1895 1992 1718 1903 1893 1700 1899 1802 2028 1805 1903 1610 2125 1721 2004 1626 1896 1617 2095 1716 1702 1536 1713 1736 1814 2105 1733 1797 2025 2298 1898 1921 1720 2442 2243 2139 1718 1920 2039 1722 1808 1710 1827 2044 1906 1804 2011 1818 1712 1725 1798 2005 1812 2320 1793 1714 1816 1724 1734 1824 2231 1906 2081 1618 1813 1814 1712 1897 1723 1712 1982 1807 1717 1717 2131 1913 1622 1816 1726 1796 2051 1984 1920 1925 1915 1832 1909 2123 2020 1812 1716 2238 1705 2021 1818 1721 1804 2185 1922 1815 1623 1714 1628 1817 1814 1997 1810 1901 2315 1997 2205 1899 1900 1809 1926 2001 2005 2281 1901 1812 1722 1932 1823 2077 1796 1823 1527 1808 1825 1826 1935 1718 1710 1668 1821 1831 1906 1907 1903 2364 1909 1838 2184 1952 2005 1917 1914 1728 1831 1814 2054 2130 2001 1835 1933 2005 1915 1924 1830 1919 2474 1949 1827 1646 1915 1931 1809 1908 1727 2008 2020 2026 2061 1820 1650 2117 1838 1625 1969 1729 1816 2023 1830 1737 2491 2348 2000 1915 1727 1827 1814 1831 2043 2022 2331 1931 1737 1828 1924 1914 2062 2237 1825 2015 2144 1836 1731 2050 1735 1820 1836 2170 1935 1846 1823 1734 1915 1954 1844 1917 2011 1642 2151 1820 1943 2141 1931 2010 1918 1954 1733 2011 1814 2467 1726 2133 1632 1837 1737 1931 1745 1829 2121 2024 1732 1875

Tree=0
num_leaves=17
num_cat=0
split_feature=11 11 11 24 29 7 19 7 59 5 53 40 14 17 8 5
split_gain=98.3742 10.9926 7.9104 4.27578 4.02904 1.68026 1.37086 1.18066 0.350406 0.230723 0.306989 0.141573 0.1163 0.1084 0.0479241 0.0131723
threshold=0.57027106283417861 1.4966718661929395 0.30092123409630023 82.176856859858617 27.003279054029509 95.000000000000014 14.494897197117455 9.5000000000000018 -2.2899738984742752 3308.4982315433995 80.040579165471328 3.1731734129881652 0.062305202392538929 0.16249257741575332 24.500000000000004 3309.3665653434923
decision_type=2 2 2 2 2 2 2 2 2 2 2 2 2 2 2 2
left_child=2 3 7 6 8 -5 -2 12 -4 10 -9 -10 15 -11 -12 -1
right_child=1 -3 4 5 -6 -7 -8 9 11 13 14 -13 -14 -15 -16 -17
leaf_value=0.55051853422446428 0.59448643638271592 0.60200006441203746 0.56219734168619839 0.57322436418285849 0.58596721350796865 0.58544659608990524 0.58637583567870299 0.55630668823949958 0.56551440850835599 0.55850368684472196 0.5611768158031748 0.56982606538086267 0.55467764483813797 0.5549662171681593 0.56388268569827049 0.55182765180898175
leaf_weight=33 131 201 39 57 32.5 55.5 86.5 30 33 49.5 36 45 37 38.5 30 46
leaf_count=22 32 35 26 32 11 19 30 20 22 33 24 29 25 26 20 31
internal_value=0.578211 0.592782 0.560997 0.587168 0.570393 0.579254 0.591261 0.556315 0.566067 0.558805 0.5605 0.568002 0.552364 0.556956 0.562407 0.551281
internal_weight=980.5 531 449.5 330 149.5 112.5 217.5 300 117 184 96 78 116 88 66 79
internal_count=437 148 289 113 88 51 62 201 77 123 64 51 78 59 44 53
is_linear=0
shrinkage=1


Tree=1
num_leaves=17
num_cat=0
split_feature=11 11 25 7 11 61 57 61 7 12 51 51 34 13 2 2
split_gain=85.4699 11.9057 3.85263 3.94725 3.18249 1.64535 1.24305 0.56013 0.429143 0.24238 0.111425 0.0880891 0.0920333 0.0427471 0.0200778 0.00635732
threshold=0.46220612700143887 1.4966718661929395 79.590735380949226 95.000000000000014 0.19745852885297299 2.6083869892652993 -1.8292402041747764 3.1696460073652721 6.5000000000000009 0.26239668645521635 25.791537951088454 55.963430396751797 -2.112830940356369 0.05204288692031233 937100.88328590931 962487.65254911466
decision_type=2 2 2 2 2 2 2 2 2 2 2 2 2 2 2 2
left_child=4 2 -2 6 8 -6 -4 -8 13 -7 -11 12 -10 15 -12 -1
right_child=1 -3 3 -5 5 9 7 -9 11 10 14 -13 -14 -15 -16 -17
leaf_value=-0.026026926178863086 0.014211993087303969 0.022200331319959798 -0.0080979056828827771 0.010226749759712979 -0.0040114879706188251 -0.018625009153038264 -0.0029650529784460864 0.0052094487144954899 -0.019608381491028865 -0.016736146410306293 -0.012137659390767415 -0.018086305123109086 -0.022947033814021522 -0.02326631909709866 -0.013945042508033415 -0.025031711955865229
leaf_weight=34.5 126.5 196 54 119.5 38 48 37.5 47.5 44.5 30 31.5 32.5 38.5 29.5 30 30
leaf_count=23 34 35 33 36 21 32 22 19 30 20 21 22 26 20 20 20
internal_value=4.32508e-05 0.0121689 0.00706204 0.00356313 -0.0181609 -0.013235 -0.00216567 0.00160305 -0.0223345 -0.0157475 -0.0142379 -0.020293 -0.021157 -0.0248429 -0.0130193 -0.025564
internal_weight=968 581 385 258.5 387 177.5 139 85 209.5 139.5 91.5 115.5 83 94 61.5 64.5
internal_count=434 179 144 110 255 114 74 41 141 93 61 78 56 63 41 43
is_linear=0
shrinkage=0.05


Tree=2
num_leaves=19
num_cat=0
split_feature=7 7 7 27 24 34 12 31 11 43 43 59 54 0 11 21 38 25
split_gain=84.3855 9.13112 8.12336 3.95769 3.07677 1.6223 1.11678 0.524895 0.474421 0.46442 0.231841 0.15472 0.0981387 0.113575 0.0965338 0.0803946 0.0661963 0.0145875
threshold=62.500000000000007 142.00000000000003 28.500000000000004 26.888393001617334 79.479661459691485 0.19737140428151353 0.093500106067604796 -1.7485628982740302 0.53407796299780697 3216.1431349333639 3202.5706392726834 -2.2899738984742752 81.652961637735515 -0.2393156642875576 0.062305202392538929 41.655899575380083 -2.4766673598544191 82.483890215333147
decision_type=2 2 2 2 2 2 2 2 2 2 2 2 2 2 2 2 2 2
left_child=2 4 6 8 -2 7 14 -6 10 -8 -4 -12 16 -14 17 -15 -11 -1
right_child=1 -3 3 -5 5 -7 9 -9 -10 12 11 -13 13 15 -16 -17 -18 -19
leaf_value=-0.024648385988154883 0.015590510829904322 0.022870784625411034 -0.0080382144947846734 0.0083029408676502034 -0.0035598442197228089 0.010358818514436922 -0.011197156281698317 0.0038436840130617062 -0.0047324794861488047 -0.020838875455014848 -0.015631934255361558 -0.01096445998583717 -0.018962678273518881 -0.017285214215517045 -0.020665077475401073 -0.0136247371075054 -0.017718820339616605 -0.023302441771312427
leaf_weight=35.5 118 208 37.5 39 39 85 31.5 62 37.5 34 30 43.5 37.5 30 32.5 30 34 46.5
leaf_count=24 28 35 24 13 21 26 20 24 22 23 20 29 25 20 22 20 23 31
internal_value=0.000537598 0.0147984 -0.0140947 -0.00587199 0.00927518 0.00526868 -0.0190442 0.000984896 -0.0095947 -0.0167618 -0.0112373 -0.0128696 -0.0178209 -0.0168041 -0.0229711 -0.015455 -0.0192788 -0.0238851
internal_weight=1011 512 499 187.5 304 186 311.5 101 148.5 197 111 73.5 165.5 97.5 114.5 60 68 82
internal_count=450 134 316 108 99 71 208 45 95 131 73 49 111 65 77 40 46 55
is_linear=0
shrinkage=0.05


Tree=3
num_leaves=17
num_cat=0
split_feature=11 11 21 11 19 61 11 11 0 11 13 58 33 24 28 25
split_gain=69.0494 10.6125 4.66692 3.01304 2.11023 1.40217 1.01695 0.385168 0.290718 0.282388 0.119356 0.0804857 0.105125 0.0647476 0.0380958 0.0102971
threshold=0.46220612700143887 1.479836392679996 28.851567782199286 0.21371660570041248 19.363758809072596 2.6083869892652993 0.92019529846600145 0.093500106067604796 0.29696027566504674 0.30092123409630023 0.062305202392538929 -1.554026540323854 -2.5559284117624865 83.10026885882813 26.113676521899141 83.744268036595813
decision_type=2 2 2 2 2 2 2 2 2 2 2 2 2 2 2 2
left_child=3 2 4 7 -2 -5 8 10 -4 13 15 12 -9 -7 -11 -1
right_child=1 -3 6 5 -6 9 -8 11 -10 14 -12 -13 -14 -15 -16 -17
leaf_value=-0.023513781297497635 0.014301866143941881 0.020017015972832369 -0.0021406762466272887 -0.0031337991993367568 0.0043291740725643537 -0.014456787730256718 0.0036890864450956733 -0.018470909107815136 -0.0082499909111195154 -0.010295935039934905 -0.019634653107229488 -0.019353568628430368 -0.014432691628970798 -0.017741794387499493 -0.012520789483497883 -0.022327210234873225
leaf_weight=41 142.5 211 51 42.5 84.5 30 71 33 31.5 34.5 41.5 40 31.5 30 43.5 33
leaf_count=28 36 38 28 23 33 20 28 22 20 23 28 27 21 20 29 22
internal_value=0.000168625 0.0110233 0.00603602 -0.0158627 0.0105896 -0.0110748 -0.000697877 -0.019791 -0.00447332 -0.0135204 -0.021781 -0.0175915 -0.0164988 -0.0160993 -0.0115367 -0.0229846
internal_weight=992 591.5 380.5 400.5 227 180.5 153.5 220 82.5 138 115.5 104.5 64.5 60 78 74
internal_count=446 183 145 263 69 115 76 148 48 92 78 70 43 40 52 50
is_linear=0
shrinkage=0.05


Tree=4
num_leaves=18
num_cat=0
split_feature=7 7 52 27 0 21 12 1 47 11 59 54 39 0 14 34 44
split_gain=66.9882 7.06437 6.88973 3.58631 3.48909 1.25533 0.797558 0.563125 0.303411 0.288568 0.168836 0.138098 0.132591 0.123468 0.0641529 0.0305583 0.0105959
threshold=65.000000000000014 28.500000000000004 75.231263341670385 26.888393001617334 -0.91023613416931226 21.250204471494254 0.093500106067604796 -0.12053668025532321 3273.1667321807568 1.1536331324377966 -2.5025398545978326 81.932272002008332 3.3849716090735895 -0.2393156642875576 0.062305202392538929 -2.4302874606723255 3304.5534081117344
decision_type=2 2 2 2 2 2 2 2 2 2 2 2 2 2 2 2 2
left_child=1 6 4 7 -2 -6 14 -3 -8 -7 -9 15 -12 -13 16 -10 -1
right_child=2 3 -4 -5 5 9 8 10 11 -11 12 13 -14 -15 -16 -17 -18
leaf_value=-0.022149514870823558 0.015414045672740004 -0.0046757552879197256 0.021892193978761926 0.0085251603126525882 0.0088807792007957465 -0.0013994851867879198 -0.012343149624689661 -0.014240134606758754 -0.017548882374257752 0.0039095447624497345 -0.01208853100736936 -0.017474594791730243 -0.0074957167320517885 -0.013417207539081575 -0.019074232332290164 -0.019735066352352018 -0.020973587830861409
leaf_weight=53 135.5 52.5 153 37.5 108.5 53 49.5 30 33 49.5 30 37.5 33 37.5 31.5 31 30
leaf_count=36 28 31 25 12 32 28 32 20 22 17 20 25 22 25 21 21 20
internal_value=0.000196572 -0.0130191 0.0130551 -0.00526231 0.00915301 0.0051323 -0.017704 -0.00881578 -0.0157047 0.00116439 -0.0111529 -0.0169017 -0.00968277 -0.0154459 -0.0209954 -0.0186078 -0.0217245
internal_weight=985.5 486 499.5 183 346.5 211 303 145.5 188.5 102.5 93 139 63 75 114.5 64 83
internal_count=437 307 130 105 105 77 202 93 125 45 62 93 42 50 77 43 56
is_linear=0
shrinkage=0.05


Tree=5
num_leaves=18
num_cat=0
split_feature=11 52 58 7 27 62 21 7 57 43 60 39 61 20 13 43 43
split_gain=64.7617 7.72613 4.55052 3.55535 1.59428 1.32138 1.22165 0.847202 0.351206 0.284468 0.262068 0.293389 0.116399 0.119906 0.100554 0.0254379 0.00649226
threshold=0.58153611869292465 81.848931365808525 1.1490940523256483 28.500000000000004 26.758058316963702 3.3742481462537 21.250204471494254 9.5000000000000018 -2.131575426871168 3216.1431349333639 -2.4091119227621269 3.4405957830417937 2.9509268705014811 49.280976451404101 0.062305202392538929 3308.5972366477213 3301.956908953292
decision_type=2 2 2 2 2 2 2 2 2 2 2 2 2 2 2 2 2
left_child=3 2 6 7 10 -4 -2 14 -8 -9 -5 -12 -11 15 16 -14 -1
right_child=1 -3 5 4 -6 -7 8 9 -10 12 11 -13 13 -15 -16 -17 -18
leaf_value=-0.021204023324337202 0.0077808536959616528 0.023270160779126053 0.017690105736255648 -0.013310411924289334 0.003029075655780855 0.0099923100372826743 -0.003763111079698084 -0.010083720277226161 0.0020945952560337223 -0.012859795764088631 -0.010969877522438765 -0.0053004764098053183 -0.016422765357519992 -0.013819917710497976 -0.017643595875149045 -0.018237909584334404 -0.020282116863462662
leaf_weight=48.5 90.5 121 112 36 30.5 111 40.5 31.5 69.5 37.5 48 43.5 46.5 40 35.5 33 31.5
leaf_count=33 29 20 19 24 13 30 20 20 30 25 32 28 31 27 24 22 21
internal_value=0.000444844 0.0121276 0.00894398 -0.0133241 -0.00723995 0.0138585 0.00347798 -0.0164862 -6.21057e-05 -0.0144201 -0.00969647 -0.00827459 -0.0152901 -0.0160528 -0.0198583 -0.0171762 -0.020841
internal_weight=1006.5 544.5 423.5 462 158 223 200.5 304 110 188.5 127.5 91.5 157 119.5 115.5 79.5 80
internal_count=448 148 128 300 97 49 79 203 50 125 84 60 105 80 78 53 54
is_linear=0
shrinkage=0.05


Tree=6
num_leaves=19
num_cat=0
split_feature=7 11 23 11 52 27 61 7 8 53 55 58 13 2 43 37 37 22
split_gain=50.7652 6.13486 2.93305 2.31869 1.42075 1.16258 0.783301 0.718754 0.383525 0.319165 0.287105 0.403752 0.207661 0.148589 0.0668827 0.0584655 0.105671 0.00700422
threshold=51.500000000000007 1.9525752613906844 80.350999593514345 0.21371660570041248 77.691101486862976 26.873034029733226 3.2013717416556697 95.000000000000014 8.5000000000000018 80.455765521032262 26.755572056403935 -2.4378385591011127 1.238889847126893 938018.13389962201 3308.8810464264893 -0.68624224331670469 -1.9093486552567236 31.565669486414631
decision_type=2 2 2 2 2 2 2 2 2 2 2 2 2 2 2 2 2 2
left_child=3 2 6 8 7 9 -2 -4 14 -5 11 -11 -9 -13 17 16 -10 -1
right_child=1 -3 4 5 -6 -7 -8 12 15 10 -12 13 -14 -15 -16 -17 -18 -19
leaf_value=-0.019329701513051988 0.016054055150598288 0.021192456375468863 -0.0019205942974779113 -0.015349404880965967 0.011229239975180582 -0.00071335615357384088 0.0092719156692920076 0.0064353913330465308 -0.015509062632918359 -0.0065189167417378895 -0.0057667427858899513 -0.010679313837317751 0.0024222901465533221 -0.01452829150926499 -0.017287698273475354 -0.016353905770708534 -0.011583451305826505 -0.020360926732625049
leaf_weight=30 80 99 72.5 34.5 53.5 32 91 60.5 40 36 31.5 48 69 52.5 39 34 30 36.5
leaf_count=20 16 14 38 23 14 15 26 20 27 24 21 32 25 35 26 23 20 25
internal_value=-0.000537513 0.0099793 0.00737648 -0.0129848 0.00398435 -0.00956954 0.0124448 0.00206553 -0.0168076 -0.010969 -0.0100695 -0.0110624 0.00429714 -0.01269 -0.0189316 -0.0146529 -0.0138267 -0.0198957
internal_weight=969.5 525.5 426.5 444 255.5 234.5 171 202 209.5 202.5 168 136.5 129.5 100.5 105.5 104 70 66.5
internal_count=444 153 139 291 97 150 42 83 141 135 112 91 45 67 71 70 47 45
is_linear=0
shrinkage=0.05


Tree=7
num_leaves=17
num_cat=0
split_feature=11 52 57 25 61 11 7 62 7 37 0 0 13 23 54 51
split_gain=46.7931 8.37113 4.18158 1.83731 1.75892 1.61793 1.25461 0.61896 0.479179 0.438952 0.124101 0.170688 0.102605 0.0695128 0.0599979 0.00573778
threshold=0.46220612700143887 75.231263341670385 1.1047980303594889 80.284586817689288 3.1696460073652721 0.26706460381884439 87.500000000000014 2.9610909469638043 9.5000000000000018 0.31821260486108166 -0.1799261722714405 0.51639395938746258 0.062305202392538929 83.035838168446375 81.932272002008332 75.173828967001938
decision_type=2 2 2 2 2 2 2 2 2 2 2 2 2 2 2 2
left_child=5 2 3 -2 -4 8 9 -7 12 -5 -10 -12 15 -9 -13 -1
right_child=1 -3 4 6 -6 7 -8 13 10 -11 11 14 -14 -15 -16 -17
leaf_value=-0.019250109115826718 0.0077725209414012857 0.019599031374281182 0.016118077504284244 -0.0097184005125503375 0.0066925400074272726 -0.0029180974832602909 0.0024533668113542154 -0.01211739323873033 -0.016080750450491905 -0.0021223759005171441 -0.0099843841977417472 -0.015214991268485484 -0.015802565924823285 -0.0092550165282610144 -0.012498767047688581 -0.018370387554168702
leaf_weight=48.5 63 141 85 48 118.5 35 70.5 46.5 40 31.5 36 49.5 40 39 34.5 30
leaf_count=33 20 26 14 32 36 20 27 31 27 17 24 33 27 26 23 20
internal_value=-0.000287026 0.00906881 0.00550395 0.00060701 0.0106295 -0.0133594 -0.0024025 -0.00851899 -0.0154537 -0.00670865 -0.0136689 -0.0128649 -0.0178637 -0.0108117 -0.0140994 -0.0189139
internal_weight=956.5 557.5 416.5 213 203.5 399 150 120.5 278.5 79.5 160 120 118.5 85.5 84 78.5
internal_count=436 172 146 96 50 264 76 77 187 49 107 80 80 57 56 53
is_linear=0
shrinkage=0.05


Tree=8
num_leaves=19
num_cat=0
split_feature=11 52 7 32 27 24 2 11 1 7 43 43 8 44 0 51 51 54
split_gain=41.3528 4.56548 3.57024 2.07579 1.84332 1.3436 1.19341 0.583957 0.436806 0.379996 0.243337 0.165465 0.12435 0.123631 0.109082 0.151428 0.0275487 0.00375212
threshold=0.66921368999226061 78.667596221582031 28.500000000000004 -2.8259376158988698 26.888393001617334 80.028811902153606 942258.86453251645 0.13850649630012987 -0.78574730703237872 112.00000000000001 3245.1827397585994 3307.6022758319154 9.5000000000000018 3208.5258324652204 -0.35460488704253573 10.130836531954687 72.056310233524457 82.382180834266464
decision_type=2 2 2 2 2 2 2 2 2 2 2 2 2 2 2 2 2 2
left_child=2 3 7 -2 8 -5 -7 12 -4 -8 -9 13 16 -10 -12 -16 17 -1
right_child=1 -3 4 5 -6 6 9 10 11 -11 14 -13 -14 -15 15 -17 -18 -19
leaf_value=-0.017615203753761625 -0.0049163688802056843 0.019140200842881486 -0.0027315836244573197 0.012148034545742356 0.0052336697192753067 0.010831144750118257 0.00050888889096016793 -0.0085389017485655288 -0.0082228033487955401 0.0058868113269166253 -0.015279086108331558 -0.0058529566012559438 -0.014048216324299574 -0.011868843348116003 -0.014626987097841321 -0.010198323925336202 -0.016240280287133323 -0.01838323287034439
leaf_weight=34.5 31.5 105 36 146.5 34 77.5 70.5 39 46.5 61.5 38.5 31.5 40 46.5 33 46.5 36 29.5
leaf_count=23 16 18 21 32 12 19 30 25 31 19 26 20 27 31 22 31 24 20
internal_value=-0.000347493 0.00989213 -0.0106079 0.0073862 -0.00534202 0.00847477 0.00590611 -0.0140565 -0.00758235 0.00301451 -0.0119629 -0.00898498 -0.0164043 -0.0100458 -0.0130946 -0.0120366 -0.0173468 -0.0179692
internal_weight=984 492.5 491.5 387.5 194.5 356 209.5 297 160.5 132 157 124.5 140 93 118 79.5 100 64
internal_count=447 134 313 116 115 100 68 198 103 49 104 82 94 62 79 53 67 43
is_linear=0
shrinkage=0.05


Tree=9
num_leaves=18
num_cat=0
split_feature=7 52 7 30 32 21 54 7 25 44 59 39 61 54 58 17 25
split_gain=39.718 6.03594 3.62678 2.323 1.88373 0.814119 0.584889 0.550213 0.335233 0.225704 0.13507 0.162165 0.0874805 0.0903642 0.0956589 0.0547469 0.00907608
threshold=62.500000000000007 75.231263341670385 28.500000000000004 27.133020421050421 0.28562971094519751 21.250204471494254 81.835501119645144 9.5000000000000018 82.208269237089198 3217.6898235349677 -2.2899738984742752 3.3849716090735895 2.9851572460468252 81.283698615188499 -1.6095720620251035 0.06044126605585623 83.642001546801495
decision_type=2 2 2 2 2 2 2 2 2 2 2 2 2 2 2 2 2
left_child=2 4 7 8 5 -2 -6 15 -4 -9 -10 -12 -11 -14 -15 16 -1
right_child=1 -3 3 -5 6 -7 -8 9 10 12 11 -13 13 14 -16 -17 -18
leaf_value=-0.017424262687563898 0.0061429201704213182 0.018093937999776166 -0.0034488850887468524 0.0079815518471502492 0.0059039846575496338 -0.001673842573331462 0.011450625194767231 -0.0078838292095396254 -0.011004408987032043 -0.010394490679105124 -0.0095122869962301019 -0.0048586217595988678 -0.015053624561034054 -0.010855154444773992 -0.014359600297988407 -0.014578520443657756 -0.01629642109076182
leaf_weight=44 59 159.5 47 31 76.5 76.5 125.5 31.5 36 37.5 39 36 41.5 51 31.5 35.5 30
leaf_count=30 19 27 27 10 24 36 27 20 24 25 26 23 28 34 21 24 20
internal_value=0.000111745 0.0100786 -0.00996666 -0.0045329 0.00629064 0.00172977 0.00935004 -0.0133616 -0.00698827 -0.0117554 -0.00848692 -0.00727853 -0.0125106 -0.0131505 -0.0121932 -0.0161927 -0.016967
internal_weight=988.5 497 491.5 189 337.5 135.5 202 302.5 158 193 111 75 161.5 124 82.5 109.5 74
internal_count=445 133 312 110 106 55 51 202 100 128 73 49 108 83 55 74 50
is_linear=0
shrinkage=0.05


Tree=10
num_leaves=20
num_cat=0
split_feature=7 7 7 23 51 27 59 21 8 47 7 27 60 40 47 51 2 21 19
split_gain=35.206 5.89924 2.67382 2.53392 1.8873 1.84934 0.846124 0.683227 0.594864 0.552961 0.224775 0.202414 0.155484 0.16172 0.0626791 0.0572853 0.0311921 0.037891 0.00418218
threshold=51.500000000000007 181.50000000000003 28.500000000000004 83.077606683049126 46.297582687174462 26.785930305843603 0.89478854457256241 22.059995459794465 99.500000000000014 3273.1667321807568 9.5000000000000018 25.438770884860322 -2.3331059554826963 3.5495362528954186 3307.6817795632392 58.999015854466684 963510.01139575208 40.57060127413606 33.757448670063141
decision_type=2 2 2 2 2 2 2 2 2 2 2 2 2 2 2 2 2 2 2
left_child=2 3 9 4 7 12 -6 -2 -5 11 14 -1 -4 -14 18 16 17 -12 -11
right_child=1 -3 5 8 6 -7 -8 -9 -10 10 15 -13 13 -15 -16 -17 -18 -19 -20
leaf_value=-0.011632244504880214 0.0067142509929607255 0.020160240868290703 -0.011053591246406237 -0.0043944498124931543 0.0081201331069072086 0.0051600846396365639 0.014831202751305436 -0.00053755877263568063 0.0031688694489523045 -0.016206306144595145 -0.014800501767641458 -0.0061548359466321546 -0.0089257826673842609 -0.0043588592784039471 -0.014214574017872414 -0.010693584283192954 -0.011841670175393422 -0.012436925768852233 -0.016973195131868124
leaf_weight=34.5 81.5 91 30 52.5 91.5 35.5 96.5 54 51.5 40 39 33 42 36 48 30 30 30 32
leaf_count=23 25 12 20 29 24 13 20 24 19 27 26 21 28 24 32 20 20 20 22
internal_value=-0.000332418 0.00860069 -0.0104016 0.00614006 0.00832268 -0.00474025 0.0115649 0.00382423 -0.000649152 -0.0129684 -0.0140565 -0.0089544 -0.00799453 -0.00681797 -0.0156141 -0.0126076 -0.0131877 -0.0137729 -0.0165471
internal_weight=978.5 518.5 460 427.5 323.5 143.5 188 135.5 104 316.5 249 67.5 108 78 120 129 99 69 72
internal_count=449 153 296 141 93 85 44 49 48 211 167 44 72 52 81 86 66 46 49
is_linear=0
shrinkage=0.05


Tree=11
num_leaves=19
num_cat=0
split_feature=15 15 24 1 15 7 52 53 56 8 1 51 20 58 27 43 22 30
split_gain=25.9067 4.89154 1.76822 1.74271 1.31473 0.845599 0.686872 0.571913 0.542386 0.296496 0.124814 0.091314 0.0907865 0.0952556 0.0651636 0.050723 0.0322496 0.00549613
threshold=0.37994604849169111 1.0826768216302145 82.176856859858617 -0.61559370248597534 0.23670254560517948 88.500000000000014 42.04293158659415 83.181953161931389 26.683016636206684 8.5000000000000018 -0.85421994577343285 40.639784998699234 40.715084162944002 -1.554026540323854 26.303565725558823 3308.8810464264893 22.287292405241473 26.195722467613649
decision_type=2 2 2 2 2 2 2 2 2 2 2 2 2 2 2 2 2 2
left_child=4 2 6 -4 9 11 -2 -8 14 15 -11 -5 16 -14 -6 17 -12 -1
right_child=1 -3 3 5 8 -7 7 -9 -10 10 12 -13 13 -15 -16 -17 -18 -19
leaf_value=-0.014928377717733383 0.002933866979384964 0.017396778281194621 0.0074247804058135544 -0.0086264915278424399 -0.0071332956392628454 0.00130535596681218 0.0060973168309055165 0.01181356452645794 -0.00065587604767642922 -0.0087719858074799574 -0.012219609029881368 -0.0048546939374258125 -0.0087483679029074588 -0.012658462231442081 -0.0099821439039879944 -0.013172368418711883 -0.014349699607401185 -0.015833694605450883
leaf_weight=30 77 83 61 34.5 48 62 100.5 77.5 32 39 38.5 30 33 29.5 34.5 39 33 38
leaf_count=20 30 12 18 22 32 23 31 16 17 26 26 18 22 20 23 26 22 26
internal_value=-0.0010114 0.00625835 0.0041691 0.000483141 -0.0106952 -0.00286421 0.00687937 0.00858613 -0.0061814 -0.012541 -0.0112614 -0.00687217 -0.0119859 -0.0105939 -0.00832463 -0.0146099 -0.0132027 -0.0154343
internal_weight=920 525.5 442.5 187.5 394.5 126.5 255 178 114.5 280 173 64.5 134 62.5 82.5 107 71.5 68
internal_count=430 170 158 81 260 63 77 47 72 188 116 40 90 42 55 72 48 46
is_linear=0
shrinkage=0.05


Tree=12
num_leaves=17
num_cat=0
split_feature=8 24 7 53 59 28 19 11 55 26 54 10 12 53 53 52
split_gain=30.3477 4.13516 2.27675 2.21918 0.945667 0.854869 0.545031 0.423083 0.221797 0.129296 0.0895839 0.130608 0.0725611 0.0660699 0.0391226 0.0119774
threshold=62.500000000000007 78.376768256563935 28.500000000000004 83.755431850349069 -0.53792620357107601 26.785930305843603 5.5637239264688398 0.15585241451378742 26.804940551106192 81.496228937372464 82.910588385470916 38.500000000000007 0.062258733178868049 82.028665449636293 80.629045516372415 56.074586212089947
decision_type=2 2 2 2 2 2 2 2 2 2 2 2 2 2 2 2
left_child=2 -2 7 4 -3 8 -6 12 10 -9 -4 -12 15 -11 -14 -1
right_child=1 3 5 -5 6 -7 -8 9 -10 13 11 -13 14 -15 -16 -17
leaf_value=-0.014976361879082615 0.01539373277316964 -0.0023915114182334646 -0.0090654890585158548 0.01079607482170934 0.0085704901496526497 0.0025860754506928582 0.0024435096789996343 -0.0068636569335605163 -0.0024930901411506865 -0.011871488683897516 -0.0082549746740948077 -0.0036966281710192565 -0.013619899893960646 -0.0093388511902756152 -0.011306254833601835 -0.013778150486357419
leaf_weight=43 157.5 66.5 42 131.5 58 35 97 33 31.5 46 33 30 31 58.5 44.5 40.5
leaf_count=29 29 34 28 27 13 15 36 21 18 31 22 18 21 39 30 27
internal_value=0.000225785 0.00865675 -0.00897081 0.00565087 0.00259627 -0.00438533 0.00473619 -0.0116231 -0.00617286 -0.00959209 -0.0072768 -0.00608433 -0.0133795 -0.0104537 -0.0122562 -0.0143952
internal_weight=978.5 510.5 468 353 221.5 171.5 155 296.5 136.5 137.5 105 63 159 104.5 75.5 83.5
internal_count=438 139 299 110 83 101 49 198 86 91 68 40 107 70 51 56
is_linear=0
shrinkage=0.05


Tree=13
num_leaves=18
num_cat=0
split_feature=7 52 56 7 23 23 37 7 10 61 51 40 56 12 61 43 25
split_gain=27.7924 4.20757 2.06207 2.05871 0.895671 0.67097 0.405127 0.35938 0.273482 0.231394 0.11248 0.249801 0.0771945 0.0764667 0.0736587 0.0297662 0.012701
threshold=62.500000000000007 75.231263341670385 26.702580872417148 28.500000000000004 81.507358287752325 83.456404879985541 2.0589580062866744 15.500000000000002 96.500000000000014 2.877435688966802 35.501918665174038 3.289868755805236 25.495362365686148 0.062258733178868049 3.2547295597949728 3308.5972366477213 82.483890215333147
decision_type=2 2 2 2 2 2 2 2 2 2 2 2 2 2 2 2 2
left_child=3 2 5 7 -5 6 8 13 -2 -9 -6 -12 -11 16 -15 -14 -1
right_child=1 -3 -4 4 10 -7 -8 9 -10 12 11 -13 15 14 -16 -17 -18
leaf_value=-0.014350138623993119 0.0047677496296918802 0.015479327947749786 0.010728092812284639 0.00088977300751525747 -0.0086909675639536658 -0.0019708736075295346 0.0071082983204784501 -0.0055268580489086384 -5.6718982819278362e-05 -0.0082052693007484325 -0.008248861550930001 -0.0026917032825832187 -0.010383375651306577 -0.010121034205644981 -0.013103516324411466 -0.01238984202934524 -0.013113063904974196
leaf_weight=38.5 58.5 140.5 118.5 56.5 45 58.5 72 33 59 31.5 42 39 49.5 43.5 39.5 29.5 45
leaf_count=26 19 24 23 28 29 27 20 21 24 21 28 23 33 29 27 20 30
internal_value=-9.48564e-05 0.00812267 0.00530245 -0.00855432 -0.0043411 0.00270995 0.00415496 -0.0110347 0.00234525 -0.0092009 -0.00668668 -0.00557319 -0.0102981 -0.0126151 -0.0115404 -0.0111326 -0.0136835
internal_weight=999.5 507 366.5 492.5 182.5 248 189.5 310 117.5 143.5 126 81 110.5 166.5 83 79 83.5
internal_count=452 137 113 315 108 90 63 207 43 95 80 51 74 112 56 53 56
is_linear=0
shrinkage=0.05


Tree=14
num_leaves=18
num_cat=0
split_feature=11 52 58 25 11 62 11 51 51 53 12 58 57 37 27 47 14
split_gain=21.1668 4.16052 2.61915 0.992163 0.94861 0.751797 0.532436 0.415998 0.405178 0.173369 0.127554 0.0739744 0.0698422 0.0422089 0.0786863 0.0219645 0.00357581
threshold=0.46220612700143887 75.231263341670385 1.1198953604053894 79.874997409875235 0.19725969295864629 2.7823543097691639 1.1536331324377966 47.020449198037433 35.782789239521456 82.128622911691082 0.062258733178868049 -2.3842345255344255 -2.0161018999101299 -0.68624224331670469 25.718112980059647 3308.799147340058 0.031286749487463884
decision_type=2 2 2 2 2 2 2 2 2 2 2 2 2 2 2 2 2
left_child=4 2 3 -2 10 -6 8 -4 -5 -7 15 -11 -13 14 -12 16 -1
right_child=1 -3 7 6 5 9 -8 -9 -10 11 13 12 -14 -15 -16 -17 -18
leaf_value=-0.013117887675762177 0.0053297714584253052 0.012557098005587856 0.0055009893158417264 -0.0077955568031538086 -0.00063558305818133248 -0.010806768267385421 0.0023696522436597771 0.010596226925006162 -0.0018318922113196381 -0.0050431541198243703 -0.011094874006578293 -0.009853553002079329 -0.0067591799162728811 -0.011736684334464372 -0.0077982294583512886 -0.011842963546514512 -0.013893141887955747
leaf_weight=30 55 168 83.5 46.5 41 46.5 42.5 77 73.5 30 43.5 30 46.5 40 31 30 29.5
leaf_count=20 18 32 24 30 23 31 14 16 39 20 29 20 31 27 21 20 20
internal_value=-0.000382145 0.00601016 0.0031004 -0.000474896 -0.00915148 -0.00664833 -0.00243955 0.00794543 -0.00414281 -0.00825959 -0.0115319 -0.00714745 -0.00797266 -0.0104265 -0.00972312 -0.0129461 -0.0135023
internal_weight=944 546 378 217.5 398 194 162.5 160.5 120 153 204 106.5 76.5 114.5 74.5 89.5 59.5
internal_count=435 173 141 101 262 125 83 40 69 102 137 71 51 77 50 60 40
is_linear=0
shrinkage=0.05


Tree=15
num_leaves=18
num_cat=0
split_feature=7 52 29 23 58 7 52 56 2 54 58 59 9 53 33 43 31
split_gain=19.6255 2.82552 1.98457 1.49798 0.796799 0.630687 0.565984 0.248268 0.189525 0.158057 0.229711 0.109441 0.0831526 0.0791086 0.0331854 0.0256139 0.0035842
threshold=51.500000000000007 75.231263341670385 27.275863783485587 80.028811902153606 1.1198953604053894 15.500000000000002 41.821396737116252 26.957113607908639 962458.85146405257 81.283698615188499 -2.4203606568656721 -1.0904788075392207 9.5000000000000018 81.869665271528092 -2.2961302078821499 3310.1300302329405 -1.5008507895941448
decision_type=2 2 2 2 2 2 2 2 2 2 2 2 2 2 2 2 2
left_child=2 3 5 -2 6 12 -5 8 9 -7 -11 14 15 -14 -12 16 -1
right_child=1 -3 -4 4 -6 7 -8 -9 -10 10 11 -13 13 -15 -16 -17 -18
leaf_value=-0.013038228057763158 0.0077022160556155395 0.012143095861725762 0.0043144140753053851 0.0020266228302030782 0.0047525371597599122 -0.010218310356140138 -0.00477069479875206 -0.0030056896805763247 -0.010500237231071179 -0.0025995836866694313 -0.009980977929773786 -0.0058096957245939657 -0.011526242150710179 -0.007965671410784126 -0.0076858692935534894 -0.010923226748903593 -0.012319930065685596
leaf_weight=34 155.5 147.5 31 61 93 33 61.5 30 52 31.5 31.5 57 32.5 30 31.5 30 35.5
leaf_count=23 38 29 12 25 28 22 34 18 35 21 21 37 22 20 21 20 24
internal_value=-0.000378425 0.00628932 -0.00790231 0.00396201 0.00126317 -0.00878614 -0.00138591 -0.00729055 -0.00783409 -0.00708265 -0.00639964 -0.00739715 -0.0112465 -0.00981717 -0.00883342 -0.0121443 -0.0126713
internal_weight=978 518.5 459.5 371 215.5 428.5 122.5 266.5 236.5 184.5 151.5 120 162 62.5 63 99.5 69.5
internal_count=450 154 296 125 87 284 59 175 157 122 100 79 109 42 42 67 47
is_linear=0
shrinkage=0.05


Tree=16
num_leaves=17
num_cat=0
split_feature=11 7 23 61 53 42 12 61 58 53 7 51 28 32 35 11
split_gain=19.6286 3.23149 2.30565 1.92448 1.15383 0.960209 0.487786 0.294739 0.273953 0.0982915 0.0956431 0.105685 0.0893435 0.0519227 0.0163745 0.00853264
threshold=0.46220612700143887 205.00000000000003 83.456404879985541 3.4864968246284489 83.755431850349069 2.7935021066509909 0.15585241451378742 2.6083869892652993 -1.8525062594344102 81.829250466182685 6.5000000000000009 55.963430396751797 26.279580919602292 -1.6993590859112391 -2.4766673598544191 0.041509927293107131
decision_type=2 2 2 2 2 2 2 2 2 2 2 2 2 2 2 2
left_child=6 2 3 4 -2 -5 10 -8 -4 14 15 -12 13 -11 -9 -1
right_child=1 -3 8 5 -6 -7 7 9 -10 12 11 -13 -14 -15 -16 -17
leaf_value=-0.01231101404647438 0.0059224559505488359 0.015914744376272393 -0.0058855118436945816 0.005687086849473417 0.01296396169498145 -0.001485064186155796 -0.0034099805821803798 -0.01030948688586553 -0.00039500006691672689 -0.0047662065597251059 -0.010910080247803738 -0.0071193765631566448 -0.0086585133771101639 -0.0075106560687224072 -0.0087874650608661571 -0.011270941613298474
leaf_weight=49 127.5 69 31.5 100 107 87.5 43.5 30 81.5 40.5 47.5 30 52.5 30 43 33
leaf_count=33 39 9 19 27 18 38 27 20 35 27 32 20 35 20 29 22
internal_value=4.60221e-05 0.00573105 0.00441764 0.00611617 0.00913542 0.00234008 -0.00855988 -0.00713321 -0.00192554 -0.00795953 -0.0107021 -0.00944271 -0.00709693 -0.00593406 -0.00941295 -0.0118924
internal_weight=1003 604 535 422 234.5 187.5 399 239.5 113 196 159.5 77.5 123 70.5 73 82
internal_count=450 185 176 122 57 65 265 158 54 131 107 52 82 47 49 55
is_linear=0
shrinkage=0.05


Tree=17
num_leaves=18
num_cat=0
split_feature=11 61 7 52 29 12 56 7 61 55 30 53 12 39 37 30 25
split_gain=18.3724 3.33693 3.25134 2.3207 1.55584 0.62644 0.570753 0.346424 0.276537 0.258528 0.167619 0.0905791 0.0842317 0.0608259 0.0598822 0.0944455 0.0110211
threshold=0.93055773590688784 3.4725796749025539 32.500000000000007 78.667596221582031 27.208485342135102 0.73299512825098201 26.624539283702273 20.500000000000004 2.7073640120306695 26.728906492497973 26.064325597087912 82.244732277291163 0.062258733178868049 2.9012518020756004 0.090630345917756594 26.010223497700945 82.208269237089198
decision_type=2 2 2 2 2 2 2 2 2 2 2 2 2 2 2 2 2
left_child=2 3 7 -2 5 9 -3 12 -9 10 -4 -10 16 -12 15 -14 -1
right_child=1 6 4 -5 -6 -7 -8 8 11 -11 13 -13 14 -15 -16 -17 -18
leaf_value=-0.011815354365568895 0.0085017434715252346 0.00045620252252168332 -0.0034739538631401961 0.018549269437789919 0.007495002634823323 0.0013393879295401877 0.0064828283888728995 -0.0025434714883114354 -0.010067240302524871 -0.0007863808197505547 -0.0088818033752234085 -0.0066571121341457559 -0.0096799776212781932 -0.0058428684397349284 -0.010820329700197494 -0.0065034496523320483 -0.010615228180603314
leaf_weight=32.5 159 96 45 90 44 62 66.5 33 31.5 33 34.5 51 58.5 31.5 35 39 46.5
leaf_count=22 37 33 26 12 12 26 16 20 21 18 23 34 39 21 24 26 31
internal_value=0.000424268 0.00849603 -0.00533228 0.0121334 -0.00103972 -0.00286267 0.00292248 -0.00861406 -0.00641182 -0.00467188 -0.00582703 -0.00795916 -0.0098167 -0.0074314 -0.00904622 -0.00840937 -0.011109
internal_weight=988.5 411.5 577 249 250 206 162.5 327 115.5 144 111 82.5 211.5 66 132.5 97.5 79
internal_count=441 98 343 49 126 114 49 217 75 88 70 55 142 44 89 65 53
is_linear=0
shrinkage=0.05


Tree=18
num_leaves=17
num_cat=0
split_feature=7 2 30 56 12 61 2 51 11 9 1 2 33 13 53 51
split_gain=16.7119 2.68458 1.74527 1.27175 0.881271 0.515924 0.374799 0.32619 0.248499 0.142224 0.114763 0.0671915 0.0451988 0.0447672 0.0461901 0.0197291
threshold=62.500000000000007 965212.73624968959 27.275863783485587 25.770807360681349 0.35334279999013013 3.4864968246284489 928422.91879047046 57.257668348351487 0.15585241451378742 49.500000000000007 -0.46472317204376873 962458.85146405257 -2.4223319190140389 0.062305202392538929 81.929133845633871 72.056310233524457
decision_type=2 2 2 2 2 2 2 2 2 2 2 2 2 2 2 2
left_child=2 3 4 -2 8 6 -5 9 13 -6 -10 12 -12 15 -15 -1
right_child=1 -3 -4 5 7 -7 -8 -9 10 -11 11 -13 -14 14 -16 -17
leaf_value=-0.011457463064614466 -0.0029149795692133651 0.013811695811180575 0.0042188370550000995 0.0095780252912404523 -0.0034794603613601338 0.0033105155721306805 0.0054751439522313441 3.2168998255987059e-06 -0.0051710612690519728 -0.0077782785115034685 -0.0084066638792002647 -0.0096942621682371416 -0.0061219108641468074 -0.010148824387511543 -0.0077212510902124158 -0.0098279946455449782
leaf_weight=42.5 46.5 106 37 101 43.5 125 124 44 52.5 34.5 40.5 38.5 46.5 43 36 33
leaf_count=29 22 19 14 18 27 39 34 23 34 23 27 26 31 29 24 22
internal_value=0.000331648 0.00674349 -0.0062237 0.00485389 -0.00707381 0.00588604 0.00731688 -0.00343906 -0.00840746 -0.00538086 -0.00713398 -0.00795512 -0.0071855 -0.00987463 -0.00904259 -0.0107452
internal_weight=994 502.5 491.5 396.5 454.5 350 225 122 332.5 78 178 125.5 87 154.5 79 75.5
internal_count=441 132 309 113 295 91 52 73 222 50 118 84 58 104 53 51
is_linear=0
shrinkage=0.05


Tree=19
num_leaves=19
num_cat=0
split_feature=7 52 7 56 23 27 2 56 9 12 43 61 14 53 64 39 38 38
split_gain=15.1861 3.04666 1.38933 1.28467 0.711775 0.635628 0.489008 0.346493 0.16055 0.141509 0.145494 0.105962 0.0677489 0.0442576 0.0311251 0.0211181 0.00756135 0.004852
threshold=62.500000000000007 83.559162009440328 28.500000000000004 25.770807360681349 80.094428376670166 26.888393001617334 942258.86453251645 26.454231707971982 6.5000000000000009 0.53953296803229955 3204.0479309332591 2.7189790151639799 0.34190905888591855 81.829250466182685 3309.0385911370722 3.9789604599771073 -1.4848919351570349 0.53891002305723157
decision_type=2 2 2 2 2 2 2 2 2 2 2 2 2 2 2 2 2 2
left_child=2 3 8 -2 -5 9 -6 -8 16 10 -4 -10 -12 15 -15 -13 -1 -18
right_child=1 -3 5 4 6 -7 7 -9 11 -11 12 13 -14 14 -16 -17 17 -19
leaf_value=-0.009565959076086681 -0.0033986251921423027 0.015029476855502086 -0.0025941021999137271 0.0075940636644030324 0.0069462009022633235 0.0036272712412380409 0.0036160849774910125 -0.0017185389612089184 -0.0055921418782604003 -0.0017237939570030128 -0.0049533686717040844 -0.010080045397792545 -0.0080208707238650975 -0.0067199843606413016 -0.008760995523383221 -0.0084031365535877367 -0.010996294122631268 -0.010103957118496064
leaf_weight=30 46.5 81 36 187 60 31 75.5 51 46.5 40.5 36 35 36 49.5 30 40.5 29.5 31.5
leaf_count=20 22 13 23 38 15 12 25 22 31 23 24 24 24 33 20 27 20 21
internal_value=8.78494e-05 0.00615086 -0.00634768 0.00443856 0.00541427 -0.00288484 0.00322864 0.00146537 -0.00847274 -0.00424427 -0.00518945 -0.00768552 -0.00648712 -0.00831353 -0.00749018 -0.00918051 -0.0102159 -0.0105355
internal_weight=973 501 472 420 373.5 179.5 186.5 126.5 292.5 148.5 108 201.5 72 155 79.5 75.5 91 61
internal_count=437 135 302 122 100 106 62 47 196 94 71 135 48 104 53 51 61 41
is_linear=0
shrinkage=0.05


Tree=20
num_leaves=17
num_cat=0
split_feature=11 24 11 26 61 30 33 38 11 51 38 51 59 11 12 43
split_gain=11.1973 2.61587 1.20623 1.0924 0.846364 0.558108 0.536862 0.291543 0.264899 0.239168 0.0835336 0.143876 0.0674794 0.0326477 0.0299943 0.0211832
threshold=0.46220612700143887 78.242467907425493 1.1797408292112277 80.284586817689288 3.4725796749025539 27.102276154114197 1.6202177159859028 1.2468232825498939 0.15585241451378742 45.418958571115773 1.0000000180025095e-35 10.130836531954687 -2.3984465781645739 0.093500106067604796 0.29630030068844598 3308.7991473400575
decision_type=2 2 2 2 2 2 2 2 2 2 2 2 2 2 2 2
left_child=5 -2 3 -3 -4 8 7 9 13 -5 11 -10 -13 15 -14 -1
right_child=1 2 4 6 -6 -7 -8 -9 10 -11 -12 12 14 -15 -16 -17
leaf_value=-0.010025229544743247 0.01019662150353301 0.0057465412440376546 0.0081057567265266899 -0.0078478318328658748 0.0015417559367548574 -0.00015502550949652991 0.0032701090665963983 -2.0610951764536077e-05 -0.0076668922250208108 -0.0027290480800144291 -0.0079043309240100484 -0.0059423176626510477 -0.0045359892036878702 -0.0078797936060086456 -0.0023515402867148321 -0.0085156259055321048
leaf_weight=57.5 138.5 54.5 106 48 91.5 30 32.5 34.5 57 43.5 52 51 33 54 30 39
leaf_count=39 28 16 19 31 28 15 11 15 38 23 35 34 22 36 20 26
internal_value=-0.000392853 0.00425475 0.00225 -0.000359885 0.00506471 -0.00671636 -0.00245957 -0.00393747 -0.00724337 -0.00541431 -0.00614946 -0.00561582 -0.00459028 -0.00886425 -0.00349578 -0.00941513
internal_weight=952.5 549 410.5 213 197.5 403.5 158.5 126 373.5 91.5 223 171 114 150.5 63 96.5
internal_count=436 171 143 96 47 265 80 69 250 54 149 114 76 101 42 65
is_linear=0
shrinkage=0.05


Tree=21
num_leaves=19
num_cat=0
split_feature=8 29 61 28 41 43 1 7 52 44 2 51 7 23 19 11 14 62
split_gain=11.344 2.48606 2.07039 1.79314 0.827171 0.502914 0.477323 0.29192 0.204413 0.147501 0.0852294 0.0912501 0.0854839 0.0729123 0.0507443 0.03333 0.0220538 0.0020937
threshold=62.500000000000007 27.275863783485587 3.4864968246284489 26.819897550322239 2.9671201162615302 3201.1009992015656 -0.98182534576205283 9.5000000000000018 46.787497487421028 3169.7558124911002 962487.65254911466 35.501918665174038 23.500000000000004 84.46467562887382 26.350326194406239 0.41667580255610542 0.062305202392538929 3.1256468762101535
decision_type=2 2 2 2 2 2 2 2 2 2 2 2 2 2 2 2 2 2
left_child=1 6 3 5 -4 -2 -1 16 -6 -9 11 12 -11 15 -12 -13 17 -8
right_child=2 -3 4 -5 8 -7 7 9 -10 10 14 13 -14 -15 -16 -17 -18 -19
leaf_value=-0.0012716655901005103 0.0079424913860408671 0.006572145405339032 0.0046627438209429694 0.013517876322518028 -0.0038125786027803869 0.0024465571943960507 -0.0094256370786636595 -0.0029526047219616781 0.00073233376635183209 -0.0056403453513565989 -0.0064043144148493575 -0.0051051319370212424 -0.0091232857248489414 -0.0031974686102734674 -0.0090873794723302127 -0.0070387666941516937 -0.0082305883772151416 -0.010011810493671287
leaf_weight=43 83 41 121.5 105.5 48.5 83.5 31.5 34.5 50.5 36 31.5 58.5 34.5 36 40 36 43 29.5
leaf_count=25 13 12 33 18 23 28 21 21 18 24 21 39 23 23 27 24 29 20
internal_value=0.000126375 -0.00521909 0.00549898 0.00841783 0.0018984 0.00518627 -0.00628394 -0.00680834 -0.00149421 -0.00603276 -0.00642272 -0.00589533 -0.00734476 -0.0051123 -0.00790533 -0.00584175 -0.0090978 -0.00970911
internal_weight=987.5 495 492.5 272 220.5 166.5 454 411 99 307 272.5 201 70.5 130.5 71.5 94.5 104 61
internal_count=442 309 133 59 74 41 297 272 41 202 181 133 47 86 48 63 70 41
is_linear=0
shrinkage=0.05


Tree=22
num_leaves=18
num_cat=0
split_feature=8 61 52 29 7 21 57 38 0 43 37 62 60 43 35 0 31
split_gain=10.5509 2.27888 1.83037 1.44413 0.496447 0.433968 0.36 0.155572 0.375777 0.153687 0.0938904 0.0928259 0.0810496 0.058117 0.0414986 0.0372012 0.0109331
threshold=67.500000000000014 3.1696460073652721 75.231263341670385 27.235822331891292 28.500000000000004 22.059995459794465 -1.5823986343660692 -0.70897342344950975 0.35460488704253579 3273.1667321807568 1.2468232825498939 4.3242187359609936 -2.3471894203050692 3305.857297158293 1.1710727017075457 0.46472317204376884 -1.5709565704965545
decision_type=2 2 2 2 2 2 2 2 2 2 2 2 2 2 2 2 2
left_child=3 2 -2 4 9 -3 -7 8 -6 -1 -9 13 -10 16 15 -15 -11
right_child=1 5 -4 -5 7 6 -8 10 12 11 -12 -13 -14 14 -16 -17 -18
leaf_value=-0.0049283906881116401 0.0053880240912496085 0.0040348363841194229 0.01480249122661703 0.0045799071100396166 0.0015268928837031126 -0.00292728351126624 0.0026316637012722167 -0.0070528157800436022 -0.0064785590746264526 -0.010193107765296409 -0.0034416754124686126 -0.0054863060442989489 -0.0031205147554477057 -0.0062486281859929918 -0.0092453184142961345 -0.008298592348893484 -0.0088845027794300681
leaf_weight=58.5 131.5 131 85 35.5 36 58.5 58 45 34.5 29 30 36 37.5 54 29.5 37.5 35.5
leaf_count=39 34 35 11 13 19 26 17 30 23 20 18 24 23 36 20 25 24
internal_value=-8.84038e-05 0.0053377 0.00908424 -0.00513898 -0.00588416 0.00206042 -0.000159739 -0.00385895 -0.00264409 -0.00720778 -0.00560836 -0.00780978 -0.00472958 -0.0082607 -0.00761455 -0.00708878 -0.00947287
internal_weight=962.5 464 216.5 498.5 463 247.5 116.5 183 108 280 75 221.5 72 185.5 121 91.5 64.5
internal_count=437 123 45 314 301 78 43 113 65 188 48 149 46 125 81 61 44
is_linear=0
shrinkage=0.05


Tree=23
num_leaves=20
num_cat=0
split_feature=7 52 29 56 11 53 9 22 9 53 29 23 53 23 22 43 40 43 31
split_gain=9.8589 2.19836 1.74326 0.972196 0.599908 0.54488 0.26532 0.240146 0.125768 0.112796 0.139581 0.104126 0.0799748 0.073294 0.0629702 0.0443778 0.0347081 0.0335872 0.00516343
threshold=71.500000000000014 75.231263341670385 27.275863783485587 26.730402317715768 0.26706460381884439 83.755431850349069 100.50000000000001 97.022713630065496 9.5000000000000018 81.761164516267527 26.652349868321412 84.46467562887382 83.106628968174974 82.567289392403964 24.382730951191089 3273.1667321807568 3.4620428364570177 3310.1300302329405 -1.8079738351608061
decision_type=2 2 2 2 2 2 2 2 2 2 2 2 2 2 2 2 2 2 2
left_child=2 3 4 5 8 6 -2 9 17 -6 11 12 -11 -10 -8 -15 -17 18 -1
right_child=1 -3 -4 -5 7 -7 14 -9 13 10 -12 -13 -14 15 -16 16 -18 -19 -20
leaf_value=-0.0092160765646081989 0.0028583824759655036 0.011084735215477207 0.0057729454828968534 0.0078956641981171236 -0.0058921571307480386 0.0061003009839491413 3.560307335906795e-06 0.00037031282682891016 -0.0044171844761479988 -0.0034290620244093357 -0.00018456429553528628 -0.0016655755888981124 -0.0069512638856064199 -0.0050933264314182228 -0.0024250080498556298 -0.0060709889105979419 -0.0082556010332218432 -0.0067946263012431925 -0.0083530421738755214
leaf_weight=33 67 136 39.5 90 54 55 56 38.5 55 31.5 30 30 33 31.5 51 31.5 43 31.5 36.5
leaf_count=22 23 21 12 17 35 13 21 19 37 21 16 19 22 21 22 21 29 21 25
internal_value=0.000390578 0.00576195 -0.00432297 0.00349267 -0.00515551 0.00176224 0.000391009 -0.0032112 -0.00676587 -0.00398369 -0.00315591 -0.0040992 -0.00523112 -0.00589821 -0.00115398 -0.00666667 -0.00733191 -0.00814898 -0.00876283
internal_weight=973.5 455 518.5 319 479 229 174 217 262 178.5 124.5 94.5 64.5 161 107 106 74.5 101 69.5
internal_count=437 117 320 96 308 79 66 132 176 113 78 62 43 108 43 71 50 68 47
is_linear=0
shrinkage=0.05


Tree=24
num_leaves=20
num_cat=0
split_feature=8 52 29 51 39 7 40 7 23 29 13 29 1 51 54 54 9 23 38
split_gain=9.20321 2.01329 1.44687 0.765739 0.561756 0.520536 0.340703 0.191297 0.175435 0.141836 0.120314 0.113086 0.0929056 0.0635208 0.0553416 0.0354336 0.0292762 0.0303364 0.0143114
threshold=67.500000000000014 78.667596221582031 27.275863783485587 29.451507685044202 2.0048145821658152 28.500000000000004 3.2468920313162246 65.000000000000014 82.034109736078307 26.489159163141764 0.062305202392538929 26.288160221769775 -0.85421994577343285 35.501918665174038 81.506502314782566 78.804571547012316 26.500000000000004 83.035838168446375 -0.8267621567690967
decision_type=2 2 2 2 2 2 2 2 2 2 2 2 2 2 2 2 2 2 2
left_child=2 3 5 -2 -5 10 9 8 -7 -6 18 13 -12 -10 15 -14 17 -16 -1
right_child=1 -3 -4 4 6 7 -8 -9 11 -11 12 -13 14 -15 16 -17 -18 -19 -20
leaf_value=-0.0072862035338429445 -0.002242403198974301 0.011046635870963842 0.0044493088668042967 0.0086299666319973774 0.0062184719654944653 -0.0011660597036762903 0.00097779760247356808 0.00043409531797046095 -0.0055021501541363468 0.003268126519396901 -0.0036497636398832712 -0.00744819587096572 -0.0063800824089692192 -0.0026140523148286674 -0.0049929346120546735 -0.0086766519599546822 -0.0042121950536966324 -0.0071622331598491379 -0.0086464281786571857
leaf_weight=34.5 49.5 118 44 64 83 46.5 93 33.5 33 80 42 30 39 45 31.5 29.5 30 33 44
leaf_count=23 22 18 14 12 19 26 33 14 22 21 28 20 26 29 21 20 20 22 30
internal_value=0.000435586 0.0053607 -0.00422201 0.00354489 0.00444011 -0.00503121 0.00339265 -0.00299111 -0.00373379 0.00477045 -0.00638409 -0.00483934 -0.00574669 -0.00383594 -0.006287 -0.00736912 -0.00550261 -0.00610281 -0.00804862
internal_weight=1003 487.5 515.5 369.5 320 471.5 256 188 154.5 163 283.5 108 205 78 163 68.5 94.5 64.5 78.5
internal_count=440 125 315 107 85 301 73 111 97 40 190 71 137 51 109 46 63 43 53
is_linear=0
shrinkage=0.05


Tree=25
num_leaves=16
num_cat=0
split_feature=7 59 7 30 14 24 7 43 37 62 43 24 0 27 1
split_gain=7.50215 1.73278 1.32842 0.982831 0.500247 0.384496 0.511632 0.167602 0.125161 0.129483 0.0902431 0.0614697 0.114253 0.0143824 0.0124582
threshold=95.000000000000014 1.1377280327520773 28.500000000000004 27.208485342135102 1.0712107521851018 82.176856859858617 51.500000000000007 3273.1667321807568 -0.69300345774057315 4.0037537130582708 3305.857297158293 83.10026885882813 -0.1799261722714405 26.010223497700945 1.0000000180025095e-35
decision_type=2 2 2 2 2 2 2 2 2 2 2 2 2 2 2
left_child=2 4 7 5 -2 6 -4 -1 9 -7 14 12 -12 -13 -9
right_child=1 -3 3 -5 -6 8 -8 10 -10 -11 11 13 -14 -15 -16
leaf_value=-0.0036765689651171367 0.0051859892412738987 0.0090761972738122986 -0.0041765803292107126 0.006725703611753989 -3.4877449952168947e-05 -0.00073001462584122636 0.0033686503065082267 -0.0085031329317295807 -0.0060192323826027648 -0.0046086908007661499 -0.0068052182077533666 -0.0074967054738884877 -0.002778631006030069 -0.0061587893150069498 -0.0072621635567974036
leaf_weight=60 79.5 176 39 34.5 108.5 39 53 47 49.5 48 36 42 34.5 38.5 35.5
leaf_count=39 19 32 24 9 35 22 19 32 33 30 24 28 23 26 24
internal_value=-7.05185e-05 0.00551075 -0.00372116 -0.0011405 0.00217288 -0.00232817 0.000170129 -0.00603364 -0.00401201 -0.00286997 -0.00663931 -0.00591275 -0.00483476 -0.00685683 -0.00796914
internal_weight=920.5 364 556.5 263 188 228.5 92 293.5 136.5 87 233.5 151 70.5 80.5 82.5
internal_count=419 86 333 137 54 128 43 196 85 52 157 101 47 54 56
is_linear=0
shrinkage=0.05


Tree=26
num_leaves=18
num_cat=0
split_feature=7 57 8 1 56 0 13 30 28 54 34 21 9 0 0 61 26
split_gain=6.57966 1.66206 1.45447 0.832226 0.442267 0.400779 0.335394 0.327651 0.160596 0.10704 0.110662 0.0901353 0.0774787 0.0447911 0.064739 0.0179167 0.0049848
threshold=62.500000000000007 0.78214406638395395 142.00000000000003 -0.95297903005573326 25.84416009402938 -0.2393156642875576 0.29630030068844598 27.095717308643518 26.657976729135672 81.297332181664828 -0.63578948377227518 43.627766070324419 9.5000000000000018 -0.1799261722714405 0.70581670320594825 3.5337961852970019 82.634743023798379
decision_type=2 2 2 2 2 2 2 2 2 2 2 2 2 2 2 2 2
left_child=3 4 -3 -1 -2 7 12 -6 9 -8 11 -11 15 -14 -15 16 -5
right_child=1 2 -4 6 5 -7 8 -9 -10 10 -12 -13 13 14 -16 -17 -18
leaf_value=0.00094156307311585308 -0.0032870336906403626 0.0036306392149451903 0.011853622004229536 -0.0082076157358559696 -0.0020066414861694762 0.0049607533377175241 -0.0066578089936890393 0.003291486751718017 -0.00035995645313591202 -0.00081098948250569048 -0.005859335928800561 -0.0043993695747728155 -0.0068383060944707773 -0.0036990603103357203 -0.006141181935652577 -0.006325630145886588 -0.0073726460719719918
leaf_weight=65 46.5 127.5 93 33 66.5 76.5 33 52 34.5 42 31.5 30 47.5 51 58 31.5 39
leaf_count=34 22 32 13 22 28 18 22 12 19 27 21 20 32 34 39 21 26
internal_value=-0.000333172 0.0039603 0.00709884 -0.00433234 0.00109468 0.00213956 -0.0051277 0.000318276 -0.00340782 -0.00417816 -0.00338755 -0.00230615 -0.00625885 -0.00555693 -0.00499854 -0.00732021 -0.00775534
internal_weight=958 462 220.5 496 241.5 195 431 118.5 171 136.5 103.5 72 260 156.5 109 103.5 72
internal_count=442 125 45 317 80 58 283 40 109 90 68 47 174 105 73 69 48
is_linear=0
shrinkage=0.05


Tree=27
num_leaves=17
num_cat=0
split_feature=11 61 28 7 1 13 55 25 43 42 59 43 23 37 23 43
split_gain=7.17754 2.33194 1.4659 1.05062 0.914731 0.452538 0.345954 0.297681 0.146592 0.120837 0.0766497 0.0422115 0.0440403 0.054707 0.0166609 0.00576709
threshold=0.87838493039953147 3.5179892492151819 26.819897550322239 28.500000000000004 -0.85421994577343285 1.0712107521851018 26.385997257528057 82.208269237089198 3273.1667321807568 3.9654140062574621 -3.0505547243997042 3307.4610286139264 82.874516925447026 0.269221979825438 84.331405997689316 3288.5706584421314
decision_type=2 2 2 2 2 2 2 2 2 2 2 2 2 2 2 2
left_child=3 2 -2 8 -5 -3 7 -6 -1 -9 -10 15 13 -13 -14 -12
right_child=1 5 -4 4 6 -7 -8 9 10 -11 11 12 14 -15 -16 -17
leaf_value=-0.0033515573276478488 0.0044968646644573552 0.0041135435605533103 0.012045743644665012 0.0041175759177866991 0.0013824539028462911 -0.0013041268069857517 -0.0064132948981269313 -0.0049098265242008936 -0.0037533928391834102 -0.0012748253090525575 -0.0078676543727114398 -0.0034216012246906756 -0.007504303842782974 -0.0063825388367359463 -0.0059984022958411119 -0.0069755775932694832
leaf_weight=60 136 58.5 122 61.5 52.5 113 51 52.5 30 40.5 37 30 37.5 32.5 36 35.5
leaf_count=39 29 17 18 25 24 38 32 34 20 24 25 20 25 22 24 24
internal_value=0.000206795 0.0050627 0.00806649 -0.00354094 -0.00120413 0.000543883 -0.0028697 -0.00162761 -0.00556069 -0.00332684 -0.00611645 -0.00645645 -0.00593702 -0.00496129 -0.00676672 -0.00743084
internal_weight=986 429.5 258 556.5 258 171.5 196.5 145.5 298.5 93 238.5 208.5 136 62.5 73.5 72.5
internal_count=440 102 47 338 139 55 114 82 199 58 160 140 91 42 49 49
is_linear=0
shrinkage=0.05


Tree=28
num_leaves=19
num_cat=0
split_feature=11 61 12 28 29 1 33 61 13 1 10 62 40 45 14 34 51 56
split_gain=6.35341 1.77182 1.0753 1.07335 0.984849 0.384828 0.433456 0.220556 0.133565 0.13181 0.130654 0.0725218 0.109751 0.0438064 0.0326795 0.0313542 0.0149449 0.00810254
threshold=0.93055773590688784 3.4725796749025539 0.29630030068844598 26.727622419785664 27.275863783485587 0.95297903005573359 1.8390624308673997 4.2078923952439737 0.10388373195784792 -0.91023613416931226 29.500000000000004 3.9808794295818659 3.4795703851050992 3248.5677471948607 0.25084867198451172 -2.2009005747226276 84.515773072711823 26.27626524948635
decision_type=2 2 2 2 2 2 2 2 2 2 2 2 2 2 2 2 2 2
left_child=2 3 8 -2 5 6 10 -3 16 -10 -4 12 -12 -11 15 -15 17 -1
right_child=1 7 4 -5 -6 -7 -8 -9 9 13 11 -13 -14 14 -16 -17 -18 -19
leaf_value=-0.0063322864642197446 0.0040997639085462159 -0.0015546140530043179 -0.0014486434605593484 0.010537355406424748 0.0062334794085472829 0.0024453042658666769 0.002028190807572433 0.0022263010254957613 -0.0018028325873116653 -0.0034471988663195619 -0.0055730729121326785 -0.0063463956049721066 -0.0020732178552342311 -0.0040449650015770685 -0.0068687766456781933 -0.0059296490083779064 -0.0057296021065364284 -0.0073339719540224634
leaf_weight=33 129 67.5 37.5 130 40 37.5 35 90 37.5 31.5 48 48 42 42 33.5 46.5 36 52
leaf_count=22 28 23 23 20 10 16 15 27 24 21 32 32 25 28 23 31 24 35
internal_value=4.34191e-05 0.00478789 -0.00325003 0.00733099 -0.00104691 -0.00222116 -0.00305248 0.000605909 -0.00528369 -0.00446028 -0.00406572 -0.00477688 -0.00393981 -0.0051095 -0.0055387 -0.00503522 -0.00658345 -0.00694508
internal_weight=1016.5 416.5 600 259 288 248 210.5 157.5 312 191 175.5 138 90 153.5 122 88.5 121 85
internal_count=459 98 361 48 153 143 127 50 208 127 112 89 57 103 82 59 81 57
is_linear=0
shrinkage=0.05


Tree=29
num_leaves=17
num_cat=0
split_feature=15 7 61 45 37 42 16 61 24 1 0 10 0 52 26 41
split_gain=5.4148 1.33587 0.788905 0.663409 0.567926 0.415017 0.281259 0.277208 0.135868 0.0763733 0.0736855 0.0688544 0.0803881 0.0503704 0.0279289 0.0152677
threshold=0.37994604849169111 205.00000000000003 3.5179892492151819 3186.8229123817773 0.31821260486108166 2.7935021066509909 0.23301170278450178 2.9815151368979098 82.827853661780907 1.0000000180025095e-35 -0.2393156642875576 9.5000000000000018 0.70581670320594825 71.227756874351201 81.618747908857742 4.3100870645594034
decision_type=2 2 2 2 2 2 2 2 2 2 2 2 2 2 2 2
left_child=6 2 3 -2 -5 -4 10 -8 -7 -9 14 -12 -13 -11 -1 -14
right_child=1 -3 5 4 -6 8 7 9 -10 13 11 12 15 -15 -16 -17
leaf_value=-0.007843098861555901 0.0065820274271553379 0.0097820933280593683 0.0025123085506927613 0.0045795447749608174 -0.001613121375407058 -0.00026431150626964295 0.0011463909307877496 -0.005786057967796094 -0.003608681980455131 -0.0015462197028241601 -0.0062440240936996669 -0.0026770395164688429 -0.0061690715700979904 -0.0043414994885790205 -0.0059137789865857677 -0.0045671406822899979
leaf_weight=31 139 69 100.5 82 67.5 65 36.5 36 57 33 56.5 52.5 29.5 31.5 47.5 30
leaf_count=21 24 9 29 22 32 26 20 24 30 22 38 35 20 21 32 20
internal_value=0.000202804 0.00325192 0.00237016 0.00409546 0.00178352 0.000133087 -0.00440263 -0.00258567 -0.00182685 -0.0039411 -0.00541042 -0.00482097 -0.00410309 -0.00291136 -0.00667568 -0.00536138
internal_weight=964 580 511 288.5 149.5 222.5 384 137 122 100.5 247 168.5 112 64.5 78.5 59.5
internal_count=425 172 163 78 54 85 253 87 56 67 166 113 75 43 53 40
is_linear=0
shrinkage=0.05


Tree=30
num_leaves=17
num_cat=0
split_feature=11 2 26 61 13 43 28 39 11 19 29 54 13 34 40 9
split_gain=5.6921 1.54806 1.05975 0.633898 0.319158 0.287321 0.266063 0.113356 0.106118 0.123167 0.0959259 0.13556 0.07305 0.0295546 0.0287132 0.0216167
threshold=0.93055773590688784 965212.73624968959 78.376768256563935 3.5179892492151819 1.3103024546497144 3273.1667321807568 26.888393001617334 3.5024905387912235 0.093500106067604796 72.089303854499462 25.69619331423527 82.419567285893265 0.24809083991401429 -2.4112243732861685 2.8415598242440447 12.500000000000002
decision_type=2 2 2 2 2 2 2 2 2 2 2 2 2 2 2 2
left_child=2 3 -1 -2 -5 6 10 8 -7 14 13 -12 15 -4 -10 -9
right_child=1 -3 5 4 -6 7 -8 12 9 -11 11 -13 -14 -15 -16 -17
leaf_value=0.002409999549629227 0.0048884650961806379 0.010224042506888509 -0.0056568656582385302 0.0023949801142698801 -0.0026674302241631916 -0.0057937218305533352 0.0018688084427878017 -0.0060465747103242594 -0.0054261988629737213 -0.00059107933052335727 -0.00037991712481310274 -0.0040803110104693915 -0.0082283396956821294 -0.0035319459127883118 -0.0034200323690172468 -0.0044618838156263033
leaf_weight=77.5 187.5 98 36 76.5 52.5 57.5 30.5 50.5 31 33 49.5 49.5 30 30 42 37.5
leaf_count=31 37 16 24 24 20 39 13 34 21 20 28 33 20 20 28 25
internal_value=0.000300397 0.00473274 -0.00301287 0.00303243 0.000334697 -0.00389394 -0.00242142 -0.00491659 -0.00406421 -0.00312603 -0.00321447 -0.00223011 -0.00609765 -0.00469099 -0.00427197 -0.00537128
internal_weight=969 414.5 554.5 316.5 129 477 195.5 281.5 163.5 106 165 99 118 66 73 88
internal_count=433 97 336 81 44 305 118 187 108 69 105 61 79 44 49 59
is_linear=0
shrinkage=0.05


Tree=31
num_leaves=17
num_cat=0
split_feature=7 52 25 0 12 9 12 51 0 52 0 27 38 39 26 12
split_gain=4.71308 1.24247 1.01215 0.556528 0.53924 0.309833 0.300223 0.216098 0.356144 0.120945 0.061984 0.0720102 0.0411886 0.0233519 0.0194242 0.0181383
threshold=95.000000000000014 83.559162009440328 79.479661459691485 -0.88545602565320969 0.4643666726368112 100.50000000000001 0.35334279999013013 35.11597406660335 -0.12053668025532321 35.810323531483171 -0.1799261722714405 25.873584688659296 -1.6194528504920871 3.909477008931475 81.970558217914657 0.16625118174721801
decision_type=2 2 2 2 2 2 2 2 2 2 2 2 2 2 2 2
left_child=2 3 4 -2 -1 -5 10 9 -9 -8 14 13 -13 -12 -4 -15
right_child=1 -3 6 5 -6 -7 7 8 -10 -11 11 12 -14 15 -16 -17
leaf_value=-0.0018806180961075285 0.0052652851280256888 0.0097599866526091802 -0.006754508734710756 0.0034307514445067176 0.005219652585753607 -0.0009330079945571283 -0.0024604200006414874 -0.003632142462587932 0.0018433464246974778 -0.0066831721055010951 -0.006182378897300134 -0.0041457064357493913 -0.0021455611735291314 -0.0053991615254845894 -0.0051894555579532278 -0.0038566808848653311
leaf_weight=52.5 138 85 31 72 54.5 93.5 39 57 62 30 32.5 55.5 48 36 55 40.5
leaf_count=30 26 12 21 18 13 32 24 34 31 19 22 37 32 24 37 27
internal_value=0.000135593 0.00441695 -0.00266695 0.00292055 0.00173587 0.000965425 -0.0036353 -0.00207019 -0.000779367 -0.0042964 -0.00462103 -0.00416267 -0.0032181 -0.00505957 -0.0057536 -0.00458255
internal_weight=982 388.5 593.5 303.5 107 165.5 486.5 188 119 69 298.5 212.5 103.5 109 86 76.5
internal_count=439 88 351 76 43 50 308 108 65 43 200 142 69 73 58 51
is_linear=0
shrinkage=0.05


Tree=32
num_leaves=16
num_cat=0
split_feature=12 2 29 51 58 0 1 0 1 9 52 25 59 54 0
split_gain=4.27981 1.41442 0.9327 0.435657 0.244546 0.26038 0.216977 0.0980049 0.121999 0.0598936 0.0587934 0.0515872 0.0512678 0.0324683 0.029602
threshold=0.64683467623674684 965212.73624968959 27.235822331891292 29.451507685044202 1.1198953604053894 -0.1799261722714405 -0.98182534576205283 -0.2393156642875576 0.78574730703237883 9.5000000000000018 5.2658448476486894 82.112880555755027 -2.3984465781645739 82.043094332340999 -0.82298386589365657
decision_type=2 2 2 2 2 2 2 2 2 2 2 2 2 2 2
left_child=2 3 6 -2 5 -5 -1 11 9 -9 -11 -8 -12 -14 -13
right_child=1 -3 -4 4 -6 -7 7 8 -10 10 12 14 13 -15 -16
leaf_value=-0.00018405956639484927 -0.0017158471860812378 0.0089785467622052768 0.0040389541447872204 -0.00038722842000424865 0.0044244226392395067 0.0033387848358924534 -0.0064049631865187133 -0.0057772714687489915 -0.0015159102169012553 -0.0053138410919402017 -0.004341619495558096 -0.0033960504780213038 -0.0033565724700473361 -0.0012100594774690561 -0.0053894383055661382
leaf_weight=38.5 59 97 42 82 153 109.5 55 43.5 57 41.5 51 37.5 34.5 36 37
leaf_count=23 26 16 14 26 33 32 37 29 37 28 34 25 23 23 25
internal_value=0.000333626 0.00355737 -0.00307395 0.00225414 0.00293405 0.00174331 -0.00376628 -0.00411721 -0.00356368 -0.00412892 -0.00368902 -0.00524351 -0.00313405 -0.00226048 -0.00438606
internal_weight=974 500.5 473.5 403.5 344.5 191.5 431.5 393 263.5 206.5 163 129.5 121.5 70.5 74.5
internal_count=431 133 298 117 91 58 284 261 174 137 108 87 80 46 50
is_linear=0
shrinkage=0.05


Tree=33
num_leaves=19
num_cat=0
split_feature=27 11 55 56 56 11 54 56 23 9 53 22 38 46 26 25 38 37
split_gain=4.02374 2.61372 0.717573 0.469025 0.450176 0.394151 0.328033 0.229563 0.160483 0.139197 0.0939671 0.0769487 0.0479748 0.023848 0.0202526 0.0192098 0.013391 0.0133232
threshold=27.68273330475758 0.46220612700143887 25.460197013574291 26.702580872417148 26.236157466352513 1.451301346207535 82.932459474675952 27.155254969635031 80.627426890364347 9.5000000000000018 82.028665449636293 15.7028356113795 -1.032527823573161 3307.4916922353382 82.610549114384099 81.679446237454513 -2.798439615174809 -1.2526100304366656
decision_type=2 2 2 2 2 2 2 2 2 2 2 2 2 2 2 2 2 2
left_child=1 7 -3 4 8 6 -6 9 -4 15 14 -12 -13 -14 -11 -1 -16 -17
right_child=-2 2 3 -5 5 -7 -8 -9 -10 10 11 12 13 -15 16 17 -18 -19
leaf_value=-0.006528420064408901 0.013216460924092177 -0.0042620754249954734 0.0046238226203187821 0.0046696138647484018 -0.00060656579832235981 0.0022839843532040951 -0.006841101949667615 0.0003337090126058059 0.0016748840834847408 -0.0055035213398671639 -0.00062977158402403204 -0.0020748060055161151 -0.0032576951020885079 -0.0050776448514726433 -0.0047701932931855581 -0.004341541700065136 -0.0032699468530093634 -0.0055937292320387706
leaf_weight=29.5 55.5 46.5 77.5 141 58.5 63 33 33.5 114 37 37.5 54 42 31.5 29.5 37.5 30 49
leaf_count=20 9 27 17 31 26 15 20 19 36 25 24 36 28 21 20 25 20 33
internal_value=0.000132492 -0.000636338 0.00167228 0.00223891 0.00124836 -0.000759543 -0.00285509 -0.00363305 0.00286832 -0.00398507 -0.0033456 -0.00262076 -0.00320634 -0.00403767 -0.00458497 -0.00542663 -0.00401377 -0.00505087
internal_weight=1000 944.5 533.5 487 346 154.5 91.5 411 191.5 377.5 261.5 165 127.5 73.5 96.5 116 59.5 86.5
internal_count=452 443 172 145 114 61 46 271 53 252 174 109 85 49 65 78 40 58
is_linear=0
shrinkage=0.05


Tree=34
num_leaves=17
num_cat=0
split_feature=8 33 61 30 21 43 20 2 43 60 43 40 24 33 31 59
split_gain=3.38869 1.03187 0.91554 0.645491 0.445601 0.166293 0.128489 0.100677 0.0942123 0.0640019 0.0416521 0.0400325 0.0426481 0.0395402 0.0217277 0.0191224
threshold=67.500000000000014 0.28562971094519751 3.3722268209077169 27.275863783485587 22.059995459794465 3273.1667321807568 56.501930047997199 940351.15984073735 3164.3071971268914 -2.9927635883431152 3307.4610286139264 2.6176743593253708 83.300769738570722 -1.9556880036642597 -1.5008507895941448 0.79087995559537394
decision_type=2 2 2 2 2 2 2 2 2 2 2 2 2 2 2 2
left_child=3 4 -3 5 -2 7 -6 8 -1 -7 14 -12 -13 -10 -11 -15
right_child=1 2 -4 -5 6 9 -8 -9 13 10 11 12 -14 15 -16 -17
leaf_value=-0.0010463038084199854 0.0028003398349047992 0.0075603198377996103 0.0016858449693401484 0.0027254823040454949 -0.0004813404450935077 -0.0022543851667756426 -0.0040320505420195652 -0.00018376324957386516 -0.0049034597523424824 -0.0062111563104040486 -0.0052669411423899564 -0.0024551758780052852 -0.0044454329336682955 -0.0020309602872778973 -0.0045875566825270648 -0.0038161961423854038
leaf_weight=46.5 93 154 116.5 47 61.5 36 43.5 43.5 43.5 42.5 46 51 57 30 40 30
leaf_count=28 25 28 29 16 24 24 20 26 29 29 31 33 38 20 27 20
internal_value=-5.16112e-05 0.00302268 0.00503028 -0.00285922 0.000279975 -0.00342249 -0.00195235 -0.00230161 -0.00291579 -0.00421841 -0.00451738 -0.00403171 -0.00350559 -0.0037557 -0.00542396 -0.00292358
internal_weight=981.5 468.5 270.5 513 198 466 105 193.5 150 272.5 236.5 154 108 103.5 82.5 60
internal_count=447 126 57 321 69 305 44 123 97 182 158 102 71 69 56 40
is_linear=0
shrinkage=0.05


Tree=35
num_leaves=17
num_cat=0
split_feature=11 23 51 2 1 55 30 56 14 53 38 59 24 30 30 30
split_gain=2.59649 0.833966 0.425604 0.378098 0.297357 0.230498 0.19603 0.185906 0.0923262 0.122707 0.0717199 0.0824461 0.0346358 0.0234842 0.0214913 0.017745
threshold=0.46220612700143887 80.028811902153606 50.849806762272188 928835.69071090664 -0.61559370248597534 26.472242380590483 26.181778125283284 27.126111462478111 0.12462718157944977 82.259333755824187 1.0000000180025095e-35 -2.3984465781645739 82.678976159313564 26.321596952398924 25.416652015498901 25.969181588591777
decision_type=2 2 2 2 2 2 2 2 2 2 2 2 2 2 2 2
left_child=7 2 -2 -3 -5 6 -6 8 13 12 11 -11 -10 15 -14 -1
right_child=1 3 -4 4 5 -7 -8 -9 9 10 -12 -13 14 -15 -16 -17
leaf_value=-0.0048887472777139583 0.0016214090133351939 0.0032102198990363652 0.0060230923312235398 0.0021842530605176258 -0.0024306227979452714 -0.0044641067730445492 0.0013182401300427761 0.00015834742092660497 -0.0058460383831212921 -0.0028514566156582571 -0.0037762061754862473 0.00010263486134742078 -0.0046536322683095937 -0.0056576262022319593 -0.0029122651335509384 -0.0032965770689770582
leaf_weight=42 91 89.5 138.5 72 69 51 70.5 35 30 46.5 45 48 37 47.5 34 30
leaf_count=28 25 23 27 24 35 24 25 20 20 31 30 31 25 32 23 20
internal_value=-0.000192234 0.00193273 0.00427776 0.000403791 -0.000553068 -0.00158765 -0.000536036 -0.0033205 -0.00365872 -0.0030943 -0.0021333 -0.00135097 -0.00442161 -0.00479466 -0.00381974 -0.00422534
internal_weight=976.5 581.5 229.5 352 262.5 190.5 139.5 395 360 240.5 139.5 94.5 101 119.5 71 72
internal_count=443 183 52 131 108 84 60 260 240 160 92 62 68 80 48 48
is_linear=0
shrinkage=0.05


Tree=36
num_leaves=16
num_cat=0
split_feature=7 61 30 1 37 2 45 57 2 1 30 54 23 22 2
split_gain=3.10855 1.00887 0.626764 0.212891 0.190382 0.134251 0.258921 0.244912 0.0725618 0.0613326 0.05738 0.0699498 0.0354902 0.0322062 0.0300084
threshold=95.000000000000014 3.3722268209077169 27.208485342135102 0.98182534576205305 1.813180795156996 962487.65254911466 3307.9803693213858 1.254313343992753 956115.24948820251 0.74851074817110097 25.454143483659269 82.879335745536522 82.874516925447026 5.2909010590906345 961690.59030832688
decision_type=2 2 2 2 2 2 2 2 2 2 2 2 2 2 2
left_child=2 -2 3 5 -3 6 7 8 10 12 -1 13 -7 -12 -10
right_child=1 4 -4 -5 -6 9 -8 -9 14 -11 11 -13 -14 -15 -16
leaf_value=-0.0043004888332743426 0.0061712611514901251 -0.0011961687914517295 0.0028430370882422001 0.0011135710709130587 0.002297739566236899 -0.002681474213834939 0.0017880119608889801 0.00041763006333023943 -0.0059792217708403072 -0.0063130263359315935 -0.0026614420851807535 -0.0038983565542314736 -0.0045735783015306182 -0.00077285081326194547 -0.0039834829910281163
leaf_weight=58.5 193 68.5 55.5 33.5 90.5 43 32 47 31 31 40.5 52.5 58.5 51 48
leaf_count=39 35 24 20 18 21 29 16 20 21 21 26 33 39 33 32
internal_value=3.2579e-05 0.00374165 -0.00221071 -0.00274344 0.000792502 -0.00300553 -0.00250531 -0.00292353 -0.00348138 -0.0043665 -0.00297998 -0.00244352 -0.003772 -0.00160878 -0.00476662
internal_weight=934 352 582 526.5 159 493 360.5 328.5 281.5 132.5 202.5 144 101.5 91.5 79
internal_count=427 80 347 327 45 309 220 204 184 89 131 92 68 59 53
is_linear=0
shrinkage=0.05


Tree=37
num_leaves=19
num_cat=0
split_feature=15 27 24 53 58 0 56 24 41 12 53 52 51 38 28 24 24 28
split_gain=2.5045 0.938458 0.41826 0.310178 0.388376 0.24009 0.229993 0.227795 0.148383 0.0851047 0.0807313 0.0539385 0.0436099 0.0346908 0.0625538 0.0339583 0.0186578 0.00600772
threshold=0.37994604849169111 27.552323319357679 83.606460126528177 80.538647976864013 1.4860472032266177 -0.2393156642875576 27.155254969635031 85.503381625155171 3.4405957830417937 0.18697387546511901 81.829250466182685 60.899853664317867 42.138146071410397 -0.67844978462761862 26.132775825333919 83.047699993326461 81.784151756999492 25.321526940740771
decision_type=2 2 2 2 2 2 2 2 2 2 2 2 2 2 2 2 2 2
left_child=6 2 3 -2 5 8 9 -4 -5 13 15 12 -12 14 17 -11 -15 -1
right_child=1 -3 7 4 -6 -7 -8 -9 -10 10 11 -13 -14 16 -16 -17 -18 -19
leaf_value=-0.0037807112999467389 -0.0017599329829397726 0.0079328020707569048 -0.0027755434421123937 -0.0012945370511709333 0.0052468680237468925 0.0033562652527025956 0.0012449528614524752 0.0015796319337435139 0.0020679096744746946 -0.0050410570732007422 -0.0021634997289058651 -0.002929134269780071 0.00022824233581806406 -0.0057225933598895225 -0.0014573108102194966 -0.0027364579059423939 -0.004135562239199593 -0.0047431725756091588
leaf_weight=36 41 65.5 72 71 114 119 32 51.5 61 33 36 57 40.5 31 30 31 46 29.5
leaf_count=24 17 12 34 27 20 35 18 17 17 22 24 38 25 21 20 21 31 20
internal_value=0.000227069 0.00228693 0.00158852 0.00236358 0.00282676 0.00172759 -0.00282173 -0.000959418 0.000259321 -0.00317344 -0.00246475 -0.00176482 -0.000897283 -0.00398484 -0.00334815 -0.00392477 -0.0047745 -0.00421419
internal_weight=997 595 529.5 406 365 251 402 123.5 132 370 197.5 133.5 76.5 172.5 95.5 64 77 65.5
internal_count=443 179 167 116 99 79 264 51 44 246 130 87 49 116 64 43 52 44
is_linear=0
shrinkage=0.05


Tree=38
num_leaves=19
num_cat=0
split_feature=27 11 33 23 61 11 38 51 60 34 10 53 52 23 29 52 30 30
split_gain=3.004 1.32056 0.455311 0.325494 0.270637 0.259121 0.289761 0.17411 0.109774 0.101776 0.0714308 0.0640351 0.0498768 0.0386191 0.019431 0.0173202 0.0148191 0.0138867
threshold=27.772622438683737 0.46220612700143887 0.092487801694334473 80.627426890364347 2.2222846661912183 1.5656175535861381 0.49715838739399537 35.501918665174038 2.0989954843742988 -0.70753113640402843 9.5000000000000018 82.128622911691082 60.899853664317867 82.567289392403964 26.249126426572634 31.291064725428104 26.270334476269948 25.416652015498901
decision_type=2 2 2 2 2 2 2 2 2 2 2 2 2 2 2 2 2 2
left_child=1 4 3 -3 -1 6 -4 -5 -8 -9 14 15 13 -13 -6 17 -14 -12
right_child=-2 2 5 7 10 -7 8 9 -10 -11 11 12 16 -15 -16 -17 -18 -19
leaf_value=0.0012854844282724357 0.011750347708307561 0.0022338742656367169 0.0040938489532809921 -0.0038511626701802013 -0.0037568494853187813 0.004489174894258088 -0.0015862556579973428 0.00080002747388101942 0.0015128357239278421 -0.0022692635858510722 -0.0039514284195999302 -4.3891564968766435e-05 -0.0039509998960420489 -0.0021580815957686693 -0.0052282932944394452 -0.0046374599898367057 -0.0024155552611883845 -0.0026276591405760322
leaf_weight=38 52.5 77 61.5 60 57 102 62 63.5 53 47 37.5 36 30 54 37 31.5 33 42
leaf_count=21 8 23 16 36 38 15 25 23 15 18 25 23 20 36 25 21 22 28
internal_value=0.000116736 -0.000545699 0.00109617 -0.000464303 -0.00272656 0.00248294 0.00132354 -0.00168284 -0.000157979 -0.000505463 -0.00315242 -0.00273099 -0.00206771 -0.00131241 -0.00433603 -0.00364523 -0.00314672 -0.00325208
internal_weight=974.5 922 526 247.5 396 278.5 176.5 170.5 115 110.5 358 264 153 90 94 111 63 79.5
internal_count=438 430 171 100 259 71 56 77 40 41 238 175 101 59 63 74 42 53
is_linear=0
shrinkage=0.05


Tree=39
num_leaves=18
num_cat=0
split_feature=27 11 39 24 62 32 9 56 11 54 2 20 35 24 2 61 64
split_gain=2.68743 1.29183 0.459526 0.225802 0.225173 0.175778 0.0917834 0.109893 0.0864371 0.0799756 0.079147 0.0476236 0.0177816 0.0269791 0.0167458 0.0070628 0.0115155
threshold=27.772622438683737 0.74654972324811852 2.121005316266102 79.479661459691485 3.5388314943539156 0.82619730710347805 9.5000000000000018 26.889372311775972 0.58202502126558453 81.283698615188499 930932.6717473747 86.714192599377569 1.022118355175559 83.283733627990998 956115.24948820251 2.6470225893226993 3309.7699094813993
decision_type=2 2 2 2 2 2 2 2 2 2 2 2 2 2 2 2 2
left_child=1 3 -3 -1 5 -4 15 8 9 14 -11 12 13 -12 -8 -5 -17
right_child=-2 2 4 6 -6 -7 7 -9 -10 10 11 -13 -14 -15 -16 16 -18
leaf_value=0.00035172854642698308 0.011162830289630664 0.0042309643335415627 6.8612479628613735e-05 -0.0045582433501669371 -0.0016831946735977228 0.0027891660084104325 -0.0030695711149989319 -8.4667660606404138e-06 -0.0050002559567942769 0.00043482958818926955 -0.0014395486182482459 -0.00089151571224373519 -0.0038316504599060866 -0.0031979609505423919 -0.0047545303935827366 -0.0029591483444285894 -0.0043279258977799188
leaf_weight=75.5 52.5 116 127 34 83 111.5 30 48 33 33 39 46.5 30 49.5 29 30 31.5
leaf_count=37 8 25 37 23 34 21 20 27 20 21 26 30 20 33 20 20 21
internal_value=0.000151583 -0.000459183 0.00153324 -0.00217173 0.000559878 0.00134049 -0.00261122 -0.0022245 -0.00259129 -0.00228197 -0.00180049 -0.00224755 -0.00277967 -0.00242307 -0.00389777 -0.00397994 -0.00366023
internal_weight=999 946.5 437.5 509 321.5 238.5 433.5 338 290 257 198 165 118.5 88.5 59 95.5 61.5
internal_count=443 435 117 318 92 58 281 217 190 170 130 109 79 59 40 64 41
is_linear=0
shrinkage=0.05


Tree=40
num_leaves=18
num_cat=0
split_feature=12 61 28 29 51 28 1 46 20 9 19 59 39 18 32 31 31
split_gain=1.76248 0.761346 0.641772 0.451629 0.297081 0.238123 0.148432 0.0559405 0.0443262 0.040404 0.0527595 0.0486067 0.0373515 0.027171 0.0203131 0.0158483 0.00691499
threshold=0.69957409274393623 3.1696460073652721 26.727622419785664 27.208485342135102 34.686549571072142 26.586428928618751 -0.98182534576205283 3167.0242442739709 9.5533618410552616 9.5000000000000018 86.714192599377569 -1.5620808336335921 3.1161837978552858 0.2238216115239865 -0.67908263635381738 -2.7027519592034648 -2.1356635122385215
decision_type=2 2 2 2 2 2 2 2 2 2 2 2 2 2 2 2 2
left_child=3 2 -2 6 -3 -6 -1 -8 14 16 11 13 -13 -11 -9 -15 -10
right_child=1 4 -4 -5 5 -7 7 8 9 10 -12 12 -14 15 -16 -17 -18
leaf_value=0.00045266412664204838 0.0019793771259303738 -0.002050588291896941 0.0075505581762020787 0.0024186090091770553 0.0034849397577834847 -0.00012039784585852274 -0.00093268517715235566 -0.005010206749041876 -0.0031341399461962283 -0.0024291619137373002 -0.00090411571442441214 -0.0029655225531508528 -0.00081221343890560424 -0.0031972361728549005 -0.0032715923241388133 -0.004743692296481616 -0.00413054065801293
leaf_weight=40 112 79.5 96 53 88 95.5 39 31.5 30 42 49.5 37.5 43.5 30 36 37 41.5
leaf_count=23 30 34 14 19 23 26 25 21 20 28 31 25 29 20 23 25 28
internal_value=8.4387e-05 0.00229023 0.00455069 -0.00195078 0.00050249 0.00160859 -0.00245696 -0.00273573 -0.00292151 -0.00266943 -0.00235804 -0.00273683 -0.00180912 -0.00342622 -0.00408295 -0.00405125 -0.00371247
internal_weight=981.5 471 208 510.5 263 183.5 457.5 417.5 378.5 311 239.5 190 81 109 67.5 67 71.5
internal_count=444 127 44 317 83 49 298 275 250 206 158 127 54 73 44 45 48
is_linear=0
shrinkage=0.05


Tree=41
num_leaves=17
num_cat=0
split_feature=27 11 56 55 23 61 61 56 23 10 61 20 43 58 38 58
split_gain=2.3052 1.13464 0.377067 0.39411 0.253007 0.192659 0.209217 0.191435 0.0888129 0.0671893 0.0825687 0.0316077 0.0292545 0.0234329 0.0211791 0.0146601
threshold=27.772622438683737 0.46220612700143887 26.713654045783944 26.526356659616216 83.456404879985541 3.5022284786317486 3.9582226898533883 27.217984074086186 85.001650194055529 10.500000000000002 2.9394575429257519 9.5533618410552616 3307.6398612412672 -2.2913920959108025 -0.59950904720799625 -1.7313304229961022
decision_type=2 2 2 2 2 2 2 2 2 2 2 2 2 2 2 2
left_child=1 7 3 4 5 -3 -7 9 -6 14 -11 -12 13 -13 -1 -15
right_child=-2 2 -4 -5 8 6 -8 -9 -10 10 11 12 -14 15 -16 -17
leaf_value=-0.0031610335820378404 0.01029755310643287 0.0030265435587022117 0.0035172482060284171 -0.0036175491425886074 -0.0026881166391403361 -0.0018832467681053897 0.0022256839950393916 0.0013152041457227021 0.00033321707804877596 -0.00065128865047685194 -0.0043278771235297124 -0.0038031458263643662 -0.001606749391120738 -0.0016063859981913415 -0.0045309276106434131 -0.0031318357657818571
leaf_weight=58.5 52.5 137.5 119 55 51 58 66.5 30.5 46.5 55.5 30 52 54 31.5 54.5 31.5
leaf_count=39 8 32 26 23 27 25 23 17 15 35 20 35 36 21 37 21
internal_value=0.000103691 -0.000470842 0.0010364 0.000324161 0.000927205 0.00173637 0.000311483 -0.00249122 -0.00124717 -0.00280713 -0.00235664 -0.00283225 -0.00256676 -0.00301754 -0.00382173 -0.00236911
internal_weight=984 931.5 533.5 414.5 359.5 262 124.5 398 97.5 367.5 254.5 199 169 115 113 63
internal_count=440 432 171 145 122 80 48 261 42 244 168 133 113 77 76 42
is_linear=0
shrinkage=0.05


Tree=42
num_leaves=18
num_cat=0
split_feature=30 8 0 13 38 28 28 8 53 7 58 26 27 40 21 13 23
split_gain=1.89118 1.19326 0.31551 0.31575 0.160004 0.217495 0.140642 0.092962 0.0564347 0.0555992 0.0475591 0.0410015 0.0396022 0.0405555 0.0157061 0.0141148 0.00988453
threshold=27.739736922099777 68.500000000000014 -0.88545602565320969 1.0639422788848381 -0.061980465633554714 26.785930305843603 26.39985718677887 40.500000000000007 81.761164516267527 6.5000000000000009 0.068471421498688859 84.515775142270243 26.942872737958755 2.2476489717220205 30.012758904942 0.25084867198451172 83.510927752884015
decision_type=2 2 2 2 2 2 2 2 2 2 2 2 2 2 2 2 2
left_child=1 4 -3 -4 5 7 -5 8 15 -10 -6 14 13 -12 -11 16 -1
right_child=-2 2 3 6 10 -7 -8 -9 9 11 12 -13 -14 -15 -16 -17 -18
leaf_value=-0.0021573244105093183 0.0092788088152993397 0.0031315604460837344 0.0023401210414561299 0.00048018916840514834 -0.0046050436516192608 0.0023935187856709075 -0.0024904485451193847 -0.00013459220213154631 -0.0036012189943463572 0.0002705086702628741 -0.0047190055437386046 -0.0025480516645827412 -0.0012267304849713887 -0.0024316664171540954 -0.001134357052958674 -0.004146397732577081 -0.00336452580940647
leaf_weight=30 53 172.5 121 77.5 52.5 33 82 62 31 31.5 32.5 40.5 30 48 54 29.5 39
leaf_count=20 9 34 37 25 35 15 29 34 21 20 22 27 17 32 36 20 26
internal_value=8.26753e-05 -0.000421613 0.00144889 0.000414091 -0.00207174 -0.00146985 -0.00104704 -0.00187139 -0.00229285 -0.00170426 -0.00336598 -0.00123754 -0.00277728 -0.00335513 -0.000616775 -0.00323101 -0.00283966
internal_weight=1019.5 966.5 453 280.5 513.5 350.5 159.5 317.5 255.5 157 163 126 110.5 80.5 85.5 98.5 69
internal_count=459 450 125 91 325 219 54 204 170 104 106 83 71 54 56 66 46
is_linear=0
shrinkage=0.05


Tree=43
num_leaves=17
num_cat=0
split_feature=30 12 23 61 13 43 61 19 20 12 59 42 54 38 30 59
split_gain=1.97992 1.11384 0.307228 0.194722 0.265712 0.120437 0.0837596 0.0781221 0.0461715 0.0293877 0.0390378 0.0205854 0.0187606 0.0105575 0.0156287 0.00453895
threshold=27.739736922099777 0.53953296803229955 83.456404879985541 3.0474002461044649 1.0712107521851018 3164.3071971268914 2.2166669101098644 92.705808010700864 17.296728200311026 0.18697387546511901 -2.3984465781645739 4.0220713912194528 83.061249159268087 -0.8267621567690967 25.438770884860322 0.46492442198382855
decision_type=2 2 2 2 2 2 2 2 2 2 2 2 2 2 2 2
left_child=1 5 3 -3 -5 -1 -7 -4 12 13 -11 -12 15 14 -10 -8
right_child=-2 2 7 4 -6 6 8 -9 9 10 11 -13 -14 -15 -16 -17
leaf_value=0.00011472005862742663 0.009084722288916337 0.0033840142862805937 -0.002508649276569486 0.0028112484744483249 -0.00065846691217159598 -0.00023971859482116998 -0.0036722445115447049 0.00016867524594004849 -0.0034342769596536283 -0.0030098764139606998 -0.0018500688617141582 -0.00023911637583902729 -0.0047726983204483993 -0.0034946973411494804 -0.0018959723059087993 -0.0027988013525304025
leaf_weight=48 58 142.5 51 106.5 114.5 36 30 58.5 29.5 54 58.5 30 30 58 37.5 29.5
leaf_count=28 10 31 26 31 36 21 20 19 20 36 39 20 19 39 25 20
internal_value=0.000126534 -0.000441929 0.00124345 0.00194285 0.00101359 -0.0022496 -0.00253837 -0.0010783 -0.00277017 -0.00244127 -0.00195043 -0.00130398 -0.00375322 -0.00300082 -0.00257329 -0.00323919
internal_weight=972 914 473 363.5 221 441 393 109.5 357 267.5 142.5 88.5 89.5 125 67 59.5
internal_count=440 430 143 98 67 287 259 45 238 179 95 59 59 84 45 40
is_linear=0
shrinkage=0.05


Tree=44
num_leaves=18
num_cat=0
split_feature=27 12 51 25 28 41 2 56 10 43 62 62 1 31 37 35 35
split_gain=1.86879 0.950197 0.343356 0.276421 0.240541 0.175409 0.157655 0.116828 0.13284 0.0556041 0.048316 0.0409914 0.0191221 0.0225648 0.0224761 0.00623098 0.00589088
threshold=27.772622438683737 0.42719313518296731 26.097882800476182 83.891815039049831 27.091775511326905 3.7353286668410948 964092.67916350183 26.713654045783944 96.500000000000014 3251.9848180394306 4.3814414169166751 3.3663469400576971 0.91023613416931248 -0.035957493488623052 -0.72585513737419316 -2.0374541627434928 1.022118355175559
decision_type=2 2 2 2 2 2 2 2 2 2 2 2 2 2 2 2 2
left_child=1 6 -3 4 5 7 9 8 -4 11 12 -1 13 14 15 -11 -15
right_child=-2 2 3 -5 -6 -7 -8 -9 -10 10 -12 -13 -14 16 -16 -17 -18
leaf_value=-0.00066590311591983311 0.0095447212749836495 -0.0026458551900254354 0.00091344823046427242 -0.0011424177461643861 -0.00034911342613075093 0.00056755960288950625 0.0011864072795896258 0.0046453740317686639 0.003758122430583679 -0.0037348619783176234 -0.0010932507645338774 -0.0027362717991872205 -0.0021777040034886715 -0.0021951941849981684 -0.0047328203523324605 -0.0027946945910270402 -0.003178432701013477
leaf_weight=55.5 51 58.5 78.5 89 92 85 30.5 89.5 86 38.5 30 42 35.5 31.5 45 32.5 29.5
leaf_count=36 7 32 32 34 26 30 17 17 18 26 20 28 24 21 30 22 20
internal_value=0.000220802 -0.000280273 0.00098588 0.00139445 0.0019183 0.00253365 -0.00225725 0.0031916 0.00240063 -0.00256617 -0.00297161 -0.00155775 -0.00323679 -0.0034492 -0.00385859 -0.0033045 -0.00267069
internal_weight=1000 949 578.5 520 431 339 370.5 254 164.5 340 242.5 97.5 212.5 177 116 71 61
internal_count=440 433 189 157 123 97 244 67 50 227 163 64 143 119 78 48 41
is_linear=0
shrinkage=0.05


Tree=45
num_leaves=18
num_cat=0
split_feature=30 8 24 20 61 51 38 27 12 0 59 7 39 34 10 9 45
split_gain=1.68986 0.990548 0.232716 0.232062 0.221362 0.102701 0.0962462 0.183042 0.156206 0.0794021 0.0512879 0.0320843 0.0243727 0.0222912 0.0280465 0.0272509 0.0203698
threshold=27.739736922099777 62.500000000000007 82.694127019999499 112.51503731580586 3.2105840624546507 51.035715117255911 -0.061980465633554714 26.249126426572634 0.34243446880011491 -0.91023613416931226 0.11587244286443131 34.500000000000007 3.0965349484625162 -2.3587256547971127 19.500000000000004 25.500000000000004 3309.1538149916682
decision_type=2 2 2 2 2 2 2 2 2 2 2 2 2 2 2 2 2
left_child=1 6 4 -4 -3 -6 7 10 -9 -8 12 16 -1 15 -15 -14 -11
right_child=-2 2 3 -5 5 -7 9 8 -10 11 -12 -13 13 14 -16 -17 -18
leaf_value=-0.0014143895756021359 0.0083386635022430593 0.003757607750594616 -0.0023392927145421808 0.0018451068224385381 -0.00013041048692280635 0.0022279137668786623 -0.0013154283325370079 -0.0011136991282632985 0.003293419989650367 -0.0025515672713906194 -0.00074424545694556509 -0.0050952281266676662 -0.0026858188631883433 -0.0033054286170573462 -0.0012816518085698287 -0.0044650960868845386 -0.004233573569605748
leaf_weight=34.5 58 115.5 74 60 99 86.5 46 59 30.5 45 45 33 53.5 31.5 37.5 36 30
leaf_count=23 10 24 31 15 31 20 29 39 14 30 29 21 36 21 25 23 20
internal_value=6.19854e-05 -0.000461798 0.0012676 -0.000465681 0.00203923 0.000969293 -0.00202418 -0.00153943 0.000388168 -0.00305506 -0.00226431 -0.00379602 -0.00261873 -0.00288087 -0.00220555 -0.00340151 -0.00322437
internal_weight=974.5 916.5 435 134 301 185.5 481.5 327.5 89.5 154 238 108 193 158.5 69 89.5 75
internal_count=441 431 121 46 75 51 310 210 53 100 157 71 128 105 46 59 50
is_linear=0
shrinkage=0.05


Tree=46
num_leaves=17
num_cat=0
split_feature=27 15 58 0 56 2 51 10 62 25 40 60 15 8 30 40
split_gain=1.52527 0.771509 0.332997 0.334709 0.381301 0.206981 0.148346 0.0742265 0.0758636 0.0403371 0.0677112 0.0287439 0.0264857 0.0179787 0.014683 0.0163825
threshold=27.772622438683737 0.37994604849169111 1.1490940523256483 -0.2393156642875576 25.717317220180423 942258.86453251645 59.758569392444166 10.500000000000002 2.7594939380947419 81.721321363856845 3.5163600598899518 -2.576907394884965 0.2238216115239865 18.500000000000004 26.195722467613649 2.9198847995596284
decision_type=2 2 2 2 2 2 2 2 2 2 2 2 2 2 2 2
left_child=1 7 3 6 -5 -4 -3 14 -9 -10 12 -12 -11 -13 -1 -16
right_child=-2 2 5 4 -6 -7 -8 8 9 10 11 13 -14 -15 15 -17
leaf_value=-0.0024088351202009479 0.0084202871294248669 -0.0037491290751079636 0.0037380214866250755 -0.0019562325166863582 0.002823896129966265 0.00064181783830894064 -0.00032014061386386556 0.00038400476359516043 -0.0030741674895662899 0.00071231036683514957 -0.0035028932823075194 -0.0026745975033332734 -0.0011780503733704489 -0.0010246872045099737 -0.0026234153922026359 -0.0041864276863634586
leaf_weight=57 52.5 66.5 125 63 123.5 95 60 43.5 55 31.5 36 29.5 45 37.5 30 38
leaf_count=38 8 32 23 32 38 25 18 27 37 20 24 20 30 25 20 26
internal_value=0.000127267 -0.000337887 0.000910335 -0.000137434 0.00120916 0.00240102 -0.00212273 -0.00198876 -0.00153374 -0.00188949 -0.00152649 -0.0023634 -0.000399667 -0.00175114 -0.00300072 -0.00349686
internal_weight=988.5 936 533 313 186.5 220 126.5 403 278 234.5 179.5 103 76.5 67 125 68
internal_count=443 435 168 120 70 48 50 267 183 156 119 69 50 45 84 46
is_linear=0
shrinkage=0.05


Tree=47
num_leaves=20
num_cat=0
split_feature=27 7 53 57 0 42 37 12 43 38 0 31 53 19 37 12 58 31 12
split_gain=1.43278 0.840245 0.260327 0.282942 0.326156 0.255062 0.193615 0.108668 0.0973987 0.0645901 0.0680394 0.0582648 0.0352014 0.0307284 0.0468023 0.0227819 0.0152264 0.0177562 0.014045
threshold=27.772622438683737 51.500000000000007 80.040579165471328 1.1866365318082643 -0.1799261722714405 3.2326542072361 1.2468232825498939 1.5194745496988993 3164.3071971268914 -0.12487764302110527 0.35460488704253579 -0.06791072019038473 83.765993554362538 80.888672195845643 -2.1943514156356394 0.31389049562507754 -2.3085766359271136 -2.7145783906230583 0.20766598186107696
decision_type=2 2 2 2 2 2 2 2 2 2 2 2 2 2 2 2 2 2 2
left_child=1 8 -3 4 6 -6 -4 -5 -1 10 12 -11 -10 15 -15 16 17 -12 -13
right_child=-2 2 3 7 5 -7 -8 -9 9 11 13 18 -14 14 -16 -17 -18 -19 -20
leaf_value=0.00044563922939109217 0.0089864390880562538 -0.0041973714090676774 -0.0036032419079753361 0.001695142401908727 0.0041758969338843597 -4.7326002580424149e-05 0.00038383850413892007 0.0039607479315056666 0.00035884500683445222 -0.004215265113191727 -0.0018576100817881526 -0.0027539304820457839 -0.0017897998264449978 0.00016443719311306875 -0.0025950299605490674 -0.0036439804956316952 -0.0015123618108918891 -0.0035639635317267909 -0.0013647682033479215
leaf_weight=40.5 43 22.5 63.5 126.5 64 81 58.5 91 49.5 58.5 30 38.5 31 30 31.5 37.5 45 31 34.5
leaf_count=24 6 10 29 31 14 32 19 14 31 39 20 26 21 20 21 25 30 21 23
internal_value=5.63859e-05 -0.00034174 0.00106015 0.00130431 0.000213755 0.00181672 -0.0016914 0.00264305 -0.00189531 -0.00212267 -0.00170034 -0.00303957 -0.000468583 -0.00218403 -0.00124895 -0.00258479 -0.00221007 -0.00272477 -0.00209741
internal_weight=1007.5 964.5 507 484.5 267 145 122 217.5 457.5 417 285.5 131.5 80.5 205 61.5 143.5 106 61 73
internal_count=456 450 149 139 94 46 48 45 301 277 189 88 52 137 41 96 71 41 49
is_linear=0
shrinkage=0.05


Tree=48
num_leaves=18
num_cat=0
split_feature=27 12 61 57 38 53 2 63 32 31 35 53 57 37 23 14 46
split_gain=1.44708 0.49763 0.315787 0.336577 0.333493 0.191243 0.134923 0.239706 0.107006 0.0958926 0.109268 0.053059 0.0431583 0.0285087 0.0203972 0.031308 0.00674737
threshold=27.772622438683737 0.20766598186107696 2.9851572460468252 1.1047980303594889 0.44905083916669336 80.227233212076627 962458.85146405257 3232.2320362472606 -2.523854384045229 -0.70753113640402843 -0.70897342344950975 82.058631018735937 -2.7271730840416351 0.31821260486108166 83.270063468863881 0.13850649630012987 3308.0037815743258
decision_type=2 2 2 2 2 2 2 2 2 2 2 2 2 2 2 2 2
left_child=1 12 3 4 -3 -4 7 9 -9 10 -7 -10 -1 14 15 -14 -16
right_child=-2 2 5 -5 -6 6 -8 8 11 -11 -12 -13 13 -15 16 -17 -18
leaf_value=-0.00072443321017393221 0.008415807347105007 0.0022442210006059639 -0.0032602017703424165 0.0043038948641035213 -0.0022752997394052954 -0.0010269630324403081 -0.0026746939898104126 0.0031484545880287396 0.0018047955506569091 4.6689052747010637e-05 -0.0047843503579497338 -0.00027065797864149016 -0.0027525654507746158 -0.0036922294031018796 -0.0035070910990711241 -0.00052651839480751146 -0.0024593381925175589
leaf_weight=30 49.5 101 55.5 83 68.5 54.5 46 61 53 81 30 73.5 34 57.5 31.5 29.5 30
leaf_count=20 7 37 33 14 34 32 21 23 18 28 15 36 23 39 21 20 20
internal_value=8.80558e-05 -0.000360257 0.000277444 0.00169517 0.000417748 -0.000510184 -0.000127663 0.000204245 0.00142835 -0.00118259 -0.00236095 0.0005989 -0.00248193 -0.00277083 -0.00234698 -0.00171842 -0.00299599
internal_weight=969 919.5 707 252.5 169.5 454.5 399 353 187.5 165.5 84.5 126.5 212.5 182.5 125 63.5 61.5
internal_count=441 434 291 85 71 206 173 152 77 75 47 54 143 123 84 43 41
is_linear=0
shrinkage=0.05


Tree=49
num_leaves=19
num_cat=0
split_feature=7 61 26 57 37 1 2 45 32 9 26 40 27 34 43 7 22 9
split_gain=0.877445 0.378015 0.316897 0.289898 0.133834 0.0943505 0.0706288 0.102247 0.0871507 0.0563321 0.0379404 0.0312186 0.0480324 0.0241527 0.0214512 0.018245 0.0178139 0.00977825
threshold=95.000000000000014 3.4725796749025539 78.618638013662192 0.78214406638395395 1.813180795156996 0.98182534576205305 962517.21973064984 3307.9803693213858 1.3751348597186841 85.500000000000014 81.618747908857742 2.9476016420872519 26.292666467282867 -2.4112243732861685 3273.1667321807568 25.500000000000004 65.25818868491983 12.500000000000002
decision_type=2 2 2 2 2 2 2 2 2 2 2 2 2 2 2 2 2 2
left_child=2 3 -1 -2 -3 6 7 8 9 11 -8 -4 13 15 -15 -13 17 -12
right_child=1 4 5 -5 -6 -7 10 -9 -10 -11 16 12 -14 14 -16 -17 -18 -19
leaf_value=0.0015900067223296706 0.0011721153893485302 -0.0014406313960546558 -0.0028744307052540156 0.0046934326431844111 0.0015618796247456757 0.00083033926218647417 -0.0043407207291762707 0.0012189407263006739 0.00070963648439788111 -0.0039817307055706073 -0.0023675352422735845 -0.0018223612708970903 1.6445307537442309e-05 -0.00040598979716499644 -0.0021335664353724841 -0.003431188454481936 -0.0031214578993091113 -0.0011332653129162889
leaf_weight=92 102.5 79 47.5 136 70 37 29.5 33.5 33.5 31.5 34.5 40 43.5 37.5 34.5 31.5 41.5 30
leaf_count=36 22 28 32 21 17 20 20 17 14 19 23 27 26 25 23 21 28 20
internal_value=9.26467e-05 0.00194573 -0.00110914 0.00318008 -3.00557e-05 -0.00160038 -0.00179235 -0.00140074 -0.00169376 -0.00199644 -0.00275476 -0.00172976 -0.00143901 -0.00188021 -0.00123379 -0.00253115 -0.00231338 -0.00179346
internal_weight=985 387.5 597.5 238.5 149 505.5 468.5 333 299.5 266 135.5 234.5 187 143.5 72 71.5 106 64.5
internal_count=439 88 351 43 45 315 295 204 187 173 91 154 122 96 48 48 71 43
is_linear=0
shrinkage=0.05


Tree=50
num_leaves=18
num_cat=0
split_feature=28 11 0 8 43 33 28 43 40 45 40 20 54 28 1 22 22
split_gain=1.14123 0.554759 0.198655 0.170983 0.10911 0.0889674 0.0666743 0.058778 0.0515368 0.0736274 0.0816895 0.0454367 0.0415745 0.0407489 0.0211717 0.0194281 0.0177287
threshold=27.772622438683737 0.93055773590688784 -0.88545602565320969 101.50000000000001 3273.1667321807568 1.8390624308673997 26.448976892454422 3220.8065263401609 3.909477008931475 3307.6533126194636 3.0965349484625162 50.07003427769245 82.820668784044045 26.152212280439155 0.78574730703237883 36.41355259030707 43.352326460680757
decision_type=2 2 2 2 2 2 2 2 2 2 2 2 2 2 2 2 2
left_child=1 4 -3 -4 5 7 -5 12 9 14 15 -10 -1 -14 16 -11 -6
right_child=-2 2 3 6 8 -7 -8 -9 11 10 -12 -13 13 -15 -16 -17 -18
leaf_value=-0.00077710824523819617 0.0071142473355645221 0.0025150004523337311 0.0021206845315553404 0.00032238926953421192 -0.0024352081792636052 0.0011798859743958378 -0.0017493916535750035 5.3429788277387178e-05 -0.0022059826493601906 -0.0010575794490675133 0.00062391262958353419 -0.0045206776779630918 -0.0015913252134083047 -0.003970311488956213 -0.0016096404881306714 -0.0027698057099572711 -0.0040664306631492033
leaf_weight=60 52.5 141 73.5 71.5 36 51 85 67 55 30 53 34.5 45 30 31 37 31
leaf_count=37 8 27 17 22 24 20 26 35 36 20 31 23 30 20 21 25 21
internal_value=-5.82485e-05 -0.000462495 0.0010373 0.000131404 -0.00145522 -0.000686132 -0.000802859 -0.00115726 -0.002088 -0.00167325 -0.000842857 -0.00309824 -0.00175811 -0.00254292 -0.00269006 -0.00200314 -0.00318995
internal_weight=984 931.5 371 230 560.5 253 156.5 202 307.5 218 120 89.5 135 75 98 67 67
internal_count=443 435 92 65 343 142 48 122 201 142 76 59 87 50 66 45 45
is_linear=0
shrinkage=0.05


Tree=51
num_leaves=21
num_cat=0
split_feature=30 7 58 5 1 28 52 10 57 31 37 55 7 28 28 7 18 52 18 13
split_gain=1.14594 0.576338 0.320438 0.434543 0.249209 0.0967978 0.0956974 0.116311 0.0766065 0.111035 0.076351 0.0583835 0.0488432 0.0373593 0.0343813 0.0566906 0.0311127 0.0130094 0.0104766 0.0163943
threshold=27.772622438683737 233.50000000000003 1.1198953604053894 3239.0598124997955 0.98182534576205305 27.261438263383699 77.691101486862976 62.500000000000007 -0.89600041280478593 0.1269246420921108 -0.53394761797584189 26.659417121880839 56.500000000000007 26.443094104177025 26.332184507624806 49.500000000000007 0.35941412088171532 91.09238302488049 0.26625794379662421 0.13850649630012987
decision_type=2 2 2 2 2 2 2 2 2 2 2 2 2 2 2 2 2 2 2 2
left_child=1 2 4 -4 5 6 8 17 10 12 14 -5 -10 -11 15 16 18 -8 19 -1
right_child=-2 -3 3 11 -6 -7 7 -9 9 13 -12 -13 -14 -15 -16 -17 -18 -19 -20 -21
leaf_value=-0.0026394050944453249 0.0073612603022880155 0.004809618617097537 0.0027847281021550377 -0.00056605817228555673 0.0017010902942521341 -0.0042585265849317822 -0.0010241864961713103 0.0014856531481760053 -0.00082481508919348334 -0.001459488232070819 -0.0044047020608559253 -0.0029280218037052289 0.0016019822015388781 -0.0038064218902339542 -0.00054584816944870088 -0.0040861443189593649 -0.00056128770490919335 -0.0024628234809885422 -0.0030771352855835932 -0.0013868603407449667
leaf_weight=52 48.5 48 124.5 62.5 59 35 33 52 48 39 40 45 36.5 30 33 36 34.5 30 29.5 52.5
leaf_count=35 8 6 28 21 25 15 20 11 31 23 25 23 14 18 17 22 23 20 20 35
internal_value=-0.000129483 -0.000524375 -0.00081799 0.000773961 -0.00139507 -0.00170948 -0.00154608 -0.000264599 -0.00188801 -0.000991736 -0.00238379 -0.00155479 0.000223446 -0.00247989 -0.00204342 -0.00228509 -0.00190029 -0.00170925 -0.00224504 -0.00201014
internal_weight=968.5 920 872 232 640 581 546 115 431 153.5 277.5 107.5 84.5 69 237.5 204.5 168.5 63 134 104.5
internal_count=440 432 426 72 354 329 314 51 263 86 177 44 45 41 152 135 113 40 90 70
is_linear=0
shrinkage=0.05


Tree=52
num_leaves=19
num_cat=0
split_feature=64 10 53 60 35 27 53 8 38 0 14 31 51 56 10 61 12 52
split_gain=0.94431 0.430315 0.238144 0.178026 0.230786 0.135083 0.130957 0.0467368 0.0412155 0.0935646 0.0543346 0.0469759 0.0296078 0.0230052 0.0216924 0.0195222 0.0128129 0.00606822
